FANN_FLO_2.1
num_layers=4
learning_rate=0.700000
connection_rate=1.000000
network_type=0
learning_momentum=0.000000
training_algorithm=2
train_error_function=0
train_stop_function=1
cascade_output_change_fraction=0.010000
quickprop_decay=-0.000100
quickprop_mu=1.750000
rprop_increase_factor=1.200000
rprop_decrease_factor=0.500000
rprop_delta_min=0.000000
rprop_delta_max=50.000000
rprop_delta_zero=0.100000
cascade_output_stagnation_epochs=12
cascade_candidate_change_fraction=0.010000
cascade_candidate_stagnation_epochs=12
cascade_max_out_epochs=150
cascade_min_out_epochs=50
cascade_max_cand_epochs=150
cascade_min_cand_epochs=50
cascade_num_candidate_groups=8
bit_fail_limit=9.99999977648258209229e-03
cascade_candidate_limit=1.00000000000000000000e+03
cascade_weight_multiplier=4.00000005960464477539e-01
cascade_activation_functions_count=3
cascade_activation_functions=5 15 14 
cascade_activation_steepnesses_count=3
cascade_activation_steepnesses=1.00000000000000000000e+00 2.50000000000000000000e-01 1.00000001490116119385e-01 
layer_sizes=37 65 33 2 
scale_included=0
neurons (num_inputs, activation_function, activation_steepness)=(0, 0, 0.00000000000000000000e+00) (0, 0, 0.00000000000000000000e+00) (0, 0, 0.00000000000000000000e+00) (0, 0, 0.00000000000000000000e+00) (0, 0, 0.00000000000000000000e+00) (0, 0, 0.00000000000000000000e+00) (0, 0, 0.00000000000000000000e+00) (0, 0, 0.00000000000000000000e+00) (0, 0, 0.00000000000000000000e+00) (0, 0, 0.00000000000000000000e+00) (0, 0, 0.00000000000000000000e+00) (0, 0, 0.00000000000000000000e+00) (0, 0, 0.00000000000000000000e+00) (0, 0, 0.00000000000000000000e+00) (0, 0, 0.00000000000000000000e+00) (0, 0, 0.00000000000000000000e+00) (0, 0, 0.00000000000000000000e+00) (0, 0, 0.00000000000000000000e+00) (0, 0, 0.00000000000000000000e+00) (0, 0, 0.00000000000000000000e+00) (0, 0, 0.00000000000000000000e+00) (0, 0, 0.00000000000000000000e+00) (0, 0, 0.00000000000000000000e+00) (0, 0, 0.00000000000000000000e+00) (0, 0, 0.00000000000000000000e+00) (0, 0, 0.00000000000000000000e+00) (0, 0, 0.00000000000000000000e+00) (0, 0, 0.00000000000000000000e+00) (0, 0, 0.00000000000000000000e+00) (0, 0, 0.00000000000000000000e+00) (0, 0, 0.00000000000000000000e+00) (0, 0, 0.00000000000000000000e+00) (0, 0, 0.00000000000000000000e+00) (0, 0, 0.00000000000000000000e+00) (0, 0, 0.00000000000000000000e+00) (0, 0, 0.00000000000000000000e+00) (0, 0, 0.00000000000000000000e+00) (37, 15, 5.00000000000000000000e-01) (37, 15, 5.00000000000000000000e-01) (37, 15, 5.00000000000000000000e-01) (37, 15, 5.00000000000000000000e-01) (37, 15, 5.00000000000000000000e-01) (37, 15, 5.00000000000000000000e-01) (37, 15, 5.00000000000000000000e-01) (37, 15, 5.00000000000000000000e-01) (37, 15, 5.00000000000000000000e-01) (37, 15, 5.00000000000000000000e-01) (37, 15, 5.00000000000000000000e-01) (37, 15, 5.00000000000000000000e-01) (37, 15, 5.00000000000000000000e-01) (37, 15, 5.00000000000000000000e-01) (37, 15, 5.00000000000000000000e-01) (37, 15, 5.00000000000000000000e-01) (37, 15, 5.00000000000000000000e-01) (37, 15, 5.00000000000000000000e-01) (37, 15, 5.00000000000000000000e-01) (37, 15, 5.00000000000000000000e-01) (37, 15, 5.00000000000000000000e-01) (37, 15, 5.00000000000000000000e-01) (37, 15, 5.00000000000000000000e-01) (37, 15, 5.00000000000000000000e-01) (37, 15, 5.00000000000000000000e-01) (37, 15, 5.00000000000000000000e-01) (37, 15, 5.00000000000000000000e-01) (37, 15, 5.00000000000000000000e-01) (37, 15, 5.00000000000000000000e-01) (37, 15, 5.00000000000000000000e-01) (37, 15, 5.00000000000000000000e-01) (37, 15, 5.00000000000000000000e-01) (37, 15, 5.00000000000000000000e-01) (37, 15, 5.00000000000000000000e-01) (37, 15, 5.00000000000000000000e-01) (37, 15, 5.00000000000000000000e-01) (37, 15, 5.00000000000000000000e-01) (37, 15, 5.00000000000000000000e-01) (37, 15, 5.00000000000000000000e-01) (37, 15, 5.00000000000000000000e-01) (37, 15, 5.00000000000000000000e-01) (37, 15, 5.00000000000000000000e-01) (37, 15, 5.00000000000000000000e-01) (37, 15, 5.00000000000000000000e-01) (37, 15, 5.00000000000000000000e-01) (37, 15, 5.00000000000000000000e-01) (37, 15, 5.00000000000000000000e-01) (37, 15, 5.00000000000000000000e-01) (37, 15, 5.00000000000000000000e-01) (37, 15, 5.00000000000000000000e-01) (37, 15, 5.00000000000000000000e-01) (37, 15, 5.00000000000000000000e-01) (37, 15, 5.00000000000000000000e-01) (37, 15, 5.00000000000000000000e-01) (37, 15, 5.00000000000000000000e-01) (37, 15, 5.00000000000000000000e-01) (37, 15, 5.00000000000000000000e-01) (37, 15, 5.00000000000000000000e-01) (37, 15, 5.00000000000000000000e-01) (37, 15, 5.00000000000000000000e-01) (37, 15, 5.00000000000000000000e-01) (37, 15, 5.00000000000000000000e-01) (37, 15, 5.00000000000000000000e-01) (37, 15, 5.00000000000000000000e-01) (0, 15, 0.00000000000000000000e+00) (65, 15, 5.00000000000000000000e-01) (65, 15, 5.00000000000000000000e-01) (65, 15, 5.00000000000000000000e-01) (65, 15, 5.00000000000000000000e-01) (65, 15, 5.00000000000000000000e-01) (65, 15, 5.00000000000000000000e-01) (65, 15, 5.00000000000000000000e-01) (65, 15, 5.00000000000000000000e-01) (65, 15, 5.00000000000000000000e-01) (65, 15, 5.00000000000000000000e-01) (65, 15, 5.00000000000000000000e-01) (65, 15, 5.00000000000000000000e-01) (65, 15, 5.00000000000000000000e-01) (65, 15, 5.00000000000000000000e-01) (65, 15, 5.00000000000000000000e-01) (65, 15, 5.00000000000000000000e-01) (65, 15, 5.00000000000000000000e-01) (65, 15, 5.00000000000000000000e-01) (65, 15, 5.00000000000000000000e-01) (65, 15, 5.00000000000000000000e-01) (65, 15, 5.00000000000000000000e-01) (65, 15, 5.00000000000000000000e-01) (65, 15, 5.00000000000000000000e-01) (65, 15, 5.00000000000000000000e-01) (65, 15, 5.00000000000000000000e-01) (65, 15, 5.00000000000000000000e-01) (65, 15, 5.00000000000000000000e-01) (65, 15, 5.00000000000000000000e-01) (65, 15, 5.00000000000000000000e-01) (65, 15, 5.00000000000000000000e-01) (65, 15, 5.00000000000000000000e-01) (65, 15, 5.00000000000000000000e-01) (0, 15, 0.00000000000000000000e+00) (33, 0, 5.00000000000000000000e-01) (0, 0, 0.00000000000000000000e+00) 
connections (connected_to_neuron, weight)=(0, -8.67833673954010009766e-01) (1, -1.54631114006042480469e+00) (2, -2.02637815475463867188e+00) (3, -1.23214030265808105469e+00) (4, -1.15628480911254882812e+00) (5, -1.20327341556549072266e+00) (6, -1.06046724319458007812e+00) (7, -3.78329277038574218750e-01) (8, -2.56509304046630859375e-01) (9, -2.89705216884613037109e-01) (10, 8.89029145240783691406e-01) (11, 1.40182673931121826172e-01) (12, 1.50000000000000000000e+03) (13, 1.50000000000000000000e+03) (14, -7.62280883789062500000e+02) (15, 3.78647804260253906250e+00) (16, 9.74505138397216796875e+00) (17, 5.60644268989562988281e-01) (18, 1.54542315006256103516e+00) (19, 2.29030060768127441406e+00) (20, 3.82333869934082031250e+01) (21, 1.71417526245117187500e+02) (22, 7.87664672851562500000e+02) (23, 1.50000000000000000000e+03) (24, -2.98692673444747924805e-01) (25, -1.95013970136642456055e-01) (26, -3.44322651624679565430e-01) (27, 5.91440796852111816406e-01) (28, 1.02141106128692626953e+00) (29, -8.80411803722381591797e-01) (30, 2.70224828273057937622e-02) (31, -7.88083598017692565918e-02) (32, 8.19519534707069396973e-02) (33, 1.10579824447631835938e+00) (34, 2.97238081693649291992e-01) (35, 9.70556661486625671387e-02) (36, -1.52765274047851562500e-01) (0, 2.90418446063995361328e-01) (1, 4.52255964279174804688e+00) (2, -6.43331766128540039062e-01) (3, -9.50514614582061767578e-01) (4, 7.73347467184066772461e-02) (5, -4.94736135005950927734e-02) (6, 2.59633183479309082031e-01) (7, 2.69198775291442871094e-01) (8, 1.16490535438060760498e-01) (9, 2.41380333900451660156e-01) (10, 6.83199703693389892578e-01) (11, -1.03771984577178955078e+00) (12, 1.50000000000000000000e+03) (13, 1.50000000000000000000e+03) (14, 1.27272567749023437500e+01) (15, -1.23626850545406341553e-01) (16, 2.72507637739181518555e-01) (17, 7.60691642761230468750e-01) (18, 6.03435277938842773438e-01) (19, 3.96905064582824707031e-01) (20, 5.09947538375854492188e-03) (21, 6.12487554550170898438e+00) (22, 1.49998535156250000000e+03) (23, 1.50000000000000000000e+03) (24, 3.93114238977432250977e-01) (25, 1.86779916286468505859e-01) (26, 1.41179174184799194336e-01) (27, 1.62014022469520568848e-01) (28, 2.48830959200859069824e-01) (29, 2.73313939571380615234e-01) (30, 1.42778456211090087891e-01) (31, 3.13231170177459716797e-01) (32, 2.12992832064628601074e-01) (33, 3.52470189332962036133e-01) (34, 3.73455405235290527344e-01) (35, 2.70640045404434204102e-01) (36, 6.79333657026290893555e-02) (0, 2.10784015655517578125e+01) (1, 1.65114223957061767578e+00) (2, 5.52673101425170898438e+00) (3, 8.72226536273956298828e-01) (4, 1.85733723640441894531e+00) (5, 1.77182805538177490234e+00) (6, 4.03350925445556640625e+00) (7, 3.41192531585693359375e+00) (8, 2.06973123550415039062e+00) (9, 1.69570183753967285156e+00) (10, 2.22609138488769531250e+00) (11, 5.40855369567871093750e+01) (12, 1.50000000000000000000e+03) (13, 1.50000000000000000000e+03) (14, 2.61785736083984375000e+02) (15, -3.18524993896484375000e+02) (16, 5.37494373321533203125e+00) (17, 2.77887105941772460938e+00) (18, 1.71309328079223632812e+00) (19, 6.56314611434936523438e-01) (20, 5.45066308975219726562e+00) (21, -1.11405887603759765625e+01) (22, 2.86823730468750000000e+02) (23, 1.50000000000000000000e+03) (24, 6.14097714424133300781e-01) (25, 6.24943137168884277344e-01) (26, 5.67823767662048339844e-01) (27, 2.10472726821899414062e+00) (28, 2.75637984275817871094e+00) (29, 7.85659313201904296875e-01) (30, 1.09559559822082519531e+00) (31, 1.29786729812622070312e+00) (32, 2.02479815483093261719e+00) (33, 1.07398629188537597656e+00) (34, 1.11244702339172363281e+00) (35, 4.79329347610473632812e-01) (36, 8.15471351146697998047e-01) (0, -6.80279672145843505859e-01) (1, -4.92986112833023071289e-01) (2, 3.26188355684280395508e-02) (3, -6.43415331840515136719e-01) (4, -3.75975847244262695312e-01) (5, -3.96770209074020385742e-01) (6, -5.04961192607879638672e-01) (7, -5.00648736953735351562e-01) (8, -5.49000978469848632812e-01) (9, -4.97684895992279052734e-01) (10, -2.48042896389961242676e-01) (11, -3.41653674840927124023e-01) (12, 1.50000000000000000000e+03) (13, 1.50000000000000000000e+03) (14, -2.61495697021484375000e+02) (15, 2.06272640228271484375e+01) (16, -4.33854389190673828125e+00) (17, -8.27758833765983581543e-02) (18, -1.93210706114768981934e-01) (19, -2.31634020805358886719e-01) (20, -5.89295327663421630859e-01) (21, -2.42452882230281829834e-02) (22, -4.25263580322265625000e+02) (23, 1.50000000000000000000e+03) (24, -9.06036049127578735352e-02) (25, -3.52826039306819438934e-03) (26, 9.43170785903930664062e-02) (27, -3.99772599339485168457e-02) (28, 8.36043618619441986084e-04) (29, 4.61286902427673339844e-02) (30, -4.04839143157005310059e-02) (31, -6.97159841656684875488e-02) (32, -9.86450016498565673828e-02) (33, 1.00572735071182250977e-01) (34, 4.20575328171253204346e-02) (35, 6.14621825516223907471e-02) (36, -1.34136572480201721191e-01) (0, -7.45526030659675598145e-02) (1, -5.85046075284481048584e-02) (2, -1.16415657103061676025e-01) (3, -3.68026137351989746094e-01) (4, -3.19185078144073486328e-01) (5, -4.35623794794082641602e-01) (6, -1.15024574100971221924e-01) (7, -2.63094067573547363281e-01) (8, -2.28655219078063964844e-01) (9, -9.40208062529563903809e-02) (10, -3.91917712986469268799e-02) (11, -4.74844016134738922119e-02) (12, 1.50000000000000000000e+03) (13, 1.50000000000000000000e+03) (14, -9.11818206310272216797e-01) (15, -5.89545130729675292969e-01) (16, -7.88091838359832763672e-01) (17, 4.37973923981189727783e-02) (18, -1.75050765275955200195e-01) (19, -1.43319681286811828613e-01) (20, -1.38035690784454345703e+00) (21, -1.03272771835327148438e+01) (22, 1.49676306152343750000e+03) (23, 1.50000000000000000000e+03) (24, -4.61781881749629974365e-02) (25, -1.56705766916275024414e-01) (26, -1.29428803920745849609e-02) (27, 7.41246044635772705078e-02) (28, -2.05023941816762089729e-04) (29, -9.51450839638710021973e-02) (30, -1.07440933585166931152e-01) (31, -1.86078995466232299805e-01) (32, -1.98447793722152709961e-01) (33, -8.15479457378387451172e-02) (34, -1.30428075790405273438e-01) (35, 2.33821524307131767273e-03) (36, -1.36197015643119812012e-01) (0, -2.79802250862121582031e+00) (1, -2.22803783416748046875e+00) (2, -3.56166034936904907227e-01) (3, -2.19669890403747558594e+00) (4, 7.43897020816802978516e-01) (5, 1.74068534374237060547e+00) (6, 2.13595032691955566406e-01) (7, 1.00372660160064697266e+00) (8, 1.86066091060638427734e+00) (9, -1.95583421736955642700e-02) (10, 3.78431320190429687500e+00) (11, 1.49440298080444335938e+01) (12, 1.50000000000000000000e+03) (13, 1.50000000000000000000e+03) (14, 2.81819061279296875000e+02) (15, 7.01606063842773437500e+01) (16, -9.10992050170898437500e+01) (17, -3.88597249984741210938e-01) (18, -1.51826486587524414062e+01) (19, -4.50424337387084960938e+00) (20, -1.08123321533203125000e+01) (21, 5.69377174377441406250e+01) (22, 1.42600500488281250000e+03) (23, 1.50000000000000000000e+03) (24, 1.82164266705513000488e-01) (25, 3.99810075759887695312e-01) (26, 1.89302086830139160156e-01) (27, 7.44567215442657470703e-01) (28, 1.34467566013336181641e+00) (29, 5.73798120021820068359e-01) (30, 1.02689099311828613281e+00) (31, 1.73849189281463623047e+00) (32, 7.94110149145126342773e-02) (33, 1.24550178647041320801e-01) (34, 9.06782690435647964478e-03) (35, 1.55509606003761291504e-01) (36, 9.42182958126068115234e-01) (0, 1.48989033699035644531e+00) (1, 1.42084407806396484375e+00) (2, 1.45203042030334472656e+00) (3, 3.41333270072937011719e+00) (4, 7.90927410125732421875e+00) (5, 3.37744736671447753906e+00) (6, 2.02474355697631835938e+00) (7, 1.75895810127258300781e+00) (8, 2.29796767234802246094e+00) (9, 1.43344748020172119141e+00) (10, 2.25070738792419433594e+00) (11, 1.49111390113830566406e+00) (12, 1.50000000000000000000e+03) (13, 1.50000000000000000000e+03) (14, -1.40111853027343750000e+03) (15, -1.85812664031982421875e+01) (16, 6.58709192276000976562e+00) (17, 1.94132685661315917969e+00) (18, 6.34642410278320312500e+00) (19, 2.06375827789306640625e+01) (20, 9.35799598693847656250e-01) (21, -6.24606132507324218750e+01) (22, -1.20098831176757812500e+02) (23, 1.50000000000000000000e+03) (24, 1.06999957561492919922e+00) (25, 1.18573689460754394531e+00) (26, 1.31517946720123291016e+00) (27, 8.70243012905120849609e-01) (28, 2.44787144660949707031e+00) (29, -8.65907847881317138672e-01) (30, -9.12574172019958496094e-01) (31, -1.90423095226287841797e+00) (32, 1.52461957931518554688e+00) (33, 2.11152362823486328125e+00) (34, 1.39882266521453857422e+00) (35, 7.66345858573913574219e-01) (36, 2.57300043106079101562e+00) (0, 1.47626960277557373047e+00) (1, 1.13520693778991699219e+00) (2, 2.79945206642150878906e+00) (3, 1.35896313190460205078e+00) (4, 3.84613895416259765625e+00) (5, 1.92247498035430908203e+00) (6, 1.47889816761016845703e+00) (7, 1.38527214527130126953e+00) (8, 1.29455935955047607422e+00) (9, 1.97763895988464355469e+00) (10, 1.42667007446289062500e+00) (11, 5.90921068191528320312e+00) (12, 1.50000000000000000000e+03) (13, 1.50000000000000000000e+03) (14, -1.16841484069824218750e+02) (15, 4.68253469467163085938e+00) (16, 2.38803005218505859375e+00) (17, 1.90456831455230712891e+00) (18, 9.11209201812744140625e+00) (19, 1.11677479743957519531e+00) (20, 1.56124439239501953125e+01) (21, 2.48858169555664062500e+02) (22, -9.27735824584960937500e+01) (23, 1.50000000000000000000e+03) (24, 1.58941984176635742188e+00) (25, 1.71979069709777832031e+00) (26, 2.10820341110229492188e+00) (27, 5.75802087783813476562e+00) (28, 8.99262070655822753906e-01) (29, 2.12952160835266113281e+00) (30, 3.91290974617004394531e+00) (31, 1.17191910743713378906e+00) (32, 1.61324977874755859375e+00) (33, 3.16070985794067382812e+00) (34, 3.35440301895141601562e+00) (35, 3.89284801483154296875e+00) (36, 1.40280687808990478516e+00) (0, 1.13140964508056640625e+00) (1, 1.58064246177673339844e+00) (2, 1.43655455112457275391e+00) (3, 8.54959189891815185547e-01) (4, 8.89334201812744140625e-01) (5, 9.52302694320678710938e-01) (6, 8.11190426349639892578e-01) (7, 1.30662631988525390625e+00) (8, 4.46689414978027343750e+00) (9, 3.37136626243591308594e+00) (10, 2.29440852999687194824e-01) (11, 6.06204175949096679688e+00) (12, 1.50000000000000000000e+03) (13, 1.50000000000000000000e+03) (14, 1.49999877929687500000e+03) (15, 1.55697647094726562500e+02) (16, 7.62508201599121093750e+00) (17, 2.52778559923171997070e-01) (18, 1.03818607330322265625e+00) (19, 1.59936447143554687500e+01) (20, 3.20291352272033691406e+00) (21, 5.37346191406250000000e+01) (22, 1.45782055664062500000e+03) (23, 1.50000000000000000000e+03) (24, 1.46561574935913085938e+00) (25, 1.22978782653808593750e+00) (26, 2.04435801506042480469e+00) (27, 5.44913768768310546875e+00) (28, 5.31601142883300781250e+00) (29, 8.49335193634033203125e-01) (30, 4.98453706502914428711e-01) (31, 9.20876264572143554688e-01) (32, 5.55017650127410888672e-01) (33, 7.89518654346466064453e-01) (34, 7.37421929836273193359e-01) (35, 6.50505840778350830078e-01) (36, 2.86929941177368164062e+00) (0, -1.70697326660156250000e+01) (1, -3.66981458663940429688e+00) (2, -8.83799195289611816406e-01) (3, -7.99672245979309082031e-01) (4, -6.54096543788909912109e-01) (5, -6.44216895103454589844e-01) (6, -6.91764891147613525391e-01) (7, -6.66265606880187988281e-01) (8, -7.39294946193695068359e-01) (9, -6.46004438400268554688e-01) (10, -5.99556803703308105469e-01) (11, -6.21403217315673828125e-01) (12, 1.50000000000000000000e+03) (13, 1.50000000000000000000e+03) (14, 1.24686206054687500000e+03) (15, 3.93125271797180175781e+00) (16, 1.71011524200439453125e+01) (17, 8.25522467494010925293e-02) (18, 1.18904936313629150391e+00) (19, 2.01439595222473144531e+00) (20, 8.12686080932617187500e+01) (21, 1.40003128051757812500e+02) (22, 5.84571472167968750000e+02) (23, 1.50000000000000000000e+03) (24, -1.68195354938507080078e+00) (25, -3.43079060316085815430e-01) (26, -6.59081935882568359375e-01) (27, -2.90284180641174316406e+00) (28, -1.41141161322593688965e-01) (29, -1.56240224838256835938e-01) (30, -2.51504063606262207031e-01) (31, -1.93956285715103149414e-01) (32, -2.52341657876968383789e-01) (33, -4.40144389867782592773e-02) (34, -2.68154948949813842773e-01) (35, -5.41173279285430908203e-01) (36, -1.62674263119697570801e-01) (0, 2.25804376602172851562e+00) (1, 1.27766072750091552734e+00) (2, 7.32911527156829833984e-01) (3, 5.73545396327972412109e-01) (4, 4.96805995702743530273e-01) (5, -6.60892105102539062500e+00) (6, -2.24745416641235351562e+00) (7, 3.84418874979019165039e-01) (8, -1.22156150639057159424e-01) (9, 7.65246212482452392578e-01) (10, 8.40002357959747314453e-01) (11, 4.25897455215454101562e+00) (12, 1.50000000000000000000e+03) (13, 1.50000000000000000000e+03) (14, 1.42236645507812500000e+03) (15, -1.19153985977172851562e+01) (16, 5.75948905944824218750e+00) (17, 1.78133642673492431641e+00) (18, 1.03468322753906250000e+00) (19, 9.38123941421508789062e-01) (20, 3.01457810401916503906e+00) (21, -2.58775043487548828125e+00) (22, 1.49933032226562500000e+03) (23, 1.50000000000000000000e+03) (24, 5.83155453205108642578e-01) (25, 2.05257430672645568848e-01) (26, 3.88937771320343017578e-01) (27, 3.30163538455963134766e-01) (28, 3.13846677541732788086e-01) (29, 7.07953989505767822266e-01) (30, 6.56934797763824462891e-01) (31, 4.02760565280914306641e-01) (32, 3.46790492534637451172e-01) (33, 6.49561643600463867188e-01) (34, 6.62057638168334960938e-01) (35, 5.80603122711181640625e-01) (36, 4.96137291193008422852e-01) (0, 2.55632460117340087891e-01) (1, 7.52423584461212158203e-01) (2, 1.75359451770782470703e+00) (3, 2.90320358276367187500e+01) (4, 5.18971109390258789062e+00) (5, 3.45030045509338378906e+00) (6, 5.17044305801391601562e-01) (7, 5.50440430641174316406e-01) (8, -3.96208167076110839844e-01) (9, -7.01848030090332031250e-01) (10, 6.91422820091247558594e-01) (11, -3.49458724260330200195e-01) (12, 1.50000000000000000000e+03) (13, 1.50000000000000000000e+03) (14, -1.33026599121093750000e+03) (15, 5.32625503540039062500e+01) (16, 4.12880277633666992188e+00) (17, 4.49452829360961914062e+00) (18, 5.90089368820190429688e+00) (19, 3.81276559829711914062e+00) (20, 2.09439778327941894531e+00) (21, 1.95706069946289062500e+02) (22, -7.90811828613281250000e+02) (23, 1.50000000000000000000e+03) (24, 7.76821255683898925781e-01) (25, 7.46308982372283935547e-01) (26, 7.53342449665069580078e-01) (27, 7.07832813262939453125e-01) (28, 9.26895856857299804688e-01) (29, 9.44275975227355957031e-01) (30, 1.06046640872955322266e+00) (31, 9.84202980995178222656e-01) (32, 8.73359560966491699219e-01) (33, 5.97128152847290039062e-01) (34, 8.35051059722900390625e-01) (35, 8.28464329242706298828e-01) (36, 8.28728616237640380859e-01) (0, -2.33885616064071655273e-01) (1, -2.63319998979568481445e-01) (2, 5.56197345256805419922e-01) (3, -1.73999682068824768066e-01) (4, -1.60089775919914245605e-01) (5, -1.66627421975135803223e-01) (6, 2.48008131980895996094e-01) (7, -2.48412266373634338379e-01) (8, -4.57789987325668334961e-01) (9, -3.48185092210769653320e-01) (10, -7.39038959145545959473e-02) (11, -2.10289970040321350098e-01) (12, 1.50000000000000000000e+03) (13, 1.50000000000000000000e+03) (14, -3.76094093322753906250e+01) (15, -1.53180241584777832031e+00) (16, -3.37167948484420776367e-01) (17, 1.02597987651824951172e+00) (18, -6.81244507431983947754e-02) (19, -2.95659285038709640503e-02) (20, 9.15695071220397949219e-01) (21, -2.35538244247436523438e-01) (22, -9.19629882812500000000e+02) (23, 1.50000000000000000000e+03) (24, 1.41269838809967041016e+00) (25, 1.31298136711120605469e+00) (26, 1.43927097320556640625e+00) (27, 2.28941082954406738281e-01) (28, 2.63424277305603027344e-01) (29, 2.49653413891792297363e-01) (30, 7.23232626914978027344e-02) (31, 1.71785309910774230957e-01) (32, 5.54498545825481414795e-02) (33, -8.79869386553764343262e-02) (34, 9.64696705341339111328e-02) (35, -6.78111836314201354980e-02) (36, -1.33154734969139099121e-01) (0, 2.57429051399230957031e+00) (1, 4.49615240097045898438e+00) (2, 1.95174655914306640625e+01) (3, 2.59696245193481445312e+00) (4, 2.54691815376281738281e+00) (5, 7.73133277893066406250e-01) (6, 9.11951243877410888672e-01) (7, 8.44969093799591064453e-01) (8, 7.87561058998107910156e-01) (9, 1.09535825252532958984e+00) (10, 1.02067828178405761719e+00) (11, 4.32815313339233398438e-01) (12, 1.50000000000000000000e+03) (13, 1.50000000000000000000e+03) (14, 1.00270611572265625000e+03) (15, 1.21752667427062988281e+00) (16, 5.67660284042358398438e+00) (17, 6.66827926635742187500e+01) (18, 1.66396367549896240234e+00) (19, 9.83735561370849609375e-01) (20, -2.54585027694702148438e+00) (21, -1.84124641418457031250e+01) (22, 2.67544403076171875000e+02) (23, 1.50000000000000000000e+03) (24, 9.04655337333679199219e-01) (25, 7.04960882663726806641e-01) (26, 7.95732975006103515625e-01) (27, 8.29475820064544677734e-01) (28, 9.49791789054870605469e-01) (29, 8.93203198909759521484e-01) (30, 1.51051676273345947266e+00) (31, 7.52668321132659912109e-01) (32, 9.47880625724792480469e-01) (33, 3.64508461952209472656e+00) (34, 3.61486339569091796875e+00) (35, 1.91345655918121337891e+00) (36, 9.69689965248107910156e-01) (0, -9.27662086486816406250e+00) (1, -3.67114126682281494141e-01) (2, 5.86983728408813476562e+00) (3, 1.76819467544555664062e+00) (4, 2.32978677749633789062e+00) (5, 2.12675642967224121094e+00) (6, 4.70304161310195922852e-01) (7, 9.79247212409973144531e-01) (8, 3.78816723823547363281e-01) (9, 1.38827517628669738770e-01) (10, 1.55376613140106201172e-01) (11, 6.28104329109191894531e-01) (12, 1.50000000000000000000e+03) (13, 1.50000000000000000000e+03) (14, -2.12412765502929687500e+02) (15, 2.98938312530517578125e+01) (16, 4.11225700378417968750e+00) (17, -5.01941251754760742188e+00) (18, -7.73113891482353210449e-02) (19, 1.12738959491252899170e-01) (20, 6.92642748355865478516e-01) (21, -1.89553058147430419922e+00) (22, 9.49741882324218750000e+02) (23, 1.50000000000000000000e+03) (24, -2.25994870066642761230e-01) (25, -2.09814071655273437500e-01) (26, -3.02606731653213500977e-01) (27, 3.29896777868270874023e-01) (28, -2.33335599303245544434e-01) (29, 1.05872210115194320679e-02) (30, -8.80980491638183593750e-03) (31, 6.30882978439331054688e-02) (32, 3.28346565365791320801e-02) (33, -1.93796172738075256348e-01) (34, -4.95044961571693420410e-02) (35, 7.45215686038136482239e-03) (36, 7.04990476369857788086e-02) (0, -1.53277069330215454102e-01) (1, -5.10125569999217987061e-02) (2, -5.40367700159549713135e-02) (3, 8.41317325830459594727e-02) (4, 1.17589741945266723633e-01) (5, 2.40352809429168701172e-01) (6, 9.45098772644996643066e-02) (7, -5.62546908855438232422e-01) (8, -3.82167994976043701172e-01) (9, -3.01301181316375732422e-01) (10, -1.92833304405212402344e-01) (11, -4.42401207983493804932e-02) (12, 1.50000000000000000000e+03) (13, 1.50000000000000000000e+03) (14, 1.32283398437500000000e+03) (15, 9.44140627980232238770e-02) (16, 1.07556283473968505859e-02) (17, 2.16501474380493164062e-01) (18, 1.29239153861999511719e+00) (19, 2.38630247116088867188e+00) (20, 2.09286808967590332031e+00) (21, 5.09721755981445312500e+00) (22, -8.64979736328125000000e+02) (23, 1.50000000000000000000e+03) (24, 9.92198511958122253418e-02) (25, 1.48290455341339111328e-01) (26, 1.18134409189224243164e-01) (27, 9.87664237618446350098e-02) (28, 7.06603899598121643066e-02) (29, 3.84765505790710449219e-01) (30, 2.69440948963165283203e-01) (31, 2.92034238576889038086e-01) (32, 7.75271117687225341797e-01) (33, 9.70721364021301269531e-01) (34, 8.25690090656280517578e-01) (35, 5.74506103992462158203e-01) (36, -5.16524165868759155273e-02) (0, -2.62851327657699584961e-01) (1, -5.50654888153076171875e-01) (2, -7.07790970802307128906e-01) (3, -5.60794115066528320312e-01) (4, -3.70325654745101928711e-01) (5, -2.36650988459587097168e-01) (6, -3.46962600946426391602e-01) (7, -3.22303205728530883789e-01) (8, -1.60404801368713378906e-01) (9, -2.71934777498245239258e-01) (10, -1.49003937840461730957e-01) (11, -5.80801844596862792969e-01) (12, 1.50000000000000000000e+03) (13, 1.50000000000000000000e+03) (14, 6.55758132934570312500e+01) (15, -4.69029217958450317383e-01) (16, -3.19540113210678100586e-01) (17, -2.37357839941978454590e-01) (18, -5.67971728742122650146e-02) (19, -5.06172060966491699219e-01) (20, -6.18970751762390136719e-01) (21, -2.54289412498474121094e+00) (22, -5.84209045410156250000e+02) (23, 1.50000000000000000000e+03) (24, -5.13880133628845214844e-01) (25, -6.05926096439361572266e-01) (26, -8.31661522388458251953e-01) (27, -6.09724402427673339844e-01) (28, -4.51254338026046752930e-01) (29, -3.71799170970916748047e-01) (30, -5.76393663883209228516e-01) (31, -4.58525300025939941406e-01) (32, -2.99295932054519653320e-01) (33, -2.68682748079299926758e-01) (34, -5.60788094997406005859e-01) (35, -7.53878831863403320312e-01) (36, -1.78488075733184814453e-01) (0, -4.09003823995590209961e-01) (1, -1.15511737763881683350e-01) (2, -2.15459182858467102051e-01) (3, -2.96970903873443603516e-01) (4, -2.68666386604309082031e-01) (5, -3.99850010871887207031e-01) (6, -2.13850855827331542969e-01) (7, -3.34403991699218750000e-01) (8, -4.75688576698303222656e-01) (9, -3.05269539356231689453e-01) (10, -4.52340841293334960938e-01) (11, -2.55863636732101440430e-01) (12, 1.50000000000000000000e+03) (13, 1.50000000000000000000e+03) (14, 1.66532577514648437500e+02) (15, -2.36569333076477050781e+00) (16, -8.69056761264801025391e-01) (17, -5.99074922502040863037e-02) (18, -1.97287917137145996094e-01) (19, -4.59130816161632537842e-02) (20, -1.06202447414398193359e+00) (21, -6.54380750656127929688e+00) (22, 4.98018379211425781250e+01) (23, 1.50000000000000000000e+03) (24, -1.80819556117057800293e-01) (25, 9.75431781262159347534e-03) (26, 7.78799876570701599121e-03) (27, -1.95107504725456237793e-01) (28, -1.83578059077262878418e-02) (29, -7.76512548327445983887e-02) (30, -9.02314782142639160156e-02) (31, -2.91620045900344848633e-01) (32, -2.10607796907424926758e-01) (33, -4.18781340122222900391e-02) (34, -3.36027517914772033691e-02) (35, -3.21495793759822845459e-02) (36, -1.93870440125465393066e-01) (0, -2.97018170356750488281e+00) (1, 1.61368858814239501953e+00) (2, 3.45518064498901367188e+00) (3, 1.46337258815765380859e+00) (4, 1.90348446369171142578e+00) (5, 1.89859485626220703125e+00) (6, 2.27306652069091796875e+00) (7, 2.26407051086425781250e+00) (8, 2.06097960472106933594e+00) (9, 2.07476711273193359375e+00) (10, 1.87553560733795166016e+00) (11, 1.86626768112182617188e+00) (12, 1.50000000000000000000e+03) (13, 1.50000000000000000000e+03) (14, 3.14744995117187500000e+02) (15, 6.52713727951049804688e+00) (16, 9.99818146228790283203e-01) (17, 2.90640068054199218750e+00) (18, 2.77498555183410644531e+00) (19, 1.12288274765014648438e+01) (20, 4.25156688690185546875e+00) (21, -4.15031051635742187500e+00) (22, 1.19903112792968750000e+03) (23, 1.50000000000000000000e+03) (24, -2.71025466918945312500e+00) (25, 3.68071508407592773438e+00) (26, 6.89583718776702880859e-01) (27, 3.23554611206054687500e+00) (28, 3.12725448608398437500e+00) (29, 3.48470497131347656250e+00) (30, 3.48603177070617675781e+00) (31, 2.81896162033081054688e+00) (32, 2.67953896522521972656e+00) (33, 3.00478076934814453125e+00) (34, 2.92857170104980468750e+00) (35, 3.20762276649475097656e+00) (36, 1.38312840461730957031e+00) (0, -5.25724351406097412109e-01) (1, -3.39845567941665649414e-01) (2, -3.03344130516052246094e-01) (3, -3.07492256164550781250e-01) (4, -2.79178231954574584961e-01) (5, -3.48956495523452758789e-01) (6, -9.28197056055068969727e-02) (7, -4.42040562629699707031e-01) (8, -2.81093567609786987305e-01) (9, -3.77795547246932983398e-01) (10, -5.69562077522277832031e-01) (11, -4.02215570211410522461e-01) (12, 1.50000000000000000000e+03) (13, 1.50000000000000000000e+03) (14, 6.59859371185302734375e+00) (15, -7.37288761138916015625e+00) (16, -1.15055012702941894531e+00) (17, -9.70770046114921569824e-02) (18, 4.59037572145462036133e-02) (19, 7.49499946832656860352e-02) (20, -2.99332451820373535156e+00) (21, -6.36575222015380859375e+00) (22, 6.02613983154296875000e+01) (23, 1.50000000000000000000e+03) (24, 1.57560214400291442871e-01) (25, 4.89072464406490325928e-02) (26, -2.88849975913763046265e-03) (27, 4.00995370000600814819e-03) (28, 1.03890247642993927002e-01) (29, 3.72070074081420898438e-02) (30, 3.02025172859430313110e-02) (31, 4.29763197898864746094e-02) (32, -1.14966176450252532959e-01) (33, -5.69029673933982849121e-02) (34, -2.34688762575387954712e-02) (35, -7.41275474429130554199e-02) (36, -2.25511282682418823242e-01) (0, 3.17620825767517089844e+00) (1, 1.52537953853607177734e+00) (2, 1.28970277309417724609e+00) (3, 3.17930459976196289062e+00) (4, 5.73053932189941406250e+00) (5, 1.21237528324127197266e+00) (6, 1.00486969947814941406e+00) (7, 9.64096367359161376953e-01) (8, 7.89182186126708984375e-01) (9, 8.00545036792755126953e-01) (10, 6.50730431079864501953e-01) (11, 3.93710464239120483398e-01) (12, 1.50000000000000000000e+03) (13, 1.50000000000000000000e+03) (14, 3.98438873291015625000e+02) (15, 2.05870494842529296875e+01) (16, 3.64370894432067871094e+00) (17, 6.43546819686889648438e-01) (18, 6.09045445919036865234e-01) (19, 1.12783396244049072266e+00) (20, 2.72133874893188476562e+00) (21, 9.65892410278320312500e+00) (22, 1.49910168457031250000e+03) (23, 1.50000000000000000000e+03) (24, 2.44968819618225097656e+00) (25, 2.71400165557861328125e+00) (26, 3.16605281829833984375e+00) (27, 1.98074376583099365234e+00) (28, 8.22736740112304687500e-01) (29, 3.14935493469238281250e+00) (30, 1.06837272644042968750e+00) (31, 1.24125027656555175781e+00) (32, 7.07997024059295654297e-01) (33, 1.73258996009826660156e+00) (34, 8.09200465679168701172e-01) (35, 3.41275954246520996094e+00) (36, 1.16068136692047119141e+00) (0, -4.60458397865295410156e-01) (1, -3.97221535444259643555e-01) (2, -4.74823385477066040039e-01) (3, -6.68939948081970214844e-01) (4, -9.22779858112335205078e-01) (5, -6.83669447898864746094e-01) (6, -5.68489313125610351562e-01) (7, -7.03941047191619873047e-01) (8, -5.27701556682586669922e-01) (9, -4.88003343343734741211e-01) (10, -4.57746148109436035156e-01) (11, -4.37319606542587280273e-01) (12, 1.50000000000000000000e+03) (13, 1.50000000000000000000e+03) (14, 7.54282958984375000000e+02) (15, 1.36116724014282226562e+01) (16, -1.17608797550201416016e+00) (17, -4.18562799692153930664e-01) (18, -1.99443131685256958008e-01) (19, -2.96422868967056274414e-01) (20, 4.19469070434570312500e+00) (21, 1.38592326641082763672e+00) (22, 1.00357269287109375000e+03) (23, 1.50000000000000000000e+03) (24, -7.97402858734130859375e-02) (25, -7.15008825063705444336e-02) (26, -7.18935132026672363281e-02) (27, -2.07621492445468902588e-02) (28, 5.30038885772228240967e-02) (29, -1.49928256869316101074e-02) (30, -1.65407255291938781738e-01) (31, -1.60377204418182373047e-01) (32, -1.40902683138847351074e-01) (33, -4.66438941657543182373e-02) (34, -1.10480606555938720703e-01) (35, -8.96754711866378784180e-02) (36, -3.04358482360839843750e-01) (0, 1.80885028839111328125e+00) (1, 1.42927141189575195312e+01) (2, 2.24312381744384765625e+01) (3, 8.14089012145996093750e+00) (4, 5.03157615661621093750e-01) (5, 5.17129516601562500000e+00) (6, -1.78856253623962402344e+00) (7, -2.95058131217956542969e-01) (8, 2.12897762656211853027e-01) (9, 5.52578091621398925781e-01) (10, 1.86203569173812866211e-01) (11, 3.66792440414428710938e+00) (12, 1.50000000000000000000e+03) (13, 1.50000000000000000000e+03) (14, -8.31339721679687500000e+02) (15, -2.56347015380859375000e+02) (16, 4.49724960327148437500e+01) (17, -1.52547058105468750000e+02) (18, -1.79832816123962402344e+00) (19, -1.04166842997074127197e-01) (20, 5.21141052246093750000e+01) (21, 2.80773849487304687500e+01) (22, -9.02490417480468750000e+02) (23, 1.50000000000000000000e+03) (24, -4.15334582328796386719e-01) (25, -2.12335062026977539062e+00) (26, -2.53094840049743652344e+00) (27, -4.61148023605346679688e-01) (28, -3.91925513744354248047e-01) (29, 6.51533424854278564453e-01) (30, -1.05160951614379882812e-01) (31, 1.07272908091545104980e-01) (32, 3.33242607116699218750e+00) (33, 1.62534809112548828125e+00) (34, 2.35964953899383544922e-01) (35, 2.86252927780151367188e+00) (36, 4.55575793981552124023e-01) (0, 1.90996086597442626953e+00) (1, 8.11908066272735595703e-01) (2, 8.44826027750968933105e-02) (3, -4.10529792308807373047e-01) (4, -3.25464040040969848633e-01) (5, -3.38098734617233276367e-01) (6, -9.98687088489532470703e-01) (7, -9.92055058479309082031e-01) (8, -1.01310026645660400391e+00) (9, -1.02712142467498779297e+00) (10, -1.06946706771850585938e+00) (11, -1.12872183322906494141e+00) (12, 1.50000000000000000000e+03) (13, 1.50000000000000000000e+03) (14, 5.52967214584350585938e+00) (15, -7.66720962524414062500e+00) (16, 2.08008337020874023438e+00) (17, 4.90114539861679077148e-02) (18, 1.81533634662628173828e+00) (19, 9.36769485473632812500e-01) (20, 1.02464199066162109375e+00) (21, 5.57800827026367187500e+01) (22, 1.43907189941406250000e+03) (23, 1.50000000000000000000e+03) (24, -3.26018214225769042969e-01) (25, 1.93641647696495056152e-01) (26, 4.41012471914291381836e-01) (27, -2.53279656171798706055e-01) (28, -3.12069237232208251953e-01) (29, 6.81707337498664855957e-02) (30, -1.34528413414955139160e-01) (31, -1.09825178980827331543e-01) (32, -1.13714843988418579102e-01) (33, -5.58685213327407836914e-02) (34, 2.83893018960952758789e-01) (35, 1.66105985641479492188e-01) (36, -1.97733685374259948730e-01) (0, 2.28255724906921386719e+00) (1, 5.54247200489044189453e-01) (2, 4.22300666570663452148e-01) (3, 4.71713721752166748047e-01) (4, 5.21797299385070800781e-01) (5, 4.77212488651275634766e-01) (6, 4.30255711078643798828e-01) (7, 3.86359483003616333008e-01) (8, 5.44459998607635498047e-01) (9, 5.39282500743865966797e-01) (10, 4.92090165615081787109e-01) (11, 3.15315157175064086914e-01) (12, 1.50000000000000000000e+03) (13, 1.50000000000000000000e+03) (14, 1.68109710693359375000e+02) (15, -9.31899738311767578125e+00) (16, 2.79940509796142578125e+00) (17, -3.13852399587631225586e-01) (18, -2.57126897573471069336e-01) (19, -3.59943270683288574219e-01) (20, -2.16278821229934692383e-01) (21, -1.84888079762458801270e-01) (22, 1.27074211120605468750e+02) (23, 1.50000000000000000000e+03) (24, 9.92916345596313476562e-01) (25, 2.57623374462127685547e-01) (26, -9.57036018371582031250e-02) (27, -2.79183417558670043945e-01) (28, -2.94613718986511230469e-01) (29, -2.01421603560447692871e-01) (30, -1.26000404357910156250e-01) (31, -1.49623677134513854980e-01) (32, -2.49328300356864929199e-01) (33, 1.44557833671569824219e-01) (34, 1.56494662165641784668e-01) (35, 2.07253754138946533203e-01) (36, 4.44928735494613647461e-01) (0, 1.32380485534667968750e+00) (1, 5.11787271499633789062e+00) (2, 2.16532087326049804688e+00) (3, 5.17413198947906494141e-01) (4, -1.31334379315376281738e-01) (5, 2.38801145553588867188e+00) (6, 1.09627959318459033966e-03) (7, -4.58519123494625091553e-02) (8, -9.67376470565795898438e-01) (9, -1.52643537521362304688e+00) (10, -1.17201602458953857422e+00) (11, 1.67301523685455322266e+00) (12, 1.50000000000000000000e+03) (13, 1.50000000000000000000e+03) (14, 1.32866668701171875000e+02) (15, 3.99193906784057617188e+00) (16, 4.15806007385253906250e+00) (17, -4.16958421468734741211e-01) (18, -5.39649677276611328125e+00) (19, 3.42785072326660156250e+00) (20, 5.85624396800994873047e-01) (21, -7.55565023422241210938e+00) (22, -6.96544128417968750000e+02) (23, 1.50000000000000000000e+03) (24, -2.04253244400024414062e+00) (25, -3.34971785545349121094e-01) (26, -9.76406112313270568848e-02) (27, -3.48419904708862304688e+00) (28, -3.09889286756515502930e-01) (29, -3.73739182949066162109e-01) (30, -3.49991828203201293945e-01) (31, -1.90995395183563232422e-01) (32, -2.46338486671447753906e-01) (33, -3.83135169744491577148e-01) (34, -4.46644455194473266602e-01) (35, -1.78746730089187622070e-01) (36, -5.39930522441864013672e-01) (0, -1.07459616661071777344e+00) (1, -7.39939391613006591797e-01) (2, -4.28449392318725585938e-01) (3, -5.40977001190185546875e-01) (4, -9.75135743618011474609e-01) (5, -4.47160243988037109375e-01) (6, -2.93736219406127929688e-01) (7, -4.14698868989944458008e-01) (8, -2.07625913619995117188e+00) (9, -8.86481404304504394531e-01) (10, -7.60830283164978027344e-01) (11, -4.68658834695816040039e-01) (12, 1.50000000000000000000e+03) (13, 1.50000000000000000000e+03) (14, 2.43520568847656250000e+02) (15, -2.03211951255798339844e+00) (16, -1.56202960014343261719e+00) (17, -4.99781161546707153320e-01) (18, -4.88730311393737792969e-01) (19, 4.78655211627483367920e-02) (20, -2.98387169837951660156e+00) (21, 2.24803900718688964844e+00) (22, -5.43488830566406250000e+02) (23, 1.50000000000000000000e+03) (24, -1.91733360290527343750e-01) (25, 1.26067653298377990723e-01) (26, -1.80591523647308349609e-01) (27, 5.14431059360504150391e-01) (28, 2.93337655067443847656e+00) (29, 5.98992407321929931641e-01) (30, 4.09612447023391723633e-01) (31, 3.65962982177734375000e-01) (32, 5.26457309722900390625e-01) (33, 1.78607428073883056641e+00) (34, 5.56441307067871093750e-01) (35, 9.70108360052108764648e-02) (36, 1.39884918928146362305e-01) (0, -9.46377038955688476562e-01) (1, -6.40467345714569091797e-01) (2, -9.09425854682922363281e-01) (3, -7.06989407539367675781e-01) (4, -4.92407113313674926758e-01) (5, -6.81009232997894287109e-01) (6, -7.77642071247100830078e-01) (7, -7.82804965972900390625e-01) (8, -7.54808962345123291016e-01) (9, -5.86926519870758056641e-01) (10, -4.93928134441375732422e-01) (11, 3.60199272632598876953e-01) (12, 1.50000000000000000000e+03) (13, 1.50000000000000000000e+03) (14, -1.46959997558593750000e+03) (15, 2.22215700149536132812e+00) (16, -2.30893564224243164062e+00) (17, -4.01642292737960815430e-01) (18, -3.82674783468246459961e-01) (19, -4.48687672615051269531e-01) (20, -2.92599987983703613281e+00) (21, -1.10479116439819335938e+00) (22, -6.78321075439453125000e+01) (23, 1.50000000000000000000e+03) (24, -1.28820344805717468262e-01) (25, -2.35796496272087097168e-01) (26, -5.66791929304599761963e-02) (27, -6.24484457075595855713e-02) (28, -1.09787866473197937012e-01) (29, -1.27148881554603576660e-01) (30, -1.06442347168922424316e-01) (31, -1.79068043828010559082e-01) (32, -9.44238230586051940918e-02) (33, -4.07116860151290893555e-02) (34, -3.40079739689826965332e-02) (35, -1.28359928727149963379e-01) (36, -2.93146371841430664062e-01) (0, 1.76451063156127929688e+00) (1, 1.82133746147155761719e+00) (2, 2.65734457969665527344e+00) (3, 4.27047729492187500000e+00) (4, 1.05981540679931640625e+00) (5, -8.98906495422124862671e-03) (6, 2.29120075702667236328e-01) (7, 9.10354673862457275391e-01) (8, -1.18878975510597229004e-01) (9, -1.38112202286720275879e-01) (10, 2.02704071998596191406e+00) (11, 7.95985519886016845703e-01) (12, 1.50000000000000000000e+03) (13, 1.50000000000000000000e+03) (14, -2.73807342529296875000e+02) (15, 9.80067901611328125000e+01) (16, -4.84583778381347656250e+01) (17, -4.87445735931396484375e+00) (18, -7.43375158309936523438e+00) (19, -5.08130874633789062500e+01) (20, -2.96259427070617675781e+00) (21, 2.25033092498779296875e+01) (22, -2.89357360839843750000e+02) (23, 1.50000000000000000000e+03) (24, 5.53664922714233398438e+00) (25, 8.22855591773986816406e-01) (26, 7.73388442993164062500e+01) (27, 2.16011667251586914062e+00) (28, 7.83867692947387695312e+00) (29, 3.16729927062988281250e+00) (30, 7.54644811153411865234e-01) (31, 6.93829059600830078125e-01) (32, 9.85716879367828369141e-01) (33, 1.18859052658081054688e+00) (34, 9.84773337841033935547e-01) (35, 5.68295419216156005859e-01) (36, 6.63567900657653808594e-01) (0, 2.89495849609375000000e+01) (1, 1.56117277145385742188e+01) (2, 4.19560194015502929688e+00) (3, 7.55163621902465820312e+00) (4, 2.87620663642883300781e+00) (5, 2.36832022666931152344e+00) (6, 4.49022817611694335938e+00) (7, 1.30139029026031494141e+00) (8, 7.96615064144134521484e-01) (9, 1.05449581146240234375e+00) (10, 1.31898975372314453125e+00) (11, 3.41186016798019409180e-01) (12, 1.50000000000000000000e+03) (13, 1.50000000000000000000e+03) (14, 1.39614294433593750000e+03) (15, 1.40877494812011718750e+01) (16, 2.46127676963806152344e+00) (17, -4.03033351898193359375e+00) (18, 1.14961016178131103516e+00) (19, 7.48883056640625000000e+00) (20, 2.13611531257629394531e+00) (21, 2.53700485229492187500e+01) (22, 1.34686840820312500000e+03) (23, 1.50000000000000000000e+03) (24, 6.10437154769897460938e+00) (25, 6.52596330642700195312e+00) (26, 2.49717092514038085938e+00) (27, 1.45810210704803466797e+00) (28, 1.86136710643768310547e+00) (29, 7.31597185134887695312e+00) (30, 2.68353772163391113281e+00) (31, 1.60775890350341796875e+01) (32, 1.67039661407470703125e+01) (33, 1.62103862762451171875e+01) (34, 6.64271736145019531250e+00) (35, 4.56091433763504028320e-01) (36, 2.54603028297424316406e+00) (0, -5.19966781139373779297e-01) (1, -4.15299475193023681641e-01) (2, -4.02866631746292114258e-01) (3, -4.68226373195648193359e-01) (4, -3.89191389083862304688e-01) (5, -5.09331464767456054688e-01) (6, -5.11395454406738281250e-01) (7, -2.87672549486160278320e-01) (8, -5.43851196765899658203e-01) (9, -4.44127231836318969727e-01) (10, -5.22316217422485351562e-01) (11, -4.51398968696594238281e-01) (12, 1.50000000000000000000e+03) (13, 1.50000000000000000000e+03) (14, 2.66854492187500000000e+02) (15, -3.88752174377441406250e+00) (16, -1.19040155410766601562e+00) (17, -2.40460112690925598145e-01) (18, -2.53831624984741210938e-01) (19, -2.78099566698074340820e-01) (20, -1.41759860515594482422e+00) (21, -3.02802753448486328125e+00) (22, 1.40878753662109375000e+02) (23, 1.50000000000000000000e+03) (24, -1.99286848306655883789e-01) (25, -1.52125107124447822571e-02) (26, -2.14729622006416320801e-01) (27, -4.25151325762271881104e-02) (28, -2.83842962235212326050e-02) (29, 4.19169701635837554932e-02) (30, -5.50108924508094787598e-02) (31, -4.32313382625579833984e-02) (32, -1.22172594070434570312e-01) (33, -9.93961747735738754272e-03) (34, -1.31425887346267700195e-01) (35, -9.34125334024429321289e-02) (36, -2.69536048173904418945e-01) (0, -4.62472915649414062500e-01) (1, -8.77873003482818603516e-02) (2, 3.75392049551010131836e-01) (3, 3.16913247108459472656e-01) (4, 3.96410524845123291016e-01) (5, 2.68337786197662353516e-01) (6, 6.39577448368072509766e-01) (7, 1.91152602434158325195e-01) (8, -3.08310557156801223755e-02) (9, 2.69789725542068481445e-01) (10, 2.74337291717529296875e-01) (11, 8.28577697277069091797e-01) (12, 1.50000000000000000000e+03) (13, 1.50000000000000000000e+03) (14, -3.24037094116210937500e+01) (15, -3.85873794555664062500e+01) (16, 2.91614317893981933594e+00) (17, 2.21236991882324218750e+00) (18, 2.91114878654479980469e+00) (19, 2.38107848167419433594e+00) (20, 4.08536529541015625000e+00) (21, 2.08158898353576660156e+00) (22, -6.27094482421875000000e+02) (23, 1.50000000000000000000e+03) (24, 3.41730451583862304688e+00) (25, 3.58153200149536132812e+00) (26, 3.45222592353820800781e+00) (27, 3.50313782691955566406e+00) (28, 2.60798144340515136719e+00) (29, 2.38252472877502441406e+00) (30, 2.18722701072692871094e+00) (31, 2.17542576789855957031e+00) (32, 2.34357047080993652344e+00) (33, 2.49874019622802734375e+00) (34, 2.34837698936462402344e+00) (35, 2.41900014877319335938e+00) (36, 2.27771902084350585938e+00) (0, 1.01231777667999267578e+00) (1, 2.04875302314758300781e+00) (2, 2.04364132881164550781e+00) (3, 1.73346781730651855469e+00) (4, 3.28903603553771972656e+00) (5, 1.25074732303619384766e+00) (6, 8.63385200500488281250e-01) (7, 1.37014889717102050781e+00) (8, 2.94586801528930664062e+00) (9, 1.51658093929290771484e+00) (10, 8.32484439015388488770e-02) (11, 5.27973353862762451172e-01) (12, 1.50000000000000000000e+03) (13, 1.50000000000000000000e+03) (14, -4.82483253479003906250e+01) (15, -7.00811157226562500000e+01) (16, 3.54469718933105468750e+01) (17, -3.43907761573791503906e+00) (18, -2.29182100296020507812e+00) (19, 2.75807590484619140625e+01) (20, 9.00232696533203125000e+01) (21, 3.80766448974609375000e+01) (22, 1.14898913574218750000e+03) (23, 1.50000000000000000000e+03) (24, -1.21009385585784912109e+00) (25, -6.00875139236450195312e-01) (26, -1.04822981357574462891e+00) (27, 4.11376953125000000000e+00) (28, -2.44506382942199707031e+00) (29, -2.22254800796508789062e+00) (30, -7.56993353366851806641e-01) (31, -4.13854265213012695312e+00) (32, -3.77479314804077148438e+00) (33, -3.76676440238952636719e+00) (34, -1.18652927875518798828e+00) (35, -1.81534683704376220703e+00) (36, 2.07169353961944580078e-01) (0, -7.67403268814086914062e+00) (1, -1.27047193050384521484e+00) (2, 1.04406547546386718750e+00) (3, 8.82480025291442871094e-01) (4, 1.01929068565368652344e+00) (5, 8.77018868923187255859e-01) (6, 8.30296516418457031250e-01) (7, 9.47372138500213623047e-01) (8, 8.37735593318939208984e-01) (9, 9.36913490295410156250e-01) (10, 9.83011603355407714844e-01) (11, 1.09565091133117675781e+00) (12, 1.50000000000000000000e+03) (13, 1.50000000000000000000e+03) (14, 1.67782012939453125000e+02) (15, 1.15773248672485351562e+00) (16, 9.20758664608001708984e-01) (17, 4.68201577663421630859e-01) (18, 2.33979165554046630859e-01) (19, 2.72274196147918701172e-01) (20, 6.85265481472015380859e-01) (21, 3.66343998908996582031e+00) (22, -1.07419105529785156250e+02) (23, 1.50000000000000000000e+03) (24, 6.48607969284057617188e-01) (25, 7.51640081405639648438e-01) (26, 5.74970364570617675781e-01) (27, 4.89900350570678710938e-01) (28, 3.41004341840744018555e-01) (29, 4.68805789947509765625e-01) (30, 1.49667370319366455078e+00) (31, 7.91188478469848632812e-01) (32, 6.18591964244842529297e-01) (33, 8.90362739562988281250e-01) (34, 7.36036717891693115234e-01) (35, 5.14309883117675781250e-01) (36, 5.66165566444396972656e-01) (0, -1.21956698596477508545e-01) (1, -3.72145861387252807617e-01) (2, -1.86149433255195617676e-01) (3, -3.45611840486526489258e-01) (4, -1.93068832159042358398e-01) (5, -6.49306178092956542969e-02) (6, 1.89460948109626770020e-01) (7, -1.96930304169654846191e-01) (8, -1.79516628384590148926e-01) (9, -2.98204243183135986328e-01) (10, -2.44971305131912231445e-01) (11, -6.04988276958465576172e-01) (12, 1.50000000000000000000e+03) (13, 1.50000000000000000000e+03) (14, 8.25803070068359375000e+01) (15, -8.24650573730468750000e+00) (16, 3.30929279327392578125e+00) (17, -9.60568636655807495117e-02) (18, -1.02247011661529541016e+00) (19, 3.43834795057773590088e-02) (20, 5.15580844879150390625e+00) (21, 2.22004032135009765625e+01) (22, 6.05766723632812500000e+02) (23, 1.50000000000000000000e+03) (24, -1.92783683538436889648e-01) (25, -2.08812952041625976562e-01) (26, -1.92172840237617492676e-01) (27, -3.47432903945446014404e-02) (28, -1.50762990117073059082e-01) (29, -2.19632759690284729004e-01) (30, -4.01927568018436431885e-02) (31, -1.39713466167449951172e-01) (32, -2.11303785443305969238e-01) (33, -2.05359071493148803711e-01) (34, -1.08230508863925933838e-01) (35, -8.30526351928710937500e-02) (36, -2.12945744395256042480e-01) (0, -3.55158984661102294922e-01) (1, -4.47261244058609008789e-01) (2, -8.70032250881195068359e-01) (3, -6.52049481868743896484e-01) (4, -1.40391564369201660156e+00) (5, -7.83397912979125976562e-01) (6, -3.23807692527770996094e+00) (7, -2.03611993789672851562e+00) (8, -1.16717586517333984375e+01) (9, -5.30095767974853515625e+00) (10, -5.50704821944236755371e-03) (11, -2.34037947654724121094e+00) (12, 1.50000000000000000000e+03) (13, 1.50000000000000000000e+03) (14, -2.01832532882690429688e+00) (15, 3.67597312927246093750e+01) (16, 3.53334388732910156250e+01) (17, 1.00602226257324218750e+02) (18, 8.54252934455871582031e-01) (19, 2.31014690399169921875e+01) (20, 3.88517975807189941406e-01) (21, 2.59520587921142578125e+01) (22, 9.45091613769531250000e+02) (23, 1.50000000000000000000e+03) (24, -7.86928415298461914062e-01) (25, -1.23901200294494628906e+00) (26, -1.29080808162689208984e+00) (27, -1.39747548103332519531e+00) (28, -1.30768108367919921875e+01) (29, -1.89357817173004150391e+00) (30, 1.58515417575836181641e+00) (31, 1.02965850830078125000e+01) (32, 1.04235086441040039062e+01) (33, -2.10604691505432128906e+00) (34, -1.18347251415252685547e+00) (35, -8.30453395843505859375e-01) (36, -1.91489815711975097656e+00) (0, -5.41323852539062500000e+00) (1, 1.34081259369850158691e-01) (2, 3.03427994251251220703e-01) (3, -4.73104572296142578125e+00) (4, 6.45644366741180419922e-01) (5, 8.83434236049652099609e-01) (6, 8.26326787471771240234e-01) (7, 1.82920053601264953613e-01) (8, -2.45527815818786621094e+00) (9, -6.40617370605468750000e+00) (10, 9.34445798397064208984e-01) (11, 7.35742390155792236328e-01) (12, 1.50000000000000000000e+03) (13, 1.50000000000000000000e+03) (14, 9.93726257324218750000e+02) (15, -3.60026597976684570312e-01) (16, -1.21951560974121093750e+01) (17, 2.20968127250671386719e+00) (18, 3.02155852317810058594e+00) (19, 3.81321096420288085938e+00) (20, 1.70015430450439453125e+01) (21, 3.26062698364257812500e+01) (22, -7.05696533203125000000e+02) (23, 1.50000000000000000000e+03) (24, 4.85380697250366210938e+00) (25, -6.15064907073974609375e+00) (26, 8.43364655971527099609e-01) (27, 5.23706483840942382812e+00) (28, 5.42609310150146484375e+00) (29, 6.17092275619506835938e+00) (30, 5.20944786071777343750e+00) (31, 4.67410326004028320312e+00) (32, 5.19969415664672851562e+00) (33, 6.25481128692626953125e+00) (34, 4.53027695417404174805e-01) (35, 4.64750957489013671875e+00) (36, 5.43236207962036132812e+00) (0, 8.41404795646667480469e-02) (1, -2.22932472825050354004e-01) (2, 2.16288283467292785645e-01) (3, 4.48949374258518218994e-02) (4, 2.54211336374282836914e-01) (5, 2.46023088693618774414e-01) (6, -1.24162986874580383301e-01) (7, 3.64414393901824951172e-01) (8, -7.75389000773429870605e-02) (9, -1.04099884033203125000e+01) (10, -1.13239884376525878906e+00) (11, 2.65078824013471603394e-02) (12, 1.50000000000000000000e+03) (13, 1.50000000000000000000e+03) (14, 5.66136474609375000000e+02) (15, 2.18231296539306640625e+01) (16, -1.39546364545822143555e-01) (17, 9.42778110504150390625e-01) (18, 8.15628826618194580078e-01) (19, 1.08807573318481445312e+01) (20, -1.43336963653564453125e+01) (21, -1.00720524787902832031e+00) (22, -1.25698608398437500000e+03) (23, 1.50000000000000000000e+03) (24, 8.47346186637878417969e-01) (25, 4.13021028041839599609e-01) (26, -4.82470951974391937256e-02) (27, 5.04177331924438476562e-01) (28, 5.76826632022857666016e-01) (29, 4.37512993812561035156e-01) (30, 4.50311124324798583984e-01) (31, 4.84433352947235107422e-01) (32, 4.57316458225250244141e-01) (33, 3.48161786794662475586e-01) (34, 4.54156756401062011719e-01) (35, 5.27813613414764404297e-01) (36, 6.04747056961059570312e-01) (0, 2.23557010293006896973e-01) (1, -1.27083897590637207031e+00) (2, -1.29651999473571777344e+00) (3, -1.63790762424468994141e+00) (4, -2.59161019325256347656e+00) (5, -1.55633211135864257812e+00) (6, -1.32352018356323242188e+00) (7, -2.60731387138366699219e+00) (8, -2.07392382621765136719e+00) (9, -2.05012011528015136719e+00) (10, -2.23194861412048339844e+00) (11, -2.16112041473388671875e+00) (12, 1.50000000000000000000e+03) (13, 1.50000000000000000000e+03) (14, 9.92982055664062500000e+02) (15, -9.48006057739257812500e+00) (16, -1.29966223239898681641e+00) (17, -1.06621372699737548828e+00) (18, -6.75274038314819335938e+00) (19, -1.21423041820526123047e+00) (20, -3.80054235458374023438e+00) (21, 8.16044998168945312500e+00) (22, -1.17235437011718750000e+03) (23, 1.50000000000000000000e+03) (24, -1.44190454483032226562e+00) (25, -1.56210529804229736328e+00) (26, -1.55033898353576660156e+00) (27, -1.27004778385162353516e+00) (28, -1.50084173679351806641e+00) (29, -9.86864149570465087891e-01) (30, -1.03502750396728515625e+00) (31, -1.65286207199096679688e+00) (32, -1.77424311637878417969e+00) (33, -1.24865424633026123047e+00) (34, -1.41098237037658691406e+00) (35, -3.91081357002258300781e+00) (36, -1.53472781181335449219e+00) (0, -7.17970132827758789062e-01) (1, -6.50324821472167968750e-01) (2, -6.62150204181671142578e-01) (3, -5.60739696025848388672e-01) (4, -5.53829193115234375000e-01) (5, -5.53323626518249511719e-01) (6, -6.59106552600860595703e-01) (7, -6.58999502658843994141e-01) (8, -5.20855069160461425781e-01) (9, -4.84483033418655395508e-01) (10, -4.94800984859466552734e-01) (11, -8.54039639234542846680e-02) (12, 1.50000000000000000000e+03) (13, 1.50000000000000000000e+03) (14, 2.60641918182373046875e+01) (15, 3.79002213478088378906e-01) (16, 6.79326534271240234375e+00) (17, 1.76519468426704406738e-01) (18, 3.65456044673919677734e-01) (19, 4.53505188226699829102e-01) (20, 1.08113193511962890625e+00) (21, 2.86727066040039062500e+01) (22, 2.03933315277099609375e+01) (23, 1.50000000000000000000e+03) (24, -2.31976490467786788940e-02) (25, 6.90123289823532104492e-02) (26, 5.02944141626358032227e-02) (27, 2.34562680125236511230e-01) (28, 1.84685006737709045410e-01) (29, 1.16904295980930328369e-01) (30, 9.76668074727058410645e-02) (31, 5.91031610965728759766e-02) (32, 5.56772947311401367188e-02) (33, 5.83051890134811401367e-02) (34, 2.22480729222297668457e-01) (35, 1.00944541394710540771e-01) (36, -1.07121728360652923584e-01) (0, -4.63115960359573364258e-01) (1, -3.90782505273818969727e-01) (2, -3.51031213998794555664e-01) (3, -3.92388552427291870117e-01) (4, -3.93109291791915893555e-01) (5, -6.35165929794311523438e-01) (6, -6.24668478965759277344e-01) (7, -3.90771776437759399414e-01) (8, -4.27531927824020385742e-01) (9, -4.80057328939437866211e-01) (10, -5.24387359619140625000e-01) (11, -1.22907328605651855469e+00) (12, 1.50000000000000000000e+03) (13, 1.50000000000000000000e+03) (14, 7.68546447753906250000e+02) (15, 1.05958700180053710938e+00) (16, -1.63390064239501953125e+00) (17, -3.75152081251144409180e-01) (18, -1.50034591555595397949e-01) (19, 3.69837331771850585938e+00) (20, 1.39181792736053466797e+00) (21, -2.82017574310302734375e+01) (22, -4.46936004638671875000e+02) (23, 1.50000000000000000000e+03) (24, -1.14231385290622711182e-01) (25, -8.08465480804443359375e-02) (26, -1.63560390472412109375e-01) (27, -8.41142088174819946289e-02) (28, -9.66257303953170776367e-02) (29, -1.36426866054534912109e-01) (30, -2.37222746014595031738e-01) (31, -1.53252139687538146973e-01) (32, -1.30559012293815612793e-01) (33, -1.41986340284347534180e-01) (34, -1.74425482749938964844e-01) (35, -1.40885651111602783203e-01) (36, -2.93581157922744750977e-01) (0, 2.42083621025085449219e+00) (1, 2.87982273101806640625e+00) (2, 4.32798385620117187500e+00) (3, 2.43215370178222656250e+00) (4, 4.19713519513607025146e-02) (5, 3.42097640037536621094e-01) (6, -2.30628252029418945312e-01) (7, -9.27507758140563964844e-01) (8, 1.04055204391479492188e+01) (9, 2.72263669967651367188e+00) (10, 3.22038345336914062500e+01) (11, 5.54248619079589843750e+00) (12, 1.50000000000000000000e+03) (13, 1.50000000000000000000e+03) (14, 3.78147308349609375000e+02) (15, 3.75332679748535156250e+01) (16, 2.54516334533691406250e+01) (17, 4.29330587387084960938e+00) (18, 2.07105135917663574219e+00) (19, -1.11244571208953857422e+00) (20, 1.24872360229492187500e+01) (21, -3.71118499755859375000e+02) (22, -3.57642181396484375000e+02) (23, 1.50000000000000000000e+03) (24, 1.55085074901580810547e+00) (25, 1.41564381122589111328e+00) (26, 9.82350409030914306641e-01) (27, 5.65499162673950195312e+00) (28, 2.74389123916625976562e+00) (29, 3.23710441589355468750e+00) (30, 1.41356968879699707031e+00) (31, 2.64739775657653808594e+00) (32, 2.83565664291381835938e+00) (33, 1.43989884853363037109e+00) (34, 2.82281661033630371094e+00) (35, 2.78964948654174804688e+00) (36, -2.47727775573730468750e+00) (0, 4.51073360443115234375e+00) (1, 3.45770120620727539062e+00) (2, 7.28690814971923828125e+00) (3, 1.66455364227294921875e+00) (4, 1.56385076045989990234e+00) (5, 9.53488826751708984375e-01) (6, -3.61831808090209960938e+00) (7, 1.10172724723815917969e+00) (8, 1.05268061161041259766e+00) (9, 1.20881628990173339844e+00) (10, 1.61359322071075439453e+00) (11, 1.37550210952758789062e+00) (12, 1.50000000000000000000e+03) (13, 1.50000000000000000000e+03) (14, 1.49998132324218750000e+03) (15, 1.51859512329101562500e+02) (16, 9.59423923492431640625e+00) (17, 1.32369303703308105469e+00) (18, 1.43948793411254882812e+00) (19, 6.55310821533203125000e+00) (20, 3.82389831542968750000e+01) (21, 9.58143806457519531250e+00) (22, 4.02711212158203125000e+02) (23, 1.50000000000000000000e+03) (24, 1.10164890289306640625e+01) (25, 4.28246593475341796875e+00) (26, 1.45854771137237548828e+00) (27, 1.48671782016754150391e+00) (28, 6.19192123413085937500e-01) (29, 7.20802724361419677734e-01) (30, 8.36718440055847167969e-01) (31, 7.21361041069030761719e-01) (32, 9.13711726665496826172e-01) (33, 1.40250515937805175781e+00) (34, 8.69135379791259765625e-01) (35, 1.45020544528961181641e+00) (36, 3.50788283348083496094e+00) (0, 3.71600222587585449219e+00) (1, 1.45094871520996093750e+01) (2, 5.09539079666137695312e+00) (3, -2.92144924402236938477e-01) (4, 1.68242347240447998047e+00) (5, 9.73743438720703125000e-01) (6, 9.98651206493377685547e-01) (7, 1.24661159515380859375e+00) (8, 2.08378338813781738281e+00) (9, 1.37722969055175781250e+00) (10, 1.91564238071441650391e+00) (11, 2.82362103462219238281e+00) (12, 1.50000000000000000000e+03) (13, 1.50000000000000000000e+03) (14, 3.51934692382812500000e+02) (15, 6.82085275650024414062e+00) (16, 3.22843527793884277344e+00) (17, 2.81206417083740234375e+00) (18, 5.78933382034301757812e+00) (19, 1.10371851921081542969e+00) (20, 4.38707304000854492188e+00) (21, 3.66169857978820800781e+00) (22, 3.13241821289062500000e+02) (23, 1.50000000000000000000e+03) (24, 4.66567707061767578125e+00) (25, 7.24467039108276367188e+00) (26, 3.46900343894958496094e+00) (27, 7.58168399333953857422e-01) (28, 6.29743456840515136719e-01) (29, 6.25892579555511474609e-01) (30, 8.02216231822967529297e-01) (31, 9.62458670139312744141e-01) (32, 7.80391037464141845703e-01) (33, 2.31715345382690429688e+00) (34, 6.02935314178466796875e-01) (35, 7.24336087703704833984e-01) (36, 9.47399079799652099609e-01) (0, 6.48238539695739746094e-01) (1, 2.42178726196289062500e+00) (2, -8.92537891864776611328e-01) (3, 7.47951090335845947266e-01) (4, 4.18768137693405151367e-01) (5, -1.35486090183258056641e+00) (6, 1.41143426299095153809e-01) (7, 4.62724864482879638672e-01) (8, 2.47606351971626281738e-01) (9, -2.53635436296463012695e-01) (10, 1.23656058311462402344e+00) (11, -4.46885728836059570312e+00) (12, 1.50000000000000000000e+03) (13, 1.50000000000000000000e+03) (14, 1.49902563476562500000e+03) (15, 4.67373886108398437500e+01) (16, -2.83404579162597656250e+01) (17, 5.09132337570190429688e+00) (18, 1.08900938034057617188e+01) (19, -1.27868533134460449219e+00) (20, 3.32772521972656250000e+01) (21, 3.97881774902343750000e+01) (22, 1.49987841796875000000e+03) (23, 1.50000000000000000000e+03) (24, 7.78138995170593261719e-01) (25, 4.95123624801635742188e-01) (26, 5.24008154869079589844e-01) (27, 6.87942266464233398438e+00) (28, 2.04662680625915527344e+00) (29, 6.56873464584350585938e-01) (30, 5.21368503570556640625e-01) (31, -7.92683102190494537354e-03) (32, 3.16236686706542968750e+00) (33, 1.02598464488983154297e+00) (34, 8.68365705013275146484e-01) (35, -5.99549055099487304688e-01) (36, -2.70121246576309204102e-02) (0, 8.40998530387878417969e-01) (1, 9.76893305778503417969e-01) (2, 1.39080271124839782715e-01) (3, -1.78768604993820190430e-01) (4, 2.82179534435272216797e-01) (5, -6.24057114124298095703e-01) (6, 1.66129589080810546875e-01) (7, -6.17478907108306884766e-01) (8, -1.63214311003684997559e-01) (9, -1.50911223888397216797e+00) (10, 4.24360930919647216797e-01) (11, 6.36484086513519287109e-01) (12, 1.50000000000000000000e+03) (13, 1.50000000000000000000e+03) (14, 6.56485351562500000000e+02) (15, 1.43175582885742187500e+02) (16, 6.77621316909790039062e+00) (17, 6.63159906864166259766e-01) (18, 1.11554491519927978516e+00) (19, 6.33018064498901367188e+00) (20, 3.09996166229248046875e+01) (21, 5.57943191528320312500e+01) (22, 1.17111511230468750000e+03) (23, 1.50000000000000000000e+03) (24, 1.17830455303192138672e+00) (25, 7.92028188705444335938e-01) (26, 1.07574367523193359375e+00) (27, 1.83408176898956298828e+00) (28, 1.74732124805450439453e+00) (29, 4.45609760284423828125e+00) (30, 5.09809303283691406250e+00) (31, 5.14504241943359375000e+00) (32, 3.44324398040771484375e+00) (33, 3.90288686752319335938e+00) (34, 3.27933478355407714844e+00) (35, 5.83925676345825195312e+00) (36, 1.34968113899230957031e+00) (0, -1.87312528491020202637e-01) (1, -7.21296727657318115234e-01) (2, -6.72711312770843505859e-01) (3, -6.59078359603881835938e-01) (4, 1.28486901521682739258e-01) (5, -8.23201015591621398926e-02) (6, -8.74678611755371093750e-01) (7, -7.20310509204864501953e-01) (8, -6.69720709323883056641e-01) (9, -7.89865612983703613281e-01) (10, -8.05671870708465576172e-01) (11, -7.01006591320037841797e-01) (12, 1.50000000000000000000e+03) (13, 1.50000000000000000000e+03) (14, -2.98642608642578125000e+02) (15, 3.32967257499694824219e+00) (16, 1.47376918792724609375e+00) (17, -3.17745000123977661133e-01) (18, -2.84425884485244750977e-01) (19, 5.03519117832183837891e-01) (20, 1.15432608127593994141e+00) (21, -2.27115631103515625000e+00) (22, -7.91862121582031250000e+02) (23, 1.50000000000000000000e+03) (24, -1.19531758129596710205e-01) (25, -2.13161244988441467285e-01) (26, -1.60288840532302856445e-01) (27, -1.81292161345481872559e-01) (28, -1.37042969465255737305e-01) (29, -2.84125298261642456055e-01) (30, -1.96846291422843933105e-01) (31, -2.21849903464317321777e-01) (32, -2.30396196246147155762e-01) (33, -3.01076471805572509766e-01) (34, -2.31468215584754943848e-01) (35, -4.92906361818313598633e-01) (36, -2.69147399812936782837e-02) (0, 5.30219793319702148438e+00) (1, 4.55619430541992187500e+00) (2, 2.34860825538635253906e+00) (3, 1.25901925563812255859e+00) (4, 2.40814775228500366211e-01) (5, 3.99835228919982910156e-01) (6, -1.01921364665031433105e-01) (7, -4.08160877227783203125e+00) (8, -8.13858985900878906250e-01) (9, 4.15218919515609741211e-02) (10, 3.45749944448471069336e-01) (11, 2.83397406339645385742e-01) (12, 1.50000000000000000000e+03) (13, 1.50000000000000000000e+03) (14, 6.79969596862792968750e+00) (15, 3.81553530693054199219e+00) (16, 1.19225192070007324219e+00) (17, 2.80742287635803222656e-01) (18, 3.52479331195354461670e-02) (19, -3.68851327896118164062e+00) (20, 7.63622045516967773438e-01) (21, 1.56641721725463867188e+01) (22, 1.44613784790039062500e+02) (23, 1.50000000000000000000e+03) (24, -6.33162260055541992188e-02) (25, 1.33783742785453796387e-01) (26, 4.06420379877090454102e-02) (27, 9.38512012362480163574e-02) (28, -1.49890765547752380371e-01) (29, 2.26643867790699005127e-02) (30, 2.59967949241399765015e-02) (31, 1.54282730072736740112e-02) (32, 5.70932328701019287109e-02) (33, -4.18906807899475097656e-02) (34, -7.40002021193504333496e-02) (35, 1.25071406364440917969e-02) (36, -7.05711320042610168457e-02) (0, -7.72297084331512451172e-01) (1, -5.50068795680999755859e-01) (2, -5.83945930004119873047e-01) (3, -6.28204762935638427734e-01) (4, -2.91577607393264770508e-01) (5, -4.07174259424209594727e-01) (6, -2.61333018541336059570e-01) (7, -3.38471889495849609375e-01) (8, -4.38193857669830322266e-01) (9, -4.22952741384506225586e-01) (10, -4.66788053512573242188e-01) (11, -3.14162820577621459961e-01) (12, 1.50000000000000000000e+03) (13, 1.50000000000000000000e+03) (14, 3.24667053222656250000e+01) (15, -1.22678823769092559814e-01) (16, 1.45623609423637390137e-01) (17, 6.01974353194236755371e-02) (18, 5.11741004884243011475e-02) (19, 1.67601048946380615234e+00) (20, 1.65661513805389404297e-01) (21, -4.14465951919555664062e+00) (22, -8.50520141601562500000e+02) (23, 1.50000000000000000000e+03) (24, -1.89956724643707275391e-01) (25, -1.05011701583862304688e-01) (26, -2.02645093202590942383e-01) (27, 1.07009597122669219971e-01) (28, 1.05184294283390045166e-01) (29, 1.05093635618686676025e-01) (30, 5.10453470051288604736e-02) (31, 5.17528243362903594971e-02) (32, -9.82082709670066833496e-02) (33, 6.41375407576560974121e-02) (34, 1.64813980460166931152e-01) (35, 8.58857706189155578613e-02) (36, -2.15652048587799072266e-01) (0, -3.01447480916976928711e-01) (1, -4.17780965566635131836e-01) (2, -2.78531521558761596680e-01) (3, -3.09906512498855590820e-01) (4, -1.16112852096557617188e+00) (5, -1.15234363079071044922e+00) (6, -4.26096588373184204102e-01) (7, -4.54636275768280029297e-01) (8, -6.35430395603179931641e-01) (9, -4.77873921394348144531e-01) (10, -3.48308444023132324219e-01) (11, -2.50728547573089599609e-01) (12, 1.50000000000000000000e+03) (13, 1.50000000000000000000e+03) (14, 3.36841011047363281250e+01) (15, -2.72686266899108886719e+00) (16, -4.53795766830444335938e+00) (17, -3.83726656436920166016e-01) (18, -4.47591245174407958984e-01) (19, -1.24112114310264587402e-01) (20, -2.61875224113464355469e+00) (21, -9.36171114444732666016e-01) (22, 2.72811174392700195312e+00) (23, 1.50000000000000000000e+03) (24, -2.41539906710386276245e-02) (25, -6.01265691220760345459e-02) (26, 1.01388663053512573242e-01) (27, 9.51046794652938842773e-02) (28, 6.04841038584709167480e-02) (29, 1.29773154854774475098e-01) (30, 4.69541177153587341309e-02) (31, -1.58950802870094776154e-03) (32, -9.56763848662376403809e-02) (33, 1.32941484451293945312e-01) (34, 2.31322906911373138428e-02) (35, 1.13475415855646133423e-02) (36, -1.79345175623893737793e-01) (0, 2.50276803970336914062e+00) (1, 9.79153156280517578125e-01) (2, 7.36047327518463134766e-01) (3, 1.45940408706665039062e+01) (4, 9.18195247650146484375e-01) (5, 1.18621802330017089844e+00) (6, 3.61265468597412109375e+00) (7, 2.14294481277465820312e+00) (8, 2.04707932472229003906e+00) (9, 1.66293907165527343750e+01) (10, 1.03689250946044921875e+01) (11, 1.65492496490478515625e+01) (12, 1.50000000000000000000e+03) (13, 1.50000000000000000000e+03) (14, 7.19193725585937500000e+02) (15, 4.00808349609375000000e+02) (16, 1.75454711914062500000e+01) (17, 3.71502151489257812500e+01) (18, 3.25327467918395996094e+00) (19, 1.46015653610229492188e+01) (20, 5.97178792953491210938e+00) (21, 1.03250518798828125000e+02) (22, 4.52799591064453125000e+02) (23, 1.50000000000000000000e+03) (24, 3.18362569808959960938e+00) (25, 1.92115938663482666016e+00) (26, 7.87332963943481445312e+00) (27, 1.22621691226959228516e+00) (28, 1.64332497119903564453e+00) (29, 2.06638669967651367188e+00) (30, 2.11398625373840332031e+00) (31, 2.28191971778869628906e+00) (32, 1.88376986980438232422e+00) (33, 2.37770533561706542969e+00) (34, 4.44930458068847656250e+00) (35, 2.61903023719787597656e+00) (36, 8.78362953662872314453e-01) (0, 1.08535277843475341797e+00) (1, 1.70788121223449707031e+00) (2, 7.51497387886047363281e-01) (3, 7.84688413143157958984e-01) (4, 5.36718547344207763672e-01) (5, 7.18079090118408203125e-01) (6, 5.96558690071105957031e-01) (7, 8.09331357479095458984e-01) (8, 8.54934036731719970703e-01) (9, 2.23118090629577636719e+00) (10, 3.15147876739501953125e+00) (11, -1.18891630172729492188e+01) (12, 1.50000000000000000000e+03) (13, 1.50000000000000000000e+03) (14, 1.44166589355468750000e+03) (15, -9.34434051513671875000e+01) (16, 7.85910129547119140625e+00) (17, 6.71862065792083740234e-01) (18, 7.31942749023437500000e+00) (19, 5.31067609786987304688e-01) (20, 1.99349701404571533203e+00) (21, -8.66184115409851074219e-01) (22, 1.50000000000000000000e+03) (23, 1.50000000000000000000e+03) (24, 4.14960265159606933594e-01) (25, 7.26911783218383789062e-01) (26, 5.70221126079559326172e-01) (27, 7.15179741382598876953e-01) (28, 2.57630795240402221680e-01) (29, 3.67918521165847778320e-01) (30, 3.64195615053176879883e-01) (31, 2.24400669336318969727e-01) (32, -2.06442221999168395996e-01) (33, 3.98169249296188354492e-01) (34, 2.15795606374740600586e-01) (35, 5.40629804134368896484e-01) (36, 5.08034467697143554688e-01) (0, -3.08188527822494506836e-01) (1, -2.88194477558135986328e-01) (2, 7.22819924354553222656e-01) (3, -7.52916187047958374023e-02) (4, -1.61801183223724365234e+00) (5, 2.47979640960693359375e-01) (6, -2.85722523927688598633e-01) (7, 9.21772480010986328125e-01) (8, 1.23469209671020507812e+00) (9, 2.08885216712951660156e+00) (10, 8.89420926570892333984e-01) (11, 7.31783568859100341797e-01) (12, 1.50000000000000000000e+03) (13, 1.50000000000000000000e+03) (14, 5.53116760253906250000e+02) (15, 2.51576595306396484375e+01) (16, 6.24797868728637695312e+00) (17, 3.11273407936096191406e+00) (18, 1.03927814960479736328e+00) (19, 8.63917827606201171875e-01) (20, 4.52594852447509765625e+00) (21, 2.04555435180664062500e+01) (22, 1.00529260253906250000e+03) (23, 1.50000000000000000000e+03) (24, 6.19790971279144287109e-01) (25, -4.67032101005315780640e-03) (26, 3.10227990150451660156e-01) (27, 5.41965723037719726562e-01) (28, 3.79208505153656005859e-01) (29, 6.08964085578918457031e-01) (30, 7.52062201499938964844e-01) (31, 5.14257073402404785156e-01) (32, 4.83278542757034301758e-01) (33, 6.65534794330596923828e-01) (34, 5.45796692371368408203e-01) (35, 3.13484400510787963867e-01) (36, 7.40774571895599365234e-01) (0, -4.23057258129119873047e-01) (1, -3.55921268463134765625e-01) (2, -2.77309447526931762695e-01) (3, -3.38685899972915649414e-01) (4, -6.55479788780212402344e-01) (5, -4.36811953783035278320e-01) (6, -4.87756550312042236328e-01) (7, -4.21987980604171752930e-01) (8, -5.82109153270721435547e-01) (9, -2.91135162115097045898e-01) (10, -4.01289880275726318359e-01) (11, -2.40052193403244018555e-01) (12, 1.50000000000000000000e+03) (13, 1.50000000000000000000e+03) (14, 1.35458877563476562500e+02) (15, -6.95248484611511230469e-01) (16, -1.23161184787750244141e+00) (17, -1.04766741394996643066e-01) (18, -1.10657796263694763184e-01) (19, -2.26309701800346374512e-01) (20, -4.28079813718795776367e-01) (21, 5.09772598743438720703e-01) (22, -3.02908081054687500000e+02) (23, 1.50000000000000000000e+03) (24, 5.58634363114833831787e-02) (25, 5.23409366607666015625e-01) (26, -1.91035233438014984131e-02) (27, -4.64330054819583892822e-02) (28, 3.70833694934844970703e-01) (29, 3.94498091191053390503e-03) (30, -2.15644210577011108398e-01) (31, -1.05023972690105438232e-01) (32, -7.04728662967681884766e-02) (33, 5.04564404487609863281e-01) (34, 2.92597174644470214844e-01) (35, -1.00410394370555877686e-01) (36, -2.19018369913101196289e-01) (0, 1.40774369239807128906e+00) (1, 1.05338823795318603516e+00) (2, 5.21934890747070312500e+00) (3, 9.34737980365753173828e-01) (4, 1.49151027202606201172e+00) (5, 5.70741593837738037109e-01) (6, 9.38496053218841552734e-01) (7, 7.32093658447265625000e+01) (8, 3.23125505447387695312e+00) (9, 3.65173983573913574219e+00) (10, 1.01399099826812744141e+00) (11, 1.33513855934143066406e+00) (12, 1.50000000000000000000e+03) (13, 1.50000000000000000000e+03) (14, 1.50000000000000000000e+03) (15, 1.14285064697265625000e+02) (16, 1.25265312194824218750e+02) (17, 2.15236639976501464844e+00) (18, 7.74253666400909423828e-01) (19, -2.47961330413818359375e+00) (20, -1.59730648994445800781e+00) (21, -2.43551120758056640625e+01) (22, 1.50000000000000000000e+03) (23, 1.50000000000000000000e+03) (24, 4.82183170318603515625e+00) (25, 9.85139369964599609375e+00) (26, 4.82183790206909179688e+00) (27, 6.29254281520843505859e-01) (28, 1.39109003543853759766e+00) (29, 1.32037627696990966797e+00) (30, 1.46461498737335205078e+00) (31, 1.27960240840911865234e+00) (32, 7.38038837909698486328e-01) (33, 1.89307904243469238281e+00) (34, 1.51064801216125488281e+00) (35, 4.20316648483276367188e+00) (36, 1.22001338005065917969e+00) (0, 1.02892506122589111328e+00) (1, 9.42461252212524414062e-01) (2, 6.43501520156860351562e-01) (3, 8.61434102058410644531e-01) (4, 6.66522085666656494141e-01) (5, 6.79591894149780273438e-01) (6, 5.22386491298675537109e-01) (7, 9.70857322216033935547e-01) (8, 5.55110335350036621094e-01) (9, -4.35194075107574462891e-02) (10, 7.81318962574005126953e-01) (11, -1.68157711029052734375e+01) (12, 1.50000000000000000000e+03) (13, 1.50000000000000000000e+03) (14, 1.49668811035156250000e+03) (15, 6.34519147872924804688e+00) (16, 3.67116093635559082031e+00) (17, 3.38486528396606445312e+00) (18, 1.23427104949951171875e+00) (19, 1.32445967197418212891e+00) (20, 5.60272026062011718750e+00) (21, -5.59597473144531250000e+01) (22, -1.82823562622070312500e+02) (23, 1.50000000000000000000e+03) (24, 4.45430785417556762695e-01) (25, 2.76118755340576171875e-01) (26, 1.11177831888198852539e-01) (27, 4.44105088710784912109e-01) (28, 4.12181824445724487305e-01) (29, 2.87684679031372070312e-01) (30, 5.80932974815368652344e-01) (31, 4.41500514745712280273e-01) (32, 4.43318128585815429688e-01) (33, 4.73670005798339843750e-01) (34, 4.14867311716079711914e-01) (35, 3.69848936796188354492e-01) (36, 4.79072242975234985352e-01) (0, -1.59876847267150878906e+00) (1, -1.36690163612365722656e+00) (2, -1.56368303298950195312e+00) (3, -1.54131495952606201172e+00) (4, -1.15066635608673095703e+00) (5, -6.23971104621887207031e-01) (6, -4.90347445011138916016e-01) (7, 4.56618165969848632812e+00) (8, 1.69769360218197107315e-03) (9, 4.38365310430526733398e-01) (10, -1.15034258365631103516e+00) (11, -5.72191774845123291016e-01) (12, 1.50000000000000000000e+03) (13, 1.50000000000000000000e+03) (14, 3.40440979003906250000e+01) (15, 8.27347183227539062500e+00) (16, -1.31472673416137695312e+01) (17, -6.13476037979125976562e-01) (18, -3.48423570394515991211e-02) (19, 2.93867647647857666016e-01) (20, -6.65320158004760742188e-01) (21, 1.23763227462768554688e+01) (22, 1.49823440551757812500e+02) (23, 1.50000000000000000000e+03) (24, -7.69869834184646606445e-02) (25, 1.23338714241981506348e-01) (26, -9.11205038428306579590e-02) (27, -2.37416952848434448242e-01) (28, 2.55308270454406738281e-01) (29, -2.04166874289512634277e-01) (30, -2.04621478915214538574e-02) (31, -4.22406904399394989014e-02) (32, -3.03316056728363037109e-01) (33, -2.74902936071157455444e-02) (34, 1.67316086590290069580e-02) (35, 5.58833777904510498047e-02) (36, -3.09130758047103881836e-01) (0, 1.30038276314735412598e-01) (1, -1.92521810531616210938e-01) (2, -3.49432408809661865234e-01) (3, -5.42662680149078369141e-01) (4, -5.42019307613372802734e-01) (5, -2.03960448503494262695e-01) (6, -4.93581324815750122070e-01) (7, -2.85174489021301269531e-01) (8, -2.93192386627197265625e-01) (9, -4.19338911771774291992e-01) (10, -4.18195903301239013672e-01) (11, -4.43009793758392333984e-01) (12, 1.50000000000000000000e+03) (13, 1.50000000000000000000e+03) (14, 2.27163665771484375000e+02) (15, -8.01193141937255859375e+00) (16, -7.93292760848999023438e-01) (17, -2.09944665431976318359e-01) (18, -4.88683693110942840576e-02) (19, 6.09828889369964599609e-01) (20, -1.37484776973724365234e+00) (21, -1.02290165424346923828e+00) (22, 1.45316726684570312500e+02) (23, 1.50000000000000000000e+03) (24, 9.74808260798454284668e-02) (25, -2.10527740418910980225e-02) (26, 2.25446224212646484375e-02) (27, -3.18347185850143432617e-01) (28, -1.52274966239929199219e-01) (29, -8.30199792981147766113e-02) (30, -3.44346202909946441650e-02) (31, -1.17379836738109588623e-01) (32, 1.78870726376771926880e-02) (33, 4.60119172930717468262e-02) (34, 1.68832704424858093262e-01) (35, 9.76203158497810363770e-02) (36, 3.19818258285522460938e-01) (0, 4.48390197753906250000e+00) (1, 2.15216970443725585938e+00) (2, 2.49313688278198242188e+00) (3, 2.56765174865722656250e+00) (4, 3.77594518661499023438e+00) (5, 6.37472391128540039062e+00) (6, 5.98707818984985351562e+00) (7, 4.99857425689697265625e+00) (8, 7.69321441650390625000e+00) (9, 4.00806331634521484375e+00) (10, 2.84740066528320312500e+00) (11, -1.40688002109527587891e+00) (12, 1.50000000000000000000e+03) (13, 1.50000000000000000000e+03) (14, -3.58831787109375000000e+02) (15, 1.65702346801757812500e+02) (16, 2.42878824472427368164e-01) (17, -2.51489315032958984375e+01) (18, 5.47681331634521484375e-01) (19, -3.34281325340270996094e+00) (20, 4.38577032089233398438e+00) (21, 1.29835116863250732422e+00) (22, -1.56852066040039062500e+02) (23, 1.50000000000000000000e+03) (24, 2.25469517707824707031e+00) (25, 6.23625934123992919922e-01) (26, 5.91497302055358886719e-01) (27, 3.07930493354797363281e+00) (28, 1.14402838051319122314e-01) (29, -2.22900438308715820312e+00) (30, 1.83656883239746093750e+00) (31, 1.79269325733184814453e+00) (32, 1.63568842411041259766e+00) (33, -1.36984252929687500000e+01) (34, -1.25397014617919921875e+00) (35, -3.38645982742309570312e+00) (36, 7.00363695621490478516e-01) (0, -4.76846665143966674805e-01) (1, -3.16925138235092163086e-01) (2, -4.04416710138320922852e-01) (3, -4.59474056959152221680e-01) (4, -1.29949867725372314453e+00) (5, -1.27821457386016845703e+00) (6, -4.06308025121688842773e-01) (7, -4.54698115587234497070e-01) (8, -3.60012441873550415039e-01) (9, -5.01113772392272949219e-01) (10, -3.55759650468826293945e-01) (11, -2.16403186321258544922e-01) (12, 1.50000000000000000000e+03) (13, 1.50000000000000000000e+03) (14, 1.47474377441406250000e+03) (15, -5.82046061754226684570e-02) (16, -1.25414407253265380859e+00) (17, -2.96547025442123413086e-01) (18, -2.67607599496841430664e-01) (19, -2.47602000832557678223e-01) (20, -1.39963579177856445312e+00) (21, -1.49601924419403076172e+00) (22, 9.37411987304687500000e+02) (23, 1.50000000000000000000e+03) (24, -4.24497164785861968994e-02) (25, -1.19276508688926696777e-01) (26, -8.25172197073698043823e-03) (27, 1.08321286737918853760e-01) (28, 7.51137435436248779297e-02) (29, 1.24552451074123382568e-01) (30, -1.54616713523864746094e-01) (31, -3.04078757762908935547e-01) (32, -1.71466022729873657227e-01) (33, 1.15687921643257141113e-01) (34, 3.88213503174483776093e-03) (35, -9.65796969830989837646e-03) (36, -9.79609042406082153320e-02) (0, -6.70969963073730468750e-01) (1, -5.24303078651428222656e-01) (2, -4.98462617397308349609e-01) (3, -5.72330951690673828125e-01) (4, -1.49851655960083007812e+00) (5, -1.46195662021636962891e+00) (6, -4.63957697153091430664e-01) (7, -5.80506026744842529297e-01) (8, -4.64167416095733642578e-01) (9, -3.25563997030258178711e-01) (10, -4.33191597461700439453e-01) (11, -5.07670342922210693359e-01) (12, 1.50000000000000000000e+03) (13, 1.50000000000000000000e+03) (14, 1.72862386703491210938e+00) (15, -2.29097232818603515625e+01) (16, 9.05425921082496643066e-02) (17, -2.43667629547417163849e-03) (18, 2.26167783141136169434e-01) (19, 1.15500725805759429932e-01) (20, 9.48938727378845214844e-01) (21, 1.49777936935424804688e+01) (22, 1.19839404296875000000e+03) (23, 1.50000000000000000000e+03) (24, -1.55793309211730957031e-01) (25, 5.54592721164226531982e-02) (26, 3.69860753417015075684e-02) (27, 5.56352794170379638672e-01) (28, 1.77979421615600585938e+00) (29, 1.62170469760894775391e-01) (30, 9.00235697627067565918e-02) (31, 1.03250645101070404053e-01) (32, 1.38269022107124328613e-01) (33, -1.29694975912570953369e-02) (34, -6.94298446178436279297e-02) (35, 9.62770916521549224854e-03) (36, -2.39507094025611877441e-01) (0, 6.47072017192840576172e-01) (1, 6.63121879100799560547e-01) (2, 4.33179169893264770508e-01) (3, 4.97363358736038208008e-01) (4, 5.71374118328094482422e-01) (5, 6.86293601989746093750e-01) (6, 7.00897097587585449219e-01) (7, 8.66979062557220458984e-01) (8, 1.10558235645294189453e+00) (9, 1.65867936611175537109e+00) (10, 9.80438947677612304688e-01) (11, 6.30189478397369384766e-01) (12, 1.50000000000000000000e+03) (13, 1.50000000000000000000e+03) (14, 1.42257543945312500000e+03) (15, 1.72506134033203125000e+02) (16, 1.86083817481994628906e+00) (17, 7.42765843868255615234e-01) (18, 7.33514904975891113281e-01) (19, 2.45172873139381408691e-01) (20, -6.43138580322265625000e+01) (21, 1.50862045288085937500e+01) (22, 1.49436315917968750000e+03) (23, 1.50000000000000000000e+03) (24, 5.99862992763519287109e-01) (25, 7.56437659263610839844e-01) (26, 4.69008028507232666016e-01) (27, 5.17867088317871093750e-01) (28, 4.21464294195175170898e-01) (29, 5.49142658710479736328e-01) (30, 5.96873641014099121094e-01) (31, 4.80720639228820800781e-01) (32, 5.88708579540252685547e-01) (33, 3.82984071969985961914e-01) (34, 4.27757859230041503906e-01) (35, 4.29737180471420288086e-01) (36, 8.07796478271484375000e-01) (0, 1.17430365085601806641e+00) (1, 1.19941771030426025391e+00) (2, 1.47136270999908447266e+00) (3, 3.55711221694946289062e+00) (4, 1.32206034660339355469e+00) (5, 1.73269891738891601562e+00) (6, 2.92980122566223144531e+00) (7, 1.91900742053985595703e+00) (8, 1.69406259059906005859e+00) (9, 2.05682492256164550781e+00) (10, 4.05350542068481445312e+00) (11, 1.27751731872558593750e+00) (12, 1.50000000000000000000e+03) (13, 1.50000000000000000000e+03) (14, 1.45817886352539062500e+02) (15, 8.28752517700195312500e+00) (16, 1.09026241302490234375e+00) (17, 3.04361969232559204102e-01) (18, 5.24946928024291992188e+00) (19, 3.35399293899536132812e+00) (20, 1.13430905342102050781e+00) (21, 1.41787155151367187500e+02) (22, 2.22625854492187500000e+02) (23, 1.50000000000000000000e+03) (24, 7.91174352169036865234e-01) (25, 9.02594685554504394531e-01) (26, 9.57723677158355712891e-01) (27, 1.94646739959716796875e+00) (28, 3.40795612335205078125e+00) (29, 2.26128101348876953125e+00) (30, 1.27427172660827636719e+00) (31, 7.10441112518310546875e-01) (32, 1.95110702514648437500e+00) (33, 3.93157696723937988281e+00) (34, 3.71417832374572753906e+00) (35, 1.00449872016906738281e+00) (36, 8.95616114139556884766e-01) (0, -1.26186180114746093750e+01) (1, -8.27078938484191894531e-01) (2, 6.76583126187324523926e-02) (3, 6.09157741069793701172e-01) (4, 1.10681848526000976562e+01) (5, 1.33651733398437500000e+00) (6, -1.13559842109680175781e-01) (7, 7.33860671520233154297e-01) (8, 3.29783618450164794922e-01) (9, -6.39191913604736328125e+00) (10, -3.18008279800415039062e+00) (11, -7.45035052299499511719e-01) (12, 1.50000000000000000000e+03) (13, 1.50000000000000000000e+03) (14, -9.08165161132812500000e+02) (15, -1.22820129394531250000e+02) (16, 4.83616018295288085938e+00) (17, 2.08112287521362304688e+00) (18, 2.07912015914916992188e+00) (19, -1.04345951080322265625e+01) (20, 3.58315110206604003906e+00) (21, -2.96751632690429687500e+01) (22, -3.95634704589843750000e+02) (23, 1.50000000000000000000e+03) (24, -3.92745316028594970703e-01) (25, -4.42057222127914428711e-01) (26, -8.58095359802246093750e+00) (27, 6.53473973274230957031e-01) (28, 1.51195561885833740234e+00) (29, 1.99172043800354003906e+00) (30, 2.03749299049377441406e+00) (31, 6.87763154506683349609e-01) (32, 3.49281525611877441406e+00) (33, 8.62358927726745605469e-01) (34, -4.23713363707065582275e-02) (35, 3.93060356378555297852e-01) (36, 6.61940053105354309082e-02) (37, 4.68292808532714843750e+00) (38, 3.74795526266098022461e-01) (39, 2.99880194664001464844e+00) (40, 1.33930504322052001953e+00) (41, 1.64929008483886718750e+00) (42, 2.52783203125000000000e+01) (43, 1.75389871001243591309e-01) (44, -2.80615568161010742188e-01) (45, 9.80854892730712890625e+00) (46, 8.70035588741302490234e-01) (47, 1.07240036129951477051e-01) (48, -1.16234993934631347656e+00) (49, 6.58254027366638183594e-01) (50, 2.94491440057754516602e-01) (51, 1.03089913725852966309e-01) (52, 3.91667342185974121094e+00) (53, 1.58132031559944152832e-01) (54, 3.48651003837585449219e+00) (55, 2.79758262634277343750e+01) (56, -4.54434680938720703125e+00) (57, 2.69577479362487792969e+00) (58, 1.18888437747955322266e+00) (59, 9.55849990844726562500e+01) (60, 2.49544095993041992188e+00) (61, 2.38003182411193847656e+00) (62, 8.73938560485839843750e+00) (63, 3.97378873825073242188e+00) (64, 9.92812752723693847656e-01) (65, 7.04479360580444335938e+00) (66, 5.10628700256347656250e-01) (67, 1.97949314117431640625e+00) (68, 3.00757141113281250000e+01) (69, 1.70030534267425537109e+00) (70, 9.28690338134765625000e+00) (71, 1.03638482093811035156e+00) (72, 3.70282626152038574219e+00) (73, 2.62312960624694824219e+00) (74, 3.35796470642089843750e+01) (75, 5.44923782348632812500e+01) (76, 8.64726734161376953125e+00) (77, 3.37265908718109130859e-01) (78, 1.40384650230407714844e+00) (79, 9.73065757751464843750e+00) (80, 5.36341071128845214844e-01) (81, 1.52830657958984375000e+01) (82, 1.06662988662719726562e+01) (83, 6.32127165794372558594e-01) (84, -4.75655078887939453125e+00) (85, 1.40211939811706542969e+00) (86, 2.12198925018310546875e+00) (87, 3.12413196563720703125e+01) (88, 1.40624210238456726074e-01) (89, -7.74581208825111389160e-02) (90, 1.23543238639831542969e+00) (91, 3.00980389118194580078e-01) (92, -3.21890622377395629883e-01) (93, 1.93346805572509765625e+01) (94, 1.54291164875030517578e+00) (95, 2.28145618438720703125e+01) (96, -6.48954544067382812500e+01) (97, 3.01622509956359863281e+00) (98, 1.81068077087402343750e+01) (99, 2.40641355514526367188e+00) (100, 4.92295455932617187500e+00) (101, 4.81729693710803985596e-02) (37, 1.68775558471679687500e+01) (38, 3.10448188781738281250e+01) (39, -1.48223104476928710938e+01) (40, 1.35639381408691406250e+00) (41, 1.33889734745025634766e+00) (42, 6.76006650924682617188e+00) (43, -7.14053821563720703125e+00) (44, 1.90865745544433593750e+01) (45, 2.67677135467529296875e+01) (46, -1.42586433887481689453e+00) (47, 4.51323688030242919922e-01) (48, 2.07788600921630859375e+01) (49, 4.59122538566589355469e-01) (50, 1.78289966583251953125e+01) (51, 7.51773881912231445312e+00) (52, 4.37730133533477783203e-01) (53, 1.87716662883758544922e-01) (54, -6.71599912643432617188e+00) (55, 2.09450435638427734375e+01) (56, 1.74297094345092773438e+00) (57, 1.94383919239044189453e+00) (58, 6.94155752658843994141e-01) (59, 7.10270738601684570312e+00) (60, 1.25865812301635742188e+01) (61, 9.55090284347534179688e-01) (62, -1.64193257689476013184e-01) (63, 3.27648425102233886719e+00) (64, 1.35978549718856811523e-01) (65, 2.90615463256835937500e+01) (66, 6.12153434753417968750e+00) (67, -4.65189158916473388672e-01) (68, -9.50313866138458251953e-01) (69, 8.31754505634307861328e-02) (70, 3.67142143249511718750e+01) (71, -1.86491131782531738281e+00) (72, 2.65024433135986328125e+01) (73, -2.83697533607482910156e+00) (74, 8.62905120849609375000e+00) (75, 1.03173637390136718750e+01) (76, 4.12288570404052734375e+00) (77, 4.94518309831619262695e-01) (78, 7.20330762863159179688e+00) (79, 1.49045646190643310547e+00) (80, 4.02081718444824218750e+01) (81, 6.18594980239868164062e+00) (82, -1.66177024841308593750e+01) (83, 7.19710588455200195312e-01) (84, -2.69504718780517578125e+01) (85, 1.09274893999099731445e-01) (86, 6.65498828887939453125e+00) (87, -2.57811775207519531250e+01) (88, 1.53764467239379882812e+01) (89, 1.41388428211212158203e+00) (90, 5.83613216876983642578e-01) (91, 1.19152793884277343750e+01) (92, 1.34681577682495117188e+01) (93, 1.96668548583984375000e+01) (94, 5.65643310546875000000e-01) (95, 2.38468627929687500000e+01) (96, 9.56130790710449218750e+00) (97, -9.68952104449272155762e-02) (98, 7.04122066497802734375e+00) (99, 1.78585433959960937500e+00) (100, -1.99699993133544921875e+01) (101, 2.48347129672765731812e-02) (37, 1.09304690361022949219e+00) (38, 1.15814037322998046875e+01) (39, -5.29472684860229492188e+00) (40, 1.67084741592407226562e+00) (41, 1.66246855258941650391e+00) (42, 2.84563064575195312500e+00) (43, 1.55180387496948242188e+01) (44, 3.18976402282714843750e+00) (45, 7.55738544464111328125e+00) (46, 9.80204701423645019531e-01) (47, -1.36634960770606994629e-01) (48, 1.32322657108306884766e+00) (49, 1.59019207954406738281e+00) (50, 1.36218986511230468750e+01) (51, 4.30646991729736328125e+00) (52, 2.07444787025451660156e+00) (53, -6.91227674484252929688e-01) (54, 2.58474102020263671875e+01) (55, 2.21793022155761718750e+01) (56, 2.57595729827880859375e+00) (57, 1.61566543579101562500e+00) (58, 5.17207145690917968750e+00) (59, 7.40891170501708984375e+00) (60, -3.77894735336303710938e+00) (61, 2.07464814186096191406e+00) (62, 7.72388219833374023438e-01) (63, 1.78513641357421875000e+01) (64, -1.31147551536560058594e+00) (65, 1.15553436279296875000e+01) (66, 6.42859518527984619141e-01) (67, 5.26913185119628906250e+01) (68, 5.32454442977905273438e+00) (69, 9.06320762634277343750e+00) (70, 2.88366661071777343750e+01) (71, 2.46434726715087890625e+01) (72, 3.55489373207092285156e+00) (73, 9.40580177307128906250e+00) (74, 1.93290386199951171875e+01) (75, 6.18990182876586914062e+00) (76, 5.27418851852416992188e-01) (77, 5.48257112503051757812e-01) (78, -5.59195637702941894531e-01) (79, 1.77456021308898925781e-01) (80, 1.08482452392578125000e+02) (81, 8.53466949462890625000e+01) (82, 4.74017181396484375000e+01) (83, 1.40882658958435058594e+00) (84, -9.92162609100341796875e+00) (85, 1.09629631042480468750e+01) (86, 5.16655206680297851562e+00) (87, -4.34430408477783203125e+00) (88, 3.05126905441284179688e+00) (89, 2.26567253470420837402e-01) (90, 2.42797546386718750000e+01) (91, 3.71498012542724609375e+00) (92, -3.72353577613830566406e+00) (93, -2.15747535228729248047e-01) (94, 2.18739962577819824219e+00) (95, 4.84337577819824218750e+01) (96, 1.68632030487060546875e-01) (97, 2.65238308906555175781e+00) (98, 2.17602705955505371094e+00) (99, 7.88394165039062500000e+00) (100, 1.06082811355590820312e+01) (101, 2.21066379547119140625e+00) (37, 8.29800033569335937500e+00) (38, 3.23818236589431762695e-01) (39, 2.16513380408287048340e-01) (40, 3.70228663086891174316e-02) (41, 3.58205723762512207031e+00) (42, 6.54925775527954101562e+00) (43, 9.81846714019775390625e+00) (44, 1.46434676647186279297e+00) (45, 2.00587444305419921875e+01) (46, 5.02349957823753356934e-02) (47, 9.03000164031982421875e+00) (48, 3.52389276027679443359e-01) (49, 5.21717727184295654297e-01) (50, -1.23868017196655273438e+01) (51, 1.12632036209106445312e+01) (52, 3.26227009296417236328e-01) (53, 2.83005625009536743164e-01) (54, 6.67885914444923400879e-02) (55, 2.13573312759399414062e+00) (56, 2.25620460510253906250e+00) (57, 3.10879230499267578125e+00) (58, 4.58103179931640625000e-01) (59, 9.05070495605468750000e+01) (60, 5.50074863433837890625e+00) (61, 3.16167831420898437500e+00) (62, 1.00837540626525878906e+00) (63, 5.05291032791137695312e+00) (64, 5.76117944717407226562e+00) (65, 1.27741169929504394531e+00) (66, 8.05319547653198242188e-01) (67, 1.39623022079467773438e+00) (68, 3.97602081298828125000e+01) (69, 1.10833418369293212891e+00) (70, 3.38532142639160156250e+01) (71, 7.46212768554687500000e+00) (72, -3.69378967285156250000e+01) (73, 4.66331481933593750000e+01) (74, 1.12421007156372070312e+01) (75, 5.33617630004882812500e+01) (76, -2.13302936553955078125e+01) (77, -9.07514953613281250000e+00) (78, 5.23334598541259765625e+00) (79, 1.06444191932678222656e+00) (80, -2.74291172027587890625e+01) (81, 7.10330307483673095703e-01) (82, 7.71973896026611328125e+00) (83, 4.48492050170898437500e+00) (84, 1.24594593048095703125e+01) (85, 3.34989458322525024414e-01) (86, -7.28181749582290649414e-02) (87, 1.15352182388305664062e+01) (88, 1.09622073173522949219e+00) (89, 7.82781314849853515625e+00) (90, -1.62091789245605468750e+01) (91, 3.41419601440429687500e+00) (92, 9.73416671752929687500e+01) (93, -4.07131481170654296875e+00) (94, 1.97223174571990966797e+00) (95, 4.71178436279296875000e+00) (96, 8.95860385894775390625e+00) (97, 4.26909780502319335938e+00) (98, 2.13233547210693359375e+01) (99, 2.81167030334472656250e+00) (100, 1.04745016098022460938e+01) (101, 9.43390429019927978516e-01) (37, 5.32232463359832763672e-01) (38, 6.21930181980133056641e-01) (39, 1.10957980155944824219e+00) (40, 1.91974411010742187500e+01) (41, -1.37450695037841796875e+00) (42, 1.91772041320800781250e+01) (43, 2.70097312927246093750e+01) (44, 3.39328842163085937500e+01) (45, 7.76801681518554687500e+00) (46, 6.15045261383056640625e+00) (47, 1.29020586013793945312e+01) (48, 4.59862899780273437500e+00) (49, -2.36649841070175170898e-01) (50, 4.80781517028808593750e+01) (51, 5.45787239074707031250e+00) (52, 1.00519714355468750000e+01) (53, -6.35877084732055664062e+00) (54, 1.17968969345092773438e+01) (55, 3.86180000305175781250e+01) (56, 2.86709547042846679688e+00) (57, 2.03947200775146484375e+01) (58, -5.09022295475006103516e-01) (59, -4.77070379257202148438e+00) (60, 1.63479959964752197266e+00) (61, 2.19359540939331054688e+00) (62, 6.35563552379608154297e-01) (63, 4.09207105636596679688e+00) (64, 1.27769970893859863281e+00) (65, 9.16781806945800781250e+00) (66, 9.88979911804199218750e+00) (67, 1.20909633636474609375e+01) (68, 4.10870361328125000000e+00) (69, 1.49420976638793945312e+00) (70, 4.44862480163574218750e+01) (71, 5.39463462829589843750e+01) (72, -8.01354694366455078125e+00) (73, 3.18793697357177734375e+01) (74, 8.20393466949462890625e+00) (75, 2.11241340637207031250e+01) (76, -3.28259505331516265869e-02) (77, 3.31511974334716796875e-01) (78, 3.75723505020141601562e+00) (79, 1.35479426383972167969e+00) (80, 6.77923812866210937500e+01) (81, -4.58761405944824218750e+00) (82, 1.20415127277374267578e+00) (83, 2.54925575256347656250e+01) (84, 3.81194686889648437500e+00) (85, 1.42875164747238159180e-01) (86, 7.17707252502441406250e+00) (87, 6.10100440979003906250e+01) (88, 1.50237166881561279297e+00) (89, 1.98440818786621093750e+01) (90, 1.28818445205688476562e+01) (91, -1.56019735336303710938e+00) (92, 1.35932493209838867188e+01) (93, -1.69336318969726562500e+01) (94, 2.94234371185302734375e+00) (95, 1.20347776412963867188e+01) (96, 2.20192527770996093750e+00) (97, 1.08796663284301757812e+01) (98, 9.46652472019195556641e-01) (99, 8.45105457305908203125e+00) (100, 2.10403575897216796875e+01) (101, -4.18590068817138671875e-01) (37, -1.14983749389648437500e+00) (38, 8.72287452220916748047e-02) (39, -4.38157415390014648438e+00) (40, -8.10124874114990234375e-01) (41, 1.24816155433654785156e+00) (42, 8.84545974731445312500e+01) (43, 2.09763183593750000000e+01) (44, 2.17155075073242187500e+01) (45, 1.96403586864471435547e+00) (46, -2.49008655548095703125e+00) (47, 2.08685374259948730469e+00) (48, 1.02161140441894531250e+01) (49, 1.41856944561004638672e+00) (50, 1.75772838592529296875e+01) (51, 6.21913576126098632812e+00) (52, 3.89242100715637207031e+00) (53, -1.21862041950225830078e+00) (54, 9.01956367492675781250e+00) (55, 1.63625621795654296875e+01) (56, 4.65596542358398437500e+01) (57, 9.06193733215332031250e+00) (58, 4.24896329641342163086e-01) (59, 1.48704471588134765625e+01) (60, 4.70854616165161132812e+00) (61, 1.30084156990051269531e+00) (62, 6.62458181381225585938e-01) (63, 1.22076606750488281250e+00) (64, 2.52867436408996582031e+00) (65, 8.98511219024658203125e+00) (66, 6.93235063552856445312e+00) (67, 2.77750760316848754883e-01) (68, 5.25746881961822509766e-01) (69, 4.53440284729003906250e+00) (70, 1.34230792522430419922e+00) (71, 1.43341386318206787109e+00) (72, 9.84400482177734375000e+01) (73, 8.02473354339599609375e+00) (74, 6.40304851531982421875e+00) (75, 1.06155958175659179688e+01) (76, 1.31975388526916503906e+00) (77, 1.96483576297760009766e+00) (78, 3.45868492126464843750e+00) (79, 6.37485504150390625000e+00) (80, 1.40145754814147949219e+00) (81, 9.27864432334899902344e-01) (82, 2.01737809181213378906e+00) (83, 6.19267702102661132812e+00) (84, 1.80081546306610107422e+00) (85, 9.29564714431762695312e-01) (86, 6.93457412719726562500e+01) (87, -3.49621105194091796875e+00) (88, -8.31103134155273437500e+00) (89, 7.50346088409423828125e+00) (90, 1.87991082668304443359e+00) (91, 5.58234930038452148438e+00) (92, -4.13230448961257934570e-01) (93, 1.55600843429565429688e+01) (94, 4.07796382904052734375e+00) (95, -2.74238262176513671875e+01) (96, 7.67818033695220947266e-01) (97, 1.83399721980094909668e-01) (98, 7.76408195495605468750e+00) (99, 1.71499252319335937500e+01) (100, 2.75687179565429687500e+01) (101, 1.24660468101501464844e+00) (37, 4.76557540893554687500e+00) (38, -1.20197188854217529297e+00) (39, 4.57345533370971679688e+00) (40, 3.94413924217224121094e+00) (41, -9.93483364582061767578e-02) (42, -4.75870728492736816406e-01) (43, 3.32292518615722656250e+01) (44, -1.58220338821411132812e+01) (45, 1.05350941419601440430e-01) (46, -9.53584372997283935547e-01) (47, 1.60998618602752685547e+00) (48, 1.17467231750488281250e+01) (49, 4.83192157745361328125e+00) (50, -2.51391321420669555664e-01) (51, 1.80113494396209716797e+00) (52, 7.29999446868896484375e+00) (53, 2.98399877548217773438e+00) (54, 4.89977180957794189453e-01) (55, -2.71183567047119140625e+01) (56, 4.16234701871871948242e-01) (57, -2.74728240966796875000e+01) (58, 2.41727142333984375000e+01) (59, 1.09595136642456054688e+01) (60, 1.73318824768066406250e+01) (61, 1.05883102416992187500e+01) (62, 3.64243745803833007812e-01) (63, 5.63546121120452880859e-01) (64, 1.56620001792907714844e+00) (65, -3.02937102317810058594e+00) (66, 3.27517747879028320312e+00) (67, 8.09508442878723144531e-01) (68, 4.38238182067871093750e+01) (69, 4.70679521560668945312e+00) (70, 1.33614616394042968750e+01) (71, 7.00340326875448226929e-03) (72, 2.57216510772705078125e+01) (73, 2.40436191558837890625e+01) (74, 1.16245584487915039062e+01) (75, 3.21874656677246093750e+01) (76, 4.01982498168945312500e+00) (77, 7.59868144989013671875e-01) (78, 8.61982631683349609375e+00) (79, 1.02394084930419921875e+01) (80, 4.40523185729980468750e+01) (81, 7.06675127148628234863e-02) (82, -1.42883086204528808594e+00) (83, -4.59450187683105468750e+01) (84, 2.05194702148437500000e+01) (85, 2.93695926666259765625e-01) (86, 2.23666501045227050781e+00) (87, 5.22662258148193359375e+00) (88, 3.63215994834899902344e+00) (89, 3.98831319808959960938e+00) (90, 4.54193115234375000000e+00) (91, 4.88294458389282226562e+00) (92, 3.90933532714843750000e+01) (93, 6.97099456787109375000e+01) (94, -1.69081389904022216797e-01) (95, 1.70148181915283203125e+01) (96, 6.10871076583862304688e+00) (97, 2.63242149353027343750e+00) (98, 1.04790935516357421875e+01) (99, 3.96975845098495483398e-01) (100, 2.85839633941650390625e+01) (101, -2.17578977346420288086e-01) (37, 8.07986831665039062500e+00) (38, 3.74606475830078125000e+01) (39, -6.95477676391601562500e+00) (40, 1.53168725967407226562e+00) (41, 4.88881444931030273438e+00) (42, 2.03156620264053344727e-01) (43, 1.78979091644287109375e+01) (44, -5.98737430572509765625e+00) (45, 6.58336758613586425781e-01) (46, 7.74210834503173828125e+00) 