FANN_FLO_2.1
num_layers=4
learning_rate=0.700000
connection_rate=1.000000
network_type=0
learning_momentum=0.400000
training_algorithm=0
train_error_function=1
train_stop_function=1
cascade_output_change_fraction=0.010000
quickprop_decay=-0.000100
quickprop_mu=1.750000
rprop_increase_factor=1.200000
rprop_decrease_factor=0.500000
rprop_delta_min=0.000000
rprop_delta_max=50.000000
rprop_delta_zero=0.100000
cascade_output_stagnation_epochs=12
cascade_candidate_change_fraction=0.010000
cascade_candidate_stagnation_epochs=12
cascade_max_out_epochs=150
cascade_min_out_epochs=50
cascade_max_cand_epochs=150
cascade_min_cand_epochs=50
cascade_num_candidate_groups=2
bit_fail_limit=9.99999977648258209229e-03
cascade_candidate_limit=1.00000000000000000000e+03
cascade_weight_multiplier=4.00000005960464477539e-01
cascade_activation_functions_count=10
cascade_activation_functions=3 5 7 8 10 11 14 15 16 17 
cascade_activation_steepnesses_count=4
cascade_activation_steepnesses=2.50000000000000000000e-01 5.00000000000000000000e-01 7.50000000000000000000e-01 1.00000000000000000000e+00 
layer_sizes=8 65 33 8 
scale_included=0
neurons (num_inputs, activation_function, activation_steepness)=(0, 0, 0.00000000000000000000e+00) (0, 0, 0.00000000000000000000e+00) (0, 0, 0.00000000000000000000e+00) (0, 0, 0.00000000000000000000e+00) (0, 0, 0.00000000000000000000e+00) (0, 0, 0.00000000000000000000e+00) (0, 0, 0.00000000000000000000e+00) (0, 0, 0.00000000000000000000e+00) (8, 5, 2.50000000000000000000e-01) (8, 5, 2.50000000000000000000e-01) (8, 5, 2.50000000000000000000e-01) (8, 5, 2.50000000000000000000e-01) (8, 5, 2.50000000000000000000e-01) (8, 5, 2.50000000000000000000e-01) (8, 5, 2.50000000000000000000e-01) (8, 5, 2.50000000000000000000e-01) (8, 5, 2.50000000000000000000e-01) (8, 5, 2.50000000000000000000e-01) (8, 5, 2.50000000000000000000e-01) (8, 5, 2.50000000000000000000e-01) (8, 5, 2.50000000000000000000e-01) (8, 5, 2.50000000000000000000e-01) (8, 5, 2.50000000000000000000e-01) (8, 5, 2.50000000000000000000e-01) (8, 5, 2.50000000000000000000e-01) (8, 5, 2.50000000000000000000e-01) (8, 5, 2.50000000000000000000e-01) (8, 5, 2.50000000000000000000e-01) (8, 5, 2.50000000000000000000e-01) (8, 5, 2.50000000000000000000e-01) (8, 5, 2.50000000000000000000e-01) (8, 5, 2.50000000000000000000e-01) (8, 5, 2.50000000000000000000e-01) (8, 5, 2.50000000000000000000e-01) (8, 5, 2.50000000000000000000e-01) (8, 5, 2.50000000000000000000e-01) (8, 5, 2.50000000000000000000e-01) (8, 5, 2.50000000000000000000e-01) (8, 5, 2.50000000000000000000e-01) (8, 5, 2.50000000000000000000e-01) (8, 5, 2.50000000000000000000e-01) (8, 5, 2.50000000000000000000e-01) (8, 5, 2.50000000000000000000e-01) (8, 5, 2.50000000000000000000e-01) (8, 5, 2.50000000000000000000e-01) (8, 5, 2.50000000000000000000e-01) (8, 5, 2.50000000000000000000e-01) (8, 5, 2.50000000000000000000e-01) (8, 5, 2.50000000000000000000e-01) (8, 5, 2.50000000000000000000e-01) (8, 5, 2.50000000000000000000e-01) (8, 5, 2.50000000000000000000e-01) (8, 5, 2.50000000000000000000e-01) (8, 5, 2.50000000000000000000e-01) (8, 5, 2.50000000000000000000e-01) (8, 5, 2.50000000000000000000e-01) (8, 5, 2.50000000000000000000e-01) (8, 5, 2.50000000000000000000e-01) (8, 5, 2.50000000000000000000e-01) (8, 5, 2.50000000000000000000e-01) (8, 5, 2.50000000000000000000e-01) (8, 5, 2.50000000000000000000e-01) (8, 5, 2.50000000000000000000e-01) (8, 5, 2.50000000000000000000e-01) (8, 5, 2.50000000000000000000e-01) (8, 5, 2.50000000000000000000e-01) (8, 5, 2.50000000000000000000e-01) (8, 5, 2.50000000000000000000e-01) (8, 5, 2.50000000000000000000e-01) (8, 5, 2.50000000000000000000e-01) (8, 5, 2.50000000000000000000e-01) (8, 5, 2.50000000000000000000e-01) (0, 5, 2.50000000000000000000e-01) (65, 5, 2.50000000000000000000e-01) (65, 5, 2.50000000000000000000e-01) (65, 5, 2.50000000000000000000e-01) (65, 5, 2.50000000000000000000e-01) (65, 5, 2.50000000000000000000e-01) (65, 5, 2.50000000000000000000e-01) (65, 5, 2.50000000000000000000e-01) (65, 5, 2.50000000000000000000e-01) (65, 5, 2.50000000000000000000e-01) (65, 5, 2.50000000000000000000e-01) (65, 5, 2.50000000000000000000e-01) (65, 5, 2.50000000000000000000e-01) (65, 5, 2.50000000000000000000e-01) (65, 5, 2.50000000000000000000e-01) (65, 5, 2.50000000000000000000e-01) (65, 5, 2.50000000000000000000e-01) (65, 5, 2.50000000000000000000e-01) (65, 5, 2.50000000000000000000e-01) (65, 5, 2.50000000000000000000e-01) (65, 5, 2.50000000000000000000e-01) (65, 5, 2.50000000000000000000e-01) (65, 5, 2.50000000000000000000e-01) (65, 5, 2.50000000000000000000e-01) (65, 5, 2.50000000000000000000e-01) (65, 5, 2.50000000000000000000e-01) (65, 5, 2.50000000000000000000e-01) (65, 5, 2.50000000000000000000e-01) (65, 5, 2.50000000000000000000e-01) (65, 5, 2.50000000000000000000e-01) (65, 5, 2.50000000000000000000e-01) (65, 5, 2.50000000000000000000e-01) (65, 5, 2.50000000000000000000e-01) (0, 5, 2.50000000000000000000e-01) (33, 5, 5.00000000000000000000e-01) (33, 5, 5.00000000000000000000e-01) (33, 5, 5.00000000000000000000e-01) (33, 5, 5.00000000000000000000e-01) (33, 5, 5.00000000000000000000e-01) (33, 5, 5.00000000000000000000e-01) (33, 5, 5.00000000000000000000e-01) (0, 5, 0.00000000000000000000e+00) 
connections (connected_to_neuron, weight)=(0, -3.11071962118148803711e-01) (1, -2.06441171467304229736e-02) (2, -6.70979022979736328125e-01) (3, -3.45349609851837158203e-01) (4, -2.52759344875812530518e-02) (5, -6.60268127918243408203e-01) (6, 6.88569307327270507812e-01) (7, -1.22242502868175506592e-01) (0, -1.61383700370788574219e+00) (1, 7.40977644920349121094e-01) (2, 8.20129752159118652344e-01) (3, -6.34019002318382263184e-02) (4, 7.56596088409423828125e-01) (5, 7.71295964717864990234e-01) (6, 3.12291949987411499023e-01) (7, -9.39148366451263427734e-02) (0, -1.53761412948369979858e-02) (1, -1.97945535182952880859e-01) (2, -8.04893076419830322266e-01) (3, -1.49022359400987625122e-02) (4, 2.08780393004417419434e-02) (5, -8.11972796916961669922e-01) (6, 1.12083658576011657715e-01) (7, -1.53140813112258911133e-01) (0, 2.50470113754272460938e+00) (1, -4.04143780469894409180e-01) (2, -7.84036278724670410156e-01) (3, 7.61546418070793151855e-02) (4, -9.62364435195922851562e-01) (5, -9.82388615608215332031e-01) (6, -1.13441228866577148438e+00) (7, 7.89675861597061157227e-02) (0, -3.78698050975799560547e-01) (1, 4.90220785140991210938e-01) (2, 5.31818687915802001953e-01) (3, -1.62031695246696472168e-01) (4, -3.68096865713596343994e-02) (5, 8.85343253612518310547e-01) (6, 6.32715702056884765625e-01) (7, 1.71145275235176086426e-01) (0, 1.00738120079040527344e+00) (1, -9.01763916015625000000e-01) (2, -1.80024588108062744141e+00) (3, -5.70405945181846618652e-02) (4, -2.90245473384857177734e-01) (5, -2.29684397578239440918e-01) (6, -1.63824453949928283691e-01) (7, 1.59724075347185134888e-02) (0, 7.80998766422271728516e-01) (1, -2.52167403697967529297e-01) (2, -5.53815424442291259766e-01) (3, 1.32522523403167724609e-01) (4, -1.15959852933883666992e-01) (5, -1.30738723278045654297e+00) (6, -3.74151200056076049805e-01) (7, -1.60033583641052246094e-01) (0, 5.69290637969970703125e+00) (1, 8.94607925415039062500e+00) (2, 1.28466081619262695312e+00) (3, 5.17245244979858398438e+00) (4, 9.42378139495849609375e+00) (5, 1.36758031845092773438e+01) (6, 1.12552385330200195312e+01) (7, 1.83994567394256591797e+00) (0, 3.73077332973480224609e-01) (1, 2.95997917652130126953e-01) (2, 1.46847754716873168945e-01) (3, -4.81999933719635009766e-01) (4, -2.75888759642839431763e-02) (5, 3.37417721748352050781e-01) (6, -2.76457786560058593750e-01) (7, 2.57843166589736938477e-01) (0, 6.03882193565368652344e-01) (1, -8.84226188063621520996e-02) (2, -2.30935961008071899414e-01) (3, 1.87398150563240051270e-01) (4, -1.88122600317001342773e-01) (5, -9.30436968803405761719e-01) (6, -5.15166640281677246094e-01) (7, -1.08973383903503417969e-01) (0, 9.72458481788635253906e-01) (1, -1.12850821018218994141e+00) (2, -1.13509273529052734375e+00) (3, 5.38447856903076171875e-01) (4, -2.07884624600410461426e-01) (5, -7.94385075569152832031e-01) (6, -4.41069394350051879883e-01) (7, -9.90660116076469421387e-02) (0, 1.17090666294097900391e+00) (1, -5.17146922647953033447e-02) (2, -3.83585155010223388672e-01) (3, -3.47445234656333923340e-02) (4, -4.59723681211471557617e-01) (5, -5.21296977996826171875e-01) (6, -1.25415003299713134766e+00) (7, 8.11439082026481628418e-02) (0, -7.13267385959625244141e-01) (1, -3.07702064514160156250e-01) (2, 1.96378439664840698242e-01) (3, 6.24243855476379394531e-01) (4, 1.61346256732940673828e-01) (5, -8.50563824176788330078e-01) (6, 4.64961796998977661133e-01) (7, -5.41250407695770263672e-01) (0, -1.47418105602264404297e+00) (1, 6.46883130073547363281e-01) (2, 1.16110455989837646484e+00) (3, -1.14628031849861145020e-01) (4, 2.44960486888885498047e-01) (5, 1.06552410125732421875e+00) (6, 7.06359446048736572266e-01) (7, 1.24903634190559387207e-01) (0, 5.93035638332366943359e-01) (1, -2.07857899367809295654e-02) (2, 1.05494208633899688721e-01) (3, -7.19190612435340881348e-02) (4, -2.06456422805786132812e-01) (5, 2.92064309120178222656e-01) (6, -1.06540930271148681641e+00) (7, 2.84141868352890014648e-01) (0, 7.68384873867034912109e-01) (1, -1.40069499611854553223e-01) (2, 2.80436687171459197998e-02) (3, -2.23744049668312072754e-01) (4, -2.72941052913665771484e-01) (5, -3.22331190109252929688e-02) (6, -1.05591607093811035156e+00) (7, 1.77446618676185607910e-01) (0, 5.63507258892059326172e-01) (1, -4.49160307645797729492e-01) (2, -6.77872776985168457031e-01) (3, 3.28296840190887451172e-01) (4, -2.33513340353965759277e-01) (5, -1.03460252285003662109e+00) (6, -3.02916109561920166016e-01) (7, -1.06192663311958312988e-01) (0, 9.85019207000732421875e-01) (1, -1.45061701536178588867e-01) (2, 2.25140139460563659668e-01) (3, -1.92514248192310333252e-02) (4, -3.08394163846969604492e-01) (5, -1.15635931491851806641e+00) (6, -9.90944206714630126953e-01) (7, -3.12987305223941802979e-02) (0, -1.23058187961578369141e+00) (1, 4.96820241212844848633e-01) (2, 7.93059110641479492188e-01) (3, -1.65468513965606689453e-01) (4, -1.42214074730873107910e-01) (5, 1.51459467411041259766e+00) (6, 8.38174104690551757812e-01) (7, 8.68510603904724121094e-02) (0, -1.03073632717132568359e+00) (1, -4.86585587263107299805e-01) (2, -9.52647626399993896484e-02) (3, 5.46320438385009765625e-01) (4, 2.64957934617996215820e-01) (5, 3.03032428026199340820e-01) (6, 1.81912183761596679688e+00) (7, -2.06868782639503479004e-01) (0, -5.41468858718872070312e-01) (1, 3.36927711963653564453e-01) (2, 2.84254193305969238281e-01) (3, -1.45684510469436645508e-01) (4, 8.85744243860244750977e-02) (5, 6.11822903156280517578e-01) (6, -1.97534531354904174805e-01) (7, -7.71428197622299194336e-02) (0, 1.86883687973022460938e+00) (1, -6.40608847141265869141e-01) (2, -1.00752162933349609375e+00) (3, 4.32639896869659423828e-01) (4, -7.24206507205963134766e-01) (5, -6.32122814655303955078e-01) (6, -1.31060016155242919922e+00) (7, -4.59080822765827178955e-02) (0, -4.21645253896713256836e-01) (1, 3.28109622001647949219e-01) (2, -1.43181115388870239258e-01) (3, -6.01856648921966552734e-01) (4, -1.31922215223312377930e-01) (5, 1.30458068847656250000e+00) (6, 1.10136222839355468750e+00) (7, 2.87327796220779418945e-01) (0, 1.27756905555725097656e+00) (1, -1.14271616935729980469e+00) (2, -6.95198118686676025391e-01) (3, 6.65193021297454833984e-01) (4, -2.96019434928894042969e-01) (5, -1.10756421089172363281e+00) (6, -1.10591888427734375000e+00) (7, -1.96090847253799438477e-01) (0, -2.24064603447914123535e-01) (1, 1.48469343781471252441e-01) (2, -2.81315505504608154297e-01) (3, 4.29079651832580566406e-01) (4, 2.21802890300750732422e-02) (5, -1.50602191686630249023e-01) (6, 2.34250515699386596680e-01) (7, -1.23597040772438049316e-01) (0, -2.54122376441955566406e-01) (1, 3.62386107444763183594e-01) (2, 2.46685534715652465820e-01) (3, 7.96696543693542480469e-02) (4, -2.00099647045135498047e-01) (5, 8.45041215419769287109e-01) (6, -4.82525289058685302734e-01) (7, 8.10114387422800064087e-03) (0, 4.84567940235137939453e-01) (1, -5.26336491107940673828e-01) (2, -7.23088264465332031250e-01) (3, -3.28774511814117431641e-01) (4, 1.47588014602661132812e-01) (5, -1.11510336399078369141e+00) (6, 3.29940617084503173828e-01) (7, -3.05315796285867691040e-02) (0, 1.57301402091979980469e+00) (1, -6.05460047721862792969e-01) (2, -1.02393007278442382812e+00) (3, 5.81100225448608398438e-01) (4, -3.69709938764572143555e-01) (5, -1.07164585590362548828e+00) (6, -1.15511822700500488281e+00) (7, -9.49123203754425048828e-02) (0, -4.23326551914215087891e-01) (1, -7.90331326425075531006e-03) (2, -2.86188900470733642578e-01) (3, 7.52427279949188232422e-02) (4, 2.53701239824295043945e-01) (5, -4.35001291334629058838e-02) (6, 4.04393136501312255859e-01) (7, -1.45050331950187683105e-01) (0, 1.23630321025848388672e+00) (1, -4.89340037107467651367e-01) (2, -1.13121330738067626953e+00) (3, 6.45902752876281738281e-01) (4, -3.87965589761734008789e-01) (5, -8.98152828216552734375e-01) (6, -1.06556355953216552734e+00) (7, -9.81951132416725158691e-02) (0, 2.64898562431335449219e+00) (1, -1.52829301357269287109e+00) (2, -1.34706711769104003906e+00) (3, 7.30763435363769531250e-01) (4, -3.52602839469909667969e-01) (5, -1.42311465740203857422e+00) (6, -1.35177624225616455078e+00) (7, -2.93093204498291015625e-01) (0, 5.62671995162963867188e+00) (1, 3.88671064376831054688e+00) (2, 1.82286858558654785156e-01) (3, 2.19034028053283691406e+00) (4, 5.18930101394653320312e+00) (5, 7.60561561584472656250e+00) (6, -1.34353563189506530762e-01) (7, 4.08918905258178710938e+00) (0, -1.81697807312011718750e+01) (1, -5.87765884399414062500e+00) (2, -2.56563305854797363281e-01) (3, -2.23561429977416992188e+00) (4, -3.54523468017578125000e+00) (5, -6.39243936538696289062e+00) (6, 1.81041026115417480469e+00) (7, -6.89627218246459960938e+00) (0, -3.63368839025497436523e-02) (1, -2.33136013150215148926e-01) (2, -3.30710351467132568359e-01) (3, 2.75828212499618530273e-01) (4, -1.76898106932640075684e-01) (5, -4.27133053541183471680e-01) (6, 4.03618037700653076172e-01) (7, -1.58761620521545410156e-01) (0, -9.73390266299247741699e-02) (1, 4.05067712068557739258e-01) (2, 3.20947945117950439453e-01) (3, -2.51362979412078857422e-01) (4, 1.13259807229042053223e-01) (5, 6.34789288043975830078e-01) (6, 5.80234587192535400391e-01) (7, 3.09324681758880615234e-01) (0, 6.53155863285064697266e-01) (1, -1.81688830256462097168e-01) (2, 1.02772481739521026611e-01) (3, -2.46656015515327453613e-01) (4, -3.87736678123474121094e-01) (5, -6.36077821254730224609e-02) (6, -6.49637699127197265625e-01) (7, 1.39339536428451538086e-01) (0, 2.44326162338256835938e+00) (1, -7.79191493988037109375e-01) (2, -8.07300686836242675781e-01) (3, 6.25087738037109375000e-01) (4, -9.87673044204711914062e-01) (5, -1.00867652893066406250e+00) (6, -1.47784006595611572266e+00) (7, -1.61665957421064376831e-02) (0, -1.11198055744171142578e+00) (1, -1.59648627042770385742e-01) (2, -8.41021165251731872559e-02) (3, 5.30724041163921356201e-02) (4, 8.32041621208190917969e-01) (5, 1.05336344242095947266e+00) (6, 8.25922310352325439453e-01) (7, 5.34636341035366058350e-02) (0, -5.88426589965820312500e-01) (1, 4.71574783325195312500e-01) (2, 1.08120703697204589844e+00) (3, 1.73473775386810302734e-01) (4, 1.05283133685588836670e-01) (5, 5.62582492828369140625e-01) (6, 1.93331688642501831055e-01) (7, 6.53577148914337158203e-02) (0, 8.82315337657928466797e-01) (1, -1.89378365874290466309e-01) (2, -1.76393643021583557129e-01) (3, -1.45600035786628723145e-01) (4, -1.82153016328811645508e-01) (5, 1.75330433994531631470e-02) (6, -4.15180474519729614258e-01) (7, 3.26701432466506958008e-01) (0, 2.29166164994239807129e-01) (1, -1.16192352771759033203e+00) (2, -9.64528918266296386719e-01) (3, 1.67510226368904113770e-01) (4, -4.01229932904243469238e-02) (5, -3.91432672739028930664e-01) (6, 2.90843904018402099609e-01) (7, -9.33505222201347351074e-02) (0, 1.89688358306884765625e+01) (1, 5.45146751403808593750e+00) (2, 5.15971612930297851562e+00) (3, 6.28735256195068359375e+00) (4, 6.99920177459716796875e+00) (5, 9.18422508239746093750e+00) (6, 8.12919139862060546875e+00) (7, 3.32291126251220703125e-01) (0, -1.31506979465484619141e-01) (1, 1.44025325775146484375e-01) (2, 8.68341028690338134766e-01) (3, -1.80083647370338439941e-01) (4, 4.28277105093002319336e-01) (5, 4.39322263002395629883e-01) (6, 9.87293794751167297363e-02) (7, 1.20644584298133850098e-01) (0, 3.27930361032485961914e-01) (1, 3.74838024377822875977e-01) (2, 1.54458573088049888611e-02) (3, -2.78483867645263671875e-01) (4, 1.89367860555648803711e-01) (5, 2.17976704239845275879e-01) (6, -3.48443955183029174805e-01) (7, 2.72853076457977294922e-01) (0, 8.73561084270477294922e-01) (1, -5.95801591873168945312e-01) (2, -1.07883942127227783203e+00) (3, 4.72859472036361694336e-01) (4, -8.88160765171051025391e-02) (5, -1.01057600975036621094e+00) (6, -4.52735036611557006836e-01) (7, -4.96210269629955291748e-02) (0, 1.00040566921234130859e+00) (1, -5.11893391609191894531e-01) (2, 5.88176190853118896484e-01) (3, 4.09428626298904418945e-02) (4, 6.66677579283714294434e-03) (5, -1.28800010681152343750e+00) (6, -9.75089073181152343750e-01) (7, 1.57305076718330383301e-02) (0, 4.24223303794860839844e-01) (1, 4.28403109312057495117e-01) (2, 9.81522381305694580078e-01) (3, 8.35483372211456298828e-02) (4, -1.16664543747901916504e-02) (5, 5.31985878944396972656e-01) (6, -8.30809950828552246094e-01) (7, 1.48403540253639221191e-01) (0, -3.44008296728134155273e-01) (1, -1.66363462805747985840e-01) (2, -6.19587041437625885010e-02) (3, 5.51987171173095703125e-01) (4, 4.89194810390472412109e-01) (5, -1.04098439216613769531e+00) (6, 8.74524116516113281250e-01) (7, -1.40650808811187744141e-01) (0, -1.44804969429969787598e-01) (1, 2.83155977725982666016e-01) (2, 1.22235691547393798828e+00) (3, 3.50399017333984375000e-01) (4, 3.21121454238891601562e-01) (5, 2.85171598196029663086e-01) (6, -5.25678038597106933594e-01) (7, -2.50307656824588775635e-02) (0, 1.95585834980010986328e+00) (1, -8.94010126590728759766e-01) (2, -1.23663532733917236328e+00) (3, 6.11043035984039306641e-01) (4, -5.45431792736053466797e-01) (5, -9.17230248451232910156e-01) (6, -1.05301630496978759766e+00) (7, -5.92160746455192565918e-02) (0, -9.38019371032714843750e+00) (1, -6.57578659057617187500e+00) (2, -2.52489423751831054688e+00) (3, 6.92565536499023437500e+00) (4, 4.98042613267898559570e-01) (5, -2.15022301673889160156e+00) (6, 8.84172630310058593750e+00) (7, -3.36213493347167968750e+00) (0, -7.67456114292144775391e-01) (1, 4.03559118509292602539e-01) (2, 5.47670781612396240234e-01) (3, -3.50269854068756103516e-01) (4, 6.85494184494018554688e-01) (5, 1.03609180450439453125e+00) (6, 5.44996678829193115234e-01) (7, 8.02216678857803344727e-02) (0, 6.43941354751586914062e+00) (1, -7.73957490921020507812e+00) (2, 8.17358851432800292969e-01) (3, 5.11156916618347167969e-01) (4, -8.52764415740966796875e+00) (5, -1.43375053405761718750e+01) (6, -6.67851781845092773438e+00) (7, -2.62597775459289550781e+00) (0, 1.98949575424194335938e+00) (1, -1.08292388916015625000e+00) (2, -9.18500602245330810547e-01) (3, 5.13333201408386230469e-01) (4, -6.28999769687652587891e-01) (5, -9.21676158905029296875e-01) (6, -9.29218232631683349609e-01) (7, 1.01034333929419517517e-02) (0, -4.88766841590404510498e-02) (1, -3.81555706262588500977e-01) (2, -2.24723666906356811523e-01) (3, -9.91663634777069091797e-02) (4, 1.85937240719795227051e-01) (5, -6.13543570041656494141e-01) (6, 5.05887269973754882812e-01) (7, -1.30593597888946533203e-01) (0, -8.22577297687530517578e-01) (1, 3.89967352151870727539e-01) (2, 6.62111163139343261719e-01) (3, -3.74774903059005737305e-01) (4, 2.59431637823581695557e-02) (5, 1.05779218673706054688e+00) (6, 8.00848364830017089844e-01) (7, 4.87629100680351257324e-02) (0, 4.72739160060882568359e-01) (1, -8.17696228623390197754e-02) (2, -3.57144981622695922852e-01) (3, 4.06009078025817871094e-01) (4, -2.44544178247451782227e-01) (5, -7.65166163444519042969e-01) (6, -8.12005817890167236328e-01) (7, -1.38934746384620666504e-01) (0, -8.09111595153808593750e-01) (1, 3.57004851102828979492e-01) (2, 1.48628912866115570068e-02) (3, 2.08314567804336547852e-01) (4, -4.40620910376310348511e-03) (5, 6.31463944911956787109e-01) (6, 1.10706424713134765625e+00) (7, -5.46248480677604675293e-02) (0, 1.49761409759521484375e+01) (1, -1.05345726013183593750e+01) (2, -8.09702205657958984375e+00) (3, 9.65318393707275390625e+00) (4, -1.25512528419494628906e+00) (5, -8.21659660339355468750e+00) (6, 5.12936878204345703125e+00) (7, 4.54648017883300781250e+00) (0, 1.14034044742584228516e+00) (1, 2.72889584302902221680e-01) (2, -2.56178677082061767578e-01) (3, -7.77421938255429267883e-03) (4, -4.74112302064895629883e-01) (5, -9.35235679149627685547e-01) (6, -1.24752163887023925781e+00) (7, 5.80899883061647415161e-03) (0, -7.16038763523101806641e-01) (1, -1.65197178721427917480e-01) (2, -3.28414648771286010742e-01) (3, -1.48044243454933166504e-01) (4, 5.16376614570617675781e-01) (5, 1.07236230373382568359e+00) (6, 8.32140207290649414062e-01) (7, 1.13708779215812683105e-01) (0, -3.24587225914001464844e-01) (1, -9.55208390951156616211e-02) (2, -2.94729948043823242188e-01) (3, -2.67105400562286376953e-01) (4, -5.84354326128959655762e-02) (5, -1.61762356758117675781e-01) (6, 3.73788952827453613281e-01) (7, -2.06945598125457763672e-01) (0, -6.08731210231781005859e-02) (1, 4.29537743330001831055e-01) (2, 6.41667723655700683594e-01) (3, -3.80780488252639770508e-01) (4, 4.58436131477355957031e-01) (5, 5.78658342361450195312e-01) (6, -1.65549886226654052734e+00) (7, 7.23962038755416870117e-02) (0, 5.39743781089782714844e-01) (1, -3.24824780225753784180e-01) (2, -2.53574047237634658813e-02) (3, -2.43725940585136413574e-01) (4, 8.35690349340438842773e-02) (5, -4.67192590236663818359e-01) (6, -2.51894205808639526367e-01) (7, 1.25880196690559387207e-01) (8, 9.29410010576248168945e-02) (9, -1.64530232548713684082e-01) (10, 1.13237418234348297119e-01) (11, 1.41138240694999694824e-01) (12, -5.12390471994876861572e-02) (13, 2.26106747984886169434e-01) (14, 1.48333013057708740234e-01) (15, -6.44458413124084472656e-01) (16, 4.49035316705703735352e-03) (17, 6.83916285634040832520e-02) (18, 1.43679276108741760254e-01) (19, 1.02185323834419250488e-01) (20, 5.14749949797987937927e-03) (21, -2.66305118799209594727e-01) (22, -1.24391838908195495605e-02) (23, 9.78784859180450439453e-02) (24, 1.61709859967231750488e-01) (25, 1.34093284606933593750e-01) (26, -1.21251456439495086670e-01) (27, -5.99561184644699096680e-02) (28, -9.63708683848381042480e-02) (29, 2.97874510288238525391e-01) (30, -2.64244806021451950073e-02) (31, 5.25790154933929443359e-02) (32, 3.27450372278690338135e-02) (33, -4.22754399478435516357e-02) (34, 2.27971430867910385132e-02) (35, 2.23097965121269226074e-01) (36, -4.93331216275691986084e-02) (37, 2.66750067472457885742e-01) (38, 3.10734689235687255859e-01) (39, -1.23163115978240966797e+00) (40, -1.05250012874603271484e+00) (41, 2.31571737676858901978e-02) (42, -5.88700883090496063232e-02) (43, 4.67502065002918243408e-02) (44, 1.82714372873306274414e-01) (45, -1.40325635671615600586e-01) (46, -1.25182092189788818359e-01) (47, 8.34777429699897766113e-02) (48, -5.92759586870670318604e-02) (49, 7.43781685829162597656e-01) (50, -2.18838214874267578125e-01) (51, -2.98969298601150512695e-02) (52, 1.95346713066101074219e-01) (53, -9.79312583804130554199e-02) (54, -5.62255941331386566162e-02) (55, 1.43001237884163856506e-02) (56, -7.73956850171089172363e-02) (57, 2.41880893707275390625e-01) (58, 1.05981862545013427734e+00) (59, -2.75525361299514770508e-01) (60, -6.11873447895050048828e-01) (61, 1.70334875583648681641e-01) (62, -1.11446447670459747314e-01) (63, -1.50826364755630493164e-01) (64, 5.74340596795082092285e-02) (65, -1.53016030788421630859e-01) (66, -1.63824832439422607422e+00) (67, 1.99394896626472473145e-01) (68, -5.46701438724994659424e-02) (69, 6.44563958048820495605e-02) (70, 1.68799906969070434570e-02) (71, 1.11397700384259223938e-02) (72, 1.77547085285186767578e+00) (8, 6.07183054089546203613e-02) (9, 2.39307865500450134277e-01) (10, 2.73132268339395523071e-02) (11, -2.68178045749664306641e-01) (12, -5.49170635640621185303e-02) (13, -4.44917852291837334633e-04) (14, 5.03764599561691284180e-02) (15, 3.06591480970382690430e-01) (16, -3.99810560047626495361e-02) (17, -3.67805212736129760742e-02) (18, -9.68146249651908874512e-02) (19, -1.03728681802749633789e-01) (20, -1.18027873337268829346e-01) (21, -6.43308609724044799805e-02) (22, 9.27654653787612915039e-02) (23, 1.55998896807432174683e-02) (24, -2.19236947596073150635e-02) (25, -5.03537729382514953613e-02) (26, -6.31407871842384338379e-02) (27, -1.97297811508178710938e-01) (28, 1.42290651798248291016e-01) (29, -1.60878553986549377441e-01) (30, -8.40801820158958435059e-02) (31, -9.92351695895195007324e-02) (32, -6.20934814214706420898e-02) (33, 1.51796620339155197144e-02) (34, 1.05471955612301826477e-03) (35, 7.07432329654693603516e-02) (36, -6.12306706607341766357e-02) (37, -1.55027890577912330627e-02) (38, -9.70324128866195678711e-02) (39, 3.88190954923629760742e-01) (40, 5.93559861183166503906e-01) (41, -8.84944945573806762695e-02) (42, 2.83721778541803359985e-02) (43, -7.81833902001380920410e-02) (44, -1.88132658600807189941e-01) (45, 2.83794730901718139648e-01) (46, 5.13337887823581695557e-02) (47, -4.93025816977024078369e-02) (48, -2.15078890323638916016e-01) (49, -4.04760718345642089844e-01) (50, 3.38817387819290161133e-02) (51, 6.26253187656402587891e-02) (52, 1.02134896442294120789e-02) (53, -1.70532047748565673828e-01) (54, -4.35005165636539459229e-02) (55, 1.43197551369667053223e-01) (56, 4.10957410931587219238e-02) (57, -1.60436615347862243652e-01) (58, -6.12244009971618652344e-01) (59, -1.34324086830019950867e-02) (60, 5.04941269755363464355e-02) (61, -1.77555665373802185059e-01) (62, -4.76794270798563957214e-03) (63, -5.08879236876964569092e-02) (64, 3.80426645278930664062e-02) (65, -7.50187933444976806641e-02) (66, 9.46668148040771484375e-01) (67, -1.02758534252643585205e-01) (68, 1.12711466848850250244e-01) (69, -8.09731036424636840820e-02) (70, 1.85686811804771423340e-01) (71, 5.37827201187610626221e-02) (72, -9.71569240093231201172e-01) (8, -3.95606666803359985352e-01) (9, -1.37933373451232910156e-01) (10, -3.77142876386642456055e-01) (11, 2.80326038599014282227e-01) (12, 1.24766662716865539551e-01) (13, -2.89939552545547485352e-01) (14, -2.02186688780784606934e-01) (15, 1.06990441679954528809e-01) (16, 1.98399171233177185059e-01) (17, -1.61188673228025436401e-02) (18, -1.67652547359466552734e-01) (19, 2.18132972717285156250e-01) (20, -4.33506041765213012695e-01) (21, 2.11110427975654602051e-01) (22, 3.47361177206039428711e-01) (23, 3.43421459197998046875e-01) (24, -1.78322598338127136230e-01) (25, 1.64331525564193725586e-01) (26, 9.11020636558532714844e-02) (27, -4.06153500080108642578e-01) (28, -2.78412140905857086182e-02) (29, 6.85173943638801574707e-02) (30, 9.41747203469276428223e-02) (31, -9.57982987165451049805e-02) (32, -2.05382242798805236816e-01) (33, 1.60201981663703918457e-01) (34, -2.90261656045913696289e-01) (35, -4.33378182351589202881e-02) (36, -3.67463827133178710938e-01) (37, -8.63260179758071899414e-02) (38, -8.11753571033477783203e-02) (39, 9.21976491808891296387e-02) (40, 6.73564136028289794922e-01) (41, -1.22766360640525817871e-01) (42, 1.59268170595169067383e-01) (43, 3.28508108854293823242e-01) (44, 2.54474103450775146484e-01) (45, -1.72211676836013793945e-01) (46, 3.05656671524047851562e-01) (47, 2.80426979064941406250e-01) (48, -2.76882797479629516602e-01) (49, -3.54488700628280639648e-01) (50, 2.33178198337554931641e-01) (51, 1.26336142420768737793e-01) (52, -2.07579478621482849121e-01) (53, 3.64732593297958374023e-01) (54, 5.03553688526153564453e-01) (55, -5.00178933143615722656e-01) (56, 3.94047856330871582031e-01) (57, -1.00802248343825340271e-02) (58, -2.14701667428016662598e-01) (59, -2.65049543231725692749e-02) (60, -3.15229982137680053711e-01) (61, 1.72986686229705810547e-01) (62, -1.65116831660270690918e-01) (63, 6.27362132072448730469e-02) (64, -7.31425508856773376465e-02) (65, -1.00807592272758483887e-01) (66, 2.03397765755653381348e-01) (67, 1.53124362230300903320e-01) (68, -1.63401693105697631836e-01) (69, -2.36647322773933410645e-01) (70, 2.58030056953430175781e-01) (71, 4.59503866732120513916e-02) (72, -3.58505994081497192383e-01) (8, -7.84054845571517944336e-02) (9, 2.29513552039861679077e-02) (10, -9.57150012254714965820e-02) (11, 1.19688110426068305969e-02) (12, 2.40226313471794128418e-01) (13, -1.88912853598594665527e-01) (14, -9.01624262332916259766e-02) (15, 6.32269978523254394531e-01) (16, 2.05312505364418029785e-01) (17, -2.82766222953796386719e-02) (18, -1.82829976081848144531e-01) (19, 4.77202273905277252197e-02) (20, -2.69370526075363159180e-01) (21, 6.31779478862881660461e-03) (22, 1.30730435252189636230e-01) (23, 3.03318053483963012695e-02) (24, -1.39339670538902282715e-01) (25, -1.31673485040664672852e-01) (26, 1.19030475616455078125e-01) (27, -7.01513588428497314453e-02) (28, 4.74820360541343688965e-02) (29, -7.87780527025461196899e-03) (30, 2.23767995834350585938e-01) (31, -2.51247942447662353516e-01) (32, 4.69628572463989257812e-02) (33, 1.35867878794670104980e-01) (34, -1.60603582859039306641e-01) (35, -6.38353675603866577148e-02) (36, -3.69347929954528808594e-02) (37, -9.03502628207206726074e-02) (38, -3.57865765690803527832e-02) (39, 2.13285222649574279785e-01) (40, 7.03576743602752685547e-01) (41, -9.09912958741188049316e-02) (42, 3.06944429874420166016e-01) (43, 1.24797504395246505737e-02) (44, -4.01075696572661399841e-03) (45, 3.83189395070075988770e-02) (46, 1.38887166976928710938e-01) (47, 1.04609176516532897949e-01) (48, -2.36716091632843017578e-01) (49, -7.37538576126098632812e-01) (50, 1.08730636537075042725e-01) (51, 2.33241066336631774902e-01) (52, -1.27479657530784606934e-01) (53, -1.26039385795593261719e-01) (54, 1.45196989178657531738e-01) (55, -6.05081841349601745605e-02) (56, 7.21001029014587402344e-02) (57, 1.18071930482983589172e-02) (58, -4.33158099651336669922e-01) (59, 7.32379779219627380371e-02) (60, 1.88362523913383483887e-01) (61, -1.43337175250053405762e-01) (62, -1.26107335090637207031e-01) (63, 1.52840062975883483887e-01) (64, -1.93429514765739440918e-01) (65, 1.36753022670745849609e-01) (66, 1.14920437335968017578e+00) (67, 4.71978494897484779358e-03) (68, 1.17831215262413024902e-01) (69, -2.39325612783432006836e-01) (70, 7.03932642936706542969e-02) (71, -5.03690987825393676758e-02) (72, -1.01923465728759765625e+00) (8, 1.61590889096260070801e-01) (9, 1.86376333236694335938e-01) (10, 1.24368414282798767090e-01) (11, -1.68766230344772338867e-02) (12, -5.88188767433166503906e-02) (13, 1.26714231446385383606e-02) (14, 2.05909177660942077637e-01) (15, -4.58984464406967163086e-01) (16, 8.77003073692321777344e-02) (17, 1.29444003105163574219e-01) (18, 1.00670821964740753174e-01) (19, 6.88338130712509155273e-02) (20, -2.23637476563453674316e-01) (21, -1.42386168241500854492e-01) (22, -5.21440990269184112549e-02) (23, 6.78289309144020080566e-02) (24, 1.36321038007736206055e-01) (25, 8.23873281478881835938e-03) (26, -2.27668434381484985352e-01) (27, -1.26897901296615600586e-01) (28, -9.74158495664596557617e-02) (29, -1.42030348069965839386e-03) (30, -1.15241862833499908447e-01) (31, 6.88474578782916069031e-03) (32, 2.75037232786417007446e-02) (33, -1.23387396335601806641e-01) (34, 2.00588449835777282715e-01) (35, 2.37540274858474731445e-01) (36, -2.29677036404609680176e-02) (37, 1.80084273219108581543e-01) (38, 2.75975406169891357422e-01) (39, -5.58415293693542480469e-01) (40, -4.40182596445083618164e-01) (41, 7.29389637708663940430e-02) (42, 1.67613178491592407227e-02) (43, -3.87108209542930126190e-03) (44, 2.52442006021738052368e-02) (45, -1.66370701044797897339e-02) (46, -1.18233099579811096191e-01) (47, 1.81684926152229309082e-01) (48, -3.41970510780811309814e-02) (49, 4.83585804700851440430e-01) (50, -8.24208334088325500488e-02) (51, 1.91412374377250671387e-01) (52, 2.58056521415710449219e-01) (53, -5.67375356331467628479e-03) (54, -3.99883985519409179688e-02) (55, -3.41984890401363372803e-02) (56, -6.15926273167133331299e-02) (57, 2.21974208950996398926e-01) (58, 6.32946610450744628906e-01) (59, -3.15239690244197845459e-02) (60, -4.46148723363876342773e-01) (61, 8.72623547911643981934e-02) (62, 6.11171983182430267334e-02) (63, -1.63038074970245361328e-01) (64, 7.15937614440917968750e-02) (65, -5.54634965956211090088e-02) (66, -7.42271065711975097656e-01) (67, 2.33944952487945556641e-01) (68, -2.99320500344038009644e-02) (69, -1.08328431844711303711e-01) (70, -7.35421627759933471680e-02) (71, 1.05869688093662261963e-01) (72, 8.65094244480133056641e-01) (8, 6.21089972555637359619e-02) (9, -1.42880380153656005859e-01) (10, 5.50483651459217071533e-02) (11, 1.37392908334732055664e-01) (12, -1.10876023769378662109e-01) (13, 6.70657902956008911133e-02) (14, 1.32334440946578979492e-01) (15, -4.91352170705795288086e-01) (16, 1.14749982953071594238e-01) (17, 7.48665705323219299316e-02) (18, 7.32971131801605224609e-02) (19, 3.86732406914234161377e-02) (20, 2.54510138183832168579e-02) (21, -4.76979315280914306641e-02) (22, 9.37041863799095153809e-02) (23, -6.57813176512718200684e-02) (24, 1.64309591054916381836e-01) (25, 1.07187470421195030212e-02) (26, -1.56438782811164855957e-01) (27, 1.06949377804994583130e-02) (28, -8.03487226366996765137e-02) (29, 7.20612853765487670898e-02) (30, -4.97445650398731231689e-02) (31, 1.98928922414779663086e-01) (32, -3.25054004788398742676e-02) (33, -5.03367781639099121094e-02) (34, 6.65505677461624145508e-02) (35, 1.67767897248268127441e-01) (36, -7.29734823107719421387e-02) (37, 2.92576812207698822021e-02) (38, 2.23911195993423461914e-01) (39, -7.15116202831268310547e-01) (40, -5.30735194683074951172e-01) (41, -5.17104566097259521484e-03) (42, -1.06339640915393829346e-01) (43, 5.57337142527103424072e-02) (44, 1.59959077835083007812e-01) (45, -1.89138099551200866699e-01) (46, -9.35851484537124633789e-02) (47, 3.95014360547065734863e-02) (48, 9.25548821687698364258e-02) (49, 5.03300845623016357422e-01) (50, -6.39183446764945983887e-02) (51, -9.27012190222740173340e-02) (52, 9.89244356751441955566e-02) (53, 1.35882180184125900269e-02) (54, -5.28153665363788604736e-02) (55, 2.21846088767051696777e-01) (56, 5.00625092536211013794e-03) (57, 9.98141318559646606445e-02) (58, 5.62891125679016113281e-01) (59, -1.46440759301185607910e-01) (60, -4.97900754213333129883e-01) (61, 1.15915447473526000977e-01) (62, 2.43519116193056106567e-02) (63, -9.20410677790641784668e-02) (64, 8.85750204324722290039e-02) (65, -1.74028933048248291016e-01) (66, -9.65188682079315185547e-01) (67, 4.71737328916788101196e-03) (68, 2.11738571524620056152e-02) (69, 1.21135823428630828857e-01) (70, -2.12229229509830474854e-03) (71, 8.71868282556533813477e-02) (72, 1.05921411514282226562e+00) (8, 1.47969618439674377441e-01) (9, 5.04497401416301727295e-02) (10, 1.49224087595939636230e-01) (11, -2.30025827884674072266e-01) (12, -5.08485548198223114014e-02) (13, 7.59067386388778686523e-02) (14, 1.87211975455284118652e-01) (15, -1.71699732542037963867e-01) (16, -5.30668720602989196777e-03) (17, 6.08038045465946197510e-02) (18, 5.80964423716068267822e-02) (19, 3.38741801679134368896e-02) (20, 3.61507162451744079590e-02) (21, -1.95126935839653015137e-01) (22, -1.19495511054992675781e-01) (23, 1.20105901733040809631e-02) (24, 9.32177826762199401855e-02) (25, -6.60080686211585998535e-02) (26, -1.70598134398460388184e-01) (27, 3.42379026114940643311e-02) (28, -1.32349014282226562500e-01) (29, 3.02886567078530788422e-03) (30, -2.59053204208612442017e-02) (31, 7.78377950191497802734e-02) (32, 5.09511455893516540527e-02) (33, -1.57397016882896423340e-01) (34, 1.95892423391342163086e-01) (35, 7.44299888610839843750e-02) (36, 1.04834266006946563721e-01) (37, -2.53491569310426712036e-02) (38, 1.31568074226379394531e-01) (39, -1.20434552431106567383e-01) (40, -5.82827389240264892578e-01) (41, 1.49223662447184324265e-03) (42, -3.45139428973197937012e-02) (43, -1.25878438353538513184e-01) (44, -1.13052129745483398438e-01) (45, 4.87163290381431579590e-02) (46, -9.79498773813247680664e-02) (47, 3.71676497161388397217e-02) (48, 1.24061867594718933105e-01) (49, 3.40094178915023803711e-01) (50, 6.92542940378189086914e-02) (51, 2.09534652531147003174e-02) (52, 8.74296277761459350586e-02) (53, -5.97876422107219696045e-02) (54, -2.44417682290077209473e-01) (55, 3.36924016475677490234e-01) (56, -2.06356510519981384277e-01) (57, 8.63170400261878967285e-02) (58, 3.23080718517303466797e-01) (59, 1.14880621433258056641e-01) (60, 1.51673734188079833984e-01) (61, -5.47883212566375732422e-02) (62, 1.44386038184165954590e-01) (63, -4.53000217676162719727e-02) (64, -1.02082513272762298584e-01) (65, 4.16964739561080932617e-02) (66, -5.92902362346649169922e-01) (67, 1.67258866131305694580e-02) (68, 1.09644852578639984131e-01) (69, -1.59170944243669509888e-02) (70, -2.26023778319358825684e-01) (71, 2.80530937016010284424e-02) (72, 4.93405997753143310547e-01) (8, 8.53785276412963867188e-02) (9, 1.24359510838985443115e-01) (10, 6.22559487819671630859e-02) (11, -1.59909397363662719727e-01) (12, -1.63596659898757934570e-01) (13, 5.67855164408683776855e-02) (14, 2.33808439224958419800e-02) (15, -1.90496355295181274414e-01) (16, -1.25702470541000366211e-01) (17, -2.98163690604269504547e-03) (18, 1.35623440146446228027e-01) (19, 9.54148843884468078613e-02) (20, 1.15639403462409973145e-01) (21, -2.12166514247655868530e-02) (22, -1.02773964405059814453e-01) (23, -3.04135754704475402832e-02) (24, 3.41745242476463317871e-02) (25, 4.54472331330180168152e-03) (26, -4.62661497294902801514e-03) (27, -4.27211560308933258057e-02) (28, 2.32666288502514362335e-03) (29, 4.72512617707252502441e-02) (30, -1.93264394998550415039e-01) (31, 8.94971191883087158203e-02) (32, 7.45592489838600158691e-02) (33, 8.78351032733917236328e-02) (34, -7.46831670403480529785e-02) (35, 1.06460511684417724609e-01) (36, 1.14890992641448974609e-01) (37, 2.41152346134185791016e-01) (38, -6.21949583292007446289e-02) (39, -7.51177221536636352539e-02) (40, -2.91036188602447509766e-01) (41, 9.61372032761573791504e-02) (42, -9.18212234973907470703e-02) (43, -2.01135799288749694824e-01) (44, 9.65352170169353485107e-03) (45, 3.33724580705165863037e-02) (46, -7.57413208484649658203e-02) (47, -1.46807268261909484863e-01) (48, 5.60939051210880279541e-02) (49, 2.52004653215408325195e-01) (50, -4.32041473686695098877e-02) (51, -1.29171475768089294434e-01) (52, 1.15489132702350616455e-01) (53, -2.78944253921508789062e-01) (54, -1.89272150397300720215e-01) (55, -1.03149577975273132324e-01) (56, -4.62966859340667724609e-02) (57, -4.67468006536364555359e-03) (58, 1.61441266536712646484e-01) (59, 4.42540906369686126709e-02) (60, 8.98749195039272308350e-03) (61, -4.35667894780635833740e-02) (62, -8.25281292200088500977e-02) (63, -1.00047104060649871826e-01) (64, 2.01738536357879638672e-01) (65, 2.40636877715587615967e-02) (66, -1.59988760948181152344e-01) (67, 2.74998825043439865112e-02) (68, -3.19381095468997955322e-02) (69, 9.16137471795082092285e-02) (70, 2.61142048984766006470e-02) (71, -1.40569329261779785156e-01) (72, 2.29880467057228088379e-01) (8, 2.81690627336502075195e-01) (9, -1.07817009091377258301e-01) (10, 1.10059916973114013672e-01) (11, -1.31764411926269531250e-01) (12, -9.82555970549583435059e-02) (13, 1.51679649949073791504e-01) (14, 2.56768673658370971680e-01) (15, -4.51376959681510925293e-02) (16, -1.05827353894710540771e-01) (17, 1.21779374778270721436e-01) (18, 6.06328994035720825195e-02) (19, -8.22328627109527587891e-02) (20, 1.46931797266006469727e-01) (21, -2.30862617492675781250e-01) (22, -2.75883138179779052734e-01) (23, -1.60768061876296997070e-01) (24, 1.03167541325092315674e-01) (25, -1.37955889105796813965e-01) (26, -1.95362240076065063477e-01) (27, -1.32581982761621475220e-02) (28, 1.86464905738830566406e-01) (29, -6.99012055993080139160e-02) (30, -1.00102521479129791260e-01) (31, 5.41698113083839416504e-02) (32, 1.55539497733116149902e-01) (33, -6.45391792058944702148e-02) (34, 9.40949767827987670898e-02) (35, 5.50781935453414916992e-02) (36, 1.72652512788772583008e-01) (37, 1.14855132997035980225e-01) (38, -6.28817221149802207947e-03) (39, -4.71704415977001190186e-02) (40, -2.42938831448554992676e-01) (41, -5.96983730792999267578e-02) (42, -4.05537709593772888184e-02) (43, -1.56251877546310424805e-01) (44, -2.38654434680938720703e-01) (45, 1.67710795998573303223e-01) (46, -1.70882135629653930664e-01) (47, -2.56290644407272338867e-01) (48, 8.30764509737491607666e-03) (49, 1.49813219904899597168e-01) (50, -1.60705924034118652344e-01) (51, 1.07395000755786895752e-01) (52, -4.18160371482372283936e-02) (53, -1.84056937694549560547e-01) (54, -3.19037288427352905273e-01) (55, 9.89879742264747619629e-02) (56, -1.10589720308780670166e-01) (57, -4.87861856818199157715e-02) (58, 1.21147505939006805420e-01) (59, -1.24502427875995635986e-01) (60, 4.35319840908050537109e-02) (61, 3.61063964664936065674e-02) (62, 1.44547939300537109375e-01) (63, -9.43217799067497253418e-02) (64, 1.94942131638526916504e-02) (65, 5.68424016237258911133e-02) (66, -3.10384202748537063599e-02) (67, -7.65184462070465087891e-02) (68, 1.60508811473846435547e-01) (69, 1.65429964661598205566e-01) (70, 1.42771080136299133301e-01) (71, -4.86030466854572296143e-02) (72, 1.32713511586189270020e-01) (8, -1.42677910625934600830e-02) (9, -7.65378996729850769043e-02) (10, 5.88647983968257904053e-02) (11, 2.65601482242345809937e-02) (12, 1.81276339571923017502e-03) (13, 2.01715100556612014771e-02) (14, 7.30222985148429870605e-02) (15, -1.69133082032203674316e-01) (16, 1.26826941967010498047e-01) (17, -8.48805624991655349731e-03) (18, -7.74336159229278564453e-02) (19, 1.98549136519432067871e-01) (20, -3.32450240850448608398e-01) (21, -1.70361697673797607422e-01) (22, 1.84729829430580139160e-01) (23, 1.60778760910034179688e-01) (24, 4.47948984801769256592e-02) (25, 1.60834714770317077637e-01) (26, -2.34998136758804321289e-01) (27, -2.10386261343955993652e-01) (28, 4.03749719262123107910e-02) (29, -1.80706325918436050415e-02) (30, -3.94203662872314453125e-02) (31, -5.10302372276782989502e-02) (32, -7.62002840638160705566e-02) (33, 6.97905346751213073730e-02) (34, 4.69772554934024810791e-02) (35, 6.62901550531387329102e-02) (36, -1.19124069809913635254e-01) (37, 4.13541756570339202881e-02) (38, 2.11009770631790161133e-01) (39, -4.54508990049362182617e-01) (40, -4.06230054795742034912e-02) (41, -1.21629275381565093994e-01) (42, 1.91969677805900573730e-01) (43, 5.01116067171096801758e-02) (44, 4.55226302146911621094e-02) (45, 1.04641690850257873535e-02) (46, 2.90859583765268325806e-02) (47, 1.69594615697860717773e-01) (48, -1.79002121090888977051e-01) (49, 9.23691540956497192383e-02) (50, 6.09043538570404052734e-02) (51, 2.34507873654365539551e-01) (52, 1.12309202551841735840e-01) (53, 2.06224128603935241699e-01) (54, 1.10592395067214965820e-01) (55, -1.85895025730133056641e-01) (56, 1.13036386668682098389e-01) (57, 9.62511003017425537109e-02) (58, 3.48577946424484252930e-01) (59, -6.47483102511614561081e-04) (60, -4.40463304519653320312e-01) (61, -1.43679371103644371033e-02) (62, -1.71416252851486206055e-01) (63, -1.00483939051628112793e-01) (64, 6.97056055068969726562e-02) (65, -9.75931733846664428711e-02) (66, -3.36371362209320068359e-01) (67, 1.59807860851287841797e-01) (68, -1.35493651032447814941e-01) (69, -1.86745867133140563965e-01) (70, 1.26516088843345642090e-01) (71, 1.27922073006629943848e-01) (72, 3.97748857736587524414e-01) (8, 3.10576558113098144531e-01) (9, -2.33712028712034225464e-02) (10, 2.84103006124496459961e-01) (11, -3.20440307259559631348e-02) (12, -2.22013834863901138306e-02) (13, 1.24053321778774261475e-01) (14, 2.00662553310394287109e-01) (15, -4.63166654109954833984e-01) (16, -1.20847322046756744385e-01) (17, 5.44988140463829040527e-02) (18, 1.58627584576606750488e-01) (19, -1.39673963189125061035e-01) (20, 4.09552603960037231445e-01) (21, -1.31507948040962219238e-01) (22, -3.07693898677825927734e-01) (23, -2.41021618247032165527e-01) (24, 1.82181209325790405273e-01) (25, 8.79165753722190856934e-02) (26, -1.17544926702976226807e-01) (27, 4.62364614009857177734e-01) (28, -1.83713436126708984375e-01) (29, -1.63664072751998901367e-01) (30, -1.58218517899513244629e-01) (31, 8.18400084972381591797e-02) (32, 1.96505244821310043335e-02) (33, -2.88923233747482299805e-01) (34, 3.55322688817977905273e-01) (35, -4.86396625638008117676e-02) (36, 4.00866009294986724854e-02) (37, 6.77429512143135070801e-03) (38, 1.63293108344078063965e-01) (39, 3.19442301988601684570e-01) (40, -6.79930627346038818359e-01) (41, 2.15215280652046203613e-01) (42, -1.11399285495281219482e-01) (43, -9.10821035504341125488e-02) (44, -1.34857296943664550781e-01) (45, -7.77714103460311889648e-02) (46, -2.05837592482566833496e-01) (47, -1.80511232465505599976e-02) (48, 2.89603382349014282227e-01) (49, 6.96598827838897705078e-01) (50, -1.09604813158512115479e-01) (51, -1.39379203319549560547e-01) (52, 1.58110618591308593750e-01) (53, 1.46252527832984924316e-01) (54, -4.27055448293685913086e-01) (55, 5.28810918331146240234e-01) (56, -3.10233503580093383789e-01) (57, -5.15660047531127929688e-02) (58, 4.87900078296661376953e-01) (59, -7.04861432313919067383e-02) (60, 2.80766040086746215820e-01) (61, -5.07825054228305816650e-02) (62, 3.64156156778335571289e-01) (63, -7.30840563774108886719e-02) (64, -1.32498182356357574463e-02) (65, 1.29705397412180900574e-02) (66, -6.73146545886993408203e-01) (67, -3.89518998563289642334e-02) (68, -1.66816085577011108398e-01) (69, 1.77466675639152526855e-01) (70, -5.29947936534881591797e-01) (71, 1.12860977649688720703e-01) (72, 6.37553930282592773438e-01) (8, 6.05834610760211944580e-02) (9, -1.37825950980186462402e-01) (10, -9.82777401804924011230e-02) (11, 7.96090811491012573242e-02) (12, 9.25010964274406433105e-02) (13, 1.25570818781852722168e-02) (14, 4.98295836150646209717e-02) (15, 3.33366155624389648438e-01) (16, -2.04488020390272140503e-02) (17, -7.50463502481579780579e-03) (18, -6.12634681165218353271e-02) (19, -1.25770807266235351562e-01) (20, 2.97178208827972412109e-01) (21, 7.67220258712768554688e-02) (22, -3.42505425214767456055e-01) (23, -1.24747999012470245361e-01) (24, -9.56152155995368957520e-02) (25, -9.46720689535140991211e-02) (26, 2.88347661495208740234e-01) (27, 3.91470044851303100586e-01) (28, 2.93369237333536148071e-02) (29, -1.40011057257652282715e-01) (30, 1.82835638523101806641e-01) (31, -2.54763104021549224854e-02) (32, 1.90261527895927429199e-02) (33, -2.23636962473392486572e-02) (34, 5.46180494129657745361e-02) (35, -1.35478645563125610352e-01) (36, 9.11553725600242614746e-02) (37, -1.43618375062942504883e-01) (38, -2.48311851173639297485e-02) (39, 6.24569177627563476562e-01) (40, 4.20734763145446777344e-01) (41, 1.04597225785255432129e-01) (42, 4.28472384810447692871e-02) (43, -1.52595236897468566895e-01) (44, -5.10303191840648651123e-02) (45, 6.90006315708160400391e-02) (46, 8.38038176298141479492e-02) (47, -1.57009869813919067383e-01) (48, -2.09355372935533523560e-02) (49, -3.18168967962265014648e-01) (50, -1.60711742937564849854e-02) (51, -1.80358231067657470703e-01) (52, -1.51325374841690063477e-01) (53, 3.12789529561996459961e-03) (54, -1.01338192820549011230e-01) (55, 1.22059479355812072754e-01) (56, -2.84319161437451839447e-03) (57, -1.53655752539634704590e-01) (58, -4.46291536092758178711e-01) (59, 1.02388411760330200195e-02) (60, 4.73052531480789184570e-01) (61, 2.66914013773202896118e-02) (62, 8.99299979209899902344e-02) (63, 1.68188527226448059082e-01) (64, -8.08918625116348266602e-02) (65, 2.18998536467552185059e-01) (66, 7.76483118534088134766e-01) (67, -2.79443442821502685547e-01) (68, 5.72761930525302886963e-02) (69, 1.51517903432250022888e-02) (70, -2.61855542659759521484e-01) (71, -1.46269381046295166016e-01) (72, -6.77945733070373535156e-01) (8, -9.34475511312484741211e-02) (9, 8.32597166299819946289e-02) (10, -5.54890334606170654297e-02) (11, 1.14839948713779449463e-01) (12, 9.90579929202795028687e-03) (13, 3.00257429480552673340e-02) (14, -9.33860987424850463867e-02) (15, -5.67758381366729736328e-02) (16, 5.40169328451156616211e-02) (17, -7.94897675514221191406e-02) (18, -6.71560242772102355957e-02) (19, 2.12623015046119689941e-01) (20, -2.08416655659675598145e-01) (21, 7.76182953268289566040e-03) (22, 1.76435500383377075195e-01) (23, 1.35156095027923583984e-01) (24, 7.69462957978248596191e-02) (25, -3.71626541018486022949e-02) (26, -3.12961749732494354248e-02) (27, -2.55116134881973266602e-01) (28, 4.32691024616360664368e-03) (29, -2.25208122283220291138e-02) (30, -4.15083952248096466064e-03) (31, -1.20652345940470695496e-02) (32, -6.55243843793869018555e-02) (33, -3.90060506761074066162e-02) (34, -7.96707812696695327759e-03) (35, 1.52323126792907714844e-01) (36, -9.38248634338378906250e-02) (37, 1.57472372055053710938e-01) (38, 1.40284910798072814941e-01) (39, -3.77294450998306274414e-01) (40, -2.22764089703559875488e-01) (41, -1.06885723769664764404e-01) (42, 1.22501291334629058838e-01) (43, 1.50736823678016662598e-01) (44, 5.58214113116264343262e-02) (45, 4.37233820557594299316e-02) (46, 6.28552362322807312012e-02) (47, 2.19589799642562866211e-01) (48, -1.54398754239082336426e-01) (49, 5.74699752032756805420e-02) (50, 7.92993307113647460938e-02) (51, 7.35373422503471374512e-02) (52, 1.23920284211635589600e-01) (53, 8.57508927583694458008e-02) (54, 6.97449222207069396973e-02) (55, -1.06474712491035461426e-01) (56, 4.46281544864177703857e-02) (57, 3.94443832337856292725e-02) (58, 3.02695840597152709961e-01) (59, 1.17290899157524108887e-01) (60, -1.76216751337051391602e-01) (61, -4.44764122366905212402e-02) (62, -1.79309230297803878784e-02) (63, 4.19824160635471343994e-02) (64, 1.95279475301504135132e-02) (65, -1.32771104574203491211e-01) (66, -3.97644042968750000000e-01) (67, 1.67271509766578674316e-01) (68, -1.24562628567218780518e-01) (69, -7.39325731992721557617e-02) (70, 4.14835363626480102539e-02) (71, 4.08729203045368194580e-02) (72, 3.53191107511520385742e-01) (8, 3.78696806728839874268e-03) (9, -3.49699318408966064453e-01) (10, 9.11792889237403869629e-02) (11, 5.36692678928375244141e-01) (12, -1.00631244480609893799e-01) (13, 2.23972216248512268066e-01) (14, 1.48081228137016296387e-01) (15, -1.13998305797576904297e+00) (16, -5.45061230659484863281e-02) (17, 1.11170984804630279541e-01) (18, 2.68192887306213378906e-01) (19, 2.30863690376281738281e-01) (20, 1.04348205029964447021e-01) (21, -2.59082823991775512695e-01) (22, 8.08564499020576477051e-02) (23, 1.14847131073474884033e-01) (24, 8.41294303536415100098e-02) (25, 2.12756350636482238770e-01) (26, -6.46048262715339660645e-02) (27, -8.77475738525390625000e-02) (28, 9.90872271358966827393e-03) (29, 3.59604269266128540039e-01) (30, -1.53579473495483398438e-01) (31, 2.79346168041229248047e-01) (32, 7.76226818561553955078e-02) (33, 3.73487360775470733643e-02) (34, 1.09493564814329147339e-02) (35, 2.80984014272689819336e-01) (36, 6.68227970600128173828e-02) (37, 3.40923696756362915039e-01) (38, 3.63289177417755126953e-01) (39, -1.59790897369384765625e+00) (40, -1.78067612648010253906e+00) (41, 1.41008451581001281738e-01) (42, -1.27187460660934448242e-01) (43, 2.07719773054122924805e-01) (44, 5.81061780452728271484e-01) (45, -3.62872391939163208008e-01) (46, -1.51240140199661254883e-01) (47, 6.38251155614852905273e-02) (48, 1.88179984688758850098e-01) (49, 1.39564418792724609375e+00) (50, -2.43346408009529113770e-01) (51, -1.21985599398612976074e-01) (52, 1.81810393929481506348e-01) (53, 9.63402539491653442383e-02) (54, -1.22128188610076904297e-01) (55, -2.84309506416320800781e-01) (56, -2.32357144355773925781e-01) (57, 3.12635451555252075195e-01) (58, 1.98197281360626220703e+00) (59, -2.63906657695770263672e-01) (60, -7.04281508922576904297e-01) (61, 4.37027573585510253906e-01) (62, 2.20306850969791412354e-02) (63, -1.29280194640159606934e-01) (64, 2.33757317066192626953e-01) (65, -5.42298667132854461670e-02) (66, -2.83258771896362304688e+00) (67, 2.16946437954902648926e-01) (68, -2.94323325157165527344e-01) (69, 1.23247377574443817139e-01) (70, -1.09692879021167755127e-01) (71, -4.17993180453777313232e-02) (72, 3.06393027305603027344e+00) (8, -2.35376894474029541016e-01) (9, 3.77933770418167114258e-01) (10, -1.57664552330970764160e-01) (11, -3.56430530548095703125e-01) (12, 1.43965676426887512207e-01) (13, -2.10004150867462158203e-01) (14, -2.67408013343811035156e-01) (15, 1.09722363948822021484e+00) (16, 1.09203971922397613525e-01) (17, -2.79851227998733520508e-01) (18, -2.40476652979850769043e-01) (19, -3.00133954733610153198e-02) (20, 1.03593006730079650879e-01) (21, 3.35725724697113037109e-01) (22, -1.67946759611368179321e-02) (23, -5.62855936586856842041e-02) (24, -3.42166602611541748047e-01) (25, -2.28821098804473876953e-01) (26, 2.26067334413528442383e-01) (27, 1.97739616036415100098e-01) (28, 2.05914139747619628906e-01) (29, -1.23855121433734893799e-01) (30, 1.16802588105201721191e-01) (31, -1.93978592753410339355e-01) (32, -6.40941485762596130371e-02) (33, 1.67364031076431274414e-01) (34, -2.90316939353942871094e-01) (35, -2.70795524120330810547e-01) (36, 9.49489697813987731934e-02) (37, -2.49889060854911804199e-01) (38, -3.67186278104782104492e-01) (39, 1.42863869667053222656e+00) (40, 1.38442146778106689453e+00) (41, -5.36364242434501647949e-02) (42, 7.33376219868659973145e-02) (43, -5.38016073405742645264e-02) (44, -3.57280641794204711914e-01) (45, 2.10191085934638977051e-01) (46, 1.33168712258338928223e-01) (47, -4.47891093790531158447e-02) (48, -1.17692530155181884766e-01) (49, -1.23562586307525634766e+00) (50, 1.01911097764968872070e-01) (51, 6.67897388339042663574e-02) (52, -1.63954690098762512207e-01) (53, -2.51479953527450561523e-01) (54, 2.45155721902847290039e-01) (55, 5.73903173208236694336e-02) (56, 2.07733869552612304688e-01) (57, -3.87019276618957519531e-01) (58, -1.55148088932037353516e+00) (59, 2.91252732276916503906e-01) (60, 9.32019114494323730469e-01) (61, -2.53588169813156127930e-01) (62, -1.42149612307548522949e-01) (63, 1.97489053010940551758e-01) (64, -1.80323645472526550293e-01) (65, 4.24891524016857147217e-02) (66, 2.25503134727478027344e+00) (67, -2.08961904048919677734e-01) (68, 1.76704630255699157715e-01) (69, 6.27805478870868682861e-03) (70, 1.87559902667999267578e-01) (71, -3.29294577240943908691e-02) (72, -2.41167354583740234375e+00) (8, -5.51296353340148925781e-01) (9, 2.63331472873687744141e-01) (10, -4.41981345415115356445e-01) (11, -2.24969297647476196289e-01) (12, 3.50963473320007324219e-01) (13, -5.24990439414978027344e-01) (14, -3.12342643737792968750e-01) (15, 1.35208642482757568359e+00) (16, 4.09684896469116210938e-01) (17, -1.88329920172691345215e-01) (18, -3.86302500963211059570e-01) (19, 4.69353981316089630127e-02) (20, -5.85502505302429199219e-01) (21, 3.01614165306091308594e-01) (22, 5.33780872821807861328e-01) (23, 2.31792733073234558105e-01) (24, -2.92201936244964599609e-01) (25, -1.48438438773155212402e-01) (26, -8.25167968869209289551e-02) (27, -3.10627073049545288086e-01) (28, -2.99521423876285552979e-02) (29, -2.82780259847640991211e-01) (30, 1.91350087523460388184e-01) (31, -3.63837540149688720703e-01) (32, -1.79053202271461486816e-01) (33, 6.48518465459346771240e-03) (34, -2.69018143415451049805e-01) (35, -1.65868088603019714355e-01) (36, -2.75378137826919555664e-01) (37, -1.75339490175247192383e-01) (38, 2.70704291760921478271e-02) (39, -1.83929860591888427734e-01) (40, 2.12729907035827636719e+00) (41, -4.67514395713806152344e-01) (42, 5.82151651382446289062e-01) (43, 1.77522152662277221680e-02) (44, -2.31384322047233581543e-01) (45, 3.84667545557022094727e-01) (46, 4.39119219779968261719e-01) (47, 4.46622818708419799805e-01) (48, -6.66162729263305664062e-01) (49, -1.90453135967254638672e+00) (50, 5.56135654449462890625e-01) (51, 6.06234908103942871094e-01) (52, -2.04759418964385986328e-01) (53, 3.92204634845256805420e-02) (54, 8.53206098079681396484e-01) (55, 1.77188456058502197266e-01) (56, 7.20791339874267578125e-01) (57, -1.52377232909202575684e-01) (58, -1.83297669887542724609e+00) (59, 3.56157690286636352539e-01) (60, -4.17446166276931762695e-01) (61, -7.45328441262245178223e-02) (62, -3.46062362194061279297e-01) (63, 1.68641544878482818604e-02) (64, -2.62496739625930786133e-01) (65, -1.36962741613388061523e-01) (66, 2.98409104347229003906e+00) (67, -6.83678314089775085449e-02) (68, 2.93288290500640869141e-01) (69, -6.33130073547363281250e-01) (70, 5.27379512786865234375e-01) (71, 2.38703697919845581055e-01) (72, -2.74671101570129394531e+00) (8, -1.67320579290390014648e-01) (9, 2.15906515717506408691e-01) (10, -1.16160735487937927246e-01) (11, 1.37326702475547790527e-01) (12, 4.29996214807033538818e-02) (13, -1.36064410209655761719e-01) (14, -7.80180692672729492188e-02) (15, -3.90555202960968017578e-01) (16, 1.23509690165519714355e-01) (17, -3.14894784241914749146e-03) (18, -8.13732594251632690430e-02) (19, 3.26421916484832763672e-01) (20, -2.55638867616653442383e-01) (21, 4.62888479232788085938e-02) (22, 3.80120068788528442383e-01) (23, 4.44687485694885253906e-01) (24, -6.03759940713644027710e-03) (25, 2.83362627029418945312e-01) (26, -1.08353354036808013916e-01) (27, -4.29023236036300659180e-01) (28, 1.12078273668885231018e-02) (29, 8.27233195304870605469e-02) (30, -2.05454513430595397949e-01) (31, 9.00877118110656738281e-02) (32, -1.27861708402633666992e-01) (33, 1.79927963763475418091e-02) (34, 4.44744154810905456543e-02) (35, 1.73152424395084381104e-02) (36, -1.46476224064826965332e-01) (37, 3.59778292477130889893e-02) (38, 1.03586196899414062500e-01) (39, -1.29335790872573852539e-01) (40, -2.17931598424911499023e-01) (41, -1.37738078832626342773e-01) (42, 1.12457968294620513916e-01) (43, 2.56185948848724365234e-01) (44, 1.08612529933452606201e-01) (45, -2.76363372802734375000e-01) (46, 6.77820965647697448730e-02) (47, 2.82574951648712158203e-01) (48, -1.09938837587833404541e-01) (49, 3.27105224132537841797e-01) (50, 1.68024063110351562500e-01) (51, 7.83466473221778869629e-02) (52, 7.13641289621591567993e-03) (53, 4.67412292957305908203e-01) (54, 1.22703939676284790039e-01) (55, -3.10927361249923706055e-01) (56, 7.43660554289817810059e-02) (57, 2.46710833162069320679e-02) (58, 3.30553889274597167969e-01) (59, 1.24186292290687561035e-01) (60, -3.86230587959289550781e-01) (61, 6.58341795206069946289e-02) (62, -5.67581020295619964600e-02) (63, -5.05823567509651184082e-02) (64, -2.34756898134946823120e-03) (65, -2.77393102645874023438e-01) (66, -8.17425191402435302734e-01) (67, 2.66118079423904418945e-01) (68, -2.15906977653503417969e-01) (69, -1.59710139036178588867e-01) (70, 2.90139615535736083984e-01) (71, 1.18511714041233062744e-01) (72, 4.58753526210784912109e-01) (8, 6.98282063007354736328e-01) (9, -3.57836663722991943359e-01) (10, 5.23374378681182861328e-01) (11, 1.70421227812767028809e-01) (12, -3.62005710601806640625e-01) (13, 4.16819185018539428711e-01) (14, 5.08089661598205566406e-01) (15, -1.05349457263946533203e+00) (16, -2.53351569175720214844e-01) (17, 2.09756985306739807129e-01) (18, 2.97066450119018554688e-01) (19, -1.56312972307205200195e-01) (20, 6.10329747200012207031e-01) (21, -3.02496612071990966797e-01) (22, -5.01757442951202392578e-01) (23, -4.48401808738708496094e-01) (24, 2.69083291292190551758e-01) (25, 4.56419065594673156738e-02) (26, -3.66609275341033935547e-01) (27, 5.19448816776275634766e-01) (28, -4.63767759501934051514e-02) (29, 4.06741127371788024902e-02) (30, -2.73064710199832916260e-02) (31, 1.68909236788749694824e-01) (32, 1.64160341024398803711e-01) (33, -3.64666700363159179688e-01) (34, 5.58361709117889404297e-01) (35, 1.22122660279273986816e-01) (36, 2.42127716541290283203e-01) (37, 7.03537985682487487793e-02) (38, 2.49003022909164428711e-01) (39, -8.16030204296112060547e-01) (40, -1.55570888519287109375e+00) (41, 2.46901303529739379883e-01) (42, -3.04040908813476562500e-01) (43, -3.14531624317169189453e-01) (44, -5.14699704945087432861e-03) (45, -1.59475758671760559082e-01) (46, -3.57988536357879638672e-01) (47, -4.32584047317504882812e-01) (48, 3.80348265171051025391e-01) (49, 1.33048200607299804688e+00) (50, -3.47426056861877441406e-01) (51, -2.44235828518867492676e-01) (52, 2.12548568844795227051e-01) (53, -1.63335744291543960571e-02) (54, -6.61147177219390869141e-01) (55, 5.25032699108123779297e-01) (56, -4.37778770923614501953e-01) (57, 1.47509917616844177246e-01) (58, 1.16777145862579345703e+00) (59, -3.35588842630386352539e-01) (60, -2.20379412174224853516e-01) (61, 2.19603180885314941406e-01) (62, 4.26270365715026855469e-01) (63, -1.83903962373733520508e-01) (64, 1.24363295733928680420e-01) (65, 1.55464440584182739258e-01) (66, -2.18833947181701660156e+00) (67, -3.09498086571693420410e-02) (68, 9.58075374364852905273e-02) (69, 3.86670827865600585938e-01) (70, -5.11369764804840087891e-01) (71, 3.54404153767973184586e-04) (72, 2.37585282325744628906e+00) (8, -7.68566951155662536621e-02) (9, 4.20508444309234619141e-01) (10, -9.55449566245079040527e-02) (11, -4.13415402173995971680e-01) (12, 1.61817774176597595215e-01) (13, -2.44770631194114685059e-01) (14, -3.80891859531402587891e-01) (15, 1.74072623252868652344e+00) (16, 3.99461276829242706299e-02) (17, -2.74358063936233520508e-01) (18, -3.06307196617126464844e-01) (19, -1.46682202816009521484e-01) (20, -2.05319568514823913574e-01) (21, 3.13337057828903198242e-01) (22, 1.26372352242469787598e-01) (23, -7.79466256499290466309e-02) (24, -1.69500634074211120605e-01) (25, -2.20153480768203735352e-01) (26, 2.15282022953033447266e-01) (27, -7.78192430734634399414e-02) (28, 1.10022276639938354492e-01) (29, -3.54141682386398315430e-01) (30, 2.96028465032577514648e-01) (31, -3.75756412744522094727e-01) (32, 9.30397491902112960815e-03) (33, 1.58867672085762023926e-01) (34, -1.89504593610763549805e-01) (35, -3.34397554397583007812e-01) (36, 5.32079152762889862061e-02) (37, -2.19436839222908020020e-01) (38, -4.41636383533477783203e-01) (39, 1.71794462203979492188e+00) (40, 2.14950013160705566406e+00) (41, -1.69948264956474304199e-01) (42, 2.27899760007858276367e-01) (43, -1.14753507077693939209e-02) (44, -4.26750302314758300781e-01) (45, 3.01720976829528808594e-01) (46, 2.25513964891433715820e-01) (47, -7.67730036750435829163e-03) (48, -2.76802033185958862305e-01) (49, -1.89692223072052001953e+00) (50, 1.50451585650444030762e-01) (51, 1.36870801448822021484e-01) (52, -1.43858328461647033691e-01) (53, -2.72477626800537109375e-01) (54, 1.17999754846096038818e-01) (55, -1.41109347343444824219e-01) (56, 1.61728426814079284668e-01) (57, -3.57683002948760986328e-01) (58, -1.67178046703338623047e+00) (59, 2.77361482381820678711e-01) (60, 1.10600435733795166016e+00) (61, -4.35628056526184082031e-01) (62, -9.93378162384033203125e-02) (63, 1.66019022464752197266e-01) (64, -1.75772368907928466797e-01) (65, 9.57148075103759765625e-02) (66, 3.12321329116821289062e+00) (67, -1.11173167824745178223e-01) (68, 2.70672589540481567383e-01) (69, -1.56639158725738525391e-01) (70, 1.93146526813507080078e-01) (71, -1.14095203578472137451e-01) (72, -2.94186735153198242188e+00) (8, 6.41548931598663330078e-02) (9, 1.81068778038024902344e-01) (10, 1.23665891587734222412e-02) (11, -1.57422930002212524414e-01) (12, 2.37193182110786437988e-02) (13, -1.46660029888153076172e-01) (14, 6.42509385943412780762e-02) (15, 2.19767540693283081055e-01) (16, 1.16258569061756134033e-01) (17, -2.73634884506464004517e-02) (18, -8.83276760578155517578e-02) (19, -1.70027986168861389160e-02) (20, 5.92508018016815185547e-02) (21, 5.83529658615589141846e-03) (22, 2.98749990761280059814e-02) (23, -8.87788906693458557129e-02) (24, -5.36797381937503814697e-02) (25, 4.71588075160980224609e-02) (26, -1.70823648571968078613e-01) (27, -5.14989681541919708252e-02) (28, -1.37162491679191589355e-01) (29, -2.01193064451217651367e-01) (30, 4.55604866147041320801e-02) (31, -1.31173223257064819336e-01) (32, 3.29550690948963165283e-02) (33, -1.38900965452194213867e-01) (34, 1.93567991256713867188e-01) (35, -9.48596894741058349609e-02) (36, 8.22772830724716186523e-02) (37, -1.53467535972595214844e-01) (38, 6.19905702769756317139e-02) (39, 6.44070684909820556641e-01) (40, 2.28843048214912414551e-01) (41, -1.86045411974191665649e-02) (42, 1.68792441487312316895e-01) (43, 3.09164114296436309814e-02) (44, -2.16202348470687866211e-01) (45, 2.62683421373367309570e-01) (46, 4.60872501134872436523e-02) (47, 6.63849757984280586243e-03) (48, 1.19294235482811927795e-02) (49, -1.74777016043663024902e-01) (50, 2.02001258730888366699e-01) (51, -2.97361016273498535156e-02) (52, 4.75386641919612884521e-02) (53, 1.96712374687194824219e-01) (54, -1.15385830402374267578e-01) (55, -1.31495529785752296448e-02) (56, -5.91047070920467376709e-02) (57, -7.96028897166252136230e-02) (58, -3.52266013622283935547e-01) (59, 2.04460233449935913086e-01) (60, 3.86712133884429931641e-01) (61, -1.58721581101417541504e-01) (62, 2.50465236604213714600e-02) (63, 1.47914644330739974976e-02) (64, -1.18138939142227172852e-01) (65, -3.74889024533331394196e-03) (66, 3.85031521320343017578e-01) (67, -2.17578597366809844971e-02) (68, 7.19063878059387207031e-02) (69, 8.62541869282722473145e-02) (70, -2.17640064656734466553e-02) (71, 1.87417753040790557861e-02) (72, -6.07298374176025390625e-01) (8, -2.44494229555130004883e-02) (9, 1.95825219154357910156e-01) (10, -9.02942866086959838867e-02) (11, -5.31647838652133941650e-02) (12, 9.31277871131896972656e-02) (13, -4.90282118320465087891e-01) (14, -7.42500126361846923828e-02) (15, 4.12411272525787353516e-01) (16, 7.26493895053863525391e-02) (17, 7.52515718340873718262e-02) (18, -3.37528437376022338867e-01) (19, 1.74349352717399597168e-01) (20, -2.04240083694458007812e-01) (21, 2.11780145764350891113e-01) (22, 1.92329525947570800781e-01) (23, 1.92499116063117980957e-01) (24, -5.70029504597187042236e-02) (25, 1.32652252912521362305e-01) (26, 1.85813277959823608398e-01) (27, -3.81441682577133178711e-01) (28, 1.30324751138687133789e-01) (29, -9.10587310791015625000e-02) (30, -9.10527631640434265137e-02) (31, -2.28380262851715087891e-01) (32, -1.46985203027725219727e-01) (33, 4.46468405425548553467e-02) (34, -1.76890566945075988770e-01) (35, -2.32050999999046325684e-01) (36, -7.33689740300178527832e-02) (37, -1.49156242609024047852e-01) (38, -4.88885879516601562500e-01) (39, 1.01385784149169921875e+00) (40, 1.06972289085388183594e+00) (41, -6.86666443943977355957e-02) (42, 2.91184186935424804688e-02) (43, 2.04805999994277954102e-01) (44, -1.30684584379196166992e-01) (45, -1.39988467097282409668e-01) (46, 1.82869061827659606934e-01) (47, 3.08112446218729019165e-02) (48, -2.42181554436683654785e-01) (49, -6.42738401889801025391e-01) (50, 1.88629087060689926147e-02) (51, 3.57336103916168212891e-02) (52, -3.05292904376983642578e-01) (53, 6.17769397795200347900e-02) (54, 1.44090071320533752441e-01) (55, -5.22560298442840576172e-01) (56, 1.94226577877998352051e-01) (57, -2.43355378508567810059e-01) (58, -8.80694448947906494141e-01) (59, -2.51684244722127914429e-02) (60, 9.61158201098442077637e-02) (61, -2.32929617166519165039e-01) (62, -7.43685364723205566406e-02) (63, 1.14077046513557434082e-01) (64, 7.08659514784812927246e-02) (65, -1.10724657773971557617e-01) (66, 1.49381911754608154297e+00) (67, 1.93144977092742919922e-01) (68, -2.65644818544387817383e-01) (69, -6.94904802367091178894e-03) (70, 2.27458149194717407227e-01) (71, 5.89877329766750335693e-02) (72, -1.74208021163940429688e+00) (8, 2.41559594869613647461e-02) (9, 5.61628229916095733643e-02) (10, -1.19431637227535247803e-01) (11, -8.68237167596817016602e-02) (12, 1.12304665148258209229e-01) (13, -7.87292271852493286133e-02) (14, -3.08371502906084060669e-02) (15, 5.39719998836517333984e-01) (16, -9.05929356813430786133e-02) (17, -1.37332856655120849609e-01) (18, -1.37222334742546081543e-01) (19, -2.70332962274551391602e-01) (20, 4.55661118030548095703e-02) (21, 1.54840722680091857910e-01) (22, -1.54363960027694702148e-01) (23, -1.84397250413894653320e-01) (24, -1.18554122745990753174e-02) (25, -1.68761342763900756836e-01) (26, 5.80684207379817962646e-02) (27, 3.80367487668991088867e-01) (28, -1.11308544874191284180e-01) (29, -2.24382862448692321777e-01) (30, 2.10246250033378601074e-01) (31, -1.75393804907798767090e-01) (32, 9.76812988519668579102e-02) (33, -1.27678811550140380859e-01) (34, -4.84712682664394378662e-02) (35, -1.66709408164024353027e-01) (36, 2.40756198763847351074e-02) (37, -6.58696889877319335938e-02) (38, -2.30402559041976928711e-01) (39, 8.16695392131805419922e-01) (40, 7.60585725307464599609e-01) (41, 2.54745166748762130737e-02) (42, 1.80837869644165039062e-01) (43, -9.74527448415756225586e-02) (44, -4.29144427180290222168e-02) (45, 4.02879528701305389404e-02) (46, 1.46525129675865173340e-01) (47, 1.86259318143129348755e-02) (48, -1.05094425380229949951e-01) (49, -5.74207663536071777344e-01) (50, -1.72357668634504079819e-03) (51, -9.44242626428604125977e-02) (52, -8.27200859785079956055e-02) (53, -1.64567336440086364746e-01) (54, -4.33374419808387756348e-02) (55, 3.16701203584671020508e-01) (56, -8.52640718221664428711e-03) (57, -6.10079988837242126465e-02) (58, -6.30767047405242919922e-01) (59, 9.64921042323112487793e-02) (60, 5.66118478775024414062e-01) (61, -1.01458854973316192627e-01) (62, 3.36481668055057525635e-02) (63, 8.04715082049369812012e-02) (64, -3.81241180002689361572e-02) (65, 2.03280255198478698730e-01) (66, 1.45666205883026123047e+00) (67, -1.58585503697395324707e-01) (68, 4.38693948090076446533e-02) (69, -4.06459718942642211914e-03) (70, -4.15227264165878295898e-01) (71, -9.60206165909767150879e-02) (72, -1.26677775382995605469e+00) (8, -9.52475368976593017578e-02) (9, 3.28746438026428222656e-01) (10, 5.41515089571475982666e-02) (11, -2.91794180870056152344e-01) (12, 7.21272975206375122070e-02) (13, -8.03300440311431884766e-02) (14, -1.10189199447631835938e-01) (15, 4.83228057622909545898e-01) (16, 2.00571447610855102539e-01) (17, -2.54357215017080307007e-02) (18, -1.78585141897201538086e-01) (19, -9.10155102610588073730e-02) (20, -2.09669083356857299805e-01) (21, 9.31791961193084716797e-02) (22, 9.87638160586357116699e-02) (23, -1.16243042051792144775e-01) (24, -8.07757750153541564941e-02) (25, -1.56243160367012023926e-01) (26, -2.48002298176288604736e-02) (27, -1.29501610994338989258e-01) (28, 1.08684994280338287354e-01) (29, -1.09461151063442230225e-01) (30, 4.93159797042608261108e-03) (31, -2.01638758182525634766e-01) (32, 8.28632935881614685059e-02) (33, 4.17189151048660278320e-02) (34, -5.07765188813209533691e-02) (35, 3.12801226973533630371e-02) (36, 4.53364253044128417969e-02) (37, 5.09028928354382514954e-03) (38, -7.27114751935005187988e-02) (39, 4.03036594390869140625e-01) (40, 6.53987944126129150391e-01) (41, -1.40677869319915771484e-01) (42, 4.09666486084461212158e-02) (43, -5.67959807813167572021e-02) (44, -1.85110315680503845215e-01) (45, 3.08326900005340576172e-01) (46, 1.63225978612899780273e-01) (47, 4.62451577186584472656e-02) (48, -2.32475340366363525391e-01) (49, -6.11843526363372802734e-01) (50, 8.23213607072830200195e-02) (51, 1.73578038811683654785e-01) (52, 8.70585720986127853394e-03) (53, -2.51581907272338867188e-01) (54, 1.61317929625511169434e-01) (55, 3.38613651692867279053e-02) (56, 2.23763912916183471680e-01) (57, -1.42690598964691162109e-01) (58, -8.00638139247894287109e-01) (59, 1.05806417763233184814e-01) (60, 2.17851564288139343262e-01) (61, -2.85283416509628295898e-01) (62, -5.66306039690971374512e-02) (63, -9.15585979819297790527e-02) (64, 2.20244135707616806030e-02) (65, 4.71179224550724029541e-02) (66, 1.25020015239715576172e+00) (67, 9.22246649861335754395e-02) (68, 2.29033023118972778320e-01) (69, -1.19545057415962219238e-01) (70, 2.64257192611694335938e-01) (71, -1.26322358846664428711e-01) (72, -1.30757033824920654297e+00) (8, -4.88995790481567382812e-01) (9, 4.60655957460403442383e-01) (10, -4.58883792161941528320e-01) (11, -7.95790478587150573730e-02) (12, 4.48904305696487426758e-01) (13, -8.03983271121978759766e-01) (14, -4.52885419130325317383e-01) (15, 1.44959270954132080078e+00) (16, 4.10250127315521240234e-01) (17, -1.88400015234947204590e-01) (18, -6.00695967674255371094e-01) (19, 2.90487736463546752930e-01) (20, -7.01539993286132812500e-01) (21, 5.78191399574279785156e-01) (22, 5.90893983840942382812e-01) (23, 3.59540462493896484375e-01) (24, -4.01827573776245117188e-01) (25, 2.57340017706155776978e-02) (26, 5.87740063667297363281e-01) (27, -5.88525950908660888672e-01) (28, 2.48179033398628234863e-01) (29, -1.35987594723701477051e-01) (30, 1.85602247714996337891e-01) (31, -6.42411410808563232422e-01) (32, -9.16014313697814941406e-02) (33, 5.93146026134490966797e-01) (34, -6.84100449085235595703e-01) (35, -2.52178788185119628906e-01) (36, -3.49508970975875854492e-01) (37, -9.06115025281906127930e-02) (38, -7.23141372203826904297e-01) (39, 1.84747171401977539062e+00) (40, 2.27365708351135253906e+00) (41, -2.90152251720428466797e-01) (42, 4.35524255037307739258e-01) (43, 3.21008622646331787109e-01) (44, -7.51040056347846984863e-02) (45, -1.42794057726860046387e-01) (46, 5.73914885520935058594e-01) (47, 2.48557060956954956055e-01) (48, -9.07142162322998046875e-01) (49, -1.80041098594665527344e+00) (50, 2.48381018638610839844e-01) (51, 2.30838626623153686523e-01) (52, -3.71462643146514892578e-01) (53, -1.11113466322422027588e-01) (54, 7.12550401687622070312e-01) (55, -9.88587081432342529297e-01) (56, 3.72283339500427246094e-01) (57, -3.24895143508911132812e-01) (58, -1.77377843856811523438e+00) (59, 2.71180838346481323242e-01) (60, 7.58656620979309082031e-01) (61, -4.46043401956558227539e-01) (62, -5.41227877140045166016e-01) (63, 3.07436347007751464844e-01) (64, -5.68690896034240722656e-02) (65, 4.30567897856235504150e-02) (66, 2.93540620803833007812e+00) (67, 3.08875441551208496094e-01) (68, -2.91621327400207519531e-01) (69, -3.55335354804992675781e-01) (70, 4.85460191965103149414e-01) (71, -1.70643106102943420410e-01) (72, -3.29495739936828613281e+00) (8, 1.26898214221000671387e-01) (9, -1.28357067704200744629e-01) (10, 1.72412127256393432617e-01) (11, 1.89828187227249145508e-01) (12, -2.11273074150085449219e-01) (13, 9.94541272521018981934e-02) (14, 1.80757910013198852539e-01) (15, -8.04305732250213623047e-01) (16, 1.74926295876502990723e-01) (17, 7.98350498080253601074e-02) (18, 1.73227205872535705566e-01) (19, 2.42437824606895446777e-01) (20, -1.62441521883010864258e-01) (21, -2.27698311209678649902e-01) (22, 9.78801324963569641113e-02) (23, 1.72928031533956527710e-02) (24, 1.69835954904556274414e-01) (25, 1.30135655403137207031e-01) (26, -4.03446972370147705078e-01) (27, -2.98744529485702514648e-01) (28, -1.21967576444149017334e-01) (29, 2.17010274529457092285e-01) (30, 5.56799359619617462158e-02) (31, 2.51465141773223876953e-01) (32, -1.23378485441207885742e-01) (33, -4.13970798254013061523e-02) (34, 2.11373373866081237793e-01) (35, 2.71206110715866088867e-01) (36, 8.42861924320459365845e-03) (37, 3.33015918731689453125e-01) (38, 4.56453740596771240234e-01) (39, -1.59514939785003662109e+00) (40, -1.09660840034484863281e+00) (41, -1.44119393080472946167e-02) (42, -7.30896694585680961609e-03) (43, 1.16172619163990020752e-01) (44, 2.00282171368598937988e-01) (45, 6.51145353913307189941e-02) (46, -1.05451032519340515137e-01) (47, 1.64171785116195678711e-01) (48, -3.84592227637767791748e-02) (49, 8.47483515739440917969e-01) (50, -1.35308951139450073242e-01) (51, 1.66314661502838134766e-01) (52, 2.49782398343086242676e-01) (53, 1.02292060852050781250e-01) (54, -7.67864212393760681152e-02) (55, 5.19116520881652832031e-02) (56, -1.55060723423957824707e-01) (57, 2.24814310669898986816e-01) (58, 1.24828755855560302734e+00) (59, -2.84243315458297729492e-01) (60, -9.54993009567260742188e-01) (61, 1.53070345520973205566e-01) (62, 6.84907957911491394043e-02) (63, -3.02747279405593872070e-01) (64, 1.20653361082077026367e-01) (65, -2.06865116953849792480e-01) (66, -1.85968899726867675781e+00) (67, 2.74548232555389404297e-01) (68, -7.10078626871109008789e-02) (69, -1.21641926467418670654e-01) (70, -7.62067362666130065918e-02) (71, 1.14760674536228179932e-01) (72, 2.05770039558410644531e+00) (8, -2.12552994489669799805e-02) (9, -1.38749286532402038574e-01) (10, -4.29969765245914459229e-02) (11, -1.81289482861757278442e-02) (12, 2.01840862631797790527e-01) (13, -2.94084083288908004761e-02) (14, -1.31897673010826110840e-01) (15, 4.85549002885818481445e-01) (16, -4.91203516721725463867e-02) (17, -2.44225505739450454712e-02) (18, 2.96231806278228759766e-02) (19, -2.52325236797332763672e-01) (20, 1.05900369584560394287e-01) (21, 7.56375193595886230469e-02) (22, -1.65313050150871276855e-01) (23, -2.66138881444931030273e-01) (24, -5.34873977303504943848e-02) (25, -1.39897257089614868164e-01) (26, 1.52430981397628784180e-01) (27, 3.09445738792419433594e-01) (28, 2.55711711943149566650e-02) (29, -7.74761140346527099609e-02) (30, 2.57841736078262329102e-01) (31, -2.32297405600547790527e-01) (32, 1.23184189200401306152e-01) (33, 1.12458299845457077026e-02) (34, -1.30906209349632263184e-01) (35, -5.84524795413017272949e-02) (36, 6.94038346409797668457e-02) (37, -2.51682344824075698853e-02) (38, -9.29931104183197021484e-02) (39, 4.01917725801467895508e-01) (40, 2.73765563964843750000e-01) (41, 1.41701683402061462402e-01) (42, 2.05937862396240234375e-01) (43, -8.36228802800178527832e-02) (44, -1.54982745647430419922e-01) (45, 6.66571110486984252930e-02) (46, -2.18224711716175079346e-02) (47, -1.14054381847381591797e-01) (48, -1.25524416565895080566e-01) (49, -4.42485451698303222656e-01) (50, -1.74494106322526931763e-02) (51, 2.42901276797056198120e-02) (52, -1.60932652652263641357e-02) (53, -2.39092960953712463379e-01) (54, 9.13107171654701232910e-02) (55, -4.38928566873073577881e-02) (56, 6.26602098345756530762e-02) (57, -7.22665786743164062500e-02) (58, -3.69173049926757812500e-01) (59, -1.06233311817049980164e-02) (60, 5.77014446258544921875e-01) (61, -2.66374722123146057129e-02) (62, 1.28049477934837341309e-02) (63, 1.66146606206893920898e-01) (64, -6.30234926939010620117e-02) (65, 2.85866647958755493164e-01) (66, 7.97636866569519042969e-01) (67, -1.98897108435630798340e-01) (68, 1.58550634980201721191e-01) (69, 2.70123165100812911987e-02) (70, -2.03296691179275512695e-01) (71, -1.16732403635978698730e-01) (72, -7.00177848339080810547e-01) (8, -6.33083209395408630371e-02) (9, -7.11816400289535522461e-02) (10, -4.90045994520187377930e-02) (11, 4.04504127800464630127e-02) (12, -5.73535151779651641846e-02) (13, 3.43767590820789337158e-02) (14, -1.38733834028244018555e-01) (15, -1.60978347063064575195e-01) (16, -1.54470264911651611328e-01) (17, 2.68606673926115036011e-02) (18, -2.97339912503957748413e-02) (19, 3.23626510798931121826e-02) (20, 5.05224382504820823669e-03) (21, 4.17481139302253723145e-02) (22, 9.56439971923828125000e-02) (23, 4.63842526078224182129e-02) (24, 7.20274522900581359863e-02) (25, 1.94116439670324325562e-02) (26, 4.19095763936638832092e-03) (27, 1.26036286354064941406e-01) (28, 9.29413437843322753906e-02) (29, 1.10683105885982513428e-01) (30, 1.85602381825447082520e-02) (31, 1.04715466499328613281e-01) (32, 1.19469821453094482422e-01) (33, 4.78360801935195922852e-02) (34, -1.39233246445655822754e-01) (35, 1.49915134534239768982e-02) (36, -2.33068782836198806763e-02) (37, 3.05563006550073623657e-02) (38, -1.11171882599592208862e-02) (39, -4.54822152853012084961e-01) (40, -5.68299219012260437012e-02) (41, -2.19194404780864715576e-02) (42, -7.87508040666580200195e-02) (43, 3.47873531281948089600e-02) (44, 2.65408098697662353516e-01) (45, -1.81920602917671203613e-01) (46, -1.55079672113060951233e-02) (47, -6.57747983932495117188e-02) (48, 4.96791936457157135010e-02) (49, 9.10367444157600402832e-02) (50, -1.55432522296905517578e-01) (51, -1.26768171787261962891e-01) (52, 6.36130897328257560730e-03) (53, -4.19534705579280853271e-02) (54, 1.03598972782492637634e-02) (55, 1.45689686760306358337e-02) (56, 5.61264604330062866211e-02) (57, 7.25047811865806579590e-02) (58, 1.28829896450042724609e-01) (59, -1.75020888447761535645e-01) (60, -3.23740810155868530273e-01) (61, 9.68282893300056457520e-02) (62, 6.45854335743933916092e-04) (63, -7.08271712064743041992e-02) (64, 7.16774612665176391602e-02) (65, 3.30588519573211669922e-02) (66, -1.77235037088394165039e-01) (67, -6.80435076355934143066e-02) (68, 6.76097488030791282654e-03) (69, -1.20129331480711698532e-03) (70, 6.06703720986843109131e-02) (71, -3.77716049551963806152e-02) (72, 3.64363908767700195312e-01) (8, -2.14806735515594482422e-01) (9, 1.02549575269222259521e-01) (10, -2.14429110288619995117e-01) (11, -1.06102980673313140869e-01) (12, 3.23499925434589385986e-02) (13, -1.03191383183002471924e-01) (14, -9.62971001863479614258e-02) (15, 2.28198304772377014160e-01) (16, 1.44413672387599945068e-02) (17, -1.35643437504768371582e-01) (18, 6.15063123404979705811e-03) (19, 8.39099008589982986450e-03) (20, -2.57857888936996459961e-01) (21, 9.04040411114692687988e-02) (22, 1.42526745796203613281e-01) (23, 8.05957987904548645020e-02) (24, -8.38828086853027343750e-02) (25, 3.21880653500556945801e-02) (26, 1.40365744009613990784e-02) (27, 3.91981750726699829102e-02) (28, -1.10412456095218658447e-01) (29, 2.11692955344915390015e-02) (30, 6.04839585721492767334e-02) (31, -1.25606954097747802734e-02) (32, 2.17899214476346969604e-02) (33, 5.53981810808181762695e-02) (34, -1.13582491874694824219e-01) (35, -6.70967763289809226990e-03) (36, -3.94306667149066925049e-02) (37, -2.05926261842250823975e-02) (38, 2.50186882913112640381e-02) (39, -1.18671327829360961914e-01) (40, 2.38520473241806030273e-01) (41, -2.89055816829204559326e-02) (42, 1.99468165636062622070e-01) (43, 6.71713203191757202148e-02) (44, -2.22343578934669494629e-02) (45, 1.01494215428829193115e-01) (46, 7.41023570299148559570e-02) (47, 2.01464608311653137207e-01) (48, -5.41468076407909393311e-02) (49, -3.04138094186782836914e-01) (50, 1.23640960082411766052e-02) (51, 5.61834760010242462158e-02) (52, 2.95953899621963500977e-02) (53, 3.37247252464294433594e-02) (54, 1.02635569870471954346e-01) (55, 6.84717670083045959473e-02) (56, 9.24000442028045654297e-02) (57, 7.12941661477088928223e-02) (58, -2.22279995679855346680e-01) (59, 1.33686274290084838867e-01) (60, 1.33776217699050903320e-02) (61, -5.12008816003799438477e-02) (62, -1.02279417216777801514e-01) (63, 1.63959655910730361938e-02) (64, -4.86896820366382598877e-02) (65, 1.77749525755643844604e-02) (66, 3.18888545036315917969e-01) (67, -6.65566027164459228516e-02) (68, 1.39773637056350708008e-02) (69, -6.11818991601467132568e-02) (70, 3.30228544771671295166e-02) (71, -6.64946511387825012207e-02) (72, -2.94936805963516235352e-01) (8, -3.56784388422966003418e-02) (9, 8.21671113371849060059e-02) (10, 3.90434227883815765381e-02) (11, -9.25915092229843139648e-02) (12, 1.14934472367167472839e-03) (13, 2.69517465494573116302e-03) (14, 5.01835951581597328186e-03) (15, 5.15831470489501953125e-01) (16, 1.13825663924217224121e-01) (17, -7.99959972500801086426e-02) (18, -1.11729927361011505127e-01) (19, -4.86214421689510345459e-02) (20, -1.13948218524456024170e-01) (21, -1.21775187551975250244e-01) (22, -1.97822302579879760742e-02) (23, -9.77851524949073791504e-02) (24, -6.98223039507865905762e-02) (25, -1.47231563925743103027e-01) (26, 2.01013796031475067139e-02) (27, -2.11608663201332092285e-01) (28, 1.38135766610503196716e-02) (29, -1.20357327163219451904e-01) (30, 1.08915731310844421387e-01) (31, -9.76934283971786499023e-02) (32, 3.94217297434806823730e-03) (33, 1.31489545106887817383e-01) (34, -9.45292338728904724121e-02) (35, -4.73674498498439788818e-02) (36, 6.71225637197494506836e-02) (37, -7.28896111249923706055e-02) (38, 5.65833151340484619141e-02) (39, -1.14139020442962646484e-02) (40, 4.42381471395492553711e-01) (41, -8.97404626011848449707e-02) (42, 3.52991446852684020996e-02) (43, -1.31963282823562622070e-01) (44, -2.25841137580573558807e-03) (45, 1.48291528224945068359e-01) (46, -7.17436149716377258301e-02) (47, -1.38396741822361946106e-02) (48, -2.13110864162445068359e-01) (49, -5.40941953659057617188e-01) (50, 5.65750226378440856934e-02) (51, 1.68925151228904724121e-01) (52, -9.10655111074447631836e-02) (53, -1.73517897725105285645e-01) (54, 2.97108795493841171265e-02) (55, -1.93890199065208435059e-01) (56, -3.02180629223585128784e-02) (57, -3.77732305787503719330e-03) (58, -1.68676435947418212891e-01) (59, 8.91713425517082214355e-02) (60, 9.00404304265975952148e-02) (61, 6.84655979275703430176e-02) (62, -1.57304793596267700195e-01) (63, 7.05623403191566467285e-02) (64, -8.80401208996772766113e-02) (65, 1.33819812908768653870e-02) (66, 7.31632292270660400391e-01) (67, 8.40079039335250854492e-02) (68, 1.57379686832427978516e-01) (69, -1.32004059851169586182e-02) (70, 2.94301956892013549805e-01) (71, 3.13893519341945648193e-02) (72, -4.92955595254898071289e-01) (8, -2.68705815076828002930e-01) (9, 2.79095739126205444336e-01) (10, -1.65078371763229370117e-01) (11, -7.69800022244453430176e-02) (12, 6.50763809680938720703e-02) (13, -2.02853873372077941895e-01) (14, -1.06565169990062713623e-01) (15, -7.54857137799263000488e-02) (16, 1.60252153873443603516e-01) (17, -2.83631123602390289307e-02) (18, -8.11777729541063308716e-03) (19, 1.77509143948554992676e-01) (20, -2.71753102540969848633e-01) (21, -1.97000019252300262451e-02) (22, 2.76294112205505371094e-01) (23, 2.57528066635131835938e-01) (24, -4.30103018879890441895e-02) (25, 1.51884049177169799805e-01) (26, -1.52120202779769897461e-01) (27, -4.54500466585159301758e-01) (28, -4.14803773164749145508e-02) (29, 4.36537712812423706055e-02) (30, -2.44228914380073547363e-03) (31, 6.53340155258774757385e-03) (32, -1.38576328754425048828e-01) (33, 6.67804032564163208008e-02) (34, -5.68199045956134796143e-02) (35, 1.10732652246952056885e-01) (36, -3.53347696363925933838e-02) (37, 5.01409545540809631348e-02) (38, 9.64475646615028381348e-02) (39, -3.22518497705459594727e-01) (40, 2.86143720149993896484e-01) (41, -8.53321775794029235840e-02) (42, 1.43825396895408630371e-01) (43, 2.12264776229858398438e-01) (44, -3.74565366655588150024e-03) (45, 9.52525064349174499512e-02) (46, 8.40890184044837951660e-02) (47, 1.93788230419158935547e-01) (48, -1.03108495473861694336e-01) (49, -1.19144275784492492676e-01) (50, 2.25076466798782348633e-01) (51, 1.95146948099136352539e-01) (52, 1.42958104610443115234e-01) (53, 2.34497979283332824707e-01) (54, 2.30945020914077758789e-01) (55, -9.12413373589515686035e-02) (56, 2.24991858005523681641e-01) (57, 7.69568085670471191406e-02) (58, -8.57726931571960449219e-02) (59, 2.42613464593887329102e-01) (60, -4.07730996608734130859e-01) (61, -7.73812830448150634766e-02) (62, -3.03017664700746536255e-02) (63, -1.23254887759685516357e-01) (64, 9.60759911686182022095e-03) (65, -2.02189266681671142578e-01) (66, 1.13830855116248130798e-02) (67, 1.62611573934555053711e-01) (68, -3.84682491421699523926e-02) (69, -2.44617655873298645020e-01) (70, 1.96771383285522460938e-01) (71, 1.48782044649124145508e-01) (72, -1.69422067701816558838e-02) (8, -1.73944249749183654785e-01) (9, -2.08720006048679351807e-03) (10, -2.38266482949256896973e-01) (11, 2.98634618520736694336e-01) (12, 1.23980909585952758789e-01) (13, -2.31017932295799255371e-01) (14, -3.72526384890079498291e-02) (15, -2.26243197917938232422e-01) (16, 1.35285452008247375488e-01) (17, 1.59927144646644592285e-01) (18, -1.42636239528656005859e-01) (19, 7.30044767260551452637e-02) (20, -3.89884352684020996094e-01) (21, 1.17159746587276458740e-01) (22, 3.20031464099884033203e-01) (23, 2.24881052970886230469e-01) (24, -8.50179642438888549805e-02) (25, 3.31640094518661499023e-01) (26, 6.25920593738555908203e-02) (27, -3.06032478809356689453e-01) (28, -9.46534499526023864746e-02) (29, 4.33014109730720520020e-02) (30, -2.68802821636199951172e-01) (31, -1.05946555733680725098e-01) (32, -1.05715900659561157227e-01) (33, 1.54643831774592399597e-02) (34, 4.11687269806861877441e-02) (35, -3.16364830359816551208e-03) (36, -1.81758418679237365723e-01) (37, -1.01728634908795356750e-02) (38, -2.51958314329385757446e-02) (39, 2.98206359148025512695e-01) (40, 2.57919371128082275391e-01) (41, -1.25249773263931274414e-01) (42, 1.60985052585601806641e-01) (43, 2.48706877231597900391e-01) (44, 3.36421996355056762695e-01) (45, -1.82965904474258422852e-01) (46, 7.93185234069824218750e-02) (47, 2.12919875979423522949e-01) (48, -1.38343110680580139160e-01) (49, 1.15781500935554504395e-01) (50, 1.33940547704696655273e-01) (51, 1.96183305233716964722e-02) (52, -1.02755509316921234131e-01) (53, 3.75445038080215454102e-01) (54, 2.52845019102096557617e-01) (55, -4.06082123517990112305e-01) (56, 1.15868886932730674744e-02) (57, -3.67660261690616607666e-02) (58, 1.75631478428840637207e-01) (59, 1.62698343396186828613e-01) (60, -2.05718368291854858398e-01) (61, 3.42651754617691040039e-02) (62, -2.88925226777791976929e-03) (63, -2.49803322367370128632e-03) (64, -1.15872251626569777727e-04) (65, -1.28879487514495849609e-01) (66, -2.62693941593170166016e-01) (67, 1.24518059194087982178e-01) (68, -3.03996145725250244141e-01) (69, -1.09709508717060089111e-01) (70, 1.87090393155813217163e-02) (71, 2.02806070446968078613e-01) (72, 7.16606527566909790039e-02) (8, 1.60554468631744384766e-01) (9, 1.53037011623382568359e-02) (10, 1.53655812144279479980e-01) (11, -6.81925490498542785645e-02) (12, -1.49648994207382202148e-01) (13, 2.25896220654249191284e-02) (14, 1.23822495341300964355e-01) (15, -3.26897025108337402344e-01) (16, 6.43563047051429748535e-02) (17, -4.47000227868556976318e-02) (18, 1.45861700177192687988e-01) (19, 9.05822217464447021484e-02) (20, 2.44273012503981590271e-03) (21, -5.35754635930061340332e-02) (22, 4.83268797397613525391e-02) (23, -8.63742381334304809570e-02) (24, 7.79903456568717956543e-02) (25, 4.66561913490295410156e-02) (26, -3.10975223779678344727e-01) (27, -1.70403961092233657837e-02) (28, -6.34503811597824096680e-02) (29, 5.96989206969738006592e-02) (30, -6.85613751411437988281e-02) (31, 1.16506569087505340576e-01) (32, 7.72607922554016113281e-02) (33, -1.91545099020004272461e-01) (34, 2.01096728444099426270e-01) (35, 6.98101371526718139648e-02) (36, 8.13860967755317687988e-02) (37, 1.49720892310142517090e-01) (38, 1.68823361396789550781e-01) (39, -5.91726124286651611328e-01) (40, -1.12667061388492584229e-01) (41, 1.75646562129259109497e-02) (42, 9.41298250108957290649e-03) (43, -1.54263190925121307373e-02) (44, 1.15632200613617897034e-02) (45, 8.11036080121994018555e-02) (46, -1.92474722862243652344e-01) (47, 2.37083667889237403870e-03) (48, -1.87703911215066909790e-02) (49, 2.52992093563079833984e-01) (50, -1.91081948578357696533e-02) (51, -1.87836252152919769287e-02) (52, 2.14490458369255065918e-01) (53, -2.69656628370285034180e-02) (54, -5.64459804445505142212e-03) (55, 3.64503979682922363281e-01) (56, -5.88211715221405029297e-02) (57, 2.14392486959695816040e-02) (58, 2.15321242809295654297e-01) (59, -9.73658114671707153320e-02) (60, -5.58772504329681396484e-01) (61, 3.60956899821758270264e-02) (62, 5.13602495193481445312e-02) (63, -8.20475369691848754883e-02) (64, 8.17303955554962158203e-02) (65, -1.07910804450511932373e-01) (66, -2.62402504682540893555e-01) (67, 3.41794006526470184326e-02) (68, 2.82699298113584518433e-02) (69, 6.48319907486438751221e-03) (70, 7.86377862095832824707e-03) (71, 1.54407387599349021912e-02) (72, 4.84934240579605102539e-01) (73, -3.74653525650501251221e-02) (74, 3.27146984636783599854e-02) (75, 1.83569882065057754517e-02) (76, -1.75004247575998306274e-02) (77, -2.35916767269372940063e-02) (78, 2.14967913925647735596e-02) (79, -2.23285201936960220337e-02) (80, -6.62064254283905029297e-02) (81, 1.27872442826628684998e-02) (82, -1.19992010295391082764e-02) (83, 8.97037982940673828125e-03) (84, 3.02054770290851593018e-02) (85, -3.99750471115112304688e-02) (86, -8.26416239142417907715e-02) (87, -1.64008196443319320679e-02) (88, -7.93200284242630004883e-02) (89, -1.38004338368773460388e-02) (90, -2.69253328442573547363e-02) (91, 8.48118513822555541992e-02) (92, 2.33218241482973098755e-02) (93, 3.91541682183742523193e-02) (94, -1.49754537269473075867e-02) (95, -6.81332275271415710449e-02) (96, 8.04905518889427185059e-02) (97, -3.75866703689098358154e-02) (98, -5.12931235134601593018e-02) (99, 1.11692643258720636368e-03) (100, -2.74674165993928909302e-02) (101, 9.29923448711633682251e-03) (102, -6.50072470307350158691e-02) (103, 3.99036239832639694214e-03) (104, 3.84839735925197601318e-02) (105, 3.71937602758407592773e-01) (73, -5.27946501970291137695e-02) (74, -7.87841156125068664551e-03) (75, -1.11500383354723453522e-03) (76, 3.68656516075134277344e-02) (77, -1.30629325285553932190e-02) (78, -5.89394122362136840820e-02) (79, 8.33605043590068817139e-03) (80, 1.11666414886713027954e-02) (81, 7.91071914136409759521e-03) (82, -2.37061567604541778564e-02) (83, 3.34291309118270874023e-02) (84, 2.31613833457231521606e-02) (85, -1.74341688398271799088e-03) (86, -1.15810204297304153442e-02) (87, 1.87670588493347167969e-02) (88, 2.55178865045309066772e-02) (89, 2.38636098802089691162e-02) (90, -1.11421525478363037109e-01) (91, 4.74313646554946899414e-03) (92, 3.71258594095706939697e-02) (93, 8.35644826292991638184e-02) (94, 3.80245000123977661133e-02) (95, -1.25801255926489830017e-02) (96, -7.15313851833343505859e-02) (97, -6.69957324862480163574e-02) (98, 2.22602356225252151489e-02) (99, -5.38492873311042785645e-02) (100, -3.84686067700386047363e-02) (101, 1.42101058736443519592e-02) (102, -6.46709948778152465820e-02) (103, 4.50841300189495086670e-02) (104, -8.23068320751190185547e-02) (105, 3.74813616275787353516e-01) (73, -1.14673078060150146484e-02) (74, 1.73176638782024383545e-02) (75, -9.32836532592773437500e-02) (76, 5.37079311907291412354e-02) (77, 2.33380217105150222778e-02) (78, -2.42501385509967803955e-02) (79, 5.55455274879932403564e-02) (80, 4.99984845519065856934e-02) (81, 2.99616865813732147217e-02) (82, 2.13933773338794708252e-02) (83, 4.82664257287979125977e-02) (84, -3.70341725647449493408e-02) (85, 4.89288158714771270752e-02) (86, -5.24475239217281341553e-02) (87, 3.63592542707920074463e-02) (88, -3.11911311000585556030e-02) (89, 9.38584562391042709351e-03) (90, -1.69992670416831970215e-02) (91, -5.75132928788661956787e-02) (92, 1.32675552740693092346e-02) (93, 7.98487737774848937988e-02) (94, 3.83788980543613433838e-02) (95, 1.32081463932991027832e-01) (96, 1.03293851017951965332e-01) (97, -2.94738989323377609253e-02) (98, 6.02589994668960571289e-02) (99, -3.27271409332752227783e-02) (100, 2.47073601931333541870e-02) (101, -5.46336732804775238037e-03) (102, 5.96544146537780761719e-03) (103, -6.31278529763221740723e-02) (104, -4.97245276346802711487e-03) (105, 3.76019924879074096680e-01) (73, -2.14293934404850006104e-02) (74, 1.51415700092911720276e-02) (75, -6.36526558082550764084e-04) (76, -4.07239934429526329041e-03) (77, -4.09752391278743743896e-02) (78, -4.78180162608623504639e-02) (79, 2.87238229066133499146e-02) (80, -9.52173303812742233276e-03) (81, 1.61341938655823469162e-03) (82, -3.81255783140659332275e-02) (83, -3.91460349783301353455e-03) (84, 1.68265756219625473022e-02) (85, -9.60382074117660522461e-03) (86, -8.19433704018592834473e-02) (87, 9.04474705457687377930e-02) (88, 4.36127604916691780090e-03) (89, 7.59058585390448570251e-03) (90, 2.34319884330034255981e-02) (91, -5.69211617112159729004e-02) (92, 5.47475963830947875977e-02) (93, -4.81935031712055206299e-02) (94, -1.15042431280016899109e-02) (95, 6.08983039855957031250e-02) (96, 3.92427407205104827881e-02) (97, -4.74529601633548736572e-02) (98, 4.13816533982753753662e-02) (99, -4.89508919417858123779e-02) (100, 1.18182832375168800354e-03) (101, -2.87281516939401626587e-02) (102, -1.03361010551452636719e-02) (103, 2.52082827500998973846e-03) (104, -6.65275007486343383789e-02) (105, 3.78363937139511108398e-01) (73, -4.88923639059066772461e-02) (74, -2.36448626965284347534e-02) (75, -2.13803648948669433594e-02) (76, -8.56927111744880676270e-02) (77, -6.45487084984779357910e-02) (78, -3.68327507749199867249e-03) (79, -6.10637536738067865372e-04) (80, 3.95718254148960113525e-02) (81, -3.31699140369892120361e-02) (82, -8.79364684224128723145e-02) (83, 7.18252779915928840637e-03) (84, 4.89256568253040313721e-02) (85, -5.24109527468681335449e-02) (86, 8.37657367810606956482e-04) (87, 5.80020323395729064941e-02) (88, -2.34663616865873336792e-02) (89, -3.82776558399200439453e-02) (90, -9.29461605846881866455e-03) (91, -3.82626685313880443573e-03) (92, -5.40052540600299835205e-03) (93, -1.07790820766240358353e-03) (94, 3.06098014116287231445e-02) (95, -2.34867092221975326538e-02) (96, 1.00824661552906036377e-01) (97, -8.94683226943016052246e-02) (98, 2.60410159826278686523e-02) (99, 3.08618489652872085571e-02) (100, 9.43027529865503311157e-03) (101, -9.03464630246162414551e-02) (102, 1.52030093595385551453e-02) (103, -4.46777008473873138428e-02) (104, -2.45635621249675750732e-02) (105, 3.83761763572692871094e-01) (73, -4.87572960555553436279e-02) (74, 4.07001562416553497314e-03) (75, 3.37571427226066589355e-02) (76, -3.45312803983688354492e-02) (77, 1.22514972463250160217e-02) (78, -4.34852614998817443848e-02) (79, 2.65535078942775726318e-02) (80, 1.85097530484199523926e-02) (81, -1.89380813390016555786e-02) (82, -1.21744591742753982544e-02) (83, 1.04685232043266296387e-01) (84, 3.44664640724658966064e-02) (85, -1.28673613071441650391e-02) (86, -8.93700215965509414673e-03) (87, 7.79402479529380798340e-02) (88, -1.82872563600540161133e-02) (89, 4.63462434709072113037e-02) (90, 6.05205893516540527344e-02) (91, 8.89018401503562927246e-02) (92, 7.72664099931716918945e-02) (93, -5.13378418982028961182e-02) (94, 5.65248094499111175537e-02) (95, 2.63663288205862045288e-02) (96, 3.39521728456020355225e-02) (97, -8.07471200823783874512e-02) (98, 7.78548885136842727661e-03) (99, -6.03664331138134002686e-02) (100, -2.12706439197063446045e-02) (101, -4.00425828993320465088e-02) (102, 1.01845487952232360840e-02) (103, 1.08371302485466003418e-01) (104, -5.30627854168415069580e-02) (105, 3.90878260135650634766e-01) (73, -5.42343705892562866211e-02) (74, 2.63845231384038925171e-02) (75, 1.19605474174022674561e-03) (76, -3.64282988011837005615e-02) (77, -5.06567582488059997559e-02) (78, -7.81570328399538993835e-04) (79, -4.44620810449123382568e-02) (80, -1.03108044713735580444e-02) (81, 4.97773382812738418579e-03) (82, -1.53915965929627418518e-02) (83, -2.09362013265490531921e-03) (84, -2.54588085226714611053e-03) (85, -2.56692823022603988647e-02) (86, -9.14533510804176330566e-02) (87, 4.94945272803306579590e-02) (88, -1.97376161813735961914e-01) (89, 1.08232963830232620239e-02) (90, 2.47192960232496261597e-02) (91, 1.14514045417308807373e-01) (92, 7.77684501372277736664e-04) (93, 1.38932600617408752441e-01) (94, -3.34989652037620544434e-02) (95, -3.31632308661937713623e-02) (96, 4.23316583037376403809e-02) (97, -4.61640469729900360107e-02) (98, -4.68278713524341583252e-02) (99, 1.99673715978860855103e-02) (100, -1.44170718267560005188e-02) (101, 5.58659201487898826599e-03) (102, -8.56578629463911056519e-03) (103, -3.10024106875061988831e-03) (104, 6.32638623937964439392e-03) (105, 4.03129458427429199219e-01) 
