FANN_FLO_2.1
num_layers=4
learning_rate=0.700000
connection_rate=1.000000
network_type=0
learning_momentum=0.400000
training_algorithm=0
train_error_function=0
train_stop_function=1
cascade_output_change_fraction=0.010000
quickprop_decay=-0.000100
quickprop_mu=1.750000
rprop_increase_factor=1.200000
rprop_decrease_factor=0.500000
rprop_delta_min=0.000000
rprop_delta_max=50.000000
rprop_delta_zero=0.100000
cascade_output_stagnation_epochs=12
cascade_candidate_change_fraction=0.010000
cascade_candidate_stagnation_epochs=12
cascade_max_out_epochs=150
cascade_min_out_epochs=50
cascade_max_cand_epochs=150
cascade_min_cand_epochs=50
cascade_num_candidate_groups=2
bit_fail_limit=9.99999977648258209229e-03
cascade_candidate_limit=1.00000000000000000000e+03
cascade_weight_multiplier=4.00000005960464477539e-01
cascade_activation_functions_count=10
cascade_activation_functions=3 5 7 8 10 11 14 15 16 17 
cascade_activation_steepnesses_count=4
cascade_activation_steepnesses=2.50000000000000000000e-01 5.00000000000000000000e-01 7.50000000000000000000e-01 1.00000000000000000000e+00 
layer_sizes=37 65 33 2 
scale_included=0
neurons (num_inputs, activation_function, activation_steepness)=(0, 0, 0.00000000000000000000e+00) (0, 0, 0.00000000000000000000e+00) (0, 0, 0.00000000000000000000e+00) (0, 0, 0.00000000000000000000e+00) (0, 0, 0.00000000000000000000e+00) (0, 0, 0.00000000000000000000e+00) (0, 0, 0.00000000000000000000e+00) (0, 0, 0.00000000000000000000e+00) (0, 0, 0.00000000000000000000e+00) (0, 0, 0.00000000000000000000e+00) (0, 0, 0.00000000000000000000e+00) (0, 0, 0.00000000000000000000e+00) (0, 0, 0.00000000000000000000e+00) (0, 0, 0.00000000000000000000e+00) (0, 0, 0.00000000000000000000e+00) (0, 0, 0.00000000000000000000e+00) (0, 0, 0.00000000000000000000e+00) (0, 0, 0.00000000000000000000e+00) (0, 0, 0.00000000000000000000e+00) (0, 0, 0.00000000000000000000e+00) (0, 0, 0.00000000000000000000e+00) (0, 0, 0.00000000000000000000e+00) (0, 0, 0.00000000000000000000e+00) (0, 0, 0.00000000000000000000e+00) (0, 0, 0.00000000000000000000e+00) (0, 0, 0.00000000000000000000e+00) (0, 0, 0.00000000000000000000e+00) (0, 0, 0.00000000000000000000e+00) (0, 0, 0.00000000000000000000e+00) (0, 0, 0.00000000000000000000e+00) (0, 0, 0.00000000000000000000e+00) (0, 0, 0.00000000000000000000e+00) (0, 0, 0.00000000000000000000e+00) (0, 0, 0.00000000000000000000e+00) (0, 0, 0.00000000000000000000e+00) (0, 0, 0.00000000000000000000e+00) (0, 0, 0.00000000000000000000e+00) (37, 5, 2.50000000000000000000e-01) (37, 5, 2.50000000000000000000e-01) (37, 5, 2.50000000000000000000e-01) (37, 5, 2.50000000000000000000e-01) (37, 5, 2.50000000000000000000e-01) (37, 5, 2.50000000000000000000e-01) (37, 5, 2.50000000000000000000e-01) (37, 5, 2.50000000000000000000e-01) (37, 5, 2.50000000000000000000e-01) (37, 5, 2.50000000000000000000e-01) (37, 5, 2.50000000000000000000e-01) (37, 5, 2.50000000000000000000e-01) (37, 5, 2.50000000000000000000e-01) (37, 5, 2.50000000000000000000e-01) (37, 5, 2.50000000000000000000e-01) (37, 5, 2.50000000000000000000e-01) (37, 5, 2.50000000000000000000e-01) (37, 5, 2.50000000000000000000e-01) (37, 5, 2.50000000000000000000e-01) (37, 5, 2.50000000000000000000e-01) (37, 5, 2.50000000000000000000e-01) (37, 5, 2.50000000000000000000e-01) (37, 5, 2.50000000000000000000e-01) (37, 5, 2.50000000000000000000e-01) (37, 5, 2.50000000000000000000e-01) (37, 5, 2.50000000000000000000e-01) (37, 5, 2.50000000000000000000e-01) (37, 5, 2.50000000000000000000e-01) (37, 5, 2.50000000000000000000e-01) (37, 5, 2.50000000000000000000e-01) (37, 5, 2.50000000000000000000e-01) (37, 5, 2.50000000000000000000e-01) (37, 5, 2.50000000000000000000e-01) (37, 5, 2.50000000000000000000e-01) (37, 5, 2.50000000000000000000e-01) (37, 5, 2.50000000000000000000e-01) (37, 5, 2.50000000000000000000e-01) (37, 5, 2.50000000000000000000e-01) (37, 5, 2.50000000000000000000e-01) (37, 5, 2.50000000000000000000e-01) (37, 5, 2.50000000000000000000e-01) (37, 5, 2.50000000000000000000e-01) (37, 5, 2.50000000000000000000e-01) (37, 5, 2.50000000000000000000e-01) (37, 5, 2.50000000000000000000e-01) (37, 5, 2.50000000000000000000e-01) (37, 5, 2.50000000000000000000e-01) (37, 5, 2.50000000000000000000e-01) (37, 5, 2.50000000000000000000e-01) (37, 5, 2.50000000000000000000e-01) (37, 5, 2.50000000000000000000e-01) (37, 5, 2.50000000000000000000e-01) (37, 5, 2.50000000000000000000e-01) (37, 5, 2.50000000000000000000e-01) (37, 5, 2.50000000000000000000e-01) (37, 5, 2.50000000000000000000e-01) (37, 5, 2.50000000000000000000e-01) (37, 5, 2.50000000000000000000e-01) (37, 5, 2.50000000000000000000e-01) (37, 5, 2.50000000000000000000e-01) (37, 5, 2.50000000000000000000e-01) (37, 5, 2.50000000000000000000e-01) (37, 5, 2.50000000000000000000e-01) (37, 5, 2.50000000000000000000e-01) (0, 5, 2.50000000000000000000e-01) (65, 5, 2.50000000000000000000e-01) (65, 5, 2.50000000000000000000e-01) (65, 5, 2.50000000000000000000e-01) (65, 5, 2.50000000000000000000e-01) (65, 5, 2.50000000000000000000e-01) (65, 5, 2.50000000000000000000e-01) (65, 5, 2.50000000000000000000e-01) (65, 5, 2.50000000000000000000e-01) (65, 5, 2.50000000000000000000e-01) (65, 5, 2.50000000000000000000e-01) (65, 5, 2.50000000000000000000e-01) (65, 5, 2.50000000000000000000e-01) (65, 5, 2.50000000000000000000e-01) (65, 5, 2.50000000000000000000e-01) (65, 5, 2.50000000000000000000e-01) (65, 5, 2.50000000000000000000e-01) (65, 5, 2.50000000000000000000e-01) (65, 5, 2.50000000000000000000e-01) (65, 5, 2.50000000000000000000e-01) (65, 5, 2.50000000000000000000e-01) (65, 5, 2.50000000000000000000e-01) (65, 5, 2.50000000000000000000e-01) (65, 5, 2.50000000000000000000e-01) (65, 5, 2.50000000000000000000e-01) (65, 5, 2.50000000000000000000e-01) (65, 5, 2.50000000000000000000e-01) (65, 5, 2.50000000000000000000e-01) (65, 5, 2.50000000000000000000e-01) (65, 5, 2.50000000000000000000e-01) (65, 5, 2.50000000000000000000e-01) (65, 5, 2.50000000000000000000e-01) (65, 5, 2.50000000000000000000e-01) (0, 5, 2.50000000000000000000e-01) (33, 5, 5.00000000000000000000e-01) (0, 5, 0.00000000000000000000e+00) 
connections (connected_to_neuron, weight)=(0, 4.95427799224853515625e+00) (1, 1.06109988689422607422e+00) (2, 5.49617815017700195312e+00) (3, -1.12740063667297363281e+00) (4, 8.43493223190307617188e-01) (5, -1.92345130443572998047e+00) (6, -2.41580915451049804688e+00) (7, -1.73876678943634033203e+00) (8, -4.65927362442016601562e+00) (9, -8.67217063903808593750e+00) (10, 1.09729826450347900391e+00) (11, -4.27724123001098632812e+00) (12, -5.91401830315589904785e-02) (13, 8.65038707852363586426e-02) (14, -2.35019326210021972656e+00) (15, -1.46030175685882568359e+00) (16, 8.94676864147186279297e-01) (17, -1.17233562469482421875e+00) (18, -5.73692655563354492188e+00) (19, -3.61692881584167480469e+00) (20, 1.28532814979553222656e+00) (21, -3.34433138370513916016e-01) (22, -1.52126657962799072266e+00) (23, -5.91976083815097808838e-02) (24, -2.82215976715087890625e+00) (25, 2.76469397544860839844e+00) (26, 2.29908537864685058594e+00) (27, -4.06504583358764648438e+00) (28, -2.87014937400817871094e+00) (29, 1.34162652492523193359e+00) (30, 1.66448450088500976562e+00) (31, 7.50266373157501220703e-01) (32, 3.25814056396484375000e+00) (33, -7.80690908432006835938e-02) (34, -5.54498374462127685547e-01) (35, 5.59017848968505859375e+00) (36, -3.32370370626449584961e-01) (0, -2.65434980392456054688e+00) (1, 1.04540300369262695312e+01) (2, 4.36864185333251953125e+00) (3, 3.74491429328918457031e+00) (4, -7.35529613494873046875e+00) (5, 2.40276241302490234375e+00) (6, -1.04453432559967041016e+00) (7, -1.45805418491363525391e+00) (8, -3.37867689132690429688e+00) (9, 4.11003679037094116211e-01) (10, -1.82948100566864013672e+00) (11, 3.72490811347961425781e+00) (12, 5.21412715315818786621e-02) (13, 1.92480310797691345215e-02) (14, 3.05021882057189941406e+00) (15, -4.42349702119827270508e-01) (16, 5.32733821868896484375e+00) (17, 9.28062629699707031250e+00) (18, 2.29575586318969726562e+00) (19, 1.28821146488189697266e+00) (20, -3.30985933542251586914e-01) (21, 4.19550418853759765625e+00) (22, 7.10397839546203613281e-01) (23, -1.05188786983489990234e-03) (24, -9.10502910614013671875e+00) (25, -3.73125743865966796875e+00) (26, -8.79155540466308593750e+00) (27, -1.04015808105468750000e+01) (28, -1.58695545196533203125e+01) (29, 3.31180572509765625000e+00) (30, -8.66850376129150390625e-01) (31, 5.76453256607055664062e+00) (32, 3.14072608947753906250e+00) (33, 4.91978359222412109375e+00) (34, -6.59964799880981445312e+00) (35, -2.84179735183715820312e+00) (36, 1.58667316436767578125e+01) (0, -6.80219471454620361328e-01) (1, 2.07842051982879638672e-01) (2, -1.57229632139205932617e-01) (3, -1.38376879692077636719e+00) (4, 2.03609243035316467285e-01) (5, -3.88420462608337402344e-01) (6, 6.43900692462921142578e-01) (7, 7.06201374530792236328e-01) (8, 2.75330408476293087006e-03) (9, 2.40091189742088317871e-01) (10, -4.43125128746032714844e-01) (11, -2.18706920742988586426e-01) (12, -8.80091488361358642578e-02) (13, 7.29116871953010559082e-02) (14, -9.49619710445404052734e-01) (15, -7.03051269054412841797e-01) (16, -4.11084711551666259766e-01) (17, -9.69168186187744140625e-01) (18, 1.27238082885742187500e+00) (19, -5.67846298217773437500e-01) (20, -4.98931407928466796875e-01) (21, -1.68972149491310119629e-01) (22, -5.39017379283905029297e-01) (23, -5.06879948079586029053e-02) (24, -4.68724876642227172852e-01) (25, -2.14821845293045043945e-01) (26, -1.15905195474624633789e-01) (27, 1.58565893769264221191e-01) (28, -1.94708511233329772949e-01) (29, -1.07268281280994415283e-01) (30, 2.61369138956069946289e-01) (31, 1.24251380562782287598e-01) (32, 1.29944908618927001953e+00) (33, -1.46053522825241088867e-01) (34, -2.03159704804420471191e-01) (35, -4.60961572825908660889e-02) (36, -8.83559137582778930664e-02) (0, -4.48908996582031250000e+00) (1, -1.44755923748016357422e+00) (2, -6.78347826004028320312e-01) (3, 1.31266117095947265625e+00) (4, -4.01288175582885742188e+00) (5, 2.77171349525451660156e+00) (6, 1.36624789237976074219e+00) (7, 7.67258644104003906250e+00) (8, 1.50084865093231201172e+00) (9, 4.28758811950683593750e+00) (10, 3.30683183670043945312e+00) (11, -2.36054554581642150879e-01) (12, -5.50425089895725250244e-02) (13, 6.26732185482978820801e-02) (14, -7.27405500411987304688e+00) (15, 2.90072154998779296875e+00) (16, 2.90404701232910156250e+00) (17, 1.09839379787445068359e+00) (18, 1.94247043132781982422e+00) (19, 4.13020563125610351562e+00) (20, 2.74917435646057128906e+00) (21, -4.17784643173217773438e+00) (22, -3.19254374504089355469e+00) (23, -7.67922028899192810059e-02) (24, -2.02016687393188476562e+00) (25, -4.56509679555892944336e-01) (26, 9.01211321353912353516e-01) (27, -2.36445498466491699219e+00) (28, 4.07543802261352539062e+00) (29, -5.42798900604248046875e+00) (30, 2.44245767593383789062e-01) (31, 9.24291312694549560547e-01) (32, 7.33540892601013183594e-01) (33, -3.33489108085632324219e+00) (34, -3.82492631673812866211e-01) (35, 1.23014783859252929688e+00) (36, -1.34133207798004150391e+00) (0, 6.44024968147277832031e-01) (1, -1.33204662799835205078e+00) (2, 6.46906554698944091797e-01) (3, 1.25282371044158935547e+00) (4, 1.72674313187599182129e-01) (5, 8.25812101364135742188e-01) (6, -1.25174713134765625000e+00) (7, -1.34588122367858886719e+00) (8, 7.45143413543701171875e-01) (9, 1.04785926640033721924e-01) (10, 3.71064215898513793945e-01) (11, -7.23725318908691406250e-01) (12, 8.63332226872444152832e-02) (13, -2.63173803687095642090e-02) (14, 1.51474225521087646484e+00) (15, 1.61224639415740966797e+00) (16, 3.11079192906618118286e-02) (17, 1.65444836020469665527e-01) (18, -1.35919964313507080078e+00) (19, -6.75732195377349853516e-01) (20, 6.24554097652435302734e-01) (21, -4.26568478345870971680e-01) (22, 8.14772963523864746094e-01) (23, 8.91403779387474060059e-02) (24, 2.97958701848983764648e-01) (25, 2.03163195401430130005e-02) (26, 1.11642408370971679688e+00) (27, 2.20984652638435363770e-01) (28, 1.02663588523864746094e+00) (29, -4.09533679485321044922e-01) (30, -1.21365070343017578125e+00) (31, 2.72179991006851196289e-01) (32, -8.80456507205963134766e-01) (33, 3.22539180517196655273e-01) (34, 8.86263370513916015625e-01) (35, 1.41750603914260864258e-01) (36, 2.26841688156127929688e-01) (0, -1.11452960968017578125e+00) (1, 6.70413553714752197266e-01) (2, -2.96146064996719360352e-01) (3, -1.19568765163421630859e+00) (4, -3.61545264720916748047e-01) (5, 6.02125674486160278320e-02) (6, 7.47761547565460205078e-01) (7, 8.66266787052154541016e-01) (8, -7.12204754352569580078e-01) (9, 6.34248554706573486328e-01) (10, -2.32457444071769714355e-01) (11, -2.49182775616645812988e-01) (12, -1.45661234855651855469e-02) (13, 8.18707421422004699707e-02) (14, -1.36332690715789794922e+00) (15, -3.91854606568813323975e-02) (16, -3.34223955869674682617e-01) (17, -2.03359112143516540527e-01) (18, 4.64085906744003295898e-01) (19, -8.67415517568588256836e-02) (20, -2.99818292260169982910e-02) (21, -5.87299108505249023438e-01) (22, -5.79833030700683593750e-01) (23, 8.16623046994209289551e-02) (24, 9.88228619098663330078e-01) (25, 1.09203629195690155029e-01) (26, -1.12447664141654968262e-01) (27, 3.34050916135311126709e-02) (28, -1.67540282011032104492e-01) (29, -6.80967628955841064453e-01) (30, 7.87084817886352539062e-01) (31, 1.23965311050415039062e+00) (32, 4.86400097608566284180e-01) (33, -1.13343060016632080078e+00) (34, 2.74428422562777996063e-03) (35, 6.07585072517395019531e-01) (36, -6.85508966445922851562e-01) (0, 1.77901065349578857422e+00) (1, -1.67909431457519531250e+00) (2, -4.41208720207214355469e-01) (3, -3.76901149749755859375e-01) (4, -9.89844381809234619141e-01) (5, -1.29306662082672119141e+00) (6, -1.71230924129486083984e+00) (7, -1.94656515121459960938e+00) (8, 7.69215464591979980469e-01) (9, -1.86978530883789062500e+00) (10, -2.57203996181488037109e-01) (11, 5.93783259391784667969e-01) (12, 5.81652000546455383301e-02) (13, -1.90319865942001342773e-03) (14, 1.91817450523376464844e+00) (15, -7.76755392551422119141e-01) (16, 8.00372481346130371094e-01) (17, -2.05284595489501953125e-01) (18, 1.03462648391723632812e+00) (19, 6.33525192737579345703e-01) (20, -2.83843636512756347656e-01) (21, 1.25476062297821044922e+00) (22, 6.37066006660461425781e-01) (23, 7.49608948826789855957e-02) (24, -2.46368336677551269531e+00) (25, -2.33107820153236389160e-01) (26, -8.35074067115783691406e-01) (27, -1.16293835639953613281e+00) (28, -2.39865750074386596680e-01) (29, 1.08443295955657958984e+00) (30, -5.25920927524566650391e-01) (31, -3.04755091667175292969e+00) (32, 8.88240486383438110352e-02) (33, 2.07004857063293457031e+00) (34, -1.32341235876083374023e-01) (35, -1.52330255508422851562e+00) (36, 1.48637807369232177734e+00) (0, -1.99379324913024902344e+00) (1, 6.67355680465698242188e+00) (2, 1.26045417785644531250e+00) (3, -4.64870071411132812500e+00) (4, 3.54147458076477050781e+00) (5, -1.36007308959960937500e+00) (6, 3.68951869010925292969e+00) (7, -7.71703779697418212891e-01) (8, 5.24568939208984375000e+00) (9, -3.17111349105834960938e+00) (10, 9.20902907848358154297e-01) (11, 3.09767103195190429688e+00) (12, -4.25099804997444152832e-02) (13, -7.77832418680191040039e-03) (14, 6.45501375198364257812e+00) (15, 1.77447593212127685547e+00) (16, 3.05232191085815429688e+00) (17, 3.30902314186096191406e+00) (18, -6.03071355819702148438e+00) (19, 3.48546862602233886719e+00) (20, -2.12739658355712890625e+00) (21, -1.28371894359588623047e+00) (22, 3.04204702377319335938e+00) (23, -8.06918218731880187988e-02) (24, -3.64102497696876525879e-02) (25, 4.30723094940185546875e+00) (26, 2.15736842155456542969e+00) (27, -5.50204277038574218750e+00) (28, -6.89085388183593750000e+00) (29, 4.17697477340698242188e+00) (30, 4.09819269180297851562e+00) (31, 1.53717815876007080078e+00) (32, 1.52337479591369628906e+00) (33, 1.64565935730934143066e-01) (34, -4.97377920150756835938e+00) (35, 3.76948451995849609375e+00) (36, -3.36274003982543945312e+00) (0, -9.46741163730621337891e-01) (1, 9.75334465503692626953e-01) (2, 4.49312925338745117188e-01) (3, -1.53342127799987792969e+00) (4, -3.91490980982780456543e-02) (5, -6.48500919342041015625e-02) (6, 1.73203930258750915527e-01) (7, 3.83498251438140869141e-01) (8, -9.43562924861907958984e-01) (9, 9.90695774555206298828e-01) (10, -3.57254475355148315430e-01) (11, -8.41869413852691650391e-01) (12, -9.31114777922630310059e-02) (13, -6.49598315358161926270e-02) (14, -1.80057525634765625000e+00) (15, 1.04509973526000976562e+00) (16, -5.13749837875366210938e-01) (17, -1.90995603799819946289e-01) (18, 9.68600571155548095703e-01) (19, -1.54260408878326416016e+00) (20, 3.96941006183624267578e-01) (21, -1.98591840267181396484e+00) (22, -7.53720819950103759766e-01) (23, -2.43640691041946411133e-03) (24, 1.94421601295471191406e+00) (25, -6.08414053916931152344e-01) (26, 5.71656048297882080078e-01) (27, 5.11006474494934082031e-01) (28, -2.51841664314270019531e-01) (29, -1.92766606807708740234e+00) (30, -3.64577919244766235352e-01) (31, 3.14820647239685058594e+00) (32, 1.08847415447235107422e+00) (33, -1.63850867748260498047e+00) (34, 5.53324818611145019531e-01) (35, 1.17025291919708251953e+00) (36, -6.81353032588958740234e-01) (0, -8.64196538925170898438e-01) (1, 8.44022333621978759766e-01) (2, -3.37389744818210601807e-02) (3, -2.20203685760498046875e+00) (4, -3.25427427887916564941e-02) (5, -4.66607749462127685547e-01) (6, 7.32607066631317138672e-01) (7, 6.28713428974151611328e-01) (8, -3.64543646574020385742e-01) (9, 6.61080420017242431641e-01) (10, -7.31159150600433349609e-01) (11, -3.32015633583068847656e-01) (12, -8.65779519081115722656e-02) (13, -8.30843895673751831055e-02) (14, -1.99234092235565185547e+00) (15, -7.46690928936004638672e-01) (16, -8.41009318828582763672e-01) (17, -1.03555023670196533203e+00) (18, 1.40044629573822021484e+00) (19, -1.07104170322418212891e+00) (20, -5.65925061702728271484e-01) (21, -5.78820228576660156250e-01) (22, -9.85322415828704833984e-01) (23, 4.73417714238166809082e-02) (24, 3.50902795791625976562e-01) (25, -6.90940678119659423828e-01) (26, -3.70197921991348266602e-01) (27, 3.61841768026351928711e-01) (28, -4.57829803228378295898e-01) (29, -9.44211125373840332031e-01) (30, 6.26593083143234252930e-02) (31, 1.12995910644531250000e+00) (32, 1.86852324008941650391e+00) (33, -1.14023065567016601562e+00) (34, -2.22585141658782958984e-01) (35, 1.08665734529495239258e-01) (36, -1.90622836351394653320e-01) (0, 2.28629875183105468750e+00) (1, 1.47924602031707763672e+00) (2, -6.90347969532012939453e-01) (3, -8.39324474334716796875e+00) (4, -8.09614121913909912109e-01) (5, -2.66906833648681640625e+00) (6, 1.20888853073120117188e+00) (7, 1.06686544418334960938e+00) (8, -2.17678689956665039062e+00) (9, -5.13853847980499267578e-01) (10, 1.62939918041229248047e+00) (11, 8.01578044891357421875e-01) (12, 4.57547828555107116699e-02) (13, -4.32409420609474182129e-02) (14, 2.28750109672546386719e+00) (15, -8.26676413416862487793e-02) (16, 4.97528076171875000000e+00) (17, 2.60713386535644531250e+00) (18, 8.08691978454589843750e+00) (19, 4.19145870208740234375e+00) (20, 1.45572626590728759766e+00) (21, 4.67873716354370117188e+00) (22, 7.28051900863647460938e-01) (23, 5.03736734390258789062e-03) (24, -5.32807970046997070312e+00) (25, 1.34520649909973144531e-01) (26, -3.95731300115585327148e-01) (27, -3.78363513946533203125e+00) (28, -1.59784960746765136719e+00) (29, 3.49273443222045898438e+00) (30, 5.41252231597900390625e+00) (31, -1.38814222812652587891e+00) (32, -1.12742555141448974609e+00) (33, 1.28835880756378173828e+00) (34, 3.06521296501159667969e+00) (35, -3.45719623565673828125e+00) (36, 1.13344776630401611328e+00) (0, 2.90628075599670410156e-01) (1, -8.26025426387786865234e-01) (2, -9.08173918724060058594e-01) (3, 1.11565518379211425781e+00) (4, -4.20605510473251342773e-01) (5, 3.58521491289138793945e-02) (6, 1.67873352766036987305e-01) (7, 1.49373233318328857422e-01) (8, 5.65151035785675048828e-01) (9, -1.10709917545318603516e+00) (10, 4.95835840702056884766e-01) (11, 9.65725719928741455078e-01) (12, -8.68262350559234619141e-03) (13, -7.73742496967315673828e-02) (14, 1.67436730861663818359e+00) (15, -1.23412847518920898438e+00) (16, -6.80373534560203552246e-02) (17, -3.02782952785491943359e-02) (18, -1.43763542175292968750e+00) (19, 2.25050544738769531250e+00) (20, -3.62163186073303222656e-01) (21, 2.36216831207275390625e+00) (22, 6.70437276363372802734e-01) (23, 8.26011076569557189941e-02) (24, -1.36339676380157470703e+00) (25, 1.24238383769989013672e+00) (26, -8.50142836570739746094e-01) (27, -5.99393784999847412109e-01) (28, 7.21883714199066162109e-01) (29, 1.97020149230957031250e+00) (30, 1.31099545955657958984e+00) (31, -3.15604543685913085938e+00) (32, -1.66250813007354736328e+00) (33, 1.33867049217224121094e+00) (34, -1.04701304435729980469e+00) (35, -9.13458466529846191406e-01) (36, 3.85340809822082519531e-01) (0, -1.01935064792633056641e+00) (1, -5.49731874465942382812e+00) (2, 1.81064891815185546875e+00) (3, 3.30682468414306640625e+00) (4, -1.59207046031951904297e+00) (5, -1.13313615322113037109e+00) (6, -1.24452650547027587891e+00) (7, 5.66495656967163085938e-01) (8, 3.87546300888061523438e+00) (9, -1.92982220649719238281e+00) (10, 4.98419237136840820312e+00) (11, 6.48716306686401367188e+00) (12, -1.69681534171104431152e-02) (13, 4.10682186484336853027e-02) (14, 3.18402791023254394531e+00) (15, -2.04526352882385253906e+00) (16, -8.31293046474456787109e-01) (17, -4.78718057274818420410e-02) (18, 2.73269104957580566406e+00) (19, 4.48638963699340820312e+00) (20, 4.95153898373246192932e-03) (21, 3.43509882688522338867e-01) (22, 1.97508227825164794922e+00) (23, 8.47282186150550842285e-02) (24, -3.67941594123840332031e+00) (25, 2.42891526222229003906e+00) (26, 1.26034224033355712891e+00) (27, 2.29440379142761230469e+00) (28, 7.50364303588867187500e-01) (29, 2.80151963233947753906e+00) (30, 1.80346262454986572266e+00) (31, -3.23884201049804687500e+00) (32, -4.15426349639892578125e+00) (33, -9.70343172550201416016e-01) (34, -2.60068535804748535156e+00) (35, -3.85443568229675292969e-02) (36, -3.58798670768737792969e+00) (0, 3.19860249757766723633e-01) (1, 1.44426739215850830078e+00) (2, 2.07589566707611083984e-01) (3, -1.52928149700164794922e+00) (4, 2.33728006482124328613e-01) (5, -1.07827270030975341797e+00) (6, 1.43590128421783447266e+00) (7, 7.15130388736724853516e-01) (8, -5.18269002437591552734e-01) (9, -1.46324801445007324219e+00) (10, -1.79321300983428955078e+00) (11, -4.68998372554779052734e-01) (12, -1.22435763478279113770e-02) (13, -1.21452957391738891602e-02) (14, -4.53898519277572631836e-01) (15, -2.29486894607543945312e+00) (16, -6.44998848438262939453e-01) (17, -4.69275355339050292969e-01) (18, 2.16561079025268554688e+00) (19, 1.02069079875946044922e+00) (20, -1.62238585948944091797e+00) (21, 8.73302042484283447266e-01) (22, -6.39229953289031982422e-01) (23, 4.55667078495025634766e-03) (24, -2.65591049194335937500e+00) (25, 4.66782420873641967773e-01) (26, -9.67546761035919189453e-01) (27, 7.74149000644683837891e-02) (28, -6.04446113109588623047e-01) (29, 1.50539958477020263672e+00) (30, 9.10689890384674072266e-01) (31, -1.80652689933776855469e+00) (32, 1.43578851222991943359e+00) (33, 8.31447243690490722656e-01) (34, -3.58085066080093383789e-01) (35, -4.77806001901626586914e-01) (36, 1.04199314117431640625e+00) (0, 7.53271698951721191406e-01) (1, -5.08325397968292236328e-01) (2, 6.03402912616729736328e-01) (3, 9.89708304405212402344e-01) (4, 1.32551893591880798340e-01) (5, 4.88523483276367187500e-01) (6, -1.50016844272613525391e+00) (7, -1.12269508838653564453e+00) (8, 1.80460467934608459473e-01) (9, 4.38147217035293579102e-01) (10, 2.23926126956939697266e-01) (11, -4.99578177928924560547e-01) (12, -1.11768394708633422852e-02) (13, 4.55584898591041564941e-02) (14, 4.12445455789566040039e-01) (15, 1.78637742996215820312e+00) (16, 2.68586546182632446289e-01) (17, 7.29669094085693359375e-01) (18, -6.37845993041992187500e-01) (19, -1.06412255764007568359e+00) (20, 6.48080408573150634766e-01) (21, -1.06974709033966064453e+00) (22, 5.25187075138092041016e-01) (23, -6.10895715653896331787e-02) (24, 1.17709553241729736328e+00) (25, -7.77079105377197265625e-01) (26, 8.68267476558685302734e-01) (27, 1.38989791274070739746e-01) (28, 3.01931440830230712891e-01) (29, -9.48308765888214111328e-01) (30, -1.33403563499450683594e+00) (31, 1.46715295314788818359e+00) (32, -3.84980022907257080078e-01) (33, -2.20222264528274536133e-01) (34, 6.74744427204132080078e-01) (35, 4.66127991676330566406e-01) (36, -3.83907482028007507324e-02) (0, 5.46446132659912109375e+00) (1, -9.55580902099609375000e+00) (2, 2.93833231925964355469e+00) (3, 6.65229845046997070312e+00) (4, 4.14001941680908203125e+00) (5, 4.02600383758544921875e+00) (6, -9.37697887420654296875e+00) (7, -1.47645878791809082031e+00) (8, -2.61026358604431152344e+00) (9, 1.94213524460792541504e-01) (10, 1.94881534576416015625e+00) (11, 4.65558004379272460938e+00) (12, 7.38444849848747253418e-02) (13, 4.04387190937995910645e-02) (14, 1.39188915491104125977e-01) (15, 9.98072028160095214844e-01) (16, 2.25605797767639160156e+00) (17, -4.01247167587280273438e+00) (18, 3.69749855995178222656e+00) (19, -1.29365313053131103516e+00) (20, -2.01578760147094726562e+00) (21, -2.47770261764526367188e+00) (22, -1.13856434822082519531e+00) (23, -8.61394405364990234375e-02) (24, 2.41143631935119628906e+00) (25, 2.46151089668273925781e+00) (26, 2.06465053558349609375e+00) (27, -6.46717882156372070312e+00) (28, -3.13913154602050781250e+00) (29, 1.61429989337921142578e+00) (30, 2.43191409111022949219e+00) (31, 7.68231928348541259766e-01) (32, -8.32100200653076171875e+00) (33, 4.55148458480834960938e+00) (34, -4.76918029785156250000e+00) (35, -5.01232910156250000000e+00) (36, -3.08564949035644531250e+00) (0, 1.31060048937797546387e-01) (1, -5.40577745437622070312e+00) (2, 6.91223096847534179688e+00) (3, 9.20604801177978515625e+00) (4, 4.56823205947875976562e+00) (5, -2.17732143402099609375e+00) (6, -3.99064564704895019531e+00) (7, 4.17761421203613281250e+00) (8, 4.49902343750000000000e+00) (9, -3.98006916046142578125e+00) (10, -2.64984893798828125000e+00) (11, 8.81231021881103515625e+00) (12, -6.08008578419685363770e-02) (13, 2.34068930149078369141e-03) (14, -1.93960219621658325195e-01) (15, 4.36882352828979492188e+00) (16, -1.73373222351074218750e+00) (17, -1.22213888168334960938e+01) (18, 1.05326099395751953125e+01) (19, -8.79193687438964843750e+00) (20, 2.65397572517395019531e+00) (21, 7.99820041656494140625e+00) (22, 5.17283797264099121094e-01) (23, 6.55515119433403015137e-02) (24, -1.27102088928222656250e+00) (25, 3.50984787940979003906e+00) (26, -1.04952180385589599609e+00) (27, -1.44968261718750000000e+01) (28, -4.41504096984863281250e+00) (29, 2.16458988189697265625e+00) (30, -2.22319674491882324219e+00) (31, -3.52609109878540039062e+00) (32, -4.96157264709472656250e+00) (33, 2.69461297988891601562e+00) (34, -6.70273017883300781250e+00) (35, 9.78452861309051513672e-01) (36, 2.93018221855163574219e+00) (0, -3.26713979244232177734e-01) (1, 3.59773188829421997070e-01) (2, 4.12197550758719444275e-03) (3, -9.29112911224365234375e-01) (4, 2.69814550876617431641e-01) (5, -2.69259542226791381836e-01) (6, 4.34641897678375244141e-01) (7, 4.54293578863143920898e-01) (8, -1.39613911509513854980e-01) (9, 3.23426783084869384766e-01) (10, -3.56983065605163574219e-01) (11, -9.17633995413780212402e-02) (12, -9.10248681902885437012e-02) (13, 3.41622009873390197754e-02) (14, -9.81939911842346191406e-01) (15, -3.15820604562759399414e-01) (16, -1.91645905375480651855e-01) (17, -4.00940090417861938477e-01) (18, 9.74926888942718505859e-01) (19, -4.28711533546447753906e-01) (20, -2.34067603945732116699e-01) (21, -2.04693555831909179688e-01) (22, -5.78767180442810058594e-01) (23, -3.24298143386840820312e-02) (24, 5.83678483963012695312e-02) (25, -2.57808655500411987305e-01) (26, -1.84317842125892639160e-01) (27, 1.35431662201881408691e-01) (28, -3.26378822326660156250e-01) (29, -2.56461441516876220703e-01) (30, 6.00326843559741973877e-02) (31, 7.12619066238403320312e-01) (32, 8.07982087135314941406e-01) (33, -3.92714917659759521484e-01) (34, 1.00745983421802520752e-01) (35, 1.60911843180656433105e-01) (36, -2.09381401538848876953e-01) (0, 6.81474924087524414062e+00) (1, -4.48942852020263671875e+00) (2, -2.86761498451232910156e+00) (3, -3.37453079223632812500e+00) (4, 4.73119163513183593750e+00) (5, 3.94826221466064453125e+00) (6, 9.38144147396087646484e-01) (7, -2.22672939300537109375e+00) (8, 7.07798337936401367188e+00) (9, -5.77724027633666992188e+00) (10, 9.15321052074432373047e-01) (11, -9.42748486995697021484e-01) (12, -3.30792367458343505859e-02) (13, 2.73395106196403503418e-02) (14, -5.03569698333740234375e+00) (15, 1.19474911689758300781e+00) (16, 3.77492725849151611328e-01) (17, 2.54568910598754882812e+00) (18, -4.75588893890380859375e+00) (19, 9.49412941932678222656e-01) (20, -4.33808612823486328125e+00) (21, 3.72157311439514160156e+00) (22, -3.68459439277648925781e+00) (23, -8.53239819407463073730e-02) (24, 2.65612721443176269531e-01) (25, 6.44175004959106445312e+00) (26, 3.01008653640747070312e+00) (27, -1.41366493701934814453e+00) (28, -5.62272119522094726562e+00) (29, 4.28838920593261718750e+00) (30, 5.42243242263793945312e+00) (31, -2.59853929281234741211e-01) (32, -4.67374265193939208984e-01) (33, 2.57598781585693359375e+00) (34, 1.43537008762359619141e+00) (35, -1.22061932086944580078e+00) (36, -5.00050401687622070312e+00) (0, 1.74047499895095825195e-01) (1, 1.01246571540832519531e+00) (2, 9.45224165916442871094e-01) (3, -1.29959201812744140625e+00) (4, 9.79339361190795898438e-01) (5, 1.78173005580902099609e-01) (6, 2.34823614358901977539e-01) (7, 2.84592956304550170898e-01) (8, 2.56763219833374023438e-01) (9, 1.54486465454101562500e+00) (10, 3.07002991437911987305e-01) (11, 6.87537550926208496094e-01) (12, 9.66133177280426025391e-03) (13, 4.58492338657379150391e-03) (14, -1.99392366409301757812e+00) (15, -1.78049936890602111816e-01) (16, 1.10009396448731422424e-02) (17, -6.64528071880340576172e-01) (18, 2.31272459030151367188e+00) (19, -1.21189320087432861328e+00) (20, -2.95010566711425781250e-01) (21, -1.10030794143676757812e+00) (22, -1.07623088359832763672e+00) (23, -3.56696993112564086914e-02) (24, 1.25374495983123779297e-01) (25, -1.87726116180419921875e+00) (26, -2.54375666379928588867e-01) (27, 3.10160338878631591797e-01) (28, -1.43070173263549804688e+00) (29, -1.61235785484313964844e+00) (30, -9.14737761020660400391e-01) (31, 2.06463789939880371094e+00) (32, 2.62189102172851562500e+00) (33, -7.74028599262237548828e-01) (34, 4.62689250707626342773e-01) (35, 3.84417951107025146484e-01) (36, -1.47507756948471069336e-01) (0, -6.87758803367614746094e-01) (1, 1.06509530544281005859e+00) (2, -4.19161170721054077148e-01) (3, -1.32112085819244384766e+00) (4, -1.74756929278373718262e-01) (5, -7.86159992218017578125e-01) (6, 1.73423469066619873047e+00) (7, 1.37222647666931152344e+00) (8, -6.44380033016204833984e-01) (9, -1.52400061488151550293e-01) (10, -5.58153092861175537109e-01) (11, 2.62743026018142700195e-01) (12, -2.63234451413154602051e-02) (13, 3.26867625117301940918e-02) (14, -1.11970007419586181641e+00) (15, -1.22322130203247070312e+00) (16, 9.80887711048126220703e-02) (17, -4.70995128154754638672e-01) (18, 1.26475703716278076172e+00) (19, 4.04025822877883911133e-01) (20, -3.76414388418197631836e-01) (21, 2.29444906115531921387e-01) (22, -7.41102516651153564453e-01) (23, 3.87892499566078186035e-02) (24, -5.15229165554046630859e-01) (25, 5.41001319885253906250e-01) (26, -5.70926189422607421875e-01) (27, 1.00127451121807098389e-01) (28, -8.85160267353057861328e-01) (29, 5.93856036663055419922e-01) (30, 1.21238052845001220703e+00) (31, -2.72628366947174072266e-01) (32, 7.72325694561004638672e-01) (33, -3.95632356405258178711e-01) (34, -2.18017399311065673828e-01) (35, -2.23112985491752624512e-01) (36, -3.82774829864501953125e-01) (0, 3.59729528427124023438e-01) (1, -4.47520874440670013428e-02) (2, 7.06592023372650146484e-01) (3, 1.07695423066616058350e-01) (4, -2.15830028057098388672e-01) (5, 7.03043222427368164062e-01) (6, -1.77850019931793212891e+00) (7, -9.13988530635833740234e-01) (8, -4.59146574139595031738e-02) (9, 1.53382086753845214844e+00) (10, 6.65485143661499023438e-01) (11, -6.94055974483489990234e-01) (12, 9.43423807621002197266e-03) (13, -2.90890783071517944336e-02) (14, -1.04047870635986328125e+00) (15, 2.48885703086853027344e+00) (16, -3.00386458635330200195e-01) (17, 2.10201874375343322754e-01) (18, -9.88510191440582275391e-01) (19, -2.27908205986022949219e+00) (20, 9.56470549106597900391e-01) (21, -1.81714820861816406250e+00) (22, -1.53487056493759155273e-01) (23, 3.35451737046241760254e-02) (24, 3.05326962471008300781e+00) (25, -1.45500457286834716797e+00) (26, 9.01454627513885498047e-01) (27, 2.53591328859329223633e-01) (28, 4.83631670475006103516e-01) (29, -2.24417567253112792969e+00) (30, -1.09084451198577880859e+00) (31, 3.65933394432067871094e+00) (32, 2.02068999409675598145e-01) (33, -1.78649139404296875000e+00) (34, 9.09377396106719970703e-01) (35, 1.40373420715332031250e+00) (36, -1.28201079368591308594e+00) (0, 6.38560593128204345703e-01) (1, -7.07168757915496826172e-01) (2, -4.12621721625328063965e-02) (3, 1.19324111938476562500e+00) (4, -2.69817680120468139648e-01) (5, 6.57165467739105224609e-01) (6, -1.31716895103454589844e+00) (7, -6.93562567234039306641e-01) (8, 2.77330160140991210938e-01) (9, 4.45413589477539062500e-01) (10, 7.61789202690124511719e-01) (11, 6.49371519684791564941e-02) (12, -2.27949619293212890625e-02) (13, 8.02279189229011535645e-02) (14, 5.47251343727111816406e-01) (15, 1.08601808547973632812e+00) (16, 3.41865420341491699219e-02) (17, 7.39151716232299804688e-01) (18, -1.59164321422576904297e+00) (19, 1.08168028295040130615e-01) (20, 4.28771734237670898438e-01) (21, 6.66772713884711265564e-03) (22, 5.04840672016143798828e-01) (23, 4.80396673083305358887e-02) (24, 1.38903927803039550781e+00) (25, -8.10791075229644775391e-01) (26, -1.10218219459056854248e-01) (27, -3.15812468528747558594e-01) (28, 3.83241146802902221680e-01) (29, -3.88265728950500488281e-01) (30, -1.29748716950416564941e-01) (31, 5.86547434329986572266e-01) (32, -1.09751784801483154297e+00) (33, -4.38307911157608032227e-01) (34, -1.04485064744949340820e-01) (35, 3.24641078710556030273e-01) (36, -4.86588329076766967773e-02) (0, -7.81150698661804199219e-01) (1, 5.40533840656280517578e-01) (2, 5.46835899353027343750e-01) (3, -1.36477828025817871094e+00) (4, 2.98669219017028808594e-01) (5, 3.21127682924270629883e-01) (6, -4.17332977056503295898e-01) (7, 5.00739887356758117676e-02) (8, -6.87330424785614013672e-01) (9, 1.33022677898406982422e+00) (10, -1.61910250782966613770e-01) (11, -8.45970392227172851562e-01) (12, 5.99417164921760559082e-02) (13, 6.66982010006904602051e-02) (14, -1.97849619388580322266e+00) (15, 1.43432390689849853516e+00) (16, -2.22472161054611206055e-01) (17, -1.93517982959747314453e-01) (18, 9.25516426563262939453e-01) (19, -1.97222208976745605469e+00) (20, 6.20559096336364746094e-01) (21, -2.07391595840454101562e+00) (22, -8.10867965221405029297e-01) (23, -8.17331373691558837891e-02) (24, 2.05474805831909179688e+00) (25, -1.26572191715240478516e+00) (26, 6.54344320297241210938e-01) (27, 6.23036682605743408203e-01) (28, -2.59652882814407348633e-01) (29, -2.08783888816833496094e+00) (30, -6.64350509643554687500e-01) (31, 3.57406949996948242188e+00) (32, 1.51472318172454833984e+00) (33, -1.93684244155883789062e+00) (34, 7.69160568714141845703e-01) (35, 1.32777500152587890625e+00) (36, -8.48804831504821777344e-01) (0, -8.24411660432815551758e-02) (1, -1.66259054094552993774e-02) (2, 1.34215891361236572266e-01) (3, -5.38325488567352294922e-01) (4, 1.30031466484069824219e-01) (5, -2.76358313858509063721e-02) (6, 1.36219039559364318848e-02) (7, 5.42425215244293212891e-02) (8, 8.56202319264411926270e-02) (9, 2.04408824443817138672e-01) (10, -4.69549745321273803711e-02) (11, 5.17646176740527153015e-03) (12, -3.89136150479316711426e-02) (13, 9.00152847170829772949e-02) (14, -5.01622736454010009766e-01) (15, -1.71546891331672668457e-01) (16, -3.51263642311096191406e-01) (17, -3.61254036426544189453e-01) (18, 4.58953708410263061523e-01) (19, -1.95594027638435363770e-01) (20, -8.25347937643527984619e-03) (21, -1.47941485047340393066e-01) (22, -1.86649531126022338867e-01) (23, 3.07838693261146545410e-02) (24, -1.23661205172538757324e-01) (25, -2.28870004415512084961e-01) (26, -8.16821679472923278809e-02) (27, 1.25876188278198242188e-01) (28, -9.05730277299880981445e-02) (29, -2.55206197500228881836e-01) (30, 1.05953589081764221191e-01) (31, 3.93562674522399902344e-01) (32, 6.47133708000183105469e-01) (33, -1.36223554611206054688e-01) (34, 3.55455689132213592529e-02) (35, -1.97001378983259201050e-02) (36, -1.63788557052612304688e-01) (0, 1.44223725795745849609e+00) (1, 1.59260189533233642578e+00) (2, -5.09314632415771484375e+00) (3, -3.91407132148742675781e+00) (4, -1.77874588966369628906e+00) (5, 5.09503698348999023438e+00) (6, -4.78220075368881225586e-01) (7, -2.24568724632263183594e+00) (8, 2.07224225997924804688e+00) (9, -1.99357521533966064453e+00) (10, -2.92649769783020019531e+00) (11, -6.53568029403686523438e-01) (12, 7.03727230429649353027e-02) (13, 6.79068043828010559082e-02) (14, 3.54202628135681152344e-01) (15, 3.15925538539886474609e-01) (16, -3.75842523574829101562e+00) (17, 3.10229331254959106445e-01) (18, 1.72015547752380371094e-01) (19, -1.53963065147399902344e+00) (20, -6.48449516296386718750e+00) (21, -2.88780784606933593750e+00) (22, 1.51291418075561523438e+00) (23, 2.60541364550590515137e-02) (24, 4.25280237197875976562e+00) (25, 3.25681853294372558594e+00) (26, 4.04693269729614257812e+00) (27, 2.75654864311218261719e+00) (28, -1.16602444648742675781e+00) (29, -1.51928222179412841797e+00) (30, 2.88480710983276367188e+00) (31, 2.50923943519592285156e+00) (32, 9.59861278533935546875e-01) (33, -1.92462261766195297241e-02) (34, 2.02418148517608642578e-01) (35, 1.47846281528472900391e+00) (36, 9.59766507148742675781e-01) (0, 4.45303916931152343750e-01) (1, -4.07621890306472778320e-01) (2, 3.22517663240432739258e-01) (3, 2.90251672267913818359e-01) (4, 1.22510448098182678223e-01) (5, -1.57039016485214233398e-01) (6, -2.28468403220176696777e-01) (7, -3.19997608661651611328e-01) (8, 2.92957395315170288086e-01) (9, -1.65035128593444824219e-01) (10, -1.42264783382415771484e-01) (11, -7.04217851161956787109e-02) (12, -1.62277668714523315430e-02) (13, 5.95605149865150451660e-02) (14, 4.98584240674972534180e-01) (15, -8.89817550778388977051e-02) (16, 6.56412169337272644043e-02) (17, -1.96934536099433898926e-01) (18, 7.53342136740684509277e-02) (19, -7.50418975949287414551e-02) (20, 3.36739346385002136230e-02) (21, 1.27876892685890197754e-01) (22, 1.85820788145065307617e-01) (23, 4.15682271122932434082e-02) (24, -6.69259369373321533203e-01) (25, -1.79547488689422607422e-01) (26, 5.14095202088356018066e-02) (27, 1.78309589624404907227e-01) (28, 3.46921756863594055176e-02) (29, 2.21824467182159423828e-01) (30, -5.07867276668548583984e-01) (31, -4.95688378810882568359e-01) (32, 2.80629307031631469727e-01) (33, 5.12515127658843994141e-01) (34, 1.40308737754821777344e-01) (35, -3.55242371559143066406e-01) (36, 4.63486850261688232422e-01) (0, -5.37591993808746337891e-01) (1, 7.40098059177398681641e-01) (2, -7.92135715484619140625e-01) (3, -4.29289817810058593750e-01) (4, -2.88606405258178710938e-01) (5, -6.30643248558044433594e-01) (6, 1.71089589595794677734e+00) (7, 1.28721344470977783203e+00) (8, -3.79699200391769409180e-01) (9, -8.95332574844360351562e-01) (10, -4.41905260086059570312e-01) (11, 5.10196983814239501953e-01) (12, 4.25268486142158508301e-02) (13, -9.39836874604225158691e-02) (14, 2.24981039762496948242e-01) (15, -1.35438954830169677734e+00) (16, 4.37135696411132812500e-01) (17, 2.78936624526977539062e-02) (18, 8.49647045135498046875e-01) (19, 1.32892215251922607422e+00) (20, -4.54106241464614868164e-01) (21, 1.10932791233062744141e+00) (22, -1.59955292940139770508e-01) (23, -8.58677551150321960449e-02) (24, -1.26916539669036865234e+00) (25, 1.67259204387664794922e+00) (26, -3.46176564693450927734e-01) (27, -3.06394714862108230591e-02) (28, -4.84928667545318603516e-01) (29, 1.50177752971649169922e+00) (30, 1.21379184722900390625e+00) (31, -1.96356260776519775391e+00) (32, -5.17184913158416748047e-01) (33, 8.20850133895874023438e-01) (34, -7.14055418968200683594e-01) (35, -3.64977329969406127930e-01) (36, 7.09970816969871520996e-02) (0, -6.98273301124572753906e-01) (1, -2.83161699771881103516e-01) (2, 3.49930000305175781250e+00) (3, 6.10965490341186523438e-01) (4, 1.46270918846130371094e+00) (5, 3.40230226516723632812e+00) (6, 7.20818758010864257812e+00) (7, 1.79085302352905273438e+00) (8, -1.04796276092529296875e+01) (9, -8.23037862777709960938e-01) (10, 2.61941456794738769531e+00) (11, 3.43573737144470214844e+00) (12, 6.95132538676261901855e-02) (13, 7.93306902050971984863e-02) (14, -1.06314539909362792969e+00) (15, 2.19642329216003417969e+00) (16, -1.32905852794647216797e+00) (17, -2.04311561584472656250e+00) (18, 6.37614548206329345703e-01) (19, 5.73519802093505859375e+00) (20, 5.69900572299957275391e-01) (21, -3.84713578224182128906e+00) (22, -2.78422772884368896484e-01) (23, -7.19976499676704406738e-02) (24, 3.12805747985839843750e+00) (25, -1.80054867267608642578e+00) (26, -1.66559636592864990234e+00) (27, 2.04228218644857406616e-02) (28, 2.06888586282730102539e-01) (29, -4.90451335906982421875e+00) (30, -2.68908143043518066406e+00) (31, 4.09959602355957031250e+00) (32, -4.22403049468994140625e+00) (33, -4.35647201538085937500e+00) (34, -3.76670527458190917969e+00) (35, -5.05410552024841308594e-01) (36, 3.19775223731994628906e+00) (0, -5.16563296318054199219e-01) (1, 4.40958082675933837891e-01) (2, -8.84306654334068298340e-02) (3, -1.45639610290527343750e+00) (4, 3.70501458644866943359e-01) (5, -7.36245870590209960938e-01) (6, 1.22531163692474365234e+00) (7, 7.65799045562744140625e-01) (8, 6.73598516732454299927e-03) (9, -1.40664130449295043945e-01) (10, -5.98832786083221435547e-01) (11, 3.05684730410575866699e-02) (12, -4.38586361706256866455e-02) (13, -1.58783048391342163086e-02) (14, -7.88772642612457275391e-01) (15, -1.52275907993316650391e+00) (16, -4.52819406986236572266e-01) (17, -1.13237714767456054688e+00) (18, 1.60903823375701904297e+00) (19, -1.77648827433586120605e-01) (20, -7.44655787944793701172e-01) (21, 3.09367597103118896484e-01) (22, -7.28848934173583984375e-01) (23, 3.28145995736122131348e-02) (24, -1.36735451221466064453e+00) (25, 2.56620287895202636719e-01) (26, -2.51698791980743408203e-01) (27, 2.99338608980178833008e-01) (28, -2.04747825860977172852e-01) (29, 2.50605463981628417969e-01) (30, 1.39224171638488769531e-01) (31, -8.21324408054351806641e-01) (32, 1.67141592502593994141e+00) (33, 3.95855456590652465820e-01) (34, -1.18302926421165466309e-01) (35, -6.03073120117187500000e-01) (36, 2.28827744722366333008e-01) (0, -3.10503482818603515625e-01) (1, 4.79585260152816772461e-01) (2, -1.05674922466278076172e-01) (3, -3.76887768507003784180e-01) (4, 3.56034860014915466309e-02) (5, -3.60877662897109985352e-01) (6, 7.88690447807312011719e-01) (7, 4.25427794456481933594e-01) (8, -3.62093657255172729492e-01) (9, -8.19116681814193725586e-02) (10, -2.00524598360061645508e-01) (11, 3.38328294456005096436e-02) (12, -6.10718689858913421631e-02) (13, -4.28222119808197021484e-02) (14, -5.74165463447570800781e-01) (15, -1.59671798348426818848e-01) (16, 1.27238154411315917969e-01) (17, -5.05531346425414085388e-03) (18, 6.75925791263580322266e-01) (19, -6.79924190044403076172e-02) (20, -1.17520749568939208984e-01) (21, -1.51447176933288574219e-01) (22, -2.55352318286895751953e-01) (23, -6.75551295280456542969e-02) (24, -1.75637647509574890137e-01) (25, 3.35782080888748168945e-01) (26, 5.55933229625225067139e-02) (27, 2.10977166891098022461e-01) (28, -6.37133598327636718750e-01) (29, 2.47473061084747314453e-01) (30, 3.80002826452255249023e-01) (31, 2.07327902317047119141e-01) (32, 9.19209644198417663574e-02) (33, -2.67208784818649291992e-01) (34, -3.45392636954784393311e-02) (35, 1.83177858591079711914e-01) (36, -5.79450316727161407471e-02) (0, -3.87265205383300781250e-01) (1, 5.35835444927215576172e-01) (2, 5.58782219886779785156e-01) (3, -1.01097881793975830078e+00) (4, 4.50951993465423583984e-01) (5, -1.08236432075500488281e-01) (6, 2.10284650325775146484e-01) (7, 1.04242309927940368652e-01) (8, -3.68984282016754150391e-01) (9, 7.85005509853363037109e-01) (10, -3.14403533935546875000e-01) (11, -4.16112393140792846680e-01) (12, -4.15548086166381835938e-02) (13, -4.36201579868793487549e-02) (14, -1.16727304458618164062e+00) (15, 4.72326964139938354492e-01) (16, -6.84207826852798461914e-02) (17, -2.21467092633247375488e-01) (18, 1.21258211135864257812e+00) (19, -1.28112685680389404297e+00) (20, 2.20261380076408386230e-01) (21, -1.39339542388916015625e+00) (22, -5.46589732170104980469e-01) (23, 9.05981585383415222168e-02) (24, 4.95213359594345092773e-01) (25, -8.77132952213287353516e-01) (26, 2.76194721460342407227e-01) (27, 3.50473642349243164062e-01) (28, -6.40872240066528320312e-01) (29, -1.03234314918518066406e+00) (30, -6.13753557205200195312e-01) (31, 1.92761516571044921875e+00) (32, 1.38487958908081054688e+00) (33, -9.02606546878814697266e-01) (34, 7.56290078163146972656e-01) (35, 4.36076402664184570312e-01) (36, -3.08507382869720458984e-01) (0, 1.56116187572479248047e+00) (1, 1.99952614307403564453e+00) (2, 1.21851968765258789062e+00) (3, -1.12423837184906005859e+00) (4, 8.39614987373352050781e-01) (5, 8.91591072082519531250e-01) (6, 2.03698658943176269531e+00) (7, 2.48293185234069824219e+00) (8, 2.58993566036224365234e-01) (9, 3.27133178710937500000e-01) (10, -1.89923569560050964355e-01) (11, 6.82524025440216064453e-01) (12, 9.70215424895286560059e-02) (13, -7.59385079145431518555e-02) (14, -1.92982399463653564453e+00) (15, -2.25219321250915527344e+00) (16, -1.85837119817733764648e-01) (17, -5.70130944252014160156e-01) (18, 1.74354040622711181641e+00) (19, 8.13126385211944580078e-01) (20, -1.15652251243591308594e+00) (21, 1.12350368499755859375e+00) (22, -1.10361528396606445312e+00) (23, -5.52411489188671112061e-02) (24, -1.52585458755493164062e+00) (25, -1.32333695888519287109e+00) (26, -1.27182114124298095703e+00) (27, -6.24510228633880615234e-01) (28, -8.63485872745513916016e-01) (29, 5.46037733554840087891e-01) (30, 9.63247776031494140625e-01) (31, -9.04306948184967041016e-01) (32, 1.50075089931488037109e+00) (33, 3.00563633441925048828e-01) (34, -1.01116144657135009766e+00) (35, 3.19688916206359863281e-01) (36, 3.96908968687057495117e-01) (0, -1.69306862354278564453e+00) (1, -3.54168152809143066406e+00) (2, -3.62018257379531860352e-01) (3, -4.08002185821533203125e+00) (4, -1.31186389923095703125e+00) (5, 4.57438659667968750000e+00) (6, -7.21796810626983642578e-01) (7, 1.89091622829437255859e+00) (8, 5.27898967266082763672e-02) (9, -3.45827221870422363281e-01) (10, 1.00706756114959716797e+00) (11, -1.49927389621734619141e+00) (12, 2.59068831801414489746e-02) (13, 3.89006361365318298340e-02) (14, 2.93017601966857910156e+00) (15, -6.42199325561523437500e+00) (16, -2.09631776809692382812e+00) (17, -7.51355361938476562500e+00) (18, 1.42908203601837158203e+00) (19, -8.61328899860382080078e-01) (20, -2.81133294105529785156e+00) (21, 5.70094156265258789062e+00) (22, 1.08815824985504150391e+00) (23, -6.11898936331272125244e-02) (24, 1.09482347965240478516e+00) (25, 2.37270474433898925781e+00) (26, 2.67525029182434082031e+00) (27, 8.99923706054687500000e+00) (28, 1.10038709640502929688e+01) (29, -2.43756318092346191406e+00) (30, -3.60683989524841308594e+00) (31, -2.49096512794494628906e+00) (32, 1.97828984260559082031e+00) (33, -1.05250835418701171875e+00) (34, -1.91336953639984130859e+00) (35, 5.23312473297119140625e+00) (36, -1.04140310287475585938e+01) (0, -9.41701307892799377441e-02) (1, 1.12760305404663085938e-01) (2, 1.35619550943374633789e-01) (3, -9.71597492694854736328e-01) (4, 2.67497569322586059570e-01) (5, -3.15376609563827514648e-01) (6, 5.40593326091766357422e-01) (7, 4.36051607131958007812e-01) (8, 2.66310051083564758301e-02) (9, 3.06680798530578613281e-01) (10, -4.42683905363082885742e-01) (11, 3.03672198206186294556e-02) (12, 1.68723464012145996094e-02) (13, 2.16341018676757812500e-02) (14, -9.30287480354309082031e-01) (15, -5.47619819641113281250e-01) (16, -4.28519338369369506836e-01) (17, -7.03700423240661621094e-01) (18, 1.07908546924591064453e+00) (19, -4.69283938407897949219e-01) (20, -2.82133877277374267578e-01) (21, -6.98917210102081298828e-02) (22, -5.53531885147094726562e-01) (23, 4.01854515075683593750e-04) (24, -5.38228034973144531250e-01) (25, -4.91039693355560302734e-01) (26, -1.24102890491485595703e-01) (27, 2.89157796651124954224e-02) (28, -3.99373680353164672852e-01) (29, -7.89232924580574035645e-02) (30, -4.08452935516834259033e-02) (31, 1.88900053501129150391e-01) (32, 1.17535161972045898438e+00) (33, -4.51811365783214569092e-02) (34, 6.21996149420738220215e-02) (35, -5.58059439063072204590e-02) (36, 1.64777055382728576660e-01) (0, -3.41998845338821411133e-01) (1, 4.11600112915039062500e-01) (2, 2.19714447855949401855e-01) (3, 3.47949191927909851074e-03) (4, -3.48154008388519287109e-01) (5, 4.35562700033187866211e-01) (6, -9.83927920460700988770e-02) (7, 7.26872310042381286621e-02) (8, -3.04073095321655273438e-01) (9, 4.39034909009933471680e-01) (10, 2.35933914780616760254e-01) (11, -6.08237385749816894531e-01) (12, -2.32152193784713745117e-02) (13, 8.95682722330093383789e-03) (14, -3.25026988983154296875e-01) (15, 1.24900662899017333984e+00) (16, -6.83183036744594573975e-03) (17, 3.71050179004669189453e-01) (18, -6.32775306701660156250e-01) (19, -3.68118703365325927734e-01) (20, 3.34387689828872680664e-01) (21, -8.30150365829467773438e-01) (22, 3.69922481477260589600e-02) (23, 6.35161623358726501465e-02) (24, 1.60937190055847167969e+00) (25, 3.55221480131149291992e-01) (26, 6.36151671409606933594e-01) (27, 6.67838156223297119141e-02) (28, 3.85571897029876708984e-01) (29, -8.42721104621887207031e-01) (30, -5.17074652016162872314e-02) (31, 1.37272548675537109375e+00) (32, -7.24582016468048095703e-01) (33, -9.69689309597015380859e-01) (34, 1.73742145299911499023e-01) (35, 8.47903549671173095703e-01) (36, -6.82962059974670410156e-01) (0, -1.34759867191314697266e+00) (1, 1.53188312053680419922e+00) (2, -6.58259987831115722656e-02) (3, -1.44663178920745849609e+00) (4, -3.76713246107101440430e-01) (5, 4.01850193738937377930e-02) (6, 8.37147951126098632812e-01) (7, 9.87544178962707519531e-01) (8, -1.48882043361663818359e+00) (9, 7.65076458454132080078e-01) (10, -1.49408429861068725586e-01) (11, -7.51910567283630371094e-01) (12, -8.86996090412139892578e-03) (13, 8.92448201775550842285e-02) (14, -1.99999892711639404297e+00) (15, 1.15750372409820556641e+00) (16, -7.25065991282463073730e-02) (17, -6.61411955952644348145e-02) (18, 4.04678523540496826172e-01) (19, -5.98921239376068115234e-01) (20, 5.64333975315093994141e-01) (21, -1.49795937538146972656e+00) (22, -7.18913853168487548828e-01) (23, -9.89380031824111938477e-02) (24, 2.63040447235107421875e+00) (25, 2.36451029777526855469e-01) (26, 1.99536859989166259766e-01) (27, 3.25396001338958740234e-01) (28, -4.00422751903533935547e-01) (29, -1.63722574710845947266e+00) (30, 5.88004350662231445312e-01) (31, 2.87412452697753906250e+00) (32, 1.46290287375450134277e-01) (33, -1.99711561203002929688e+00) (34, 3.60490322113037109375e-01) (35, 1.51934075355529785156e+00) (36, -1.16916024684906005859e+00) (0, 4.59661453962326049805e-01) (1, -4.54510450363159179688e-01) (2, 7.94206202030181884766e-01) (3, 4.61914986371994018555e-01) (4, 4.00782585144042968750e-01) (5, 5.35839498043060302734e-01) (6, -1.42368423938751220703e+00) (7, -1.02217662334442138672e+00) (8, 2.84276574850082397461e-01) (9, 3.89322519302368164062e-01) (10, 1.69596970081329345703e-01) (11, -4.13366615772247314453e-01) (12, 2.58525684475898742676e-02) (13, -7.59217143058776855469e-02) (14, 3.03309634327888488770e-02) (15, 1.08687531948089599609e+00) (16, -7.49863907694816589355e-02) (17, 2.46987611055374145508e-01) (18, -4.22365933656692504883e-01) (19, -1.15810823440551757812e+00) (20, 4.02238309383392333984e-01) (21, -7.50103771686553955078e-01) (22, 9.15454402565956115723e-02) (23, 9.46738198399543762207e-02) (24, 7.20606505870819091797e-01) (25, -1.39304363727569580078e+00) (26, 5.13006925582885742188e-01) (27, 2.66765683889389038086e-01) (28, 4.69214409589767456055e-01) (29, -1.18398916721343994141e+00) (30, -1.23361003398895263672e+00) (31, 1.45903360843658447266e+00) (32, 5.58781445026397705078e-01) (33, -4.17609214782714843750e-01) (34, 6.93843364715576171875e-01) (35, 2.18131214380264282227e-01) (36, -5.63134104013442993164e-02) (0, -9.70742329955101013184e-02) (1, 1.27985015511512756348e-01) (2, -6.67843937873840332031e-01) (3, -4.19864892959594726562e-01) (4, 1.88717111945152282715e-01) (5, -5.98148941993713378906e-01) (6, 1.14739692211151123047e+00) (7, 8.04183423519134521484e-01) (8, 7.87431374192237854004e-03) (9, -6.47072911262512207031e-01) (10, -3.71015340089797973633e-01) (11, 5.35352647304534912109e-01) (12, 2.73837223649024963379e-02) (13, -6.93380609154701232910e-02) (14, -2.03050881624221801758e-01) (15, -1.68165719509124755859e+00) (16, -1.01149007678031921387e-01) (17, -6.72657728195190429688e-01) (18, 8.29663395881652832031e-01) (19, 8.69448125362396240234e-01) (20, -5.39951622486114501953e-01) (21, 1.31969666481018066406e+00) (22, -3.36068153381347656250e-01) (23, -2.35386714339256286621e-02) (24, -1.56051397323608398438e+00) (25, 4.11366850137710571289e-01) (26, -9.34406220912933349609e-01) (27, -3.08483332395553588867e-01) (28, -8.00393521785736083984e-01) (29, 1.50331509113311767578e+00) (30, 1.17933177947998046875e+00) (31, -1.65132761001586914062e+00) (32, 1.99339538812637329102e-01) (33, 7.55002439022064208984e-01) (34, -8.09240221977233886719e-01) (35, -3.96140456199645996094e-01) (36, 4.87289249897003173828e-01) (0, 6.79492652416229248047e-01) (1, -2.01682925224304199219e+00) (2, -1.50224959850311279297e+00) (3, 1.00471055507659912109e+00) (4, 4.06451195478439331055e-01) (5, 1.68731224536895751953e+00) (6, 7.96626687049865722656e-01) (7, 2.74834704399108886719e+00) (8, 3.76308465003967285156e+00) (9, 4.97950799763202667236e-02) (10, -2.79248332977294921875e+00) (11, -7.28746747970581054688e+00) (12, 7.27842822670936584473e-02) (13, -6.03327192366123199463e-02) (14, 1.90251660346984863281e+00) (15, 1.39536392688751220703e+00) (16, -3.54639267921447753906e+00) (17, 2.79936403036117553711e-01) (18, -2.49643945693969726562e+00) (19, 2.37721633911132812500e+00) (20, 3.81531268358230590820e-01) (21, 2.16443705558776855469e+00) (22, 1.61852633953094482422e+00) (23, 8.58012586832046508789e-03) (24, 2.01754903793334960938e+00) (25, 2.34613323211669921875e+00) (26, 4.93886828422546386719e-01) (27, -7.58454203605651855469e-01) (28, 3.27598214149475097656e+00) (29, 1.80972564220428466797e+00) (30, 1.11511409282684326172e+00) (31, -1.44233360886573791504e-01) (32, -4.14012956619262695312e+00) (33, 7.97064781188964843750e-01) (34, -6.86068177223205566406e-01) (35, 3.06373596191406250000e+00) (36, -2.72526597976684570312e+00) (0, -2.93577909469604492188e-01) (1, 1.50370359420776367188e-01) (2, 6.14979565143585205078e-02) (3, -4.77715283632278442383e-01) (4, 3.86779785156250000000e-01) (5, -2.53053069114685058594e-01) (6, 5.22298872470855712891e-01) (7, 1.73332199454307556152e-01) (8, 1.02931298315525054932e-01) (9, -1.69438384473323822021e-02) (10, -2.21381425857543945312e-01) (11, 1.31886243820190429688e-01) (12, 1.43951550126075744629e-02) (13, 8.97909328341484069824e-02) (14, -2.29855164885520935059e-01) (15, -6.31811141967773437500e-01) (16, -4.24951352179050445557e-02) (17, -4.23715054988861083984e-01) (18, 7.63936460018157958984e-01) (19, -8.64908769726753234863e-02) (20, -2.70056545734405517578e-01) (21, -3.16013693809509277344e-02) (22, -2.71659165620803833008e-01) (23, 4.64906767010688781738e-02) (24, -6.31822764873504638672e-01) (25, -1.56231269240379333496e-01) (26, -1.45232930779457092285e-01) (27, 3.21404248476028442383e-01) (28, -2.98771411180496215820e-01) (29, 1.06199793517589569092e-01) (30, -1.79959774017333984375e-01) (31, -1.71055048704147338867e-01) (32, 8.52794408798217773438e-01) (33, 1.00752830505371093750e-01) (34, 1.14602014422416687012e-01) (35, -3.35348755121231079102e-01) (36, 2.75796175003051757812e-01) (0, -5.68200767040252685547e-01) (1, 3.13334852457046508789e-01) (2, 8.48694980144500732422e-01) (3, -1.02020704746246337891e+00) (4, 2.75928467512130737305e-01) (5, 3.06154310703277587891e-01) (6, -6.16172432899475097656e-01) (7, -3.46176117658615112305e-01) (8, -2.38811358809471130371e-01) (9, 1.09435093402862548828e+00) (10, -9.50871631503105163574e-02) (11, -9.19835746288299560547e-01) (12, -4.62152846157550811768e-02) (13, -3.49061191082000732422e-03) (14, -1.42075991630554199219e+00) (15, 1.30586218833923339844e+00) (16, -4.24529790878295898438e-01) (17, -9.80971977114677429199e-02) (18, 7.92418241500854492188e-01) (19, -1.77330505847930908203e+00) (20, 2.91418194770812988281e-01) (21, -1.82941067218780517578e+00) (22, -5.22769033908843994141e-01) (23, -6.71250894665718078613e-02) (24, 1.30621445178985595703e+00) (25, -1.14960479736328125000e+00) (26, 7.99208521842956542969e-01) (27, 5.99269151687622070312e-01) (28, 2.65312194824218750000e-01) (29, -1.92306506633758544922e+00) (30, -1.26425945758819580078e+00) (31, 2.88995432853698730469e+00) (32, 1.50732290744781494141e+00) (33, -1.28936660289764404297e+00) (34, 8.03783476352691650391e-01) (35, 7.21640706062316894531e-01) (36, -6.94800853729248046875e-01) (0, 8.16966652870178222656e-01) (1, -8.85358631610870361328e-01) (2, 7.69255995750427246094e-01) (3, 1.60149025917053222656e+00) (4, 3.27543169260025024414e-01) (5, 8.54583442211151123047e-01) (6, -1.85474061965942382812e+00) (7, -1.47148811817169189453e+00) (8, 4.84697133302688598633e-01) (9, 2.73344188928604125977e-01) (10, 4.89959836006164550781e-01) (11, -3.73694717884063720703e-01) (12, -2.76078581809997558594e-02) (13, -4.08549606800079345703e-03) (14, 1.09912109375000000000e+00) (15, 1.75101864337921142578e+00) (16, 5.19066214561462402344e-01) (17, 8.74007523059844970703e-01) (18, -1.29090762138366699219e+00) (19, -5.25347650051116943359e-01) (20, 6.84654414653778076172e-01) (21, -7.38664805889129638672e-01) (22, 7.25498914718627929688e-01) (23, -4.55259345471858978271e-02) (24, 7.45713412761688232422e-01) (25, -8.34264516830444335938e-01) (26, 8.01229357719421386719e-01) (27, 7.88354352116584777832e-02) (28, 5.02297103404998779297e-01) (29, -6.82263076305389404297e-01) (30, -1.21006906032562255859e+00) (31, 1.13282370567321777344e+00) (32, -6.33117914199829101562e-01) (33, 9.41597819328308105469e-02) (34, 7.89941072463989257812e-01) (35, 1.06183864176273345947e-01) (36, 2.90902614593505859375e-01) (0, -5.84770619869232177734e-01) (1, 5.22276580333709716797e-01) (2, -4.83416795730590820312e-01) (3, -6.81087493896484375000e-01) (4, -1.68243393301963806152e-01) (5, -3.58310818672180175781e-01) (6, 1.31893825531005859375e+00) (7, 9.14356350898742675781e-01) (8, -2.98961758613586425781e-01) (9, -3.57822269201278686523e-01) (10, -3.83995413780212402344e-01) (11, 2.48629525303840637207e-01) (12, 3.76274362206459045410e-02) (13, 1.51623114943504333496e-02) (14, -3.24924170970916748047e-01) (15, -9.96358275413513183594e-01) (16, 8.22711214423179626465e-02) (17, -1.41082271933555603027e-01) (18, 5.65932929515838623047e-01) (19, 7.43055522441864013672e-01) (20, -3.85101944208145141602e-01) (21, 6.63971126079559326172e-01) (22, -4.13599371910095214844e-01) (23, 8.92189219594001770020e-02) (24, -5.54594099521636962891e-01) (25, 9.49806272983551025391e-01) (26, -5.03722727298736572266e-01) (27, -1.99859067797660827637e-01) (28, -5.01076519489288330078e-01) (29, 8.16037058830261230469e-01) (30, 1.17938220500946044922e+00) (31, -8.86890649795532226562e-01) (32, -4.94582802057266235352e-02) (33, 2.00617089867591857910e-01) (34, -5.77146172523498535156e-01) (35, -1.45206913352012634277e-01) (36, 4.92690131068229675293e-04) (0, -2.83774435520172119141e-01) (1, 6.04556620121002197266e-01) (2, -3.56493532657623291016e-01) (3, -7.39262402057647705078e-01) (4, 1.14827208220958709717e-01) (5, -6.59645617008209228516e-01) (6, 1.28731107711791992188e+00) (7, 7.63549387454986572266e-01) (8, -5.89486844837665557861e-02) (9, -4.48995798826217651367e-01) (10, -4.82316374778747558594e-01) (11, 3.62476736307144165039e-01) (12, 2.71072462201118469238e-02) (13, 3.87952998280525207520e-02) (14, -7.61101841926574707031e-01) (15, -1.54802656173706054688e+00) (16, -4.92115467786788940430e-02) (17, -5.31000494956970214844e-01) (18, 1.12248408794403076172e+00) (19, 5.27427494525909423828e-01) (20, -6.04883849620819091797e-01) (21, 8.00668954849243164062e-01) (22, -4.69106197357177734375e-01) (23, 4.39998731017112731934e-02) (24, -1.12184810638427734375e+00) (25, 3.06550025939941406250e-01) (26, -7.71871387958526611328e-01) (27, -7.05605931580066680908e-03) (28, -6.30164623260498046875e-01) (29, 9.31479334831237792969e-01) (30, 9.73941504955291748047e-01) (31, -1.11934304237365722656e+00) (32, 6.76880657672882080078e-01) (33, 9.44261029362678527832e-02) (34, -5.26255965232849121094e-01) (35, -3.16487073898315429688e-01) (36, 3.22428643703460693359e-01) (0, -7.97349587082862854004e-02) (1, 1.25935345888137817383e-01) (2, -5.99521934986114501953e-01) (3, 1.73855051398277282715e-02) (4, -3.36804896593093872070e-01) (5, -4.10384356975555419922e-01) (6, 7.87721514701843261719e-01) (7, 6.25817179679870605469e-01) (8, 1.04659393429756164551e-01) (9, -8.64684641361236572266e-01) (10, -1.84510238468647003174e-02) (11, 5.25515258312225341797e-01) (12, 7.82318636775016784668e-02) (13, 3.58396843075752258301e-02) (14, 8.33737134933471679688e-01) (15, -1.19563412666320800781e+00) (16, 2.11260169744491577148e-01) (17, -1.86038509011268615723e-01) (18, -1.82642742991447448730e-01) (19, 1.43156599998474121094e+00) (20, -7.33231008052825927734e-01) (21, 1.35608506202697753906e+00) (22, 1.13818041980266571045e-01) (23, 9.47790816426277160645e-02) (24, -1.40134835243225097656e+00) (25, 1.28407573699951171875e+00) (26, -5.27422547340393066406e-01) (27, -2.86782830953598022461e-01) (28, 2.20348298549652099609e-01) (29, 1.26839387416839599609e+00) (30, 8.09700906276702880859e-01) (31, -2.29785895347595214844e+00) (32, -5.00606954097747802734e-01) (33, 1.06570792198181152344e+00) (34, -6.42643153667449951172e-01) (35, -7.04011499881744384766e-01) (36, 4.43896234035491943359e-01) (0, 1.29254087805747985840e-01) (1, -2.61759668588638305664e-01) (2, 2.97888983041048049927e-02) (3, -2.14454486966133117676e-01) (4, 3.97930264472961425781e-01) (5, -5.24085387587547302246e-02) (6, 1.12065069377422332764e-01) (7, -6.39788061380386352539e-02) (8, 2.33457744121551513672e-01) (9, 1.94460153579711914062e-01) (10, -5.38534112274646759033e-02) (11, 2.52265721559524536133e-01) (12, -2.59138643741607666016e-03) (13, -6.30313158035278320312e-02) (14, -4.23334836959838867188e-01) (15, -5.88721752166748046875e-01) (16, -3.23008954524993896484e-01) (17, -3.51467162370681762695e-01) (18, 5.43110489845275878906e-01) (19, -1.95899888873100280762e-01) (20, -2.07855433225631713867e-01) (21, 1.42299383878707885742e-01) (22, -2.09349200129508972168e-01) (23, 4.64758947491645812988e-02) (24, -3.85599434375762939453e-01) (25, -9.70498561859130859375e-01) (26, -6.63728177547454833984e-01) (27, -5.01126237213611602783e-02) (28, -5.80142736434936523438e-01) (29, 5.40809705853462219238e-02) (30, 2.43716109544038772583e-02) (31, 1.13767527043819427490e-01) (32, 9.70160126686096191406e-01) (33, -2.35078200697898864746e-01) (34, 1.02581135928630828857e-01) (35, -2.86815673112869262695e-01) (36, 3.19722026586532592773e-01) (0, 1.04348301887512207031e-01) (1, -8.35142254829406738281e-01) (2, 4.90809381008148193359e-01) (3, 7.50996530055999755859e-01) (4, -5.43947182595729827881e-02) (5, 5.87239921092987060547e-01) (6, -1.77956640720367431641e+00) (7, -1.35103762149810791016e+00) (8, 1.86694040894508361816e-01) (9, 9.01605904102325439453e-01) (10, 7.46588468551635742188e-01) (11, -6.74795627593994140625e-01) (12, -1.89409404993057250977e-02) (13, -2.76696830987930297852e-02) (14, 5.67089796066284179688e-01) (15, 1.91330623626708984375e+00) (16, -3.17806117236614227295e-02) (17, 3.26462417840957641602e-01) (18, -1.14968848228454589844e+00) (19, -1.34187829494476318359e+00) (20, 6.56448662281036376953e-01) (21, -1.41187441349029541016e+00) (22, 5.80692291259765625000e-01) (23, 8.91372188925743103027e-02) (24, 1.43312704563140869141e+00) (25, -5.80190777778625488281e-01) (26, 1.34166824817657470703e+00) (27, 3.49175810813903808594e-01) (28, 9.89849150180816650391e-01) (29, -1.57280933856964111328e+00) (30, -1.64325094223022460938e+00) (31, 1.71816658973693847656e+00) (32, -4.69981461763381958008e-01) (33, -4.72479283809661865234e-01) (34, 9.51820015907287597656e-01) (35, 4.39391463994979858398e-01) (36, -4.57220286130905151367e-01) (0, 1.45939830690622329712e-02) (1, 1.46375834941864013672e-01) (2, 4.16330128908157348633e-01) (3, -1.19065977632999420166e-02) (4, 7.79991075396537780762e-02) (5, 2.96780824661254882812e-01) (6, -2.90591210126876831055e-01) (7, -2.55207240581512451172e-01) (8, -3.09096038341522216797e-01) (9, 3.32923501729965209961e-01) (10, 9.76765751838684082031e-02) (11, -3.85818243026733398438e-01) (12, -4.82861213386058807373e-02) (13, 3.38489487767219543457e-02) (14, -7.38065764307975769043e-02) (15, 9.32070195674896240234e-01) (16, 2.20631379634141921997e-02) (17, 2.39996328949928283691e-01) (18, -2.22821205854415893555e-01) (19, -5.27145266532897949219e-01) (20, 3.59119981527328491211e-01) (21, -6.99765264987945556641e-01) (22, -1.28735471516847610474e-02) (23, 2.69466564059257507324e-02) (24, 7.04099833965301513672e-01) (25, 1.70524395070970058441e-03) (26, 5.11979401111602783203e-01) (27, 1.30670726299285888672e-01) (28, 2.50926405191421508789e-01) (29, -7.62040197849273681641e-01) (30, -6.26507639884948730469e-01) (31, 1.05466866493225097656e+00) (32, -7.04347640275955200195e-02) (33, -3.20432126522064208984e-01) (34, 4.47293162345886230469e-01) (35, 4.19455766677856445312e-01) (36, -2.70230025053024291992e-01) (0, 1.82979273796081542969e+00) (1, -2.41207838058471679688e+00) (2, 1.12202405929565429688e+00) (3, -7.56553530693054199219e-01) (4, -1.96781313419342041016e+00) (5, 2.82733857631683349609e-01) (6, 2.32225465774536132812e+00) (7, 4.32381927967071533203e-01) (8, 2.90950560569763183594e+00) (9, 2.66869640350341796875e+00) (10, -2.60455465316772460938e+00) (11, -3.73203659057617187500e+00) (12, 6.66048303246498107910e-02) (13, -2.98401713371276855469e-02) (14, 1.92759978771209716797e+00) (15, 4.40922230482101440430e-01) (16, -4.19574069976806640625e+00) (17, 1.44079077243804931641e+00) (18, -4.29617404937744140625e+00) (19, -5.84128558635711669922e-01) (20, -5.48693418502807617188e+00) (21, 2.84417420625686645508e-01) (22, 1.11410760879516601562e+00) (23, 6.33961930871009826660e-02) (24, -1.64376771450042724609e+00) (25, 1.57947981357574462891e+00) (26, 1.77276897430419921875e+00) (27, -3.38337182998657226562e+00) (28, -1.61809110641479492188e+00) (29, 2.79459786415100097656e+00) (30, -4.39634948968887329102e-01) (31, 1.66578364372253417969e+00) (32, -3.23006319999694824219e+00) (33, 4.81729477643966674805e-01) (34, -1.44414353370666503906e+00) (35, -1.29854047298431396484e+00) (36, -1.25924491882324218750e+00) (0, 4.79433953762054443359e-01) (1, -3.17019432783126831055e-01) (2, 7.97876417636871337891e-01) (3, 2.60662078857421875000e-01) (4, 3.22120308876037597656e-01) (5, 1.70801043510437011719e-01) (6, -7.56601989269256591797e-01) (7, -6.68312847614288330078e-01) (8, 2.82397031784057617188e-01) (9, 7.85510912537574768066e-02) (10, -7.47571662068367004395e-02) (11, -2.88914352655410766602e-01) (12, 7.55067542195320129395e-02) (13, 9.57730636000633239746e-02) (14, 4.99263077974319458008e-01) (15, 5.52904367446899414062e-01) (16, -3.80211486481130123138e-03) (17, -1.77473016083240509033e-03) (18, -1.30407795310020446777e-01) (19, -6.53378248214721679688e-01) (20, 1.13878689706325531006e-01) (21, -5.15686094760894775391e-01) (22, 1.90015271306037902832e-01) (23, 1.85474306344985961914e-02) (24, -2.55832731723785400391e-01) (25, -5.04244446754455566406e-01) (26, 5.60699462890625000000e-01) (27, 3.49586069583892822266e-01) (28, 5.72471916675567626953e-01) (29, -4.86234188079833984375e-01) (30, -1.26497006416320800781e+00) (31, 1.99758857488632202148e-01) (32, 4.24429059028625488281e-01) (33, 3.39834958314895629883e-01) (34, 5.51636457443237304688e-01) (35, -2.99479693174362182617e-01) (36, 3.49274486303329467773e-01) (0, -5.43825626373291015625e-01) (1, 6.71880066394805908203e-01) (2, -1.54355496168136596680e-01) (3, -4.77727174758911132812e-01) (4, -2.30783477425575256348e-01) (5, -2.30713218450546264648e-01) (6, 5.79493820667266845703e-01) (7, 7.50834822654724121094e-01) (8, -4.26718145608901977539e-01) (9, 1.48421883583068847656e-01) (10, -1.48617580533027648926e-01) (11, -1.78446188569068908691e-01) (12, -2.45298892259597778320e-02) (13, 5.18864467740058898926e-02) (14, -5.19621491432189941406e-01) (15, 4.18973602354526519775e-02) (16, 2.72472262382507324219e-01) (17, -1.72297880053520202637e-02) (18, 4.64375913143157958984e-01) (19, -4.97915484011173248291e-02) (20, -5.46912737190723419189e-02) (21, -9.14895385503768920898e-02) (22, -2.77990728616714477539e-01) (23, 5.61799108982086181641e-03) (24, 2.77397871017456054688e-01) (25, 5.73208868503570556641e-01) (26, 6.51683360338211059570e-02) (27, 1.69290632009506225586e-01) (28, -2.86584347486495971680e-01) (29, 3.33564132452011108398e-02) (30, 3.34899663925170898438e-01) (31, 4.30799961090087890625e-01) (32, 1.05541139841079711914e-01) (33, -4.44082856178283691406e-01) (34, -1.21703021228313446045e-01) (35, 3.69921386241912841797e-01) (36, -4.40061688423156738281e-01) (0, 2.91387438774108886719e+00) (1, -9.71193885803222656250e+00) (2, 8.79762232303619384766e-01) (3, 5.63804578781127929688e+00) (4, 5.93968629837036132812e-01) (5, 5.44339227676391601562e+00) (6, -5.10657501220703125000e+00) (7, 8.62696075439453125000e+00) (8, 1.84669914245605468750e+01) (9, -1.02917833328247070312e+01) (10, 2.02439236640930175781e+00) (11, 4.71318989992141723633e-01) (12, -6.72679543495178222656e-02) (13, -7.17131048440933227539e-03) (14, 2.73085743188858032227e-01) (15, 8.99664878845214843750e+00) (16, -6.85745191574096679688e+00) (17, -1.16700077056884765625e+01) (18, 1.02015190124511718750e+01) (19, -3.62978696823120117188e+00) (20, 3.77388453483581542969e+00) (21, 1.55416240692138671875e+01) (22, -5.02939820289611816406e-01) (23, -8.11202898621559143066e-02) (24, 5.52766704559326171875e+00) (25, -6.02077865600585937500e+00) (26, 4.55269765853881835938e+00) (27, -4.70572662353515625000e+00) (28, -6.85060930252075195312e+00) (29, -2.34448149800300598145e-01) (30, 3.69478654861450195312e+00) (31, 2.45565009117126464844e+00) (32, -1.98570079803466796875e+01) (33, -1.02893781661987304688e+01) (34, 4.92330169677734375000e+00) (35, 1.63062393665313720703e+00) (36, -4.04512357711791992188e+00) (0, 3.68272662162780761719e-01) (1, -4.39800560474395751953e-01) (2, -6.96395576000213623047e-01) (3, 8.01927924156188964844e-01) (4, -2.24731311202049255371e-01) (5, -1.38887062668800354004e-01) (6, 4.15943801403045654297e-01) (7, 1.24708920717239379883e-01) (8, 4.93255048990249633789e-01) (9, -1.02661633491516113281e+00) (10, 1.80608168244361877441e-01) (11, 6.94081425666809082031e-01) (12, 1.42462700605392456055e-02) (13, -3.29423323273658752441e-02) (14, 1.45831441879272460938e+00) (15, -1.35564744472503662109e+00) (16, 3.32408756017684936523e-01) (17, 7.25272297859191894531e-02) (18, -8.02152931690216064453e-01) (19, 1.64027607440948486328e+00) (20, -4.29336011409759521484e-01) (21, 1.75446355342864990234e+00) (22, 4.82187956571578979492e-01) (23, 2.04697996377944946289e-03) (24, -1.42594099044799804688e+00) (25, 1.13695180416107177734e+00) (26, -6.38338506221771240234e-01) (27, -6.01840138435363769531e-01) (28, 1.95189654827117919922e-01) (29, 1.82954001426696777344e+00) (30, 8.70807707309722900391e-01) (31, -3.01684522628784179688e+00) (32, -1.22583878040313720703e+00) (33, 1.47941577434539794922e+00) (34, -6.95248186588287353516e-01) (35, -9.03618335723876953125e-01) (36, 6.62860810756683349609e-01) (0, 8.82234930992126464844e-01) (1, -1.64469432830810546875e+00) (2, -7.46929198503494262695e-02) (3, 1.35566914081573486328e+00) (4, 4.42980617284774780273e-01) (5, -3.32793176174163818359e-01) (6, -2.62212783098220825195e-01) (7, -9.61805701255798339844e-01) (8, 1.52751278877258300781e+00) (9, -9.91639912128448486328e-01) (10, 9.41532179713249206543e-02) (11, 7.64736771583557128906e-01) (12, -5.54916113615036010742e-02) (13, 9.84805896878242492676e-02) (14, 2.07438015937805175781e+00) (15, -1.84352242946624755859e+00) (16, 9.60062220692634582520e-02) (17, 3.44741120934486389160e-02) (18, -9.34228599071502685547e-02) (19, 1.08023345470428466797e+00) (20, -9.05546724796295166016e-01) (21, 1.91999351978302001953e+00) (22, 7.90385484695434570312e-01) (23, 6.63777217268943786621e-02) (24, -3.48981618881225585938e+00) (25, 3.58777463436126708984e-01) (26, -4.28201526403427124023e-01) (27, -4.81388449668884277344e-01) (28, 3.95099967718124389648e-01) (29, 2.12558984756469726562e+00) (30, -9.25187915563583374023e-02) (31, -3.94478702545166015625e+00) (32, 4.26871739327907562256e-02) (33, 2.45269870758056640625e+00) (34, -6.53686761856079101562e-01) (35, -2.03272724151611328125e+00) (36, 1.59643876552581787109e+00) (0, -1.73445846885442733765e-02) (1, 1.38285636901855468750e-01) (2, -4.75558817386627197266e-01) (3, -2.00007274746894836426e-01) (4, -2.21093222498893737793e-02) (5, -6.79299712181091308594e-01) (6, 1.12633180618286132812e+00) (7, 5.41214644908905029297e-01) (8, 2.23846957087516784668e-02) (9, -6.46267771720886230469e-01) (10, -3.86927813291549682617e-01) (11, 5.70093750953674316406e-01) (12, 4.81497272849082946777e-02) (13, 4.44648340344429016113e-02) (14, 6.54545351862907409668e-02) (15, -1.60343825817108154297e+00) (16, 5.82000613212585449219e-03) (17, -3.68619024753570556641e-01) (18, 8.10623586177825927734e-01) (19, 7.37073004245758056641e-01) (20, -5.87280392646789550781e-01) (21, 1.04819512367248535156e+00) (22, -1.12215474247932434082e-01) (23, 8.83776769042015075684e-02) (24, -1.44221031665802001953e+00) (25, 6.52510702610015869141e-01) (26, -7.23263204097747802734e-01) (27, -1.59903988242149353027e-01) (28, -7.33080089092254638672e-01) (29, 1.26519811153411865234e+00) (30, 7.38752365112304687500e-01) (31, -1.76059567928314208984e+00) (32, 2.10753247141838073730e-01) (33, 9.77869510650634765625e-01) (34, -5.29335319995880126953e-01) (35, -6.30732119083404541016e-01) (36, 5.75160503387451171875e-01) (0, 2.86990404129028320312e-01) (1, -3.60363215208053588867e-01) (2, -2.78463680297136306763e-02) (3, 1.35047924518585205078e+00) (4, -9.49819922447204589844e-01) (5, -5.70891387760639190674e-02) (6, -7.97408640384674072266e-01) (7, -7.39978969097137451172e-01) (8, -3.15449446439743041992e-01) (9, -8.02429735660552978516e-01) (10, -7.60395526885986328125e-02) (11, -6.83298170566558837891e-01) (12, -9.74205583333969116211e-02) (13, -1.16415396332740783691e-02) (14, 1.64905321598052978516e+00) (15, 1.78824675083160400391e+00) (16, 8.46967101097106933594e-01) (17, 1.08542084693908691406e+00) (18, -1.28354096412658691406e+00) (19, 5.90587034821510314941e-02) (20, 8.78482699394226074219e-01) (21, -4.16582792997360229492e-01) (22, 9.56894934177398681641e-01) (23, -9.46222245693206787109e-02) (24, 7.76318252086639404297e-01) (25, 1.44876527786254882812e+00) (26, 9.83100235462188720703e-01) (27, 1.47232174873352050781e-01) (28, 5.22903561592102050781e-01) (29, 3.44812184572219848633e-01) (30, -6.35688543319702148438e-01) (31, -1.43148109316825866699e-01) (32, -2.29552721977233886719e+00) (33, 2.83468306064605712891e-01) (34, 5.71098506450653076172e-01) (35, 1.73062175512313842773e-01) (36, -1.65983974933624267578e-01) (0, 6.30691468715667724609e-01) (1, -5.68194508552551269531e-01) (2, 5.03196986392140388489e-03) (3, 2.08239221572875976562e+00) (4, -3.53469669818878173828e-01) (5, 4.72847133874893188477e-01) (6, -6.60208225250244140625e-01) (7, -5.45029997825622558594e-01) (8, 3.72356384992599487305e-01) (9, -5.81953585147857666016e-01) (10, 9.13214206695556640625e-01) (11, 5.26205241680145263672e-01) (12, 7.09935352206230163574e-02) (13, 7.66044631600379943848e-02) (14, 1.71331155300140380859e+00) (15, 7.34883725643157958984e-01) (16, 3.30654829740524291992e-01) (17, 1.10104370117187500000e+00) (18, -1.58751654624938964844e+00) (19, 1.71710777282714843750e+00) (20, 6.54960334300994873047e-01) (21, 8.28998625278472900391e-01) (22, 8.94865572452545166016e-01) (23, 3.15348803997039794922e-03) (24, 2.32118204236030578613e-01) (25, 9.45888996124267578125e-01) (26, 3.50803762674331665039e-01) (27, -4.32360321283340454102e-01) (28, 7.70588040351867675781e-01) (29, 7.82059609889984130859e-01) (30, 3.47543150186538696289e-01) (31, -9.27822530269622802734e-01) (32, -2.28521871566772460938e+00) (33, 6.72410428524017333984e-01) (34, -1.85885176062583923340e-01) (35, 3.02867963910102844238e-02) (36, -5.26608042418956756592e-02) (0, -7.30244576930999755859e-01) (1, 7.51255631446838378906e-01) (2, -3.04733157157897949219e-01) (3, -4.89503860473632812500e-01) (4, -3.46988469362258911133e-01) (5, -2.69237369298934936523e-01) (6, 1.06892573833465576172e+00) (7, 7.98620402812957763672e-01) (8, -4.65159475803375244141e-01) (9, -2.18086183071136474609e-01) (10, -2.20680668950080871582e-01) (11, 7.75279402732849121094e-02) (12, 8.42964649200439453125e-03) (13, -4.73191142082214355469e-02) (14, -1.90779000520706176758e-01) (15, -2.79629051685333251953e-01) (16, 1.67584314942359924316e-01) (17, 1.38673260807991027832e-01) (18, 2.93111026287078857422e-01) (19, 4.60499703884124755859e-01) (20, -1.26592069864273071289e-01) (21, 1.09534047544002532959e-01) (22, -1.53832197189331054688e-01) (23, -5.50048910081386566162e-02) (24, 1.70422211289405822754e-01) (25, 1.22213363647460937500e+00) (26, -3.43944691121578216553e-02) (27, -4.77662123739719390869e-03) (28, -1.91225707530975341797e-01) (29, 2.69456058740615844727e-01) (30, 8.02531301975250244141e-01) (31, -3.23337137699127197266e-01) (32, -3.98374527692794799805e-01) (33, -2.80295312404632568359e-01) (34, -2.48366087675094604492e-01) (35, 1.90246194601058959961e-01) (36, -2.21380621194839477539e-01) (0, 3.46910357475280761719e-01) (1, -1.90825271606445312500e+00) (2, -1.06801509857177734375e+00) (3, -2.82866024971008300781e+00) (4, 3.56123876571655273438e+00) (5, 1.07918691635131835938e+00) (6, 2.94339561462402343750e+00) (7, 2.44912815093994140625e+00) (8, -3.18642759323120117188e+00) (9, -7.25395011901855468750e+00) (10, -1.12191104888916015625e+00) (11, 6.07233428955078125000e+00) (12, -5.35894520580768585205e-02) (13, 2.15601772069931030273e-02) (14, 3.81878471374511718750e+00) (15, -2.33250617980957031250e+00) (16, 6.34171009063720703125e+00) (17, -1.26214551925659179688e+00) (18, 2.74883341789245605469e+00) (19, 4.35852527618408203125e+00) (20, 1.21139264106750488281e+00) (21, 2.63620555400848388672e-01) (22, 2.52342057228088378906e+00) (23, 7.82177597284317016602e-03) (24, -6.75370502471923828125e+00) (25, 1.97150826454162597656e+00) (26, 3.31510454416275024414e-01) (27, -3.64074897766113281250e+00) (28, -7.77541303634643554688e+00) (29, -3.50181102752685546875e+00) (30, 2.03191471099853515625e+00) (31, 4.03688287734985351562e+00) (32, 7.60927963256835937500e+00) (33, 8.50368261337280273438e-01) (34, 1.06974375247955322266e+00) (35, -2.93206453323364257812e+00) (36, -1.61489832401275634766e+00) (0, 7.47358947992324829102e-02) (1, 1.32966145873069763184e-01) (2, 6.29885137081146240234e-01) (3, 2.77774304151535034180e-01) (4, -2.48131319880485534668e-01) (5, 6.26040399074554443359e-01) (6, -1.42582595348358154297e+00) (7, -6.40788376331329345703e-01) (8, -4.42708969116210937500e-01) (9, 1.28041529655456542969e+00) (10, 2.61046022176742553711e-01) (11, -7.38562524318695068359e-01) (12, 2.57976278662681579590e-02) (13, -9.67914685606956481934e-02) (14, -7.86188066005706787109e-01) (15, 2.33119893074035644531e+00) (16, 2.77968317270278930664e-01) (17, 8.26605200767517089844e-01) (18, -7.28689551353454589844e-01) (19, -1.47081661224365234375e+00) (20, 1.05768370628356933594e+00) (21, -1.76512348651885986328e+00) (22, -1.29954501986503601074e-01) (23, -6.09895773231983184814e-02) (24, 2.70844483375549316406e+00) (25, -1.04603338241577148438e+00) (26, 8.31870496273040771484e-01) (27, 3.24787467718124389648e-01) (28, 7.13687911629676818848e-02) (29, -2.08099746704101562500e+00) (30, -9.52935159206390380859e-01) (31, 3.47603344917297363281e+00) (32, -1.97820350527763366699e-01) (33, -1.74266827106475830078e+00) (34, 6.31693899631500244141e-01) (35, 1.46216893196105957031e+00) (36, -9.36810314655303955078e-01) (0, 9.47219356894493103027e-02) (1, -4.66127656400203704834e-02) (2, 6.66960358619689941406e-01) (3, -7.42587089538574218750e-01) (4, 6.89992368221282958984e-01) (5, 1.70625016093254089355e-01) (6, -5.20116209983825683594e-01) (7, -2.71731287240982055664e-01) (8, 1.59013837575912475586e-01) (9, 5.55411994457244873047e-01) (10, -2.70362287759780883789e-01) (11, -3.86823266744613647461e-01) (12, 1.06401070952415466309e-02) (13, 1.74393504858016967773e-03) (14, -1.09106647968292236328e+00) (15, 3.24513345956802368164e-01) (16, -3.76201599836349487305e-01) (17, -4.13168311119079589844e-01) (18, 1.07719409465789794922e+00) (19, -1.47083103656768798828e+00) (20, 1.30088001489639282227e-01) (21, -9.66190814971923828125e-01) (22, -3.81106793880462646484e-01) (23, 2.19183936715126037598e-02) (24, 1.93050712347030639648e-01) (25, -1.30191016197204589844e+00) (26, 2.49696910381317138672e-01) (27, 5.35201013088226318359e-01) (28, -2.75265634059906005859e-01) (29, -1.06574177742004394531e+00) (30, -7.88031697273254394531e-01) (31, 1.76102626323699951172e+00) (32, 1.52820456027984619141e+00) (33, -6.66340529918670654297e-01) (34, 4.84998106956481933594e-01) (35, 2.45155051350593566895e-01) (36, -7.72532895207405090332e-02) (0, 2.26901620626449584961e-01) (1, -8.69037628173828125000e-01) (2, 8.75527933239936828613e-02) (3, 1.12379479408264160156e+00) (4, -1.91574558615684509277e-01) (5, 7.63049840927124023438e-01) (6, -1.74339199066162109375e+00) (7, -8.59729945659637451172e-01) (8, 1.47710040211677551270e-01) (9, 8.37683379650115966797e-01) (10, 8.16472113132476806641e-01) (11, -2.55621761083602905273e-01) (12, -8.62241387367248535156e-02) (13, 8.71736630797386169434e-02) (14, 2.40573525428771972656e-01) (15, 1.93257224559783935547e+00) (16, 2.83532261848449707031e-01) (17, 8.98351848125457763672e-01) (18, -1.31112837791442871094e+00) (19, -8.55824291706085205078e-01) (20, 8.75317275524139404297e-01) (21, -9.31510269641876220703e-01) (22, 4.60319966077804565430e-01) (23, 1.30150914192199707031e-02) (24, 2.28522706031799316406e+00) (25, -1.02988016605377197266e+00) (26, 6.43176198005676269531e-01) (27, -2.24438592791557312012e-01) (28, 5.24933159351348876953e-01) (29, -1.23490774631500244141e+00) (30, -7.98215508460998535156e-01) (31, 2.17365217208862304688e+00) (32, -8.96972537040710449219e-01) (33, -7.44756519794464111328e-01) (34, 2.60750919580459594727e-01) (35, 8.02720427513122558594e-01) (36, -7.43283390998840332031e-01) (0, -5.03206348419189453125e+00) (1, 1.18349719047546386719e+00) (2, 4.34702523052692413330e-02) (3, 1.12037622928619384766e+00) (4, -2.31298446655273437500e+00) (5, 1.12178671360015869141e+00) (6, -1.47252058982849121094e+00) (7, -4.23432254791259765625e+00) (8, 4.36857271194458007812e+00) (9, -4.47772741317749023438e+00) (10, -3.41231083869934082031e+00) (11, 5.80897188186645507812e+00) (12, 3.25181111693382263184e-02) (13, -5.67257665097713470459e-02) (14, -2.20654320716857910156e+00) (15, 3.51686096191406250000e+00) (16, 7.39805936813354492188e-01) (17, 2.45445823669433593750e+00) (18, -4.61645174026489257812e+00) (19, 6.44786262512207031250e+00) (20, 8.34106624126434326172e-01) (21, -1.72831702232360839844e+00) (22, -2.12640953063964843750e+00) (23, 4.02747318148612976074e-02) (24, -8.87218534946441650391e-01) (25, 1.68010151386260986328e+00) (26, 2.88983368873596191406e+00) (27, 1.21421236544847488403e-02) (28, 2.25157469511032104492e-01) (29, 1.44584193825721740723e-01) (30, -3.85137772560119628906e+00) (31, 2.35978913307189941406e+00) (32, -1.73010453581809997559e-01) (33, -1.03273248672485351562e+00) (34, -2.75347733497619628906e+00) (35, 2.48827075958251953125e+00) (36, 1.14828562736511230469e+00) (37, 4.00552988052368164062e-01) (38, -3.24286198616027832031e+00) (39, 9.30805265903472900391e-01) (40, 4.15843868255615234375e+00) (41, 3.58064353466033935547e-01) (42, -1.40250813961029052734e+00) (43, 4.38975238800048828125e+00) (44, -1.84473013877868652344e+00) (45, -1.79500603675842285156e+00) (46, 4.32712644338607788086e-01) (47, -2.28147077560424804688e+00) (48, 9.91237819194793701172e-01) (49, -1.48718583583831787109e+00) (50, 2.36055970191955566406e+00) (51, -6.79219365119934082031e-01) (52, 7.31593084335327148438e+00) (53, -5.42833566665649414062e+00) (54, 6.70015737414360046387e-02) (55, 3.45932841300964355469e+00) (56, 9.88211154937744140625e-01) (57, -3.49200874567031860352e-01) (58, -2.28971815109252929688e+00) (59, -1.02903413772583007812e+00) (60, -1.64451348781585693359e+00) (61, 3.63144546747207641602e-01) (62, -2.32403588294982910156e+00) (63, 1.03004634380340576172e+00) (64, 7.69755169749259948730e-02) (65, -3.28385567665100097656e+00) (66, 1.80784940719604492188e+00) (67, -4.85901713371276855469e-01) (68, -3.80098342895507812500e-01) (69, 2.41873121261596679688e+00) (70, -6.36459064483642578125e+00) (71, 9.51720416545867919922e-01) (72, -1.98552477359771728516e+00) (73, -3.40922498703002929688e+00) (74, 1.82579353451728820801e-01) (75, 1.19413292407989501953e+00) (76, -1.24627768993377685547e+00) (77, 8.34820747375488281250e-01) (78, -6.23006701469421386719e-01) (79, -3.45392197370529174805e-01) (80, -1.16643995046615600586e-01) (81, 8.02340924739837646484e-01) (82, 8.62870216369628906250e-01) (83, 9.27654504776000976562e-01) (84, -7.21651256084442138672e-01) (85, -7.51950383186340332031e-01) (86, -2.79590201377868652344e+00) (87, 9.19451653957366943359e-01) (88, -9.65977072715759277344e-01) (89, 1.89206862449645996094e+00) (90, 1.16717541217803955078e+00) (91, 4.09249734878540039062e+00) (92, 1.19276809692382812500e+00) (93, -1.76283144950866699219e+00) (94, -1.10942721366882324219e+00) (95, -1.04745900630950927734e+00) (96, -3.53869748115539550781e+00) (97, -2.67615485191345214844e+00) (98, 6.09351217746734619141e-01) (99, -1.73947405815124511719e+00) (100, 2.93318772315979003906e+00) (101, 1.16745126247406005859e+00) (37, -3.77533435821533203125e-01) (38, 4.31229442358016967773e-01) (39, -9.82217416167259216309e-02) (40, -2.90765225887298583984e-01) (41, 1.45627200603485107422e-01) (42, -2.45984032750129699707e-01) (43, 2.48696058988571166992e-01) (44, 3.74291718006134033203e-01) (45, 2.33285762369632720947e-02) (46, -2.00864434242248535156e-01) (47, 1.32229223847389221191e-01) (48, -1.08488634228706359863e-01) (49, 1.30910232663154602051e-01) (50, 1.07581034302711486816e-01) (51, 1.06692016124725341797e-01) (52, -7.19269394874572753906e-01) (53, 4.12661433219909667969e-02) (54, 8.03865771740674972534e-03) (55, -2.12942063808441162109e-01) (56, 1.53307244181632995605e-01) (57, -6.97863772511482238770e-02) (58, -1.20900012552738189697e-02) (59, -1.79284244775772094727e-01) (60, 1.52808465063571929932e-02) (61, 7.53617957234382629395e-02) (62, 1.94736167788505554199e-01) (63, 5.01511059701442718506e-02) (64, -2.02919915318489074707e-02) (65, 2.86977477371692657471e-02) (66, 3.45720909535884857178e-02) (67, 3.71180777437984943390e-03) (68, 1.45817771553993225098e-01) (69, -2.51753091812133789062e-01) (70, 1.18372023105621337891e+00) (71, -7.06432536244392395020e-02) (72, -9.85982920974493026733e-03) (73, -2.70698308944702148438e-01) (74, 7.08371102809906005859e-02) (75, -6.95395767688751220703e-02) (76, 3.51005822420120239258e-01) (77, 1.09578538686037063599e-02) (78, 4.54393727704882621765e-03) (79, 2.74785399436950683594e-01) (80, -5.04777580499649047852e-02) (81, -3.81535366177558898926e-02) (82, -1.44255489110946655273e-01) (83, 9.42192226648330688477e-02) (84, 9.30367186665534973145e-02) (85, 1.24869301915168762207e-01) (86, 7.61133015155792236328e-01) (87, 3.08017075061798095703e-01) (88, -3.32775339484214782715e-02) (89, -1.79435431957244873047e-01) (90, 3.72065529227256774902e-02) (91, 1.36581689119338989258e-01) (92, -2.27047279477119445801e-02) (93, 2.26404458284378051758e-01) (94, -5.87452128529548645020e-02) (95, -1.49650856852531433105e-01) (96, 2.48391449451446533203e-01) (97, 3.36903221905231475830e-02) (98, 1.79504364728927612305e-01) (99, -1.57121077179908752441e-01) (100, -2.11945131421089172363e-01) (101, 1.86592310667037963867e-01) (37, -2.45316863059997558594e-01) (38, 3.01829367876052856445e-01) (39, 3.70019152760505676270e-02) (40, -1.98325365781784057617e-01) (41, 1.86254829168319702148e-01) (42, -8.55806171894073486328e-02) (43, 2.66379743814468383789e-01) (44, 2.90851861238479614258e-01) (45, 1.49148814380168914795e-02) (46, -1.18825435638427734375e-01) (47, 5.13923577964305877686e-02) (48, -4.32465337216854095459e-02) (49, 4.18704934418201446533e-02) (50, 1.43041118979454040527e-01) (51, 1.46333009004592895508e-01) (52, -4.06505048274993896484e-01) (53, -9.15858312509953975677e-04) (54, -3.40597853064537048340e-02) (55, -2.96915005892515182495e-02) (56, 1.30271196365356445312e-01) (57, -4.38968949019908905029e-02) (58, -9.80521440505981445312e-02) (59, -1.02139867842197418213e-01) (60, 4.17400114238262176514e-02) (61, -5.12255588546395301819e-03) (62, 2.26022750139236450195e-02) (63, 1.15140244364738464355e-01) (64, -6.50221407413482666016e-02) (65, 6.82407170534133911133e-02) (66, 1.29701822996139526367e-01) (67, -9.34128463268280029297e-02) (68, 1.47757992148399353027e-01) (69, -2.73028671741485595703e-01) (70, 8.57667326927185058594e-01) (71, -6.81659653782844543457e-02) (72, -3.13811027444899082184e-03) (73, -1.06265783309936523438e-01) (74, 1.04870967566967010498e-01) (75, -1.79714094847440719604e-02) (76, 2.64275163412094116211e-01) (77, 1.49247512221336364746e-01) (78, -1.67025849223136901855e-02) (79, 1.34517803788185119629e-01) (80, -1.24681703746318817139e-01) (81, 4.54513467848300933838e-02) (82, -7.18328207731246948242e-02) (83, 3.32201011478900909424e-02) (84, 7.79553502798080444336e-02) (85, 6.74675852060317993164e-02) (86, 3.75655859708786010742e-01) (87, 8.36466997861862182617e-02) (88, -8.66735577583312988281e-02) (89, -5.03664948046207427979e-02) (90, -1.88499614596366882324e-02) (91, 5.08609116077423095703e-02) (92, -3.15135121345520019531e-02) (93, 4.89776916801929473877e-02) (94, -6.46324409171938896179e-03) (95, -4.59807217121124267578e-02) (96, 5.19454106688499450684e-02) (97, -3.62130701541900634766e-02) (98, 1.05903491377830505371e-01) (99, -9.94697678834199905396e-03) (100, -3.45761068165302276611e-02) (101, 2.64887630939483642578e-01) (37, -3.29223245382308959961e-01) (38, 4.66249257326126098633e-01) (39, -9.44025740027427673340e-02) (40, -2.47434705495834350586e-01) (41, 1.14535123109817504883e-01) (42, -8.92545282840728759766e-02) (43, 2.46717199683189392090e-01) (44, 3.47557991743087768555e-01) (45, -5.82853406667709350586e-02) (46, -6.57746791839599609375e-02) (47, 1.03498354554176330566e-01) (48, -7.69738778471946716309e-02) (49, 1.42262041568756103516e-01) (50, 7.66022875905036926270e-02) (51, 1.11724242568016052246e-01) (52, -6.94188952445983886719e-01) (53, 1.75225250422954559326e-02) (54, -2.54120510071516036987e-02) (55, -3.64268392324447631836e-01) (56, -1.26712331548333168030e-02) (57, -1.11518673598766326904e-01) (58, 3.16358804702758789062e-02) (59, -3.86366695165634155273e-02) (60, -6.50357156991958618164e-02) (61, -4.82981279492378234863e-02) (62, 2.42754966020584106445e-01) (63, 1.38690873980522155762e-01) (64, 2.59920246899127960205e-02) (65, 3.67452017962932586670e-02) (66, -3.20303998887538909912e-02) (67, -3.35282012820243835449e-02) (68, 2.91351769119501113892e-02) (69, -1.99524715542793273926e-01) (70, 1.18164253234863281250e+00) (71, 6.51958882808685302734e-02) (72, 1.80300902575254440308e-02) (73, -1.58041596412658691406e-01) (74, 8.67617428302764892578e-02) (75, -1.88136309385299682617e-01) (76, 3.62214922904968261719e-01) (77, -5.13387694954872131348e-02) (78, -2.30927509255707263947e-03) (79, 2.14061766862869262695e-01) (80, -1.14863023161888122559e-01) (81, -1.88654176890850067139e-02) (82, -1.20568588376045227051e-01) (83, -7.41471052169799804688e-02) (84, 1.71981602907180786133e-01) (85, 9.83105152845382690430e-02) (86, 6.80817127227783203125e-01) (87, 2.41509318351745605469e-01) (88, -9.90969315171241760254e-02) (89, -3.45717728137969970703e-01) (90, -5.01275658607482910156e-02) (91, 1.91979721188545227051e-01) (92, 1.74294114112854003906e-02) (93, 4.77026589214801788330e-02) (94, -1.83817222714424133301e-02) (95, -1.67812537401914596558e-02) (96, 3.27430695295333862305e-01) (97, -4.39952593296766281128e-03) (98, 1.89782828092575073242e-02) (99, 6.04412630200386047363e-02) (100, -3.78650128841400146484e-01) (101, 1.62750661373138427734e-01) (37, -5.80979764461517333984e-01) (38, 5.20646393299102783203e-01) (39, -1.45475482568144798279e-02) (40, -5.06328880786895751953e-01) (41, 3.56975734233856201172e-01) (42, -1.46492183208465576172e-01) (43, 2.02227696776390075684e-01) (44, 5.24182021617889404297e-01) (45, -7.34371095895767211914e-02) (46, -4.40278910100460052490e-02) (47, 3.22016507387161254883e-01) (48, -8.36786329746246337891e-02) (49, 2.80491441488265991211e-01) (50, 1.27539187669754028320e-02) (51, 1.17430344223976135254e-01) (52, -1.02143800258636474609e+00) (53, 2.00936034321784973145e-01) (54, -4.34576757252216339111e-02) (55, -8.89586329460144042969e-01) (56, 1.93775929510593414307e-02) (57, -2.75433242321014404297e-01) (58, 1.11918203532695770264e-01) (59, 3.42611409723758697510e-02) (60, -7.45222121477127075195e-02) (61, 3.16519290208816528320e-02) (62, 4.11603718996047973633e-01) (63, 1.64675548672676086426e-01) (64, -2.00141906738281250000e-01) (65, -7.11878836154937744141e-02) (66, -1.01554505527019500732e-01) (67, 5.58098144829273223877e-02) (68, -9.96178090572357177734e-02) (69, -1.74944013357162475586e-01) (70, 1.35305726528167724609e+00) (71, -1.10727898776531219482e-01) (72, 5.76229281723499298096e-02) (73, -2.84020274877548217773e-01) (74, 1.23414218425750732422e-01) (75, -2.15066030621528625488e-01) (76, 6.38963818550109863281e-01) (77, -7.55818411707878112793e-02) (78, -1.69216841459274291992e-02) (79, 1.20449364185333251953e-01) (80, -1.96506902575492858887e-01) (81, -8.46611857414245605469e-02) (82, -3.91094759106636047363e-02) (83, 9.51926130801439285278e-03) (84, 1.03678621351718902588e-01) (85, -4.55353111028671264648e-02) (86, 7.74052143096923828125e-01) (87, 2.63988792896270751953e-01) (88, -1.60306215286254882812e-01) (89, -7.30496466159820556641e-01) (90, 2.84921303391456604004e-02) (91, 2.37014248967170715332e-01) (92, -5.13350451365113258362e-03) (93, 1.11568115651607513428e-01) (94, -1.15154217928647994995e-02) (95, -2.22277455031871795654e-02) (96, 5.23377120494842529297e-01) (97, -4.61489669978618621826e-02) (98, 1.20503887534141540527e-01) (99, 2.70331278443336486816e-03) (100, -6.33094608783721923828e-01) (101, -2.08971679210662841797e-01) (37, 1.49375379085540771484e+00) (38, -1.35267794132232666016e+00) (39, -2.23348364233970642090e-01) (40, 1.05759704113006591797e+00) (41, -4.31870937347412109375e-01) (42, 4.39184486865997314453e-01) (43, -1.55484330654144287109e+00) (44, -1.17660391330718994141e+00) (45, 5.29505200684070587158e-02) (46, -2.03217387199401855469e-01) (47, -1.66294229030609130859e+00) (48, 3.79716157913208007812e-01) (49, -5.12999534606933593750e-01) (50, -4.73597675561904907227e-01) (51, -2.32361152768135070801e-01) (52, 2.44066834449768066406e+00) (53, 3.02019566297531127930e-01) (54, -8.21621268987655639648e-02) (55, 1.30984294414520263672e+00) (56, -2.86363750696182250977e-01) (57, 1.70773833990097045898e-01) (58, 4.35755461454391479492e-01) (59, 5.95420241355895996094e-01) (60, 1.43413856625556945801e-01) (61, -8.94726719707250595093e-03) (62, -8.95401537418365478516e-01) (63, -4.55360472202301025391e-01) (64, 3.45426164567470550537e-02) (65, 3.80465596914291381836e-01) (66, -5.23955821990966796875e-01) (67, 8.21272954344749450684e-02) (68, -3.53900879621505737305e-01) (69, 7.34206140041351318359e-01) (70, -3.76844501495361328125e+00) (71, -1.76351383328437805176e-01) (72, 4.71620887517929077148e-01) (73, 7.28743016719818115234e-01) (74, -1.17660500109195709229e-01) (75, 8.40286351740360260010e-03) (76, -9.44475591182708740234e-01) (77, -3.44972252845764160156e-01) (78, -2.91949719190597534180e-01) (79, -1.62230819463729858398e-01) (80, 1.49116858839988708496e-01) (81, -2.61966995894908905029e-02) (82, -7.05486908555030822754e-02) (83, -1.53868213295936584473e-01) (84, -3.77815186977386474609e-01) (85, -2.54541505128145217896e-02) (86, -2.72250199317932128906e+00) (87, -5.34879982471466064453e-01) (88, 1.50675624608993530273e-01) (89, 1.27903521060943603516e+00) (90, 9.38031300902366638184e-02) (91, -8.39114308357238769531e-01) (92, -1.48958608508110046387e-01) (93, -1.60346955060958862305e-01) (94, 4.69108849763870239258e-01) (95, 3.06488871574401855469e-01) (96, -1.07638239860534667969e+00) (97, 4.74912703037261962891e-01) (98, -3.04064601659774780273e-01) (99, 4.25708144903182983398e-01) (100, 1.04349946975708007812e+00) (101, 4.01083052158355712891e-01) (37, 7.57350087165832519531e-01) (38, -1.10718774795532226562e+00) (39, 7.21664726734161376953e-02) (40, 5.30468583106994628906e-01) (41, -5.25913357734680175781e-01) (42, 4.51091259717941284180e-01) (43, -7.28718876838684082031e-01) (44, -9.66164946556091308594e-01) (45, 1.51531308889389038086e-01) (46, 1.65774956345558166504e-01) (47, -3.10933500528335571289e-01) (48, 3.10135334730148315430e-01) (49, -2.99470037221908569336e-01) (50, -1.90125644207000732422e-01) (51, -2.40809053182601928711e-01) (52, 1.48532915115356445312e+00) (53, -7.76807218790054321289e-02) (54, 1.34497717022895812988e-01) (55, 4.19350504875183105469e-01) (56, -1.14239662885665893555e-01) (57, 1.32954090833663940430e-01) (58, 6.00587064400315284729e-03) (59, 2.58774459362030029297e-01) (60, -1.85811379924416542053e-03) (61, 1.12896777689456939697e-01) (62, -3.00826728343963623047e-01) (63, -2.81006067991256713867e-01) (64, 1.44759297370910644531e-01) (65, 1.81181100197136402130e-03) (66, -2.18747854232788085938e-01) (67, 2.76852305978536605835e-02) (68, -1.08297817409038543701e-01) (69, 5.67343235015869140625e-01) (70, -2.34675788879394531250e+00) (71, 4.42052409052848815918e-02) (72, 1.83656811714172363281e-01) (73, 4.98504102230072021484e-01) (74, -3.23028296232223510742e-01) (75, 1.23813219368457794189e-01) (76, -9.12744820117950439453e-01) (77, -1.09868384897708892822e-01) (78, -1.36087507009506225586e-01) (79, -4.09339457750320434570e-01) (80, 1.48071661591529846191e-01) (81, 1.39423355460166931152e-01) (82, 1.37025937438011169434e-01) (83, 5.37766329944133758545e-02) (84, -2.23678186535835266113e-01) (85, -9.88472849130630493164e-02) (86, -1.49029552936553955078e+00) (87, -3.68814438581466674805e-01) (88, 1.74237862229347229004e-01) (89, 4.64407831430435180664e-01) (90, 1.18875011801719665527e-01) (91, -4.74684834480285644531e-01) (92, -1.52492756024003028870e-02) (93, -3.23916882276535034180e-01) (94, 6.22081309556961059570e-02) (95, 2.31406763195991516113e-01) (96, -5.25762557983398437500e-01) (97, 1.05910606682300567627e-01) (98, -2.53010928630828857422e-01) (99, 2.57784873247146606445e-01) (100, 