FANN_FLO_2.1
num_layers=5
learning_rate=0.700000
connection_rate=1.000000
network_type=0
learning_momentum=0.000000
training_algorithm=2
train_error_function=0
train_stop_function=1
cascade_output_change_fraction=0.010000
quickprop_decay=-0.000100
quickprop_mu=1.750000
rprop_increase_factor=1.200000
rprop_decrease_factor=0.500000
rprop_delta_min=0.000000
rprop_delta_max=50.000000
rprop_delta_zero=0.100000
cascade_output_stagnation_epochs=12
cascade_candidate_change_fraction=0.010000
cascade_candidate_stagnation_epochs=12
cascade_max_out_epochs=150
cascade_min_out_epochs=50
cascade_max_cand_epochs=150
cascade_min_cand_epochs=50
cascade_num_candidate_groups=8
bit_fail_limit=9.99999977648258209229e-03
cascade_candidate_limit=1.00000000000000000000e+03
cascade_weight_multiplier=4.00000005960464477539e-01
cascade_activation_functions_count=1
cascade_activation_functions=5 
cascade_activation_steepnesses_count=1
cascade_activation_steepnesses=1.00000000000000000000e+00 
layer_sizes=37 129 65 33 2 
scale_included=0
neurons (num_inputs, activation_function, activation_steepness)=(0, 0, 0.00000000000000000000e+00) (0, 0, 0.00000000000000000000e+00) (0, 0, 0.00000000000000000000e+00) (0, 0, 0.00000000000000000000e+00) (0, 0, 0.00000000000000000000e+00) (0, 0, 0.00000000000000000000e+00) (0, 0, 0.00000000000000000000e+00) (0, 0, 0.00000000000000000000e+00) (0, 0, 0.00000000000000000000e+00) (0, 0, 0.00000000000000000000e+00) (0, 0, 0.00000000000000000000e+00) (0, 0, 0.00000000000000000000e+00) (0, 0, 0.00000000000000000000e+00) (0, 0, 0.00000000000000000000e+00) (0, 0, 0.00000000000000000000e+00) (0, 0, 0.00000000000000000000e+00) (0, 0, 0.00000000000000000000e+00) (0, 0, 0.00000000000000000000e+00) (0, 0, 0.00000000000000000000e+00) (0, 0, 0.00000000000000000000e+00) (0, 0, 0.00000000000000000000e+00) (0, 0, 0.00000000000000000000e+00) (0, 0, 0.00000000000000000000e+00) (0, 0, 0.00000000000000000000e+00) (0, 0, 0.00000000000000000000e+00) (0, 0, 0.00000000000000000000e+00) (0, 0, 0.00000000000000000000e+00) (0, 0, 0.00000000000000000000e+00) (0, 0, 0.00000000000000000000e+00) (0, 0, 0.00000000000000000000e+00) (0, 0, 0.00000000000000000000e+00) (0, 0, 0.00000000000000000000e+00) (0, 0, 0.00000000000000000000e+00) (0, 0, 0.00000000000000000000e+00) (0, 0, 0.00000000000000000000e+00) (0, 0, 0.00000000000000000000e+00) (0, 0, 0.00000000000000000000e+00) (37, 5, 5.00000000000000000000e-01) (37, 5, 5.00000000000000000000e-01) (37, 5, 5.00000000000000000000e-01) (37, 5, 5.00000000000000000000e-01) (37, 5, 5.00000000000000000000e-01) (37, 5, 5.00000000000000000000e-01) (37, 5, 5.00000000000000000000e-01) (37, 5, 5.00000000000000000000e-01) (37, 5, 5.00000000000000000000e-01) (37, 5, 5.00000000000000000000e-01) (37, 5, 5.00000000000000000000e-01) (37, 5, 5.00000000000000000000e-01) (37, 5, 5.00000000000000000000e-01) (37, 5, 5.00000000000000000000e-01) (37, 5, 5.00000000000000000000e-01) (37, 5, 5.00000000000000000000e-01) (37, 5, 5.00000000000000000000e-01) (37, 5, 5.00000000000000000000e-01) (37, 5, 5.00000000000000000000e-01) (37, 5, 5.00000000000000000000e-01) (37, 5, 5.00000000000000000000e-01) (37, 5, 5.00000000000000000000e-01) (37, 5, 5.00000000000000000000e-01) (37, 5, 5.00000000000000000000e-01) (37, 5, 5.00000000000000000000e-01) (37, 5, 5.00000000000000000000e-01) (37, 5, 5.00000000000000000000e-01) (37, 5, 5.00000000000000000000e-01) (37, 5, 5.00000000000000000000e-01) (37, 5, 5.00000000000000000000e-01) (37, 5, 5.00000000000000000000e-01) (37, 5, 5.00000000000000000000e-01) (37, 5, 5.00000000000000000000e-01) (37, 5, 5.00000000000000000000e-01) (37, 5, 5.00000000000000000000e-01) (37, 5, 5.00000000000000000000e-01) (37, 5, 5.00000000000000000000e-01) (37, 5, 5.00000000000000000000e-01) (37, 5, 5.00000000000000000000e-01) (37, 5, 5.00000000000000000000e-01) (37, 5, 5.00000000000000000000e-01) (37, 5, 5.00000000000000000000e-01) (37, 5, 5.00000000000000000000e-01) (37, 5, 5.00000000000000000000e-01) (37, 5, 5.00000000000000000000e-01) (37, 5, 5.00000000000000000000e-01) (37, 5, 5.00000000000000000000e-01) (37, 5, 5.00000000000000000000e-01) (37, 5, 5.00000000000000000000e-01) (37, 5, 5.00000000000000000000e-01) (37, 5, 5.00000000000000000000e-01) (37, 5, 5.00000000000000000000e-01) (37, 5, 5.00000000000000000000e-01) (37, 5, 5.00000000000000000000e-01) (37, 5, 5.00000000000000000000e-01) (37, 5, 5.00000000000000000000e-01) (37, 5, 5.00000000000000000000e-01) (37, 5, 5.00000000000000000000e-01) (37, 5, 5.00000000000000000000e-01) (37, 5, 5.00000000000000000000e-01) (37, 5, 5.00000000000000000000e-01) (37, 5, 5.00000000000000000000e-01) (37, 5, 5.00000000000000000000e-01) (37, 5, 5.00000000000000000000e-01) (37, 5, 5.00000000000000000000e-01) (37, 5, 5.00000000000000000000e-01) (37, 5, 5.00000000000000000000e-01) (37, 5, 5.00000000000000000000e-01) (37, 5, 5.00000000000000000000e-01) (37, 5, 5.00000000000000000000e-01) (37, 5, 5.00000000000000000000e-01) (37, 5, 5.00000000000000000000e-01) (37, 5, 5.00000000000000000000e-01) (37, 5, 5.00000000000000000000e-01) (37, 5, 5.00000000000000000000e-01) (37, 5, 5.00000000000000000000e-01) (37, 5, 5.00000000000000000000e-01) (37, 5, 5.00000000000000000000e-01) (37, 5, 5.00000000000000000000e-01) (37, 5, 5.00000000000000000000e-01) (37, 5, 5.00000000000000000000e-01) (37, 5, 5.00000000000000000000e-01) (37, 5, 5.00000000000000000000e-01) (37, 5, 5.00000000000000000000e-01) (37, 5, 5.00000000000000000000e-01) (37, 5, 5.00000000000000000000e-01) (37, 5, 5.00000000000000000000e-01) (37, 5, 5.00000000000000000000e-01) (37, 5, 5.00000000000000000000e-01) (37, 5, 5.00000000000000000000e-01) (37, 5, 5.00000000000000000000e-01) (37, 5, 5.00000000000000000000e-01) (37, 5, 5.00000000000000000000e-01) (37, 5, 5.00000000000000000000e-01) (37, 5, 5.00000000000000000000e-01) (37, 5, 5.00000000000000000000e-01) (37, 5, 5.00000000000000000000e-01) (37, 5, 5.00000000000000000000e-01) (37, 5, 5.00000000000000000000e-01) (37, 5, 5.00000000000000000000e-01) (37, 5, 5.00000000000000000000e-01) (37, 5, 5.00000000000000000000e-01) (37, 5, 5.00000000000000000000e-01) (37, 5, 5.00000000000000000000e-01) (37, 5, 5.00000000000000000000e-01) (37, 5, 5.00000000000000000000e-01) (37, 5, 5.00000000000000000000e-01) (37, 5, 5.00000000000000000000e-01) (37, 5, 5.00000000000000000000e-01) (37, 5, 5.00000000000000000000e-01) (37, 5, 5.00000000000000000000e-01) (37, 5, 5.00000000000000000000e-01) (37, 5, 5.00000000000000000000e-01) (37, 5, 5.00000000000000000000e-01) (37, 5, 5.00000000000000000000e-01) (37, 5, 5.00000000000000000000e-01) (37, 5, 5.00000000000000000000e-01) (37, 5, 5.00000000000000000000e-01) (37, 5, 5.00000000000000000000e-01) (37, 5, 5.00000000000000000000e-01) (37, 5, 5.00000000000000000000e-01) (37, 5, 5.00000000000000000000e-01) (37, 5, 5.00000000000000000000e-01) (37, 5, 5.00000000000000000000e-01) (37, 5, 5.00000000000000000000e-01) (37, 5, 5.00000000000000000000e-01) (37, 5, 5.00000000000000000000e-01) (37, 5, 5.00000000000000000000e-01) (0, 5, 0.00000000000000000000e+00) (129, 5, 5.00000000000000000000e-01) (129, 5, 5.00000000000000000000e-01) (129, 5, 5.00000000000000000000e-01) (129, 5, 5.00000000000000000000e-01) (129, 5, 5.00000000000000000000e-01) (129, 5, 5.00000000000000000000e-01) (129, 5, 5.00000000000000000000e-01) (129, 5, 5.00000000000000000000e-01) (129, 5, 5.00000000000000000000e-01) (129, 5, 5.00000000000000000000e-01) (129, 5, 5.00000000000000000000e-01) (129, 5, 5.00000000000000000000e-01) (129, 5, 5.00000000000000000000e-01) (129, 5, 5.00000000000000000000e-01) (129, 5, 5.00000000000000000000e-01) (129, 5, 5.00000000000000000000e-01) (129, 5, 5.00000000000000000000e-01) (129, 5, 5.00000000000000000000e-01) (129, 5, 5.00000000000000000000e-01) (129, 5, 5.00000000000000000000e-01) (129, 5, 5.00000000000000000000e-01) (129, 5, 5.00000000000000000000e-01) (129, 5, 5.00000000000000000000e-01) (129, 5, 5.00000000000000000000e-01) (129, 5, 5.00000000000000000000e-01) (129, 5, 5.00000000000000000000e-01) (129, 5, 5.00000000000000000000e-01) (129, 5, 5.00000000000000000000e-01) (129, 5, 5.00000000000000000000e-01) (129, 5, 5.00000000000000000000e-01) (129, 5, 5.00000000000000000000e-01) (129, 5, 5.00000000000000000000e-01) (129, 5, 5.00000000000000000000e-01) (129, 5, 5.00000000000000000000e-01) (129, 5, 5.00000000000000000000e-01) (129, 5, 5.00000000000000000000e-01) (129, 5, 5.00000000000000000000e-01) (129, 5, 5.00000000000000000000e-01) (129, 5, 5.00000000000000000000e-01) (129, 5, 5.00000000000000000000e-01) (129, 5, 5.00000000000000000000e-01) (129, 5, 5.00000000000000000000e-01) (129, 5, 5.00000000000000000000e-01) (129, 5, 5.00000000000000000000e-01) (129, 5, 5.00000000000000000000e-01) (129, 5, 5.00000000000000000000e-01) (129, 5, 5.00000000000000000000e-01) (129, 5, 5.00000000000000000000e-01) (129, 5, 5.00000000000000000000e-01) (129, 5, 5.00000000000000000000e-01) (129, 5, 5.00000000000000000000e-01) (129, 5, 5.00000000000000000000e-01) (129, 5, 5.00000000000000000000e-01) (129, 5, 5.00000000000000000000e-01) (129, 5, 5.00000000000000000000e-01) (129, 5, 5.00000000000000000000e-01) (129, 5, 5.00000000000000000000e-01) (129, 5, 5.00000000000000000000e-01) (129, 5, 5.00000000000000000000e-01) (129, 5, 5.00000000000000000000e-01) (129, 5, 5.00000000000000000000e-01) (129, 5, 5.00000000000000000000e-01) (129, 5, 5.00000000000000000000e-01) (129, 5, 5.00000000000000000000e-01) (0, 5, 0.00000000000000000000e+00) (65, 5, 5.00000000000000000000e-01) (65, 5, 5.00000000000000000000e-01) (65, 5, 5.00000000000000000000e-01) (65, 5, 5.00000000000000000000e-01) (65, 5, 5.00000000000000000000e-01) (65, 5, 5.00000000000000000000e-01) (65, 5, 5.00000000000000000000e-01) (65, 5, 5.00000000000000000000e-01) (65, 5, 5.00000000000000000000e-01) (65, 5, 5.00000000000000000000e-01) (65, 5, 5.00000000000000000000e-01) (65, 5, 5.00000000000000000000e-01) (65, 5, 5.00000000000000000000e-01) (65, 5, 5.00000000000000000000e-01) (65, 5, 5.00000000000000000000e-01) (65, 5, 5.00000000000000000000e-01) (65, 5, 5.00000000000000000000e-01) (65, 5, 5.00000000000000000000e-01) (65, 5, 5.00000000000000000000e-01) (65, 5, 5.00000000000000000000e-01) (65, 5, 5.00000000000000000000e-01) (65, 5, 5.00000000000000000000e-01) (65, 5, 5.00000000000000000000e-01) (65, 5, 5.00000000000000000000e-01) (65, 5, 5.00000000000000000000e-01) (65, 5, 5.00000000000000000000e-01) (65, 5, 5.00000000000000000000e-01) (65, 5, 5.00000000000000000000e-01) (65, 5, 5.00000000000000000000e-01) (65, 5, 5.00000000000000000000e-01) (65, 5, 5.00000000000000000000e-01) (65, 5, 5.00000000000000000000e-01) (0, 5, 0.00000000000000000000e+00) (33, 0, 5.00000000000000000000e-01) (0, 0, 0.00000000000000000000e+00) 
connections (connected_to_neuron, weight)=(0, 3.32733726501464843750e+00) (1, 2.30818510055541992188e+00) (2, 2.38233566284179687500e+00) (3, 2.62449193000793457031e+00) (4, 1.68954229354858398438e+00) (5, 4.71672058105468750000e+00) (6, 2.42848634719848632812e+00) (7, 3.86433792114257812500e+00) (8, 4.03766632080078125000e+00) (9, 5.49025440216064453125e+00) (10, 2.91615533828735351562e+00) (11, 4.70884132385253906250e+00) (12, 1.50000000000000000000e+03) (13, 1.50000000000000000000e+03) (14, 1.49965429687500000000e+03) (15, 1.50000000000000000000e+03) (16, 1.50000000000000000000e+03) (17, -3.97018265724182128906e+00) (18, -4.72880935668945312500e+00) (19, 8.41248154640197753906e-01) (20, 1.50000000000000000000e+03) (21, 1.50000000000000000000e+03) (22, 1.50000000000000000000e+03) (23, 1.50000000000000000000e+03) (24, -7.32619762420654296875e-01) (25, -2.73269653320312500000e+00) (26, -1.96799373626708984375e+01) (27, -1.07916605472564697266e+00) (28, -1.41787395477294921875e+01) (29, -3.05414390563964843750e+00) (30, -1.17701876163482666016e+00) (31, -1.27955698966979980469e+00) (32, -2.14844226837158203125e+00) (33, -2.75531363487243652344e+00) (34, -1.80135452747344970703e+00) (35, -4.03985786437988281250e+00) (36, 2.31508582830429077148e-01) (0, -1.37204638671875000000e+03) (1, -1.35107580566406250000e+03) (2, -1.35058801269531250000e+03) (3, -1.40778808593750000000e+03) (4, -1.40913732910156250000e+03) (5, -1.49856152343750000000e+03) (6, -1.44253088378906250000e+03) (7, -1.44060925292968750000e+03) (8, -9.06342041015625000000e+02) (9, -1.44721435546875000000e+03) (10, -1.47313598632812500000e+03) (11, -1.41864611816406250000e+03) (12, 1.50000000000000000000e+03) (13, 1.50000000000000000000e+03) (14, -3.64440673828125000000e+02) (15, -1.50000000000000000000e+03) (16, -1.44514794921875000000e+03) (17, 1.15133445739746093750e+02) (18, -1.33036877441406250000e+03) (19, 7.01094360351562500000e+02) (20, -1.50000000000000000000e+03) (21, -1.50000000000000000000e+03) (22, 1.50000000000000000000e+03) (23, 1.50000000000000000000e+03) (24, -1.49425292968750000000e+03) (25, -1.48552197265625000000e+03) (26, -1.48591088867187500000e+03) (27, -1.49978466796875000000e+03) (28, -1.49981481933593750000e+03) (29, -1.49982690429687500000e+03) (30, -1.49973425292968750000e+03) (31, -1.49446801757812500000e+03) (32, -1.49801428222656250000e+03) (33, -1.49226806640625000000e+03) (34, -1.49713903808593750000e+03) (35, -1.49610632324218750000e+03) (36, -7.52361267089843750000e+02) (0, 2.39866058349609375000e+02) (1, 9.19655323028564453125e+00) (2, 1.08102817535400390625e+01) (3, -9.03928161621093750000e+02) (4, -1.13503015136718750000e+03) (5, -9.72146301269531250000e+02) (6, -1.34146179199218750000e+03) (7, -1.43590002441406250000e+03) (8, -5.27765197753906250000e+02) (9, -1.38392687988281250000e+03) (10, -1.45009667968750000000e+03) (11, -1.19068090820312500000e+03) (12, 1.50000000000000000000e+03) (13, 1.50000000000000000000e+03) (14, -1.42347692871093750000e+03) (15, -1.33382177734375000000e+03) (16, -1.42824096679687500000e+03) (17, -1.47373706054687500000e+03) (18, -1.42113061523437500000e+03) (19, -1.12774633789062500000e+03) (20, -1.46183996582031250000e+03) (21, -1.37174609375000000000e+03) (22, 8.17953857421875000000e+02) (23, 1.50000000000000000000e+03) (24, -1.44993798828125000000e+03) (25, -1.48668725585937500000e+03) (26, -1.48710644531250000000e+03) (27, -4.05108001708984375000e+02) (28, -1.16872082519531250000e+03) (29, -1.36201208496093750000e+03) (30, -1.46827429199218750000e+03) (31, -1.46825939941406250000e+03) (32, -1.47340246582031250000e+03) (33, -1.29556140136718750000e+03) (34, -1.34757580566406250000e+03) (35, -1.47324768066406250000e+03) (36, -1.49998278808593750000e+03) (0, -1.42386401367187500000e+03) (1, -1.04273791503906250000e+03) (2, -9.63502563476562500000e+02) (3, -1.19279736328125000000e+03) (4, -1.25396948242187500000e+03) (5, -9.56699340820312500000e+02) (6, -1.09521508789062500000e+03) (7, -1.07609094238281250000e+03) (8, 1.07132946777343750000e+03) (9, -6.68080688476562500000e+02) (10, 2.88952453613281250000e+02) (11, -9.26564575195312500000e+02) (12, 1.50000000000000000000e+03) (13, 1.50000000000000000000e+03) (14, -1.38129321289062500000e+03) (15, -1.38607641601562500000e+03) (16, -1.42266101074218750000e+03) (17, -1.49665319824218750000e+03) (18, -1.42556677246093750000e+03) (19, -1.42270324707031250000e+03) (20, -1.42824096679687500000e+03) (21, -1.46484899902343750000e+03) (22, 1.42042944335937500000e+03) (23, 1.50000000000000000000e+03) (24, -1.23208081054687500000e+03) (25, -1.26342065429687500000e+03) (26, -6.01971191406250000000e+02) (27, -3.50806335449218750000e+02) (28, -1.01462780761718750000e+03) (29, -1.38325280761718750000e+03) (30, -1.42909790039062500000e+03) (31, -1.37778295898437500000e+03) (32, -1.46525744628906250000e+03) (33, -1.38881762695312500000e+03) (34, -1.38300903320312500000e+03) (35, -1.27309545898437500000e+03) (36, -1.49893676757812500000e+03) (0, -1.44247937011718750000e+03) (1, -9.80502075195312500000e+02) (2, 1.26746752929687500000e+03) (3, 1.46577795410156250000e+03) (4, 1.19512170410156250000e+03) (5, 1.48608801269531250000e+03) (6, 1.49119750976562500000e+03) (7, 1.18674853515625000000e+03) (8, -1.01129760742187500000e+03) (9, -4.47512268066406250000e+02) (10, -2.23448348999023437500e+02) (11, -3.53485198974609375000e+02) (12, 1.50000000000000000000e+03) (13, 1.50000000000000000000e+03) (14, 1.50000000000000000000e+03) (15, -5.23810791015625000000e+02) (16, 1.46248730468750000000e+03) (17, -1.42515551757812500000e+03) (18, -1.49032299804687500000e+03) (19, -1.45835766601562500000e+03) (20, 1.47813037109375000000e+03) (21, -9.67670898437500000000e+02) (22, 1.50000000000000000000e+03) (23, 1.50000000000000000000e+03) (24, -9.05133239746093750000e+02) (25, -4.72496673583984375000e+02) (26, 1.45496667480468750000e+03) (27, -5.93510208129882812500e+01) (28, 7.20045837402343750000e+02) (29, 4.42287384033203125000e+02) (30, -9.19763000488281250000e+02) (31, -1.38052368164062500000e+03) (32, -1.16478503417968750000e+03) (33, 1.01548419189453125000e+03) (34, 1.32673425292968750000e+03) (35, 8.99092407226562500000e+02) (36, -1.46572204589843750000e+03) (0, 1.22146838378906250000e+03) (1, 1.49878527832031250000e+03) (2, 1.49673254394531250000e+03) (3, 1.50000000000000000000e+03) (4, 1.50000000000000000000e+03) (5, 1.50000000000000000000e+03) (6, 1.50000000000000000000e+03) (7, -9.58262512207031250000e+02) (8, 8.70788391113281250000e+02) (9, 1.45837011718750000000e+03) (10, 7.31619262695312500000e+02) (11, 8.62561462402343750000e+02) (12, 1.50000000000000000000e+03) (13, 1.50000000000000000000e+03) (14, 1.38152453613281250000e+03) (15, 1.50000000000000000000e+03) (16, 1.50000000000000000000e+03) (17, 1.49999987792968750000e+03) (18, 1.49999963378906250000e+03) (19, 1.49999987792968750000e+03) (20, 1.50000000000000000000e+03) (21, 1.50000000000000000000e+03) (22, 6.10071655273437500000e+02) (23, 1.50000000000000000000e+03) (24, 1.45027954101562500000e+03) (25, -1.46870983886718750000e+03) (26, -5.84627197265625000000e+02) (27, 1.49997045898437500000e+03) (28, -4.81594024658203125000e+02) (29, 1.31995300292968750000e+03) (30, 1.36047509765625000000e+03) (31, 1.40767163085937500000e+03) (32, 1.41199902343750000000e+03) (33, 9.63868652343750000000e+02) (34, 7.51676483154296875000e+01) (35, -1.24165136718750000000e+03) (36, 1.49992163085937500000e+03) (0, 1.40550827026367187500e+02) (1, -1.22047680664062500000e+03) (2, 5.85017761230468750000e+02) (3, 1.37215112304687500000e+03) (4, 8.48370056152343750000e+02) (5, 1.39323278808593750000e+03) (6, 8.89261596679687500000e+02) (7, 1.09216357421875000000e+03) (8, -5.02493499755859375000e+02) (9, -1.08839123535156250000e+03) (10, 5.98877441406250000000e+02) (11, 5.36281738281250000000e+02) (12, 1.50000000000000000000e+03) (13, 1.50000000000000000000e+03) (14, 2.15193847656250000000e+02) (15, 1.50000000000000000000e+03) (16, 1.50000000000000000000e+03) (17, -1.40073022460937500000e+03) (18, -1.49970129394531250000e+03) (19, -1.42877282714843750000e+03) (20, 1.50000000000000000000e+03) (21, 1.50000000000000000000e+03) (22, -1.44285021972656250000e+03) (23, 1.50000000000000000000e+03) (24, -6.01713684082031250000e+02) (25, -9.29346923828125000000e+02) (26, -1.48154382324218750000e+03) (27, -1.47928430175781250000e+03) (28, -1.47890100097656250000e+03) (29, -1.46226953125000000000e+03) (30, -1.30480334472656250000e+03) (31, -1.44188879394531250000e+03) (32, -1.33741662597656250000e+03) (33, 1.14693322753906250000e+03) (34, 9.43275817871093750000e+02) (35, -1.81384063720703125000e+02) (36, -1.49949804687500000000e+03) (0, -1.43919250488281250000e+03) (1, -1.43870007324218750000e+03) (2, -1.37634777832031250000e+03) (3, -1.43492797851562500000e+03) (4, -1.43499243164062500000e+03) (5, -1.49853613281250000000e+03) (6, -1.49929162597656250000e+03) (7, -1.49462426757812500000e+03) (8, 8.20167175292968750000e+02) (9, -1.12075842285156250000e+03) (10, -5.38986145019531250000e+02) (11, -2.54200775146484375000e+02) (12, 1.50000000000000000000e+03) (13, 1.50000000000000000000e+03) (14, -9.18321960449218750000e+02) (15, -1.50000000000000000000e+03) (16, -1.43549133300781250000e+03) (17, -1.49193835449218750000e+03) (18, -1.34348681640625000000e+03) (19, -1.49884082031250000000e+03) (20, -1.33238879394531250000e+03) (21, -1.50000000000000000000e+03) (22, 1.09130468750000000000e+03) (23, 1.50000000000000000000e+03) (24, -1.41168640136718750000e+03) (25, -3.75628753662109375000e+02) (26, 4.32874145507812500000e+02) (27, 6.60806396484375000000e+02) (28, 3.07013824462890625000e+02) (29, 1.82197189331054687500e+02) (30, -1.31144641113281250000e+03) (31, -1.41272595214843750000e+03) (32, -1.42935412597656250000e+03) (33, -1.49997070312500000000e+03) (34, -1.49770324707031250000e+03) (35, -1.93717559814453125000e+02) (36, -1.47688793945312500000e+03) (0, -1.39755908203125000000e+03) (1, -1.39707653808593750000e+03) (2, -1.30519409179687500000e+03) (3, -1.38079833984375000000e+03) (4, -1.38073034667968750000e+03) (5, -1.49923693847656250000e+03) (6, -1.48796398925781250000e+03) (7, -1.49917297363281250000e+03) (8, 6.13759765625000000000e+02) (9, -8.85174926757812500000e+02) (10, -1.07079907226562500000e+03) (11, -3.53470916748046875000e+02) (12, 1.50000000000000000000e+03) (13, 1.50000000000000000000e+03) (14, -1.29045361328125000000e+03) (15, -1.46484899902343750000e+03) (16, -1.42824096679687500000e+03) (17, -1.48853002929687500000e+03) (18, -1.44721411132812500000e+03) (19, -1.49997094726562500000e+03) (20, -1.46642980957031250000e+03) (21, -1.43498681640625000000e+03) (22, 1.09138110351562500000e+03) (23, 1.50000000000000000000e+03) (24, -9.43981384277343750000e+02) (25, -4.52892639160156250000e+02) (26, -1.49994335937500000000e+03) (27, -1.54899200439453125000e+02) (28, -5.65477661132812500000e+02) (29, 4.80939178466796875000e+02) (30, -9.86377990722656250000e+02) (31, -1.40285656738281250000e+03) (32, -1.01593359375000000000e+03) (33, -1.32574914550781250000e+03) (34, 3.66329010009765625000e+02) (35, -1.32540393066406250000e+03) (36, -1.49652575683593750000e+03) (0, 1.49953540039062500000e+03) (1, 1.49878527832031250000e+03) (2, 1.49673168945312500000e+03) (3, 1.50000000000000000000e+03) (4, 1.50000000000000000000e+03) (5, 1.50000000000000000000e+03) (6, 1.50000000000000000000e+03) (7, -7.28255432128906250000e+02) (8, 8.66570373535156250000e+02) (9, 1.47378881835937500000e+03) (10, 7.31476806640625000000e+02) (11, 1.05040246582031250000e+03) (12, 1.50000000000000000000e+03) (13, 1.50000000000000000000e+03) (14, 1.38152429199218750000e+03) (15, 1.50000000000000000000e+03) (16, 1.50000000000000000000e+03) (17, 1.49999987792968750000e+03) (18, 1.49999963378906250000e+03) (19, 1.49981079101562500000e+03) (20, 1.50000000000000000000e+03) (21, 1.50000000000000000000e+03) (22, 2.79248809814453125000e+02) (23, 1.50000000000000000000e+03) (24, 1.44149023437500000000e+03) (25, -8.48199584960937500000e+02) (26, -5.84639160156250000000e+02) (27, 1.49999438476562500000e+03) (28, -4.81678955078125000000e+02) (29, 1.31983056640625000000e+03) (30, 1.40174169921875000000e+03) (31, 1.40768835449218750000e+03) (32, 1.41047656250000000000e+03) (33, 1.07164782714843750000e+03) (34, 1.39918991088867187500e+02) (35, -1.24181042480468750000e+03) (36, 1.49987390136718750000e+03) (0, -1.28101330566406250000e+03) (1, -1.23895520019531250000e+03) (2, -1.18836340332031250000e+03) (3, -1.19622875976562500000e+03) (4, -1.21118286132812500000e+03) (5, -1.11457238769531250000e+03) (6, -1.11453295898437500000e+03) (7, -1.11322863769531250000e+03) (8, -7.53282409667968750000e+02) (9, -5.92119140625000000000e+02) (10, -4.10615348815917968750e+01) (11, -5.01629150390625000000e+02) (12, 1.50000000000000000000e+03) (13, 1.50000000000000000000e+03) (14, -1.47788977050781250000e+03) (15, -1.46484899902343750000e+03) (16, -1.42266101074218750000e+03) (17, -1.49439965820312500000e+03) (18, -1.31869262695312500000e+03) (19, -1.23643200683593750000e+03) (20, -1.43251013183593750000e+03) (21, -1.41563757324218750000e+03) (22, 1.45816088867187500000e+03) (23, 1.50000000000000000000e+03) (24, -1.05476257324218750000e+03) (25, -4.03320281982421875000e+02) (26, -8.09220397949218750000e+02) (27, -6.69704772949218750000e+02) (28, -6.13028297424316406250e+01) (29, -1.36574975585937500000e+03) (30, -1.36572644042968750000e+03) (31, -1.36702270507812500000e+03) (32, -1.47544519042968750000e+03) (33, -1.36833996582031250000e+03) (34, -1.28084240722656250000e+03) (35, -1.27982775878906250000e+03) (36, -1.49960815429687500000e+03) (0, 1.48906335449218750000e+03) (1, 1.49484521484375000000e+03) (2, 1.48650341796875000000e+03) (3, 1.49174450683593750000e+03) (4, 1.49895239257812500000e+03) (5, 1.50000000000000000000e+03) (6, 1.50000000000000000000e+03) (7, -1.02918212890625000000e+03) (8, 1.13146264648437500000e+03) (9, 1.48713745117187500000e+03) (10, 8.72374511718750000000e+02) (11, 1.26656347656250000000e+03) (12, 1.50000000000000000000e+03) (13, 1.50000000000000000000e+03) (14, 1.47026831054687500000e+03) (15, 1.50000000000000000000e+03) (16, 1.50000000000000000000e+03) (17, 1.49934924316406250000e+03) (18, 1.46217871093750000000e+03) (19, 1.49053027343750000000e+03) (20, 1.50000000000000000000e+03) (21, 1.50000000000000000000e+03) (22, 1.02355541992187500000e+03) (23, 1.50000000000000000000e+03) (24, 1.47541101074218750000e+03) (25, -1.41141442871093750000e+03) (26, 2.29713851928710937500e+02) (27, 1.49998657226562500000e+03) (28, 9.03610290527343750000e+02) (29, 1.49998803710937500000e+03) (30, 1.40792102050781250000e+03) (31, 1.40555102539062500000e+03) (32, 1.46399584960937500000e+03) (33, 7.25765136718750000000e+02) (34, 7.69862304687500000000e+02) (35, -7.29975891113281250000e+02) (36, 1.49935717773437500000e+03) (0, 1.22144946289062500000e+03) (1, 1.49878515625000000000e+03) (2, 1.49866516113281250000e+03) (3, 1.50000000000000000000e+03) (4, 1.50000000000000000000e+03) (5, 1.50000000000000000000e+03) (6, 1.50000000000000000000e+03) (7, -7.12125061035156250000e+02) (8, 8.52994323730468750000e+02) (9, 1.45740551757812500000e+03) (10, 7.32349243164062500000e+02) (11, 1.05301660156250000000e+03) (12, 1.50000000000000000000e+03) (13, 1.50000000000000000000e+03) (14, 1.38152429199218750000e+03) (15, 1.50000000000000000000e+03) (16, 1.50000000000000000000e+03) (17, 1.49992687988281250000e+03) (18, 1.49999963378906250000e+03) (19, 1.49981079101562500000e+03) (20, 1.50000000000000000000e+03) (21, 1.50000000000000000000e+03) (22, 2.18142791748046875000e+02) (23, 1.50000000000000000000e+03) (24, 1.46271142578125000000e+03) (25, -1.46955932617187500000e+03) (26, -5.84653137207031250000e+02) (27, 1.49997009277343750000e+03) (28, -5.21481384277343750000e+02) (29, 1.31980541992187500000e+03) (30, 1.40035021972656250000e+03) (31, 1.40520690917968750000e+03) (32, 1.41167248535156250000e+03) (33, 5.75225341796875000000e+02) (34, 7.52191390991210937500e+01) (35, -1.24161950683593750000e+03) (36, 1.49991918945312500000e+03) (0, 1.49953503417968750000e+03) (1, 1.49878308105468750000e+03) (2, 1.49866479492187500000e+03) (3, 1.50000000000000000000e+03) (4, 1.49893298339843750000e+03) (5, 1.41903674316406250000e+03) (6, 1.50000000000000000000e+03) (7, -7.93118774414062500000e+02) (8, 7.15757629394531250000e+02) (9, 1.40807739257812500000e+03) (10, 7.32596191406250000000e+02) (11, 7.70662292480468750000e+02) (12, 1.50000000000000000000e+03) (13, 1.50000000000000000000e+03) (14, 1.47026831054687500000e+03) (15, 1.50000000000000000000e+03) (16, 1.50000000000000000000e+03) (17, 1.49999987792968750000e+03) (18, 1.49999963378906250000e+03) (19, 1.49075744628906250000e+03) (20, 1.50000000000000000000e+03) (21, 1.50000000000000000000e+03) (22, 6.28437133789062500000e+02) (23, 1.50000000000000000000e+03) (24, 1.45041857910156250000e+03) (25, -1.46868713378906250000e+03) (26, -5.83357360839843750000e+02) (27, 1.49997229003906250000e+03) (28, -4.81570129394531250000e+02) (29, 1.49998999023437500000e+03) (30, 1.36096728515625000000e+03) (31, 1.40695288085937500000e+03) (32, 1.41271130371093750000e+03) (33, 9.64043701171875000000e+02) (34, 1.39778152465820312500e+02) (35, -9.13469177246093750000e+02) (36, 1.49990795898437500000e+03) (0, 1.49161010742187500000e+03) (1, 1.49638159179687500000e+03) (2, 1.48762194824218750000e+03) (3, 1.49163024902343750000e+03) (4, 1.49867041015625000000e+03) (5, 1.50000000000000000000e+03) (6, 1.50000000000000000000e+03) (7, -5.38259277343750000000e+02) (8, 1.10906188964843750000e+03) (9, 1.37294482421875000000e+03) (10, 1.20124182128906250000e+03) (11, 1.29664978027343750000e+03) (12, 1.50000000000000000000e+03) (13, 1.50000000000000000000e+03) (14, 1.48531384277343750000e+03) (15, 1.50000000000000000000e+03) (16, 1.50000000000000000000e+03) (17, 1.49935070800781250000e+03) (18, 1.46706640625000000000e+03) (19, 1.48331494140625000000e+03) (20, 1.50000000000000000000e+03) (21, 1.50000000000000000000e+03) (22, 1.02355541992187500000e+03) (23, 1.50000000000000000000e+03) (24, 1.48537536621093750000e+03) (25, -1.45860717773437500000e+03) (26, 8.72487243652343750000e+02) (27, 1.49997656250000000000e+03) (28, 8.88758483886718750000e+02) (29, 1.49998803710937500000e+03) (30, 1.40436853027343750000e+03) (31, 1.40216198730468750000e+03) (32, 1.46218005371093750000e+03) (33, 1.49998620605468750000e+03) (34, 9.77442443847656250000e+02) (35, -7.25607421875000000000e+02) (36, 1.49970703125000000000e+03) (0, -1.37242297363281250000e+03) (1, -1.30014074707031250000e+03) (2, -1.11957446289062500000e+03) (3, -1.35284814453125000000e+03) (4, -1.35221643066406250000e+03) (5, -1.49841882324218750000e+03) (6, -1.31949804687500000000e+03) (7, -1.49675622558593750000e+03) (8, 5.29639587402343750000e+02) (9, -9.72541259765625000000e+02) (10, -3.63967742919921875000e+02) (11, -9.44062561035156250000e+02) (12, 1.50000000000000000000e+03) (13, 1.50000000000000000000e+03) (14, -1.41902844238281250000e+03) (15, -1.18968383789062500000e+03) (16, -1.25172717285156250000e+03) (17, -1.49549707031250000000e+03) (18, -1.34236596679687500000e+03) (19, -1.36297717285156250000e+03) (20, -1.20657604980468750000e+03) (21, -1.18968383789062500000e+03) (22, -1.41784472656250000000e+03) (23, 1.50000000000000000000e+03) (24, -1.15990710449218750000e+03) (25, -1.09402856445312500000e+03) (26, -1.16817663574218750000e+03) (27, -7.34525451660156250000e+02) (28, -6.77178802490234375000e+01) (29, 9.56490783691406250000e+01) (30, -1.03165429687500000000e+03) (31, -1.26366186523437500000e+03) (32, -1.24773010253906250000e+03) (33, -1.33589050292968750000e+03) (34, -1.38150439453125000000e+03) (35, -1.32527587890625000000e+03) (36, -1.49424414062500000000e+03) (0, 1.49133691406250000000e+03) (1, 1.49628039550781250000e+03) (2, 1.48896093750000000000e+03) (3, 1.49046252441406250000e+03) (4, 1.48739050292968750000e+03) (5, 1.50000000000000000000e+03) (6, 1.50000000000000000000e+03) (7, -1.14065173339843750000e+03) (8, 1.10996301269531250000e+03) (9, 1.44709411621093750000e+03) (10, 1.23122326660156250000e+03) (11, 1.49784436035156250000e+03) (12, 1.50000000000000000000e+03) (13, 1.50000000000000000000e+03) (14, 1.42377343750000000000e+03) (15, 1.50000000000000000000e+03) (16, 1.50000000000000000000e+03) (17, 1.49757958984375000000e+03) (18, 1.41567102050781250000e+03) (19, 1.49636474609375000000e+03) (20, 1.50000000000000000000e+03) (21, 1.50000000000000000000e+03) (22, 1.25845214843750000000e+03) (23, 1.50000000000000000000e+03) (24, 1.48431604003906250000e+03) (25, -1.41422314453125000000e+03) (26, -6.97867631912231445312e+00) (27, 1.49997363281250000000e+03) (28, 9.00985961914062500000e+02) (29, 1.49998803710937500000e+03) (30, 1.40407434082031250000e+03) (31, 1.40256970214843750000e+03) (32, 1.46372546386718750000e+03) (33, 7.21857666015625000000e+02) (34, 9.77955261230468750000e+02) (35, -6.75898315429687500000e+02) (36, 1.49940014648437500000e+03) (0, 1.49953540039062500000e+03) (1, 1.49878564453125000000e+03) (2, 1.49659069824218750000e+03) (3, 1.50000000000000000000e+03) (4, 1.50000000000000000000e+03) (5, 1.50000000000000000000e+03) (6, 1.50000000000000000000e+03) (7, -1.12410009765625000000e+03) (8, 8.58910522460937500000e+02) (9, 1.45838146972656250000e+03) (10, 7.32587402343750000000e+02) (11, 1.05302502441406250000e+03) (12, 1.50000000000000000000e+03) (13, 1.50000000000000000000e+03) (14, 1.47026831054687500000e+03) (15, 1.50000000000000000000e+03) (16, 1.50000000000000000000e+03) (17, 1.49015307617187500000e+03) (18, 1.49999963378906250000e+03) (19, 1.49803112792968750000e+03) (20, 1.50000000000000000000e+03) (21, 1.50000000000000000000e+03) (22, 6.28435302734375000000e+02) (23, 1.50000000000000000000e+03) (24, 1.46204968261718750000e+03) (25, -1.46950024414062500000e+03) (26, -5.84628173828125000000e+02) (27, 1.49998022460937500000e+03) (28, -5.21420349121093750000e+02) (29, 1.42023999023437500000e+03) (30, 1.40052416992187500000e+03) (31, 1.40595239257812500000e+03) (32, 1.41011706542968750000e+03) (33, 1.06853930664062500000e+03) (34, 7.51509475708007812500e+01) (35, -1.40120043945312500000e+03) (36, 1.49994018554687500000e+03) (0, 1.49498840332031250000e+03) (1, 1.49799719238281250000e+03) (2, 1.49700634765625000000e+03) (3, 1.49978637695312500000e+03) (4, 1.49872680664062500000e+03) (5, 1.50000000000000000000e+03) (6, 1.50000000000000000000e+03) (7, -5.10680297851562500000e+02) (8, 1.23149353027343750000e+03) (9, 1.44391455078125000000e+03) (10, 8.13584472656250000000e+02) (11, 1.01659564208984375000e+03) (12, 1.50000000000000000000e+03) (13, 1.50000000000000000000e+03) (14, 1.42377416992187500000e+03) (15, 1.50000000000000000000e+03) (16, 1.50000000000000000000e+03) (17, 1.49972900390625000000e+03) (18, 1.49947644042968750000e+03) (19, 1.49631921386718750000e+03) (20, 1.50000000000000000000e+03) (21, 1.50000000000000000000e+03) (22, 7.39032348632812500000e+02) (23, 1.50000000000000000000e+03) (24, 1.46240869140625000000e+03) (25, -1.47218652343750000000e+03) (26, -5.83060485839843750000e+02) (27, 1.26407373046875000000e+03) (28, 9.25737609863281250000e+02) (29, 1.43737841796875000000e+03) (30, 1.40076818847656250000e+03) (31, 1.40785144042968750000e+03) (32, 1.40825720214843750000e+03) (33, 8.64927856445312500000e+02) (34, 4.55330810546875000000e+02) (35, -1.37276037597656250000e+03) (36, 1.49992773437500000000e+03) (0, 7.13252563476562500000e+02) (1, 1.46947546386718750000e+03) (2, 1.48749279785156250000e+03) (3, 1.49969482421875000000e+03) (4, 1.49894104003906250000e+03) (5, 1.50000000000000000000e+03) (6, 1.50000000000000000000e+03) (7, -1.39988989257812500000e+03) (8, 1.10223535156250000000e+03) (9, 1.37568701171875000000e+03) (10, 1.17646301269531250000e+03) (11, 1.49940844726562500000e+03) (12, 1.50000000000000000000e+03) (13, 1.50000000000000000000e+03) (14, 1.47239392089843750000e+03) (15, 1.50000000000000000000e+03) (16, 1.50000000000000000000e+03) (17, 1.49760278320312500000e+03) (18, 1.47764050292968750000e+03) (19, 1.49636022949218750000e+03) (20, 1.50000000000000000000e+03) (21, 1.50000000000000000000e+03) (22, 3.68364562988281250000e+02) (23, 1.50000000000000000000e+03) (24, 1.48487219238281250000e+03) (25, -1.46053344726562500000e+03) (26, 2.23727203369140625000e+02) (27, 1.49996704101562500000e+03) (28, 6.33963928222656250000e+02) (29, 1.49999182128906250000e+03) (30, 1.40352246093750000000e+03) (31, 1.40488476562500000000e+03) (32, 1.46198986816406250000e+03) (33, 1.49998925781250000000e+03) (34, 9.79965637207031250000e+02) (35, -1.00320782470703125000e+03) (36, 1.49966894531250000000e+03) (0, 1.04417150878906250000e+03) (1, 1.43321777343750000000e+03) (2, 1.48744982910156250000e+03) (3, 1.49194250488281250000e+03) (4, 1.49895190429687500000e+03) (5, 1.50000000000000000000e+03) (6, 1.50000000000000000000e+03) (7, -8.74240722656250000000e+02) (8, 1.11734460449218750000e+03) (9, 1.39014416503906250000e+03) (10, 1.22497216796875000000e+03) (11, 1.49980029296875000000e+03) (12, 1.50000000000000000000e+03) (13, 1.50000000000000000000e+03) (14, 1.47239392089843750000e+03) (15, 1.50000000000000000000e+03) (16, 1.50000000000000000000e+03) (17, 1.49760278320312500000e+03) (18, 1.49512316894531250000e+03) (19, 1.49636083984375000000e+03) (20, 1.50000000000000000000e+03) (21, 1.50000000000000000000e+03) (22, -9.31827087402343750000e+01) (23, 1.50000000000000000000e+03) (24, 1.48487377929687500000e+03) (25, -1.46058947753906250000e+03) (26, -1.30000677108764648438e+01) (27, 1.49996508789062500000e+03) (28, 6.33945007324218750000e+02) (29, 1.49999169921875000000e+03) (30, 1.40354772949218750000e+03) (31, 1.40485656738281250000e+03) (32, 1.46203686523437500000e+03) (33, 1.29209326171875000000e+03) (34, 8.48585266113281250000e+02) (35, -8.93206359863281250000e+02) (36, 1.49748059082031250000e+03) (0, -1.39693164062500000000e+03) (1, -1.48286401367187500000e+03) (2, -1.43741613769531250000e+03) (3, -1.45552441406250000000e+03) (4, -1.41410778808593750000e+03) (5, -1.49584814453125000000e+03) (6, -1.49866455078125000000e+03) (7, -1.24584875488281250000e+03) (8, 2.55310440063476562500e+02) (9, -1.03294055175781250000e+03) (10, -4.90916687011718750000e+02) (11, -1.07206994628906250000e+03) (12, 1.50000000000000000000e+03) (13, 1.50000000000000000000e+03) (14, -1.35938830566406250000e+03) (15, -1.46484899902343750000e+03) (16, -1.43251013183593750000e+03) (17, -1.49668859863281250000e+03) (18, -1.45106799316406250000e+03) (19, -7.47249755859375000000e+02) (20, -1.45738476562500000000e+03) (21, -1.50000000000000000000e+03) (22, 1.17141906738281250000e+03) (23, 1.50000000000000000000e+03) (24, -9.35286987304687500000e+02) (25, -7.76379089355468750000e+02) (26, -1.42041870117187500000e+03) (27, -1.00029187011718750000e+03) (28, -9.39209411621093750000e+02) (29, -2.22472549438476562500e+02) (30, -1.12645080566406250000e+03) (31, -1.46809936523437500000e+03) (32, -1.48656909179687500000e+03) (33, 1.27452262878417968750e+02) (34, 1.65981491088867187500e+02) (35, 5.61804504394531250000e+02) (36, -1.49197583007812500000e+03) (0, -1.46219323730468750000e+03) (1, -1.21232299804687500000e+03) (2, -1.21228540039062500000e+03) (3, -1.41603002929687500000e+03) (4, -1.27201977539062500000e+03) (5, -9.56799011230468750000e+02) (6, -1.07156945800781250000e+03) (7, -1.08780371093750000000e+03) (8, 1.07100964355468750000e+03) (9, -1.02642321777343750000e+03) (10, -5.67216003417968750000e+02) (11, -5.29245422363281250000e+02) (12, 1.50000000000000000000e+03) (13, 1.50000000000000000000e+03) (14, -1.38135644531250000000e+03) (15, -1.38607641601562500000e+03) (16, -1.42266101074218750000e+03) (17, -1.49860888671875000000e+03) (18, -1.42289208984375000000e+03) (19, -1.06120703125000000000e+03) (20, -1.42824096679687500000e+03) (21, -1.46484899902343750000e+03) (22, 1.42068347167968750000e+03) (23, 1.50000000000000000000e+03) (24, -8.98171142578125000000e+02) (25, -1.35089514160156250000e+03) (26, 7.29215927124023437500e+01) (27, -4.60925262451171875000e+02) (28, -1.22347338867187500000e+03) (29, -1.40244970703125000000e+03) (30, -1.43329467773437500000e+03) (31, -1.45582958984375000000e+03) (32, -1.46156530761718750000e+03) (33, -1.44738317871093750000e+03) (34, -1.43027783203125000000e+03) (35, -1.38966833496093750000e+03) (36, -1.48136181640625000000e+03) (0, 1.22148950195312500000e+03) (1, 1.49952111816406250000e+03) (2, 1.49610083007812500000e+03) (3, 1.50000000000000000000e+03) (4, 1.50000000000000000000e+03) (5, 1.50000000000000000000e+03) (6, 1.50000000000000000000e+03) (7, -7.18734375000000000000e+02) (8, 8.47018005371093750000e+02) (9, 1.44152600097656250000e+03) (10, 7.31317810058593750000e+02) (11, 1.05288342285156250000e+03) (12, 1.50000000000000000000e+03) (13, 1.50000000000000000000e+03) (14, 1.38152978515625000000e+03) (15, 1.50000000000000000000e+03) (16, 1.50000000000000000000e+03) (17, 1.49999963378906250000e+03) (18, 1.49999963378906250000e+03) (19, 1.49990979003906250000e+03) (20, 1.50000000000000000000e+03) (21, 1.50000000000000000000e+03) (22, 2.98875366210937500000e+02) (23, 1.50000000000000000000e+03) (24, 1.44149682617187500000e+03) (25, -1.46953869628906250000e+03) (26, -5.83245056152343750000e+02) (27, 1.49999328613281250000e+03) (28, -4.81630554199218750000e+02) (29, 1.31992578125000000000e+03) (30, 1.40173425292968750000e+03) (31, 1.40598999023437500000e+03) (32, 1.41017858886718750000e+03) (33, 1.07140087890625000000e+03) (34, 1.39971328735351562500e+02) (35, -1.28706506347656250000e+03) (36, 1.49991772460937500000e+03) (0, -1.47816784667968750000e+03) (1, -1.11385949707031250000e+03) (2, -1.19854711914062500000e+03) (3, -1.05617895507812500000e+03) (4, -1.22194580078125000000e+03) (5, -1.12587182617187500000e+03) (6, -1.12579431152343750000e+03) (7, -1.07457238769531250000e+03) (8, 1.14854614257812500000e+03) (9, -6.95924499511718750000e+02) (10, 3.11688018798828125000e+02) (11, -1.06967114257812500000e+03) (12, 1.50000000000000000000e+03) (13, 1.50000000000000000000e+03) (14, -1.21695654296875000000e+03) (15, -1.38607641601562500000e+03) (16, -1.42266101074218750000e+03) (17, -1.49619238281250000000e+03) (18, -1.42603710937500000000e+03) (19, -1.49972924804687500000e+03) (20, -1.44713879394531250000e+03) (21, -1.46484899902343750000e+03) (22, 1.21319970703125000000e+03) (23, 1.50000000000000000000e+03) (24, -7.31319030761718750000e+02) (25, -8.01228393554687500000e+02) (26, -1.48062097167968750000e+03) (27, -2.83612304687500000000e+02) (28, -9.23335998535156250000e+02) (29, -1.37882873535156250000e+03) (30, -1.41043054199218750000e+03) (31, -1.38070666503906250000e+03) (32, -1.44676208496093750000e+03) (33, -1.38123889160156250000e+03) (34, -1.41295471191406250000e+03) (35, -1.27868798828125000000e+03) (36, -1.49747265625000000000e+03) (0, 1.49953540039062500000e+03) (1, 1.49951782226562500000e+03) (2, 1.49673364257812500000e+03) (3, 1.50000000000000000000e+03) (4, 1.50000000000000000000e+03) (5, 1.50000000000000000000e+03) (6, 1.50000000000000000000e+03) (7, -7.20005310058593750000e+02) (8, 8.47019897460937500000e+02) (9, 1.47264160156250000000e+03) (10, 7.31472229003906250000e+02) (11, 1.05037890625000000000e+03) (12, 1.50000000000000000000e+03) (13, 1.50000000000000000000e+03) (14, 1.38152429199218750000e+03) (15, 1.50000000000000000000e+03) (16, 1.50000000000000000000e+03) (17, 1.49992687988281250000e+03) (18, 1.49999963378906250000e+03) (19, 1.49999987792968750000e+03) (20, 1.50000000000000000000e+03) (21, 1.50000000000000000000e+03) (22, 2.98875366210937500000e+02) (23, 1.50000000000000000000e+03) (24, 1.44146520996093750000e+03) (25, -1.46957446289062500000e+03) (26, -5.84638854980468750000e+02) (27, 1.49999438476562500000e+03) (28, -5.21457885742187500000e+02) (29, 1.42032385253906250000e+03) (30, 1.40047985839843750000e+03) (31, 1.40769470214843750000e+03) (32, 1.41192199707031250000e+03) (33, 9.63821105957031250000e+02) (34, 7.52103881835937500000e+01) (35, -1.24184130859375000000e+03) (36, 1.49986682128906250000e+03) (0, 1.49229321289062500000e+03) (1, 1.49460644531250000000e+03) (2, 1.48726464843750000000e+03) (3, 1.49162927246093750000e+03) (4, 1.49866235351562500000e+03) (5, 1.50000000000000000000e+03) (6, 1.50000000000000000000e+03) (7, -1.22597412109375000000e+03) (8, 1.11111816406250000000e+03) (9, 1.41817053222656250000e+03) (10, 1.21612158203125000000e+03) (11, 1.33756420898437500000e+03) (12, 1.50000000000000000000e+03) (13, 1.50000000000000000000e+03) (14, 1.46885168457031250000e+03) (15, 1.50000000000000000000e+03) (16, 1.50000000000000000000e+03) (17, 1.49901696777343750000e+03) (18, 1.46247949218750000000e+03) (19, 1.47659204101562500000e+03) (20, 1.50000000000000000000e+03) (21, 1.50000000000000000000e+03) (22, 1.02355541992187500000e+03) (23, 1.50000000000000000000e+03) (24, 1.48534252929687500000e+03) (25, -1.45913720703125000000e+03) (26, -6.96427059173583984375e+00) (27, 1.49996765136718750000e+03) (28, 8.88733337402343750000e+02) (29, 1.49998803710937500000e+03) (30, 1.40348901367187500000e+03) (31, 1.40226794433593750000e+03) (32, 1.46342480468750000000e+03) (33, 1.49998693847656250000e+03) (34, 9.77439392089843750000e+02) (35, -1.00279681396484375000e+03) (36, 1.49975500488281250000e+03) (0, 1.50000000000000000000e+03) (1, 1.50000000000000000000e+03) (2, 1.50000000000000000000e+03) (3, 1.50000000000000000000e+03) (4, 1.50000000000000000000e+03) (5, 1.50000000000000000000e+03) (6, 1.50000000000000000000e+03) (7, -4.18661529541015625000e+02) (8, 1.05511950683593750000e+03) (9, 1.07868505859375000000e+03) (10, 1.38227062988281250000e+03) (11, 8.90238098144531250000e+02) (12, 1.50000000000000000000e+03) (13, 1.50000000000000000000e+03) (14, 1.50000000000000000000e+03) (15, -9.39993408203125000000e+02) (16, -1.06167077636718750000e+03) (17, 1.34009680175781250000e+03) (18, 1.47595178222656250000e+03) (19, 1.48841687011718750000e+03) (20, -4.77032806396484375000e+02) (21, -1.04915795898437500000e+03) (22, 1.50000000000000000000e+03) (23, 1.50000000000000000000e+03) (24, 1.48765783691406250000e+03) (25, -1.42138073730468750000e+03) (26, 3.26135467529296875000e+02) (27, 5.84448364257812500000e+02) (28, 3.00771656036376953125e+01) (29, -1.05542492675781250000e+03) (30, 1.48870422363281250000e+03) (31, 1.49282153320312500000e+03) (32, 1.49944445800781250000e+03) (33, 1.49473864746093750000e+03) (34, 1.36267333984375000000e+03) (35, -5.73379089355468750000e+02) (36, 1.50000000000000000000e+03) (0, 1.25862414550781250000e+03) (1, 1.49951562500000000000e+03) (2, 1.48745263671875000000e+03) (3, 1.49681848144531250000e+03) (4, 1.50000000000000000000e+03) (5, 1.49989233398437500000e+03) (6, 1.50000000000000000000e+03) (7, -9.58946716308593750000e+02) (8, 8.90808288574218750000e+02) (9, 1.45840295410156250000e+03) (10, 7.76646118164062500000e+02) (11, 1.05075524902343750000e+03) (12, 1.50000000000000000000e+03) (13, 1.50000000000000000000e+03) (14, 1.47026831054687500000e+03) (15, 1.50000000000000000000e+03) (16, 1.50000000000000000000e+03) (17, 1.49634570312500000000e+03) (18, 1.49991015625000000000e+03) (19, 1.49076110839843750000e+03) (20, 1.50000000000000000000e+03) (21, 1.50000000000000000000e+03) (22, 8.89618774414062500000e+02) (23, 1.50000000000000000000e+03) (24, 1.45093127441406250000e+03) (25, -1.46951025390625000000e+03) (26, -5.76219604492187500000e+02) (27, 1.49999328613281250000e+03) (28, -5.21427551269531250000e+02) (29, 1.42022839355468750000e+03) (30, 1.36570605468750000000e+03) (31, 1.40848559570312500000e+03) (32, 1.41489611816406250000e+03) (33, 9.63834350585937500000e+02) (34, 7.51120986938476562500e+01) (35, -1.23958044433593750000e+03) (36, 1.49991833496093750000e+03) (0, 9.82909606933593750000e+02) (1, 1.47132287597656250000e+03) (2, 1.49309863281250000000e+03) (3, 1.50000000000000000000e+03) (4, 1.49909863281250000000e+03) (5, 1.50000000000000000000e+03) (6, 1.50000000000000000000e+03) (7, -1.06057202148437500000e+03) (8, 5.86514831542968750000e+02) (9, 1.35740515136718750000e+03) (10, 7.29741149902343750000e+02) (11, 1.08367712402343750000e+03) (12, 1.50000000000000000000e+03) (13, 1.50000000000000000000e+03) (14, 1.45422741699218750000e+03) (15, 1.50000000000000000000e+03) (16, 1.50000000000000000000e+03) (17, 1.49762414550781250000e+03) (18, 1.49999670410156250000e+03) (19, 1.44336242675781250000e+03) (20, 1.50000000000000000000e+03) (21, 1.50000000000000000000e+03) (22, -1.21800549316406250000e+03) (23, 1.50000000000000000000e+03) (24, 1.47186499023437500000e+03) (25, -1.17893676757812500000e+03) (26, -2.93630096435546875000e+02) (27, 1.49991320800781250000e+03) (28, 1.15548416137695312500e+02) (29, 1.49999157714843750000e+03) (30, 1.40440295410156250000e+03) (31, 1.40554797363281250000e+03) (32, 1.40816064453125000000e+03) (33, 1.33846447753906250000e+03) (34, 5.83238563537597656250e+01) (35, -1.20836132812500000000e+03) (36, 1.49990612792968750000e+03) (0, 1.29585266113281250000e+03) (1, 1.32683007812500000000e+03) (2, 1.39954748535156250000e+03) (3, 9.54357360839843750000e+02) (4, 1.38699743652343750000e+03) (5, 1.49913195800781250000e+03) (6, 1.49946630859375000000e+03) (7, 1.19479357910156250000e+03) (8, 1.49630615234375000000e+03) (9, 8.26758789062500000000e+02) (10, -3.48796966552734375000e+02) (11, -1.29175939941406250000e+03) (12, 1.50000000000000000000e+03) (13, 1.50000000000000000000e+03) (14, 9.97191955566406250000e+02) (15, 1.45620007324218750000e+03) (16, 1.49986035156250000000e+03) (17, 1.48617492675781250000e+03) (18, -1.41723413085937500000e+03) (19, 1.48558728027343750000e+03) (20, 1.46009985351562500000e+03) (21, 1.45620007324218750000e+03) (22, -1.17763317871093750000e+03) (23, 1.50000000000000000000e+03) (24, -9.76549255371093750000e+02) (25, -1.10153466796875000000e+03) (26, -1.24096948242187500000e+03) (27, -1.22238708496093750000e+03) (28, -1.23416601562500000000e+03) (29, -9.71044860839843750000e+02) (30, -9.49335693359375000000e+02) (31, -9.45151916503906250000e+02) (32, -9.42768737792968750000e+02) (33, -9.66686767578125000000e+02) (34, -9.52852355957031250000e+02) (35, -9.90438415527343750000e+02) (36, -1.49019726562500000000e+03) (0, 1.50000000000000000000e+03) (1, 1.50000000000000000000e+03) (2, 1.50000000000000000000e+03) (3, 1.50000000000000000000e+03) (4, 1.50000000000000000000e+03) (5, 1.50000000000000000000e+03) (6, 1.49923559570312500000e+03) (7, 1.27809338378906250000e+03) (8, 1.41156506347656250000e+03) (9, 1.39167919921875000000e+03) (10, 1.43598828125000000000e+03) (11, 7.41127441406250000000e+02) (12, 1.50000000000000000000e+03) (13, 1.50000000000000000000e+03) (14, 1.49995971679687500000e+03) (15, 1.50000000000000000000e+03) (16, 1.48452075195312500000e+03) (17, 1.47451293945312500000e+03) (18, 1.36026184082031250000e+03) (19, 1.33338891601562500000e+03) (20, 1.50000000000000000000e+03) (21, 1.50000000000000000000e+03) (22, 1.50000000000000000000e+03) (23, 1.50000000000000000000e+03) (24, -3.29925384521484375000e+02) (25, -3.57501892089843750000e+02) (26, -1.43759985351562500000e+03) (27, -7.53031005859375000000e+02) (28, -3.69932403564453125000e+02) (29, -6.50987304687500000000e+02) (30, -6.41823852539062500000e+02) (31, -6.38569580078125000000e+02) (32, -6.38900817871093750000e+02) (33, -6.09004272460937500000e+02) (34, -6.25514587402343750000e+02) (35, -1.78580337524414062500e+02) (36, -2.82258026123046875000e+02) (0, -1.26017712402343750000e+03) (1, -1.25679345703125000000e+03) (2, -1.03475305175781250000e+03) (3, -1.08923767089843750000e+03) (4, -1.08919750976562500000e+03) (5, -1.28261901855468750000e+03) (6, -1.29247436523437500000e+03) (7, -1.11185778808593750000e+03) (8, 1.49998400878906250000e+03) (9, 1.94566665649414062500e+02) (10, 1.45997314453125000000e+02) (11, 7.83083190917968750000e+02) (12, 1.50000000000000000000e+03) (13, 1.50000000000000000000e+03) (14, -1.44170898437500000000e+03) (15, -1.33382177734375000000e+03) (16, -1.42824096679687500000e+03) (17, -1.49922631835937500000e+03) (18, -1.37627636718750000000e+03) (19, -1.31199853515625000000e+03) (20, -1.44713879394531250000e+03) (21, -1.38607641601562500000e+03) (22, 1.24878173828125000000e+03) (23, 1.50000000000000000000e+03) (24, -9.51215148925781250000e+02) (25, -1.93850498199462890625e+01) (26, -7.46492797851562500000e+02) (27, -1.49392822265625000000e+03) (28, -6.22286926269531250000e+02) (29, -1.13181701660156250000e+03) (30, -1.38143457031250000000e+03) (31, -1.39496752929687500000e+03) (32, -1.49955334472656250000e+03) (33, -1.33560595703125000000e+03) (34, -1.36650183105468750000e+03) (35, -1.26685974121093750000e+03) (36, -1.46394750976562500000e+03) (0, -1.50000000000000000000e+03) (1, -4.63551818847656250000e+02) (2, 2.27024856567382812500e+02) (3, 9.61773925781250000000e+02) (4, -1.31455712890625000000e+03) (5, -8.04522277832031250000e+02) (6, -1.18415368652343750000e+03) (7, -1.21526940917968750000e+03) (8, -1.40658447265625000000e+03) (9, -3.77947265625000000000e+02) (10, 5.91906433105468750000e+02) (11, 9.58148498535156250000e+01) (12, 1.50000000000000000000e+03) (13, 1.50000000000000000000e+03) (14, -7.81823425292968750000e+02) (15, -1.43852001953125000000e+03) (16, -1.24080004882812500000e+03) (17, -1.46175390625000000000e+03) (18, -1.45004528808593750000e+03) (19, -2.13149093627929687500e+02) (20, -1.24080004882812500000e+03) (21, -1.49552001953125000000e+03) (22, -4.43541046142578125000e+02) (23, 1.50000000000000000000e+03) (24, 1.49999426269531250000e+03) (25, 1.49999938964843750000e+03) (26, 1.49999938964843750000e+03) (27, 1.49981213378906250000e+03) (28, 1.50000000000000000000e+03) (29, 1.50000000000000000000e+03) (30, -1.37025866699218750000e+03) (31, -1.38863134765625000000e+03) (32, -1.48892004394531250000e+03) (33, 1.49982226562500000000e+03) (34, 1.49999926757812500000e+03) (35, 1.49997900390625000000e+03) (36, -1.42307800292968750000e+03) (0, -1.50000000000000000000e+03) (1, -1.50000000000000000000e+03) (2, -1.50000000000000000000e+03) (3, -1.50000000000000000000e+03) (4, -1.50000000000000000000e+03) (5, 1.02144116210937500000e+03) (6, 1.49703527832031250000e+03) (7, 1.49444360351562500000e+03) (8, 2.58810546875000000000e+02) (9, 3.23213897705078125000e+02) (10, 1.61490142822265625000e+02) (11, 1.99581985473632812500e+02) (12, 1.50000000000000000000e+03) (13, 1.50000000000000000000e+03) (14, -1.37012011718750000000e+03) (15, -1.46959997558593750000e+03) (16, -1.41899511718750000000e+03) (17, -1.48957263183593750000e+03) (18, 6.80737426757812500000e+02) (19, -1.59449447631835937500e+02) (20, -1.45573437500000000000e+03) (21, -1.46959997558593750000e+03) (22, -1.50000000000000000000e+03) (23, 1.50000000000000000000e+03) (24, 1.49967211914062500000e+03) (25, 1.49429309082031250000e+03) (26, 1.49991918945312500000e+03) (27, 1.45123583984375000000e+03) (28, 1.49712548828125000000e+03) (29, 1.49716613769531250000e+03) (30, 1.20727195739746093750e+02) (31, 2.21260147094726562500e+01) (32, 8.42657566070556640625e+00) (33, 5.28616516113281250000e+02) (34, 6.88525848388671875000e+01) (35, 1.42971850585937500000e+03) (36, 1.68938374519348144531e+00) (0, 1.50000000000000000000e+03) (1, 1.50000000000000000000e+03) (2, 1.50000000000000000000e+03) (3, 1.50000000000000000000e+03) (4, 1.50000000000000000000e+03) (5, 1.50000000000000000000e+03) (6, 1.50000000000000000000e+03) (7, 1.49165393066406250000e+03) (8, 1.48517297363281250000e+03) (9, 1.40673242187500000000e+03) (10, 1.31968542480468750000e+03) (11, 8.64137115478515625000e+01) (12, 1.50000000000000000000e+03) (13, 1.50000000000000000000e+03) (14, 1.35790991210937500000e+03) (15, -1.44194750976562500000e+03) (16, 1.38789929199218750000e+03) (17, 1.49999865722656250000e+03) (18, 1.49999877929687500000e+03) (19, 1.49999792480468750000e+03) (20, 6.08143005371093750000e+02) (21, -1.50000000000000000000e+03) (22, 1.50000000000000000000e+03) (23, 1.50000000000000000000e+03) (24, 9.99589782714843750000e+02) (25, 3.53214172363281250000e+02) (26, -8.05930847167968750000e+02) (27, -8.55744445800781250000e+02) (28, 7.00652923583984375000e+01) (29, 3.10745330810546875000e+02) (30, -1.37287536621093750000e+02) (31, 3.10473327636718750000e+02) (32, 1.18619006347656250000e+03) (33, 7.47502990722656250000e+02) (34, 1.22991165161132812500e+02) (35, 3.47717285156250000000e+02) (36, 1.16456445312500000000e+03) (0, 1.05088317871093750000e+03) (1, 1.47100366210937500000e+03) (2, 1.48758715820312500000e+03) (3, 1.49197375488281250000e+03) (4, 1.49894616699218750000e+03) (5, 1.50000000000000000000e+03) (6, 1.50000000000000000000e+03) (7, -1.43159167480468750000e+03) (8, 1.11326599121093750000e+03) (9, 1.39188195800781250000e+03) (10, 8.55148986816406250000e+02) (11, 1.49980187988281250000e+03) (12, 1.50000000000000000000e+03) (13, 1.50000000000000000000e+03) (14, 1.47243115234375000000e+03) (15, 1.50000000000000000000e+03) (16, 1.50000000000000000000e+03) (17, 1.49934997558593750000e+03) (18, 1.49998620605468750000e+03) (19, 1.49635693359375000000e+03) (20, 1.50000000000000000000e+03) (21, 1.50000000000000000000e+03) (22, 8.61351135253906250000e+02) (23, 1.50000000000000000000e+03) (24, 1.47633337402343750000e+03) (25, -1.45585314941406250000e+03) (26, 2.23752838134765625000e+02) (27, 1.49997070312500000000e+03) (28, 1.07573822021484375000e+02) (29, 1.49999035644531250000e+03) (30, 1.40353051757812500000e+03) (31, 1.40492089843750000000e+03) (32, 1.46209594726562500000e+03) (33, 1.49998754882812500000e+03) (34, 7.71172424316406250000e+02) (35, -1.00382733154296875000e+03) (36, 1.49967529296875000000e+03) (0, -1.40733850097656250000e+03) (1, -1.27296350097656250000e+03) (2, 6.61660705566406250000e+02) (3, 1.46772204589843750000e+03) (4, 1.33991870117187500000e+03) (5, 1.40172827148437500000e+03) (6, 1.34203710937500000000e+03) (7, -1.36702209472656250000e+03) (8, -1.19114855957031250000e+03) (9, -1.35893408203125000000e+03) (10, -1.43364819335937500000e+03) (11, -1.47604711914062500000e+03) (12, 1.50000000000000000000e+03) (13, 1.50000000000000000000e+03) (14, 1.49932812500000000000e+03) (15, -1.50000000000000000000e+03) (16, -1.50000000000000000000e+03) (17, -1.40544531250000000000e+03) (18, -7.47470336914062500000e+02) (19, -3.53863739013671875000e+02) (20, -1.50000000000000000000e+03) (21, -1.50000000000000000000e+03) (22, 1.49992138671875000000e+03) (23, 1.50000000000000000000e+03) (24, -1.03061914062500000000e+03) (25, -1.02987109375000000000e+03) (26, -2.16173973083496093750e+01) (27, -1.48359460449218750000e+03) (28, 1.69769943237304687500e+02) (29, -1.46774353027343750000e+03) (30, -1.49264733886718750000e+03) (31, -1.49894799804687500000e+03) (32, -1.49759948730468750000e+03) (33, -1.41941821289062500000e+03) (34, -1.41963110351562500000e+03) (35, -1.45864758300781250000e+03) (36, -1.44447363281250000000e+03) (0, -7.18229553222656250000e+02) (1, -1.45326806640625000000e+03) (2, -1.46252673339843750000e+03) (3, -1.45660607910156250000e+03) (4, -4.69788238525390625000e+02) (5, 1.25975927734375000000e+03) (6, 7.08141296386718750000e+02) (7, 4.31492492675781250000e+02) (8, 1.54041168212890625000e+02) (9, 9.05652084350585937500e+01) (10, 9.18541030883789062500e+01) (11, 3.18907684326171875000e+02) (12, 1.50000000000000000000e+03) (13, 1.50000000000000000000e+03) (14, 1.50000000000000000000e+03) (15, -1.50000000000000000000e+03) (16, -1.50000000000000000000e+03) (17, -1.47872790527343750000e+03) (18, -1.49986572265625000000e+03) (19, -1.49999450683593750000e+03) (20, -1.50000000000000000000e+03) (21, -1.50000000000000000000e+03) (22, 1.49956420898437500000e+03) (23, 1.50000000000000000000e+03) (24, 9.15600299835205078125e+00) (25, 6.28969154357910156250e+01) (26, 2.99550140380859375000e+02) (27, 3.19396392822265625000e+02) (28, 1.20247161865234375000e+02) (29, 1.21314598083496093750e+02) (30, 4.55327491760253906250e+01) (31, 2.16934356689453125000e+01) (32, 7.67219161987304687500e+00) (33, 1.30008163452148437500e+02) (34, 1.23091033935546875000e+02) (35, 1.78323608398437500000e+02) (36, -7.82001399993896484375e+00) (0, 1.49953540039062500000e+03) (1, 1.49952050781250000000e+03) (2, 1.49748425292968750000e+03) (3, 1.50000000000000000000e+03) (4, 1.50000000000000000000e+03) (5, 1.50000000000000000000e+03) (6, 1.50000000000000000000e+03) (7, -1.12258459472656250000e+03) (8, 8.44812744140625000000e+02) (9, 1.43941076660156250000e+03) (10, 7.34477783203125000000e+02) (11, 8.64190185546875000000e+02) (12, 1.50000000000000000000e+03) (13, 1.50000000000000000000e+03) (14, 1.38152429199218750000e+03) (15, 1.50000000000000000000e+03) (16, 1.50000000000000000000e+03) (17, 1.49336962890625000000e+03) (18, 1.49999963378906250000e+03) (19, 1.49981079101562500000e+03) (20, 1.50000000000000000000e+03) (21, 1.50000000000000000000e+03) (22, 2.79248809814453125000e+02) (23, 1.50000000000000000000e+03) (24, 1.46235852050781250000e+03) (25, -1.46867797851562500000e+03) (26, -5.84636535644531250000e+02) (27, 1.49999438476562500000e+03) (28, -4.81591156005859375000e+02) (29, 1.49998852539062500000e+03) (30, 1.40743835449218750000e+03) (31, 1.40771203613281250000e+03) (32, 1.41049707031250000000e+03) (33, 1.07147546386718750000e+03) (34, 1.40060852050781250000e+02) (35, -1.24168029785156250000e+03) (36, 1.49990173339843750000e+03) (0, 1.49202587890625000000e+03) (1, 1.49639831542968750000e+03) (2, 1.48741186523437500000e+03) (3, 1.48832263183593750000e+03) (4, 1.49826477050781250000e+03) (5, 1.50000000000000000000e+03) (6, 1.50000000000000000000e+03) (7, -1.16934509277343750000e+03) (8, 1.05326147460937500000e+03) (9, 1.42967187500000000000e+03) (10, 1.22677929687500000000e+03) (11, 1.30091308593750000000e+03) (12, 1.50000000000000000000e+03) (13, 1.50000000000000000000e+03) (14, 1.01119250488281250000e+03) (15, 1.50000000000000000000e+03) (16, 1.50000000000000000000e+03) (17, 1.49724938964843750000e+03) (18, 1.47214160156250000000e+03) (19, 1.49879785156250000000e+03) (20, 1.50000000000000000000e+03) (21, 1.50000000000000000000e+03) (22, 8.89618774414062500000e+02) (23, 1.50000000000000000000e+03) (24, 1.48424499511718750000e+03) (25, -1.40912756347656250000e+03) (26, 8.72479125976562500000e+02) (27, 1.49997900390625000000e+03) (28, 8.88716735839843750000e+02) (29, 1.49999035644531250000e+03) (30, 1.40457922363281250000e+03) (31, 1.40217089843750000000e+03) (32, 1.46344116210937500000e+03) (33, 1.49998693847656250000e+03) (34, 9.77924255371093750000e+02) (35, -6.75816955566406250000e+02) (36, 1.49968505859375000000e+03) (0, 1.09458557128906250000e+03) (1, 1.49982714843750000000e+03) (2, 1.49301696777343750000e+03) (3, 1.49977197265625000000e+03) (4, 1.49887426757812500000e+03) (5, 1.50000000000000000000e+03) (6, 1.50000000000000000000e+03) (7, -4.39028533935546875000e+02) (8, 8.50002685546875000000e+02) (9, 1.46851721191406250000e+03) (10, 8.06183166503906250000e+02) (11, 8.35371643066406250000e+02) (12, 1.50000000000000000000e+03) (13, 1.50000000000000000000e+03) (14, 1.48085363769531250000e+03) (15, 1.50000000000000000000e+03) (16, 1.50000000000000000000e+03) (17, 1.49999963378906250000e+03) (18, 1.49991015625000000000e+03) (19, 1.49987304687500000000e+03) (20, 1.50000000000000000000e+03) (21, 1.50000000000000000000e+03) (22, 6.28435302734375000000e+02) (23, 1.50000000000000000000e+03) (24, 1.46281347656250000000e+03) (25, -1.47102343750000000000e+03) (26, -9.24673828125000000000e+02) (27, 1.48939916992187500000e+03) (28, -5.21521850585937500000e+02) (29, 1.43768481445312500000e+03) (30, 1.40129418945312500000e+03) (31, 1.40612829589843750000e+03) (32, 1.40802453613281250000e+03) (33, 8.10923690795898437500e+01) (34, 7.48504180908203125000e+01) (35, -1.37707238769531250000e+03) (36, 1.49990832519531250000e+03) (0, 1.48439294433593750000e+03) (1, 1.49484313964843750000e+03) (2, 1.48719860839843750000e+03) (3, 1.49174780273437500000e+03) (4, 1.49895715332031250000e+03) (5, 1.50000000000000000000e+03) (6, 1.50000000000000000000e+03) (7, -6.65870056152343750000e+02) (8, 1.10949890136718750000e+03) (9, 1.39271899414062500000e+03) (10, 1.22969274902343750000e+03) (11, 1.30251574707031250000e+03) (12, 1.50000000000000000000e+03) (13, 1.50000000000000000000e+03) (14, 1.47026831054687500000e+03) (15, 1.50000000000000000000e+03) (16, 1.50000000000000000000e+03) (17, 1.49934997558593750000e+03) (18, 1.49534509277343750000e+03) (19, 1.49636254882812500000e+03) (20, 1.50000000000000000000e+03) (21, 1.50000000000000000000e+03) (22, 9.14262145996093750000e+02) (23, 1.50000000000000000000e+03) (24, 1.48498718261718750000e+03) (25, -1.45876708984375000000e+03) (26, -6.93632268905639648438e+00) (27, 1.49998999023437500000e+03) (28, 9.25614807128906250000e+02) (29, 1.49998767089843750000e+03) (30, 1.40447265625000000000e+03) (31, 1.40520825195312500000e+03) (32, 1.46255834960937500000e+03) (33, 1.49998522949218750000e+03) (34, 1.14503625488281250000e+03) (35, -6.60481079101562500000e+02) (36, 1.49965637207031250000e+03) (0, -1.38704052734375000000e+03) (1, -1.33231933593750000000e+03) (2, -1.18570776367187500000e+03) (3, -1.21127929687500000000e+03) (4, -1.20982348632812500000e+03) (5, -1.13990014648437500000e+03) (6, -1.13980419921875000000e+03) (7, -1.09318652343750000000e+03) (8, -7.29139785766601562500e+01) (9, -1.28873339843750000000e+03) (10, -1.83513931274414062500e+02) (11, -4.76513977050781250000e+02) (12, 1.50000000000000000000e+03) (13, 1.50000000000000000000e+03) (14, -1.41902844238281250000e+03) (15, -1.16468383789062500000e+03) (16, -9.88557434082031250000e+02) (17, -1.44092944335937500000e+03) (18, -1.31952929687500000000e+03) (19, -2.58531494140625000000e+02) (20, -1.20657604980468750000e+03) (21, -1.26968383789062500000e+03) (22, -1.41846716308593750000e+03) (23, 1.50000000000000000000e+03) (24, -9.19358947753906250000e+02) (25, -1.13147224426269531250e+02) (26, 1.11369555664062500000e+03) (27, -1.26023242187500000000e+03) (28, -7.24983947753906250000e+02) (29, -9.17224792480468750000e+02) (30, -1.38031677246093750000e+03) (31, -1.44793371582031250000e+03) (32, -1.44892541503906250000e+03) (33, -1.34440014648437500000e+03) (34, -1.37033801269531250000e+03) (35, -1.27567114257812500000e+03) (36, -1.49776025390625000000e+03) (0, -1.29338598632812500000e+03) (1, -1.21126098632812500000e+03) (2, -1.21124255371093750000e+03) (3, -1.13246044921875000000e+03) (4, -1.13104931640625000000e+03) (5, -1.03356127929687500000e+03) (6, -1.07857312011718750000e+03) (7, -1.34568640136718750000e+03) (8, 6.68093933105468750000e+02) (9, -8.95916625976562500000e+02) (10, 7.09801086425781250000e+02) (11, -2.63548645019531250000e+02) (12, 1.50000000000000000000e+03) (13, 1.50000000000000000000e+03) (14, -1.38104296875000000000e+03) (15, -1.38607641601562500000e+03) (16, -1.42266101074218750000e+03) (17, -1.49642211914062500000e+03) (18, -1.35932836914062500000e+03) (19, -1.06335681152343750000e+03) (20, -1.42824096679687500000e+03) (21, -1.46484899902343750000e+03) (22, 1.50000000000000000000e+03) (23, 1.50000000000000000000e+03) (24, -1.36255908203125000000e+03) (25, -1.36304382324218750000e+03) (26, -1.34852453613281250000e+03) (27, -9.28306701660156250000e+02) (28, -1.45151000976562500000e+03) (29, -1.42846972656250000000e+03) (30, -1.44145788574218750000e+03) (31, -1.43418725585937500000e+03) (32, -1.44266857910156250000e+03) (33, -1.46009313964843750000e+03) (34, -1.38362402343750000000e+03) (35, -1.40319982910156250000e+03) (36, -1.49894750976562500000e+03) (0, -1.49979943847656250000e+03) (1, -1.09803918457031250000e+03) (2, 1.22770532226562500000e+03) (3, 1.43899182128906250000e+03) (4, 1.46120776367187500000e+03) (5, 1.49052636718750000000e+03) (6, 1.49259191894531250000e+03) (7, 1.19190270996093750000e+03) (8, -7.28735595703125000000e+02) (9, -4.39050537109375000000e+02) (10, -3.34182220458984375000e+02) (11, -2.94560272216796875000e+02) (12, 1.50000000000000000000e+03) (13, 1.50000000000000000000e+03) (14, 1.50000000000000000000e+03) (15, -1.50000000000000000000e+03) (16, -1.50000000000000000000e+03) (17, -1.49546435546875000000e+03) (18, 1.46599755859375000000e+03) (19, -1.52647293090820312500e+02) (20, -1.50000000000000000000e+03) (21, -1.50000000000000000000e+03) (22, 1.49999487304687500000e+03) (23, 1.50000000000000000000e+03) (24, -7.33212951660156250000e+02) (25, -6.59570739746093750000e+02) (26, 8.61432556152343750000e+02) (27, 7.54341506958007812500e+01) (28, -8.50373168945312500000e+02) (29, 5.09472198486328125000e+02) (30, -1.30361767578125000000e+03) (31, -1.31991149902343750000e+03) (32, -1.27949914550781250000e+03) (33, 1.50000000000000000000e+03) (34, 1.37717053222656250000e+03) (35, 8.91331787109375000000e+02) (36, -1.49996301269531250000e+03) (0, 7.22153564453125000000e+02) (1, 1.47100317382812500000e+03) (2, 1.48854431152343750000e+03) (3, 1.49969738769531250000e+03) (4, 1.50000000000000000000e+03) (5, 1.50000000000000000000e+03) (6, 1.50000000000000000000e+03) (7, -1.41413818359375000000e+03) (8, 7.54739196777343750000e+02) (9, 1.42038085937500000000e+03) (10, 9.54033752441406250000e+02) (11, 1.14549499511718750000e+03) (12, 1.50000000000000000000e+03) (13, 1.50000000000000000000e+03) (14, 1.47239392089843750000e+03) (15, 1.50000000000000000000e+03) (16, 1.50000000000000000000e+03) (17, 1.49758972167968750000e+03) (18, 1.50000000000000000000e+03) (19, 1.50000000000000000000e+03) (20, 1.50000000000000000000e+03) (21, 1.50000000000000000000e+03) (22, -1.47672164916992187500e+02) (23, 1.50000000000000000000e+03) (24, 1.47497314453125000000e+03) (25, -1.46042309570312500000e+03) (26, -1.30164995193481445312e+01) (27, 1.49996813964843750000e+03) (28, 1.19626113891601562500e+02) (29, 1.49999218750000000000e+03) (30, 1.40350085449218750000e+03) (31, 1.40483264160156250000e+03) (32, 1.46218847656250000000e+03) (33, 8.97038085937500000000e+02) (34, 7.70563232421875000000e+02) (35, -1.00405267333984375000e+03) (36, 1.49967077636718750000e+03) (0, -1.35845556640625000000e+03) (1, -1.34338146972656250000e+03) (2, -1.20856445312500000000e+03) (3, -1.22751623535156250000e+03) (4, -1.35248718261718750000e+03) (5, -1.31451257324218750000e+03) (6, -1.31438684082031250000e+03) (7, -1.05004467773437500000e+03) (8, -2.01941604614257812500e+02) (9, -1.30757214355468750000e+03) (10, -3.63970733642578125000e+02) (11, -7.92429199218750000000e+02) (12, 1.50000000000000000000e+03) (13, 1.50000000000000000000e+03) (14, -1.49661999511718750000e+03) (15, -1.18968383789062500000e+03) (16, -8.94040161132812500000e+02) (17, -1.49475500488281250000e+03) (18, -1.34256994628906250000e+03) (19, -9.29477081298828125000e+01) (20, -1.25172717285156250000e+03) (21, -1.18968383789062500000e+03) (22, -1.30763696289062500000e+03) (23, 1.50000000000000000000e+03) (24, -8.55976867675781250000e+02) (25, -6.14386596679687500000e+02) (26, -8.61697998046875000000e+02) (27, -9.73565307617187500000e+02) (28, -8.39249633789062500000e+02) (29, -1.33802902221679687500e+02) (30, -1.45413244628906250000e+03) (31, -1.48093859863281250000e+03) (32, -1.47302526855468750000e+03) (33, -1.33600024414062500000e+03) (34, -1.38145031738281250000e+03) (35, -1.33519042968750000000e+03) (36, -1.49913964843750000000e+03) (0, 1.49953259277343750000e+03) (1, 1.49703833007812500000e+03) (2, 1.49784436035156250000e+03) (3, 1.50000000000000000000e+03) (4, 1.50000000000000000000e+03) (5, 1.50000000000000000000e+03) (6, 1.50000000000000000000e+03) (7, -7.13414123535156250000e+02) (8, 8.69938537597656250000e+02) (9, 1.49890405273437500000e+03) (10, 7.31731323242187500000e+02) (11, 1.05302465820312500000e+03) (12, 1.50000000000000000000e+03) (13, 1.50000000000000000000e+03) (14, 1.38152429199218750000e+03) (15, 1.50000000000000000000e+03) (16, 1.50000000000000000000e+03) (17, 1.49992761230468750000e+03) (18, 1.49999963378906250000e+03) (19, 1.49981079101562500000e+03) (20, 1.50000000000000000000e+03) (21, 1.50000000000000000000e+03) (22, 2.98875366210937500000e+02) (23, 1.50000000000000000000e+03) (24, 1.44177929687500000000e+03) (25, -1.47163391113281250000e+03) (26, -5.84650695800781250000e+02) (27, 1.48934924316406250000e+03) (28, -5.21085266113281250000e+02) (29, 1.31983374023437500000e+03) (30, 1.40052404785156250000e+03) (31, 1.40591479492187500000e+03) (32, 1.41002148437500000000e+03) (33, 5.75223693847656250000e+02) (34, 7.52141494750976562500e+01) (35, -1.40146508789062500000e+03) (36, 1.49990270996093750000e+03) (0, -1.36703100585937500000e+03) (1, -1.27051574707031250000e+03) (2, -9.69549255371093750000e+02) (3, -1.18848815917968750000e+03) (4, -1.11021801757812500000e+03) (5, -1.11016430664062500000e+03) (6, -1.10266088867187500000e+03) (7, -1.10135412597656250000e+03) (8, -1.16271621704101562500e+02) (9, -1.01988983154296875000e+03) (10, -9.17946395874023437500e+01) (11, -1.04859033203125000000e+03) (12, 1.50000000000000000000e+03) (13, 1.50000000000000000000e+03) (14, -1.45939953613281250000e+03) (15, -1.38607641601562500000e+03) (16, -1.42824096679687500000e+03) (17, -1.49805493164062500000e+03) (18, -1.42545056152343750000e+03) (19, -1.49985900878906250000e+03) (20, -1.40841564941406250000e+03) (21, -1.46484899902343750000e+03) (22, 1.18598132324218750000e+03) (23, 1.50000000000000000000e+03) (24, -8.74713623046875000000e+02) (25, -6.38576110839843750000e+02) (26, -5.84438354492187500000e+02) (27, -4.98609649658203125000e+02) (28, -8.71215148925781250000e+02) (29, -1.36574145507812500000e+03) (30, -1.39389916992187500000e+03) (31, -1.39386450195312500000e+03) (32, -1.44506701660156250000e+03) (33, -1.41661181640625000000e+03) (34, -1.37257653808593750000e+03) (35, -1.27885546875000000000e+03) (36, -1.49698364257812500000e+03) (0, -1.48113085937500000000e+03) (1, -1.48113085937500000000e+03) (2, -1.48113085937500000000e+03) (3, -1.45902746582031250000e+03) (4, -1.45902746582031250000e+03) (5, -1.46445312500000000000e+03) (6, -1.46445312500000000000e+03) (7, 3.09145526885986328125e+01) (8, 5.95016784667968750000e+02) (9, 1.42367565917968750000e+03) (10, 9.68783874511718750000e+01) (11, -1.06610375976562500000e+03) (12, 1.50000000000000000000e+03) (13, 1.50000000000000000000e+03) (14, -1.48359985351562500000e+03) (15, 1.50000000000000000000e+03) (16, 1.50000000000000000000e+03) (17, 1.52501022338867187500e+02) (18, 5.99437622070312500000e+02) (19, 1.49985961914062500000e+03) (20, 1.50000000000000000000e+03) (21, 1.50000000000000000000e+03) (22, -1.48359985351562500000e+03) (23, 1.50000000000000000000e+03) (24, 8.89393127441406250000e+02) (25, 3.79848937988281250000e+02) (26, 1.44007995605468750000e+03) (27, 7.08734359741210937500e+01) (28, -7.00917587280273437500e+01) (29, -2.30434249877929687500e+02) (30, -8.29827026367187500000e+02) (31, -8.94635803222656250000e+02) (32, -1.33285815429687500000e+03) (33, -8.87408203125000000000e+02) (34, -1.04135070800781250000e+03) (35, 3.88479400634765625000e+02) (36, -1.47306079101562500000e+03) (0, -1.34796997070312500000e+03) (1, -1.11769946289062500000e+03) (2, -1.30483068847656250000e+03) (3, -1.42119213867187500000e+03) (4, -1.35107897949218750000e+03) (5, -1.47842126464843750000e+03) (6, -1.31927185058593750000e+03) (7, -1.49831689453125000000e+03) (8, 4.55315338134765625000e+02) (9, -6.86219299316406250000e+02) (10, -1.06921826171875000000e+03) (11, -1.07399560546875000000e+03) (12, 1.50000000000000000000e+03) (13, 1.50000000000000000000e+03) (14, 4.91241668701171875000e+02) (15, -1.50000000000000000000e+03) (16, -1.00047174072265625000e+03) (17, -1.48340930175781250000e+03) (18, -1.35081384277343750000e+03) (19, -1.48083740234375000000e+03) (20, -1.45153381347656250000e+03) (21, -1.50000000000000000000e+03) (22, 1.42014733886718750000e+03) (23, 1.50000000000000000000e+03) (24, -9.63019653320312500000e+02) (25, -1.11988439941406250000e+03) (26, -1.40043005371093750000e+03) (27, -7.54241027832031250000e+02) (28, -5.80874694824218750000e+02) (29, -3.00783416748046875000e+02) (30, -1.36453881835937500000e+03) (31, -1.46804101562500000000e+03) (32, -1.33098815917968750000e+03) (33, -1.33875085449218750000e+03) (34, -8.80908264160156250000e+02) (35, -1.32654895019531250000e+03) (36, -1.49833276367187500000e+03) (0, 1.22148828125000000000e+03) (1, 1.49878515625000000000e+03) (2, 1.49610168457031250000e+03) (3, 1.50000000000000000000e+03) (4, 1.50000000000000000000e+03) (5, 1.50000000000000000000e+03) (6, 1.50000000000000000000e+03) (7, -1.12094445800781250000e+03) (8, 8.72885314941406250000e+02) (9, 1.46644067382812500000e+03) (10, 7.45516418457031250000e+02) (11, 1.05293750000000000000e+03) (12, 1.50000000000000000000e+03) (13, 1.50000000000000000000e+03) (14, 1.38152429199218750000e+03) (15, 1.50000000000000000000e+03) (16, 1.50000000000000000000e+03) (17, 1.49019445800781250000e+03) (18, 1.49999963378906250000e+03) (19, 1.49756079101562500000e+03) (20, 1.50000000000000000000e+03) (21, 1.50000000000000000000e+03) (22, 2.65246856689453125000e+02) (23, 1.50000000000000000000e+03) (24, 1.46210314941406250000e+03) (25, -8.50355529785156250000e+02) (26, -5.84652587890625000000e+02) (27, 1.49997204589843750000e+03) (28, -5.21076232910156250000e+02) (29, 1.42011010742187500000e+03) (30, 1.40340612792968750000e+03) (31, 1.40748742675781250000e+03) (32, 1.40690649414062500000e+03) (33, 5.71821899414062500000e+02) (34, 4.55825378417968750000e+02) (35, -1.38252404785156250000e+03) (36, 1.49989233398437500000e+03) (0, 1.21683483886718750000e+03) (1, 1.49951672363281250000e+03) (2, 1.49610083007812500000e+03) (3, 1.50000000000000000000e+03) (4, 1.50000000000000000000e+03) (5, 1.50000000000000000000e+03) (6, 1.50000000000000000000e+03) (7, -1.12192651367187500000e+03) (8, 8.51751831054687500000e+02) (9, 1.43926269531250000000e+03) (10, 7.34722473144531250000e+02) (11, 8.64066589355468750000e+02) (12, 1.50000000000000000000e+03) (13, 1.50000000000000000000e+03) (14, 1.38152429199218750000e+03) (15, 1.50000000000000000000e+03) (16, 1.50000000000000000000e+03) (17, 1.49015332031250000000e+03) (18, 1.49999963378906250000e+03) (19, 1.49757019042968750000e+03) (20, 1.50000000000000000000e+03) (21, 1.50000000000000000000e+03) (22, 2.18142791748046875000e+02) (23, 1.50000000000000000000e+03) (24, 1.46254406738281250000e+03) (25, -1.46866552734375000000e+03) (26, -5.84617431640625000000e+02) (27, 1.49999438476562500000e+03) (28, -4.81618591308593750000e+02) (29, 1.49998876953125000000e+03) (30, 1.40731689453125000000e+03) (31, 1.40765661621093750000e+03) (32, 1.41062609863281250000e+03) (33, 1.06845068359375000000e+03) (34, 4.56050720214843750000e+02) (35, -1.24167858886718750000e+03) (36, 1.49993176269531250000e+03) (0, 1.22468835449218750000e+03) (1, 1.49877819824218750000e+03) (2, 1.49648974609375000000e+03) (3, 1.50000000000000000000e+03) (4, 1.50000000000000000000e+03) (5, 1.50000000000000000000e+03) (6, 1.50000000000000000000e+03) (7, -1.21130175781250000000e+03) (8, 7.46005371093750000000e+02) (9, 1.45026391601562500000e+03) (10, 7.40558410644531250000e+02) (11, 8.63662719726562500000e+02) (12, 1.50000000000000000000e+03) (13, 1.50000000000000000000e+03) (14, 1.38152429199218750000e+03) (15, 1.50000000000000000000e+03) (16, 1.50000000000000000000e+03) (17, 1.49692810058593750000e+03) (18, 1.49999963378906250000e+03) (19, 1.49757043457031250000e+03) (20, 1.50000000000000000000e+03) (21, 1.50000000000000000000e+03) (22, 2.18142791748046875000e+02) (23, 1.50000000000000000000e+03) (24, 1.46294372558593750000e+03) (25, -8.45493347167968750000e+02) (26, -5.84602355957031250000e+02) (27, 1.49997314453125000000e+03) (28, -4.81746826171875000000e+02) (29, 1.49999060058593750000e+03) (30, 1.40174804687500000000e+03) (31, 1.40539306640625000000e+03) (32, 1.41018103027343750000e+03) (33, 1.06835559082031250000e+03) (34, 4.56138183593750000000e+02) (35, -1.28715576171875000000e+03) (36, 1.49993237304687500000e+03) (0, -1.28857629394531250000e+03) (1, -1.28567456054687500000e+03) (2, -1.10091760253906250000e+03) (3, -1.34693579101562500000e+03) (4, -1.35132446289062500000e+03) (5, -1.34246936035156250000e+03) (6, -1.29608117675781250000e+03) (7, -1.01399316406250000000e+03) (8, 5.45543579101562500000e+02) (9, -1.73702011108398437500e+02) (10, 6.72792129516601562500e+01) (11, 5.84506225585937500000e+02) (12, 1.50000000000000000000e+03) (13, 1.50000000000000000000e+03) (14, -1.47597448730468750000e+03) (15, -1.43000000000000000000e+03) (16, -1.42443981933593750000e+03) (17, -1.49995141601562500000e+03) (18, -1.41208020019531250000e+03) (19, -1.30716162109375000000e+03) (20, -1.43549133300781250000e+03) (21, -1.50000000000000000000e+03) (22, 1.34967138671875000000e+03) (23, 1.50000000000000000000e+03) (24, -1.22089672851562500000e+03) (25, -1.09323510742187500000e+03) (26, 7.07348388671875000000e+02) (27, 1.16151281738281250000e+03) (28, -5.48696472167968750000e+02) (29, 2.14702056884765625000e+02) (30, -8.79586547851562500000e+02) (31, -1.26233679199218750000e+03) (32, -1.11904772949218750000e+03) (33, -1.33539099121093750000e+03) (34, -1.38075695800781250000e+03) (35, -1.27601647949218750000e+03) (36, -1.49870520019531250000e+03) (0, -1.24374707031250000000e+03) (1, -1.03311791992187500000e+03) (2, -9.58012634277343750000e+02) (3, -1.12653222656250000000e+03) (4, -1.27870141601562500000e+03) (5, -1.10862255859375000000e+03) (6, -1.11630407714843750000e+03) (7, -1.07376159667968750000e+03) (8, 6.54721801757812500000e+02) (9, -6.29910827636718750000e+02) (10, 3.85714324951171875000e+02) (11, -1.06910266113281250000e+03) (12, 1.50000000000000000000e+03) (13, 1.50000000000000000000e+03) (14, -1.38160449218750000000e+03) (15, -1.38607641601562500000e+03) (16, -1.42824096679687500000e+03) (17, -1.49640234375000000000e+03) (18, -1.40169519042968750000e+03) (19, -1.49980590820312500000e+03) (20, -1.44713879394531250000e+03) (21, -1.46484899902343750000e+03) (22, 1.18593725585937500000e+03) (23, 1.50000000000000000000e+03) (24, -8.86884460449218750000e+02) (25, -1.25050244140625000000e+03) (26, -6.06225633621215820312e+00) (27, -2.09991195678710937500e+02) (28, -9.49187683105468750000e+02) (29, -1.37418652343750000000e+03) (30, -1.37817687988281250000e+03) (31, -1.37470385742187500000e+03) (32, -1.46533496093750000000e+03) (33, -1.40962207031250000000e+03) (34, -1.38290197753906250000e+03) (35, -1.27085290527343750000e+03) (36, -1.49933618164062500000e+03) (0, 1.27435864257812500000e+03) (1, 1.45945336914062500000e+03) (2, 1.48658874511718750000e+03) (3, 1.49157287597656250000e+03) (4, 1.49871166992187500000e+03) (5, 1.50000000000000000000e+03) (6, 1.50000000000000000000e+03) (7, -6.68091247558593750000e+02) (8, 1.12519970703125000000e+03) (9, 1.39190197753906250000e+03) (10, 1.21952880859375000000e+03) (11, 1.49973498535156250000e+03) (12, 1.50000000000000000000e+03) (13, 1.50000000000000000000e+03) (14, 1.37190612792968750000e+03) (15, 1.50000000000000000000e+03) (16, 1.50000000000000000000e+03) (17, 1.49934472656250000000e+03) (18, 1.49546777343750000000e+03) (19, 1.48328039550781250000e+03) (20, 1.50000000000000000000e+03) (21, 1.50000000000000000000e+03) (22, 1.02355541992187500000e+03) (23, 1.50000000000000000000e+03) (24, 1.48536730957031250000e+03) (25, -1.45928125000000000000e+03) (26, -6.96486759185791015625e+00) (27, 1.49997644042968750000e+03) (28, 9.00799682617187500000e+02) (29, 1.49998803710937500000e+03) (30, 1.40779211425781250000e+03) (31, 1.40516271972656250000e+03) (32, 1.46362170410156250000e+03) (33, 7.22160827636718750000e+02) (34, 7.69898193359375000000e+02) (35, -9.38284118652343750000e+02) (36, 1.49973071289062500000e+03) (0, 1.49000268554687500000e+03) (1, 1.49514465332031250000e+03) (2, 1.48659094238281250000e+03) (3, 1.49173657226562500000e+03) (4, 1.49869689941406250000e+03) (5, 1.50000000000000000000e+03) (6, 1.50000000000000000000e+03) (7, -6.74734558105468750000e+02) (8, 1.10936938476562500000e+03) (9, 1.39642028808593750000e+03) (10, 1.19806127929687500000e+03) (11, 1.29726062011718750000e+03) (12, 1.50000000000000000000e+03) (13, 1.50000000000000000000e+03) (14, 1.48851110839843750000e+03) (15, 1.50000000000000000000e+03) (16, 1.50000000000000000000e+03) (17, 1.49935119628906250000e+03) (18, 1.46247985839843750000e+03) (19, 1.49636914062500000000e+03) (20, 1.50000000000000000000e+03) (21, 1.50000000000000000000e+03) (22, 1.02262475585937500000e+03) (23, 1.50000000000000000000e+03) (24, 1.48532775878906250000e+03) (25, -1.45864746093750000000e+03) (26, 1.10675537109375000000e+03) (27, 1.49995959472656250000e+03) (28, 8.88763366699218750000e+02) (29, 1.49998803710937500000e+03) (30, 1.40346533203125000000e+03) (31, 1.40500415039062500000e+03) (32, 1.46232958984375000000e+03) (33, 1.49998510742187500000e+03) (34, 9.77840759277343750000e+02) (35, -7.25755065917968750000e+02) (36, 1.49993762207031250000e+03) (0, 1.20610668945312500000e+03) (1, 1.49982031250000000000e+03) (2, 1.49609631347656250000e+03) (3, 1.50000000000000000000e+03) (4, 1.49893286132812500000e+03) (5, 1.50000000000000000000e+03) (6, 1.50000000000000000000e+03) (7, -9.58874755859375000000e+02) (8, 8.43407775878906250000e+02) (9, 1.44547302246093750000e+03) (10, 7.72281311035156250000e+02) (11, 1.02394445800781250000e+03) (12, 1.50000000000000000000e+03) (13, 1.50000000000000000000e+03) (14, 1.47026831054687500000e+03) (15, 1.50000000000000000000e+03) (16, 1.50000000000000000000e+03) (17, 1.49016064453125000000e+03) (18, 1.49999963378906250000e+03) (19, 1.49086267089843750000e+03) (20, 1.50000000000000000000e+03) (21, 1.50000000000000000000e+03) (22, 8.89618774414062500000e+02) (23, 1.50000000000000000000e+03) (24, 1.44190234375000000000e+03) (25, -1.46947106933593750000e+03) (26, -5.81976684570312500000e+02) (27, 1.49999328613281250000e+03) (28, 3.33636291503906250000e+02) (29, 1.43784130859375000000e+03) (30, 1.36064074707031250000e+03) (31, 1.40853503417968750000e+03) (32, 1.41380749511718750000e+03) (33, 9.63487304687500000000e+02) (34, 7.51454315185546875000e+01) (35, -1.28696020507812500000e+03) (36, 1.49993115234375000000e+03) (0, 1.48999621582031250000e+03) (1, 1.49618640136718750000e+03) (2, 1.48711413574218750000e+03) (3, 1.49173852539062500000e+03) (4, 1.49869750976562500000e+03) (5, 1.50000000000000000000e+03) (6, 1.50000000000000000000e+03) (7, -1.16986328125000000000e+03) (8, 1.06541931152343750000e+03) (9, 1.42307641601562500000e+03) (10, 1.21988403320312500000e+03) (11, 1.39469812011718750000e+03) (12, 1.50000000000000000000e+03) (13, 1.50000000000000000000e+03) (14, 1.48851110839843750000e+03) (15, 1.50000000000000000000e+03) (16, 1.50000000000000000000e+03) (17, 1.49901354980468750000e+03) (18, 1.46247900390625000000e+03) (19, 1.49055505371093750000e+03) (20, 1.50000000000000000000e+03) (21, 1.50000000000000000000e+03) (22, 6.28437133789062500000e+02) (23, 1.50000000000000000000e+03) (24, 1.48536547851562500000e+03) (25, -1.45711669921875000000e+03) (26, 2.29735748291015625000e+02) (27, 1.49993920898437500000e+03) (28, 8.88625427246093750000e+02) (29, 1.49998999023437500000e+03) (30, 1.40367187500000000000e+03) (31, 1.40524951171875000000e+03) (32, 1.46340917968750000000e+03) (33, 7.21906921386718750000e+02) (34, 9.78705688476562500000e+02) (35, -7.25502685546875000000e+02) (36, 1.49975488281250000000e+03) (0, 1.50000000000000000000e+03) (1, 1.50000000000000000000e+03) (2, 1.50000000000000000000e+03) (3, 1.50000000000000000000e+03) (4, 1.50000000000000000000e+03) (5, -7.83514526367187500000e+02) (6, 2.26557266235351562500e+02) (7, -1.24327369689941406250e+02) (8, 1.47499914550781250000e+03) (9, -8.05675415039062500000e+02) (10, -1.26812255859375000000e+03) (11, -1.30296752929687500000e+03) (12, 1.50000000000000000000e+03) (13, 1.50000000000000000000e+03) (14, 1.50000000000000000000e+03) (15, -1.44200305175781250000e+03) (16, -1.03273361206054687500e+02) (17, 1.38564916992187500000e+03) (18, 1.36446728515625000000e+03) (19, 1.49998779296875000000e+03) (20, -1.03273361206054687500e+02) (21, -1.45580395507812500000e+03) (22, 2.79810119628906250000e+02) (23, 1.50000000000000000000e+03) (24, 1.33442785644531250000e+03) (25, -1.48782043457031250000e+03) (26, -1.48633288574218750000e+03) (27, -1.18053186035156250000e+03) (28, -1.15388549804687500000e+03) (29, -7.50135253906250000000e+02) (30, 1.45807666015625000000e+03) (31, 1.49236083984375000000e+03) (32, 1.49921289062500000000e+03) (33, 1.36252648925781250000e+03) (34, 1.39319348144531250000e+03) (35, 4.27019744873046875000e+02) (36, 1.49999938964843750000e+03) (0, 1.26456762695312500000e+03) (1, 1.49509094238281250000e+03) (2, 1.48688793945312500000e+03) (3, 1.49160864257812500000e+03) (4, 1.49865014648437500000e+03) (5, 1.50000000000000000000e+03) (6, 1.50000000000000000000e+03) (7, -5.30062866210937500000e+02) (8, 1.10892614746093750000e+03) (9, 1.38683679199218750000e+03) (10, 1.22006958007812500000e+03) (11, 1.31464245605468750000e+03) (12, 1.50000000000000000000e+03) (13, 1.50000000000000000000e+03) (14, 1.47719458007812500000e+03) (15, 1.50000000000000000000e+03) (16, 1.50000000000000000000e+03) (17, 1.49928649902343750000e+03) (18, 1.49999499511718750000e+03) (19, 1.49636083984375000000e+03) (20, 1.50000000000000000000e+03) (21, 1.50000000000000000000e+03) (22, 1.25937719726562500000e+03) (23, 1.50000000000000000000e+03) (24, 1.48534155273437500000e+03) (25, -1.45923120117187500000e+03) (26, -6.97570085525512695312e+00) (27, 1.49999023437500000000e+03) (28, 9.54596313476562500000e+02) (29, 1.49998767089843750000e+03) (30, 1.40358361816406250000e+03) (31, 1.40514611816406250000e+03) (32, 1.46259973144531250000e+03) (33, 9.64898010253906250000e+02) (34, 1.04594262695312500000e+03) (35, -6.60902832031250000000e+02) (36, 1.49964880371093750000e+03) (0, 1.28640148925781250000e+03) (1, 1.49154150390625000000e+03) (2, 1.48671459960937500000e+03) (3, 1.49160949707031250000e+03) (4, 1.49871875000000000000e+03) (5, 1.50000000000000000000e+03) (6, 1.50000000000000000000e+03) (7, -1.42501330566406250000e+03) (8, 1.12607543945312500000e+03) (9, 1.41024389648437500000e+03) (10, 1.22006823730468750000e+03) (11, 1.30136743164062500000e+03) (12, 1.50000000000000000000e+03) (13, 1.50000000000000000000e+03) (14, 1.47719458007812500000e+03) (15, 1.50000000000000000000e+03) (16, 1.50000000000000000000e+03) (17, 1.49901770019531250000e+03) (18, 1.49999670410156250000e+03) (19, 1.49636254882812500000e+03) (20, 1.50000000000000000000e+03) (21, 1.50000000000000000000e+03) (22, 1.25937719726562500000e+03) (23, 1.50000000000000000000e+03) (24, 1.48529772949218750000e+03) (25, -1.45918615722656250000e+03) (26, -6.94506454467773437500e+00) (27, 1.49999121093750000000e+03) (28, 9.03769470214843750000e+02) (29, 1.49998803710937500000e+03) (30, 1.40465649414062500000e+03) (31, 1.40532702636718750000e+03) (32, 1.46242883300781250000e+03) (33, 1.49998522949218750000e+03) (34, 8.69554565429687500000e+02) (35, -9.37907592773437500000e+02) (36, 1.49985583496093750000e+03) (0, 1.49953540039062500000e+03) (1, 1.49878564453125000000e+03) (2, 1.49690710449218750000e+03) (3, 1.50000000000000000000e+03) (4, 1.50000000000000000000e+03) (5, 1.50000000000000000000e+03) (6, 1.50000000000000000000e+03) (7, -9.58930847167968750000e+02) (8, 7.62086669921875000000e+02) (9, 1.40182470703125000000e+03) (10, 7.31694946289062500000e+02) (11, 8.62537414550781250000e+02) (12, 1.50000000000000000000e+03) (13, 1.50000000000000000000e+03) (14, 1.38152429199218750000e+03) (15, 1.50000000000000000000e+03) (16, 1.50000000000000000000e+03) (17, 1.49014221191406250000e+03) (18, 1.49999963378906250000e+03) (19, 1.49757043457031250000e+03) (20, 1.50000000000000000000e+03) (21, 1.50000000000000000000e+03) (22, 6.10071655273437500000e+02) (23, 1.50000000000000000000e+03) (24, 1.44139196777343750000e+03) (25, -1.46868334960937500000e+03) (26, -5.84620788574218750000e+02) (27, 1.49997241210937500000e+03) (28, -5.21474670410156250000e+02) (29, 1.42030114746093750000e+03) (30, 1.40189892578125000000e+03) (31, 1.40839892578125000000e+03) (32, 1.41369580078125000000e+03) (33, 9.63877929687500000000e+02) (34, 7.51801834106445312500e+01) (35, -1.28723596191406250000e+03) (36, 1.49993188476562500000e+03) (0, -1.42704760742187500000e+03) (1, -1.49491198730468750000e+03) (2, -1.47446362304687500000e+03) (3, -1.46531140136718750000e+03) (4, -1.43669531250000000000e+03) (5, -1.49544824218750000000e+03) (6, -1.49529064941406250000e+03) (7, -1.48653967285156250000e+03) (8, -1.11910717773437500000e+03) (9, -1.38302917480468750000e+03) (10, -8.98525451660156250000e+02) (11, -7.18856872558593750000e+02) (12, 1.50000000000000000000e+03) (13, 1.50000000000000000000e+03) (14, -9.38994567871093750000e+02) (15, -1.38607641601562500000e+03) (16, -1.46183996582031250000e+03) (17, -1.49877429199218750000e+03) (18, -1.08889978027343750000e+03) (19, -1.49150793457031250000e+03) (20, -1.37487902832031250000e+03) (21, -1.38607641601562500000e+03) (22, -8.17842285156250000000e+02) (23, 1.50000000000000000000e+03) (24, -1.39430114746093750000e+03) (25, -3.62747253417968750000e+02) (26, 3.23910339355468750000e+02) (27, 1.10161926269531250000e+02) (28, -3.29243164062500000000e+02) (29, 5.64759826660156250000e+02) (30, -1.11808300781250000000e+03) (31, -1.16546179199218750000e+03) (32, -1.12816394042968750000e+03) (33, -1.39678308105468750000e+03) (34, -1.29044262695312500000e+03) (35, -1.40611169433593750000e+03) (36, -1.11119006347656250000e+03) (0, -1.26470458984375000000e+03) (1, -1.25803942871093750000e+03) (2, -1.05196142578125000000e+03) (3, -1.06260046386718750000e+03) (4, -1.07072802734375000000e+03) (5, -1.28017065429687500000e+03) (6, -1.28451403808593750000e+03) (7, -9.99715698242187500000e+02) (8, 1.49993603515625000000e+03) (9, -2.37374938964843750000e+02) (10, -3.05866699218750000000e+02) (11, 2.75238151550292968750e+01) (12, 1.50000000000000000000e+03) (13, 1.50000000000000000000e+03) (14, -1.43782238769531250000e+03) (15, -1.38528454589843750000e+03) (16, -1.36963354492187500000e+03) (17, -1.49893798828125000000e+03) (18, -1.48564172363281250000e+03) (19, -1.49710961914062500000e+03) (20, -1.36963354492187500000e+03) (21, -1.23157604980468750000e+03) (22, -1.41756823730468750000e+03) (23, 1.50000000000000000000e+03) (24, 1.49091955566406250000e+03) (25, 1.44453247070312500000e+03) (26, -1.26980615234375000000e+03) (27, -1.49656127929687500000e+03) (28, -1.49607189941406250000e+03) (29, -1.36593176269531250000e+03) (30, -1.38777172851562500000e+03) (31, -1.38772570800781250000e+03) (32, -1.49956225585937500000e+03) (33, -1.34457836914062500000e+03) (34, -1.37305834960937500000e+03) (35, -1.28835864257812500000e+03) (36, -1.48472460937500000000e+03) (0, 1.22146459960937500000e+03) (1, 1.49878515625000000000e+03) (2, 1.49866455078125000000e+03) (3, 1.50000000000000000000e+03) (4, 1.49941320800781250000e+03) (5, 1.50000000000000000000e+03) (6, 1.50000000000000000000e+03) (7, -7.27763244628906250000e+02) (8, 7.68854980468750000000e+02) (9, 1.45837658691406250000e+03) (10, 7.32317626953125000000e+02) (11, 8.64490417480468750000e+02) (12, 1.50000000000000000000e+03) (13, 1.50000000000000000000e+03) (14, 1.38152429199218750000e+03) (15, 1.50000000000000000000e+03) (16, 1.50000000000000000000e+03) (17, 1.49999987792968750000e+03) (18, 1.49999963378906250000e+03) (19, 1.49730139160156250000e+03) (20, 1.50000000000000000000e+03) (21, 1.50000000000000000000e+03) (22, 5.29339111328125000000e+02) (23, 1.50000000000000000000e+03) (24, 1.44143713378906250000e+03) (25, -8.45852905273437500000e+02) (26, -5.84623474121093750000e+02) (27, 1.49997558593750000000e+03) (28, -5.21531555175781250000e+02) (29, 1.42025512695312500000e+03) (30, 1.40189440917968750000e+03) (31, 1.40843249511718750000e+03) (32, 1.41047131347656250000e+03) (33, 1.07165148925781250000e+03) (34, 7.51639556884765625000e+01) (35, -1.24161608886718750000e+03) (36, 1.49992211914062500000e+03) (0, 1.29426953125000000000e+03) (1, 1.46464758300781250000e+03) (2, 1.48604772949218750000e+03) (3, 1.48798937988281250000e+03) (4, 1.49895129394531250000e+03) (5, 1.50000000000000000000e+03) (6, 1.50000000000000000000e+03) (7, -8.71548461914062500000e+02) (8, 1.11215795898437500000e+03) (9, 1.38874865722656250000e+03) (10, 1.26537976074218750000e+03) (11, 1.33798315429687500000e+03) (12, 1.50000000000000000000e+03) (13, 1.50000000000000000000e+03) (14, 1.47026831054687500000e+03) (15, 1.50000000000000000000e+03) (16, 1.50000000000000000000e+03) (17, 1.49934997558593750000e+03) (18, 1.49999499511718750000e+03) (19, 1.49636022949218750000e+03) (20, 1.50000000000000000000e+03) (21, 1.50000000000000000000e+03) (22, 1.15079174804687500000e+03) (23, 1.50000000000000000000e+03) (24, 1.48490283203125000000e+03) (25, -1.45933886718750000000e+03) (26, -6.96352195739746093750e+00) (27, 1.49998645019531250000e+03) (28, 6.33915222167968750000e+02) (29, 1.49999035644531250000e+03) (30, 1.40354101562500000000e+03) (31, 1.40245031738281250000e+03) (32, 1.46254565429687500000e+03) (33, 8.05326721191406250000e+02) (34, 1.05747143554687500000e+03) (35, -6.60486877441406250000e+02) (36, 1.49843518066406250000e+03) (0, -1.22083923339843750000e+03) (1, -9.69689514160156250000e+02) (2, -1.02256445312500000000e+03) (3, -9.74747253417968750000e+02) (4, -1.06924487304687500000e+03) (5, -1.12164746093750000000e+03) (6, -1.11629626464843750000e+03) (7, -1.06132971191406250000e+03) (8, 1.10810388183593750000e+03) (9, -6.12991638183593750000e+02) (10, 2.88755523681640625000e+02) (11, -1.08828637695312500000e+03) (12, 1.50000000000000000000e+03) (13, 1.50000000000000000000e+03) (14, -1.37919116210937500000e+03) (15, -1.38607641601562500000e+03) (16, -1.42266101074218750000e+03) (17, -1.49472033691406250000e+03) (18, -1.39130273437500000000e+03) (19, -1.49931140136718750000e+03) (20, -1.42824096679687500000e+03) (21, -1.46484899902343750000e+03) (22, 1.42042944335937500000e+03) (23, 1.50000000000000000000e+03) (24, -9.00179260253906250000e+02) (25, -7.54737792968750000000e+02) (26, -1.37832107543945312500e+02) (27, -4.31215759277343750000e+02) (28, -9.37869018554687500000e+02) (29, -1.37599279785156250000e+03) (30, -1.40644140625000000000e+03) (31, -1.39386633300781250000e+03) (32, -1.44669848632812500000e+03) (33, -1.39434509277343750000e+03) (34, -1.39402575683593750000e+03) (35, -1.27144714355468750000e+03) (36, -1.49915380859375000000e+03) (0, -1.34736022949218750000e+03) (1, 1.44105541992187500000e+03) (2, 1.49943237304687500000e+03) (3, 1.50000000000000000000e+03) (4, 1.50000000000000000000e+03) (5, -1.27427709960937500000e+03) (6, -1.30121960449218750000e+03) (7, -1.08189807128906250000e+03) (8, 2.23732788085937500000e+02) (9, 1.14909484863281250000e+03) (10, 6.94215637207031250000e+02) (11, 1.20998803710937500000e+03) (12, 1.50000000000000000000e+03) (13, 1.50000000000000000000e+03) (14, 1.47340930175781250000e+03) (15, 1.50000000000000000000e+03) (16, 1.50000000000000000000e+03) (17, 1.50000000000000000000e+03) (18, 1.49987524414062500000e+03) (19, 1.50000000000000000000e+03) (20, 1.50000000000000000000e+03) (21, 1.50000000000000000000e+03) (22, -1.54177078247070312500e+02) (23, 1.50000000000000000000e+03) (24, 1.42543286132812500000e+03) (25, -1.21957153320312500000e+03) (26, -9.17880554199218750000e+02) (27, 1.49757568359375000000e+03) (28, 2.08041656494140625000e+02) (29, 1.00570959472656250000e+03) (30, 1.36249584960937500000e+03) (31, 1.40763720703125000000e+03) (32, 1.40907482910156250000e+03) (33, -2.09685043334960937500e+02) (34, 5.78506469726562500000e+01) (35, -1.46200024414062500000e+03) (36, 1.50000000000000000000e+03) (0, -1.05783837890625000000e+03) (1, -1.05420690917968750000e+03) (2, -1.04355139160156250000e+03) (3, -1.06558874511718750000e+03) (4, -1.06486291503906250000e+03) (5, -1.06499157714843750000e+03) (6, -1.06283557128906250000e+03) (7, -1.11855908203125000000e+03) (8, 1.49983984375000000000e+03) (9, -1.10209777832031250000e+03) (10, -1.02891101074218750000e+03) (11, -1.39788049316406250000e+03) (12, 1.50000000000000000000e+03) (13, 1.50000000000000000000e+03) (14, -4.92831329345703125000e+02) (15, -1.18968383789062500000e+03) (16, -1.64563049316406250000e+02) (17, -1.49796911621093750000e+03) (18, -1.38346240234375000000e+03) (19, -1.49700695800781250000e+03) (20, -1.88423645019531250000e+02) (21, -1.33382177734375000000e+03) (22, 1.50000000000000000000e+03) (23, 1.50000000000000000000e+03) (24, 1.03946020507812500000e+03) (25, 5.17051879882812500000e+02) (26, -1.49739013671875000000e+03) (27, -1.49363415527343750000e+03) (28, -1.49718103027343750000e+03) (29, -1.44711218261718750000e+03) (30, -1.44459655761718750000e+03) (31, -1.42322729492187500000e+03) (32, -1.46042944335937500000e+03) (33, -1.43463427734375000000e+03) (34, -1.44924401855468750000e+03) (35, -1.35773583984375000000e+03) (36, -1.45663171386718750000e+03) (0, 1.22931298828125000000e+03) (1, 1.49878491210937500000e+03) (2, 1.49645007324218750000e+03) (3, 1.49999267578125000000e+03) (4, 1.49940661621093750000e+03) (5, 1.50000000000000000000e+03) (6, 1.50000000000000000000e+03) (7, -9.58973449707031250000e+02) (8, 8.69209472656250000000e+02) (9, 1.45655920410156250000e+03) (10, 7.31901123046875000000e+02) (11, 8.62134643554687500000e+02) (12, 1.50000000000000000000e+03) (13, 1.50000000000000000000e+03) (14, 1.38152429199218750000e+03) (15, 1.50000000000000000000e+03) (16, 1.50000000000000000000e+03) (17, 1.49015649414062500000e+03) (18, 1.49999963378906250000e+03) (19, 1.49803051757812500000e+03) (20, 1.50000000000000000000e+03) (21, 1.50000000000000000000e+03) (22, 2.65246856689453125000e+02) (23, 1.50000000000000000000e+03) (24, 1.45026538085937500000e+03) (25, -1.46953149414062500000e+03) (26, -5.84632324218750000000e+02) (27, 1.49996765136718750000e+03) (28, -5.21329772949218750000e+02) (29, 1.31991345214843750000e+03) (30, 1.36064245605468750000e+03) (31, 