FANN_FLO_2.1
num_layers=85
learning_rate=0.700000
connection_rate=1.000000
network_type=1
learning_momentum=0.000000
training_algorithm=2
train_error_function=0
train_stop_function=1
cascade_output_change_fraction=0.010000
quickprop_decay=-0.000100
quickprop_mu=1.750000
rprop_increase_factor=1.200000
rprop_decrease_factor=0.500000
rprop_delta_min=0.000000
rprop_delta_max=50.000000
rprop_delta_zero=0.100000
cascade_output_stagnation_epochs=12
cascade_candidate_change_fraction=0.010000
cascade_candidate_stagnation_epochs=12
cascade_max_out_epochs=150
cascade_min_out_epochs=50
cascade_max_cand_epochs=150
cascade_min_cand_epochs=50
cascade_num_candidate_groups=2
bit_fail_limit=4.99999988824129104614e-03
cascade_candidate_limit=1.00000000000000000000e+03
cascade_weight_multiplier=4.00000005960464477539e-01
cascade_activation_functions_count=3
cascade_activation_functions=5 15 14 
cascade_activation_steepnesses_count=1
cascade_activation_steepnesses=2.50000000000000000000e-01 
layer_sizes=37 1 1 1 1 1 1 1 1 1 1 1 1 1 1 1 1 1 1 1 1 1 1 1 1 1 1 1 1 1 1 1 1 1 1 1 1 1 1 1 1 1 1 1 1 1 1 1 1 1 1 1 1 1 1 1 1 1 1 1 1 1 1 1 1 1 1 1 1 1 1 1 1 1 1 1 1 1 1 1 1 1 1 1 1 
scale_included=0
neurons (num_inputs, activation_function, activation_steepness)=(0, 0, 0.00000000000000000000e+00) (0, 0, 0.00000000000000000000e+00) (0, 0, 0.00000000000000000000e+00) (0, 0, 0.00000000000000000000e+00) (0, 0, 0.00000000000000000000e+00) (0, 0, 0.00000000000000000000e+00) (0, 0, 0.00000000000000000000e+00) (0, 0, 0.00000000000000000000e+00) (0, 0, 0.00000000000000000000e+00) (0, 0, 0.00000000000000000000e+00) (0, 0, 0.00000000000000000000e+00) (0, 0, 0.00000000000000000000e+00) (0, 0, 0.00000000000000000000e+00) (0, 0, 0.00000000000000000000e+00) (0, 0, 0.00000000000000000000e+00) (0, 0, 0.00000000000000000000e+00) (0, 0, 0.00000000000000000000e+00) (0, 0, 0.00000000000000000000e+00) (0, 0, 0.00000000000000000000e+00) (0, 0, 0.00000000000000000000e+00) (0, 0, 0.00000000000000000000e+00) (0, 0, 0.00000000000000000000e+00) (0, 0, 0.00000000000000000000e+00) (0, 0, 0.00000000000000000000e+00) (0, 0, 0.00000000000000000000e+00) (0, 0, 0.00000000000000000000e+00) (0, 0, 0.00000000000000000000e+00) (0, 0, 0.00000000000000000000e+00) (0, 0, 0.00000000000000000000e+00) (0, 0, 0.00000000000000000000e+00) (0, 0, 0.00000000000000000000e+00) (0, 0, 0.00000000000000000000e+00) (0, 0, 0.00000000000000000000e+00) (0, 0, 0.00000000000000000000e+00) (0, 0, 0.00000000000000000000e+00) (0, 0, 0.00000000000000000000e+00) (0, 0, 0.00000000000000000000e+00) (37, 14, 2.50000000000000000000e-01) (38, 5, 2.50000000000000000000e-01) (39, 15, 2.50000000000000000000e-01) (40, 5, 2.50000000000000000000e-01) (41, 5, 2.50000000000000000000e-01) (42, 14, 2.50000000000000000000e-01) (43, 5, 2.50000000000000000000e-01) (44, 14, 2.50000000000000000000e-01) (45, 15, 2.50000000000000000000e-01) (46, 14, 2.50000000000000000000e-01) (47, 14, 2.50000000000000000000e-01) (48, 5, 2.50000000000000000000e-01) (49, 5, 2.50000000000000000000e-01) (50, 14, 2.50000000000000000000e-01) (51, 15, 2.50000000000000000000e-01) (52, 14, 2.50000000000000000000e-01) (53, 15, 2.50000000000000000000e-01) (54, 15, 2.50000000000000000000e-01) (55, 15, 2.50000000000000000000e-01) (56, 14, 2.50000000000000000000e-01) (57, 15, 2.50000000000000000000e-01) (58, 5, 2.50000000000000000000e-01) (59, 5, 2.50000000000000000000e-01) (60, 14, 2.50000000000000000000e-01) (61, 14, 2.50000000000000000000e-01) (62, 15, 2.50000000000000000000e-01) (63, 15, 2.50000000000000000000e-01) (64, 14, 2.50000000000000000000e-01) (65, 14, 2.50000000000000000000e-01) (66, 14, 2.50000000000000000000e-01) (67, 15, 2.50000000000000000000e-01) (68, 15, 2.50000000000000000000e-01) (69, 14, 2.50000000000000000000e-01) (70, 15, 2.50000000000000000000e-01) (71, 15, 2.50000000000000000000e-01) (72, 15, 2.50000000000000000000e-01) (73, 14, 2.50000000000000000000e-01) (74, 14, 2.50000000000000000000e-01) (75, 15, 2.50000000000000000000e-01) (76, 15, 2.50000000000000000000e-01) (77, 14, 2.50000000000000000000e-01) (78, 14, 2.50000000000000000000e-01) (79, 14, 2.50000000000000000000e-01) (80, 14, 2.50000000000000000000e-01) (81, 15, 2.50000000000000000000e-01) (82, 15, 2.50000000000000000000e-01) (83, 5, 2.50000000000000000000e-01) (84, 14, 2.50000000000000000000e-01) (85, 14, 2.50000000000000000000e-01) (86, 15, 2.50000000000000000000e-01) (87, 15, 2.50000000000000000000e-01) (88, 15, 2.50000000000000000000e-01) (89, 5, 2.50000000000000000000e-01) (90, 15, 2.50000000000000000000e-01) (91, 15, 2.50000000000000000000e-01) (92, 15, 2.50000000000000000000e-01) (93, 15, 2.50000000000000000000e-01) (94, 14, 2.50000000000000000000e-01) (95, 14, 2.50000000000000000000e-01) (96, 5, 2.50000000000000000000e-01) (97, 14, 2.50000000000000000000e-01) (98, 14, 2.50000000000000000000e-01) (99, 5, 2.50000000000000000000e-01) (100, 5, 2.50000000000000000000e-01) (101, 5, 2.50000000000000000000e-01) (102, 5, 2.50000000000000000000e-01) (103, 14, 2.50000000000000000000e-01) (104, 15, 2.50000000000000000000e-01) (105, 15, 2.50000000000000000000e-01) (106, 14, 2.50000000000000000000e-01) (107, 14, 2.50000000000000000000e-01) (108, 14, 2.50000000000000000000e-01) (109, 15, 2.50000000000000000000e-01) (110, 14, 2.50000000000000000000e-01) (111, 15, 2.50000000000000000000e-01) (112, 14, 2.50000000000000000000e-01) (113, 15, 2.50000000000000000000e-01) (114, 14, 2.50000000000000000000e-01) (115, 15, 2.50000000000000000000e-01) (116, 14, 2.50000000000000000000e-01) (117, 14, 2.50000000000000000000e-01) (118, 15, 2.50000000000000000000e-01) (119, 14, 2.50000000000000000000e-01) (120, 0, 5.00000000000000000000e-01) 
connections (connected_to_neuron, weight)=(0, 6.52116954326629638672e-01) (1, -6.56699061393737792969e-01) (2, -1.01389682292938232422e+00) (3, 5.16708731651306152344e-01) (4, -5.01182675361633300781e-01) (5, -7.20101535320281982422e-01) (6, 4.50355224311351776123e-02) (7, 1.06586086750030517578e+00) (8, -5.96304178237915039062e-01) (9, 1.75888985395431518555e-01) (10, 6.91248655319213867188e-01) (11, 6.75356984138488769531e-01) (12, 1.14541027832031250000e+03) (13, 1.14506982421875000000e+03) (14, -3.71591835021972656250e+01) (15, 3.38369274139404296875e+00) (16, 1.52020180225372314453e+00) (17, 1.05529630184173583984e+00) (18, 1.98229897022247314453e+00) (19, 8.80444467067718505859e-01) (20, 1.82045805454254150391e+00) (21, 2.08561086654663085938e+00) (22, 1.68155026435852050781e+00) (23, 1.14526159667968750000e+03) (24, 2.45080494880676269531e+00) (25, 1.28289318084716796875e+00) (26, 1.62236845493316650391e+00) (27, 1.08248364925384521484e+00) (28, 2.62969255447387695312e+00) (29, 1.70374572277069091797e+00) (30, 2.80185794830322265625e+00) (31, 2.24734330177307128906e+00) (32, 2.23392629623413085938e+00) (33, 1.37305867671966552734e+00) (34, 2.42299914360046386719e+00) (35, 1.42174446582794189453e+00) (36, 1.88711434602737426758e-01) (0, 2.29371953010559082031e+00) (1, 9.18372347950935363770e-02) (2, -8.40430378913879394531e-01) (3, -2.91888093948364257812e+00) (4, -4.24920797348022460938e-01) (5, 9.51644420623779296875e-01) (6, -6.76127597689628601074e-02) (7, 7.80969977378845214844e-01) (8, 2.24749875068664550781e+00) (9, 1.64078220725059509277e-01) (10, -7.14289426803588867188e-01) (11, -2.24388265609741210938e+00) (12, 1.50000000000000000000e+03) (13, 1.50000000000000000000e+03) (14, 5.79114990234375000000e+01) (15, -9.31014442443847656250e+00) (16, 5.28660774230957031250e+00) (17, -2.78357362747192382812e+00) (18, 1.33290684223175048828e+00) (19, -1.89838683605194091797e+00) (20, 2.92355132102966308594e+00) (21, -8.37710857391357421875e-01) (22, 3.15822353363037109375e+01) (23, 1.50000000000000000000e+03) (24, 4.02717053890228271484e-01) (25, 1.64666497707366943359e+00) (26, -5.32303936779499053955e-02) (27, 2.11479231715202331543e-01) (28, -4.38659846782684326172e-01) (29, 2.25819140672683715820e-01) (30, 1.11046242713928222656e+00) (31, 1.08324348926544189453e+00) (32, 2.64289051294326782227e-01) (33, -1.73983737826347351074e-01) (34, 2.79474228620529174805e-01) (35, -5.06336987018585205078e-01) (36, -1.56631469726562500000e+00) (37, 3.93834203481674194336e-01) (0, 1.24228477478027343750e+00) (1, -7.32460021972656250000e-01) (2, 9.34652835130691528320e-02) (3, 7.86141633987426757812e-01) (4, -1.08346112072467803955e-01) (5, 6.53610050678253173828e-01) (6, 2.94359147548675537109e-01) (7, -2.77374196052551269531e+00) (8, 5.34569323062896728516e-01) (9, -1.20911754667758941650e-01) (10, 2.39227437973022460938e+00) (11, -7.24274754524230957031e-01) (12, 1.50000000000000000000e+03) (13, 1.50000000000000000000e+03) (14, -1.87528743743896484375e+01) (15, 9.65839266777038574219e-01) (16, -8.02474141120910644531e-01) (17, 3.57205778360366821289e-01) (18, 2.41302847862243652344e+00) (19, -4.72933918237686157227e-01) (20, 2.15824529528617858887e-01) (21, 3.52981114387512207031e+00) (22, -1.09905319213867187500e+02) (23, 1.50000000000000000000e+03) (24, -3.06640958786010742188e+00) (25, -2.74249696731567382812e+00) (26, -2.88060951232910156250e+00) (27, 6.82245910167694091797e-01) (28, 3.44324040412902832031e+00) (29, 7.56650865077972412109e-01) (30, 1.92260050773620605469e+00) (31, 2.56795978546142578125e+00) (32, 2.54892325401306152344e+00) (33, 2.88158506155014038086e-01) (34, 1.16148936748504638672e+00) (35, -1.91846951842308044434e-01) (36, 1.15164697170257568359e+00) (37, 1.87515151500701904297e+00) (38, 1.25217676162719726562e+00) (0, -1.72846615314483642578e-01) (1, -3.46317619085311889648e-01) (2, -3.78017574548721313477e-01) (3, 1.09391164779663085938e+00) (4, -3.24262529611587524414e-02) (5, -1.36160925030708312988e-01) (6, -1.52033492922782897949e-01) (7, -1.99804812669754028320e-01) (8, -6.90841749310493469238e-02) (9, -3.38878214359283447266e-01) (10, 5.28465747833251953125e-01) (11, 1.07689179480075836182e-01) (12, 1.50000000000000000000e+03) (13, 1.50000000000000000000e+03) (14, -2.24584579467773437500e+01) (15, 2.80775356292724609375e+00) (16, -3.59480261802673339844e-01) (17, 8.23117233812808990479e-03) (18, 3.53755533695220947266e-01) (19, 3.42233389616012573242e-01) (20, -5.78318834304809570312e-01) (21, 1.54588073492050170898e-01) (22, 1.56088590621948242188e+01) (23, 1.50000000000000000000e+03) (24, -1.21791154146194458008e-01) (25, 6.27160370349884033203e-01) (26, 8.96766722202301025391e-01) (27, 9.32888031005859375000e-01) (28, -2.06117677688598632812e+00) (29, -2.21356019377708435059e-01) (30, -1.17653124034404754639e-01) (31, -6.21319830417633056641e-01) (32, 4.97240751981735229492e-01) (33, -2.40908265113830566406e-01) (34, 8.46940219402313232422e-01) (35, 1.63265204429626464844e+00) (36, -5.77329158782958984375e-01) (37, 1.66117727756500244141e-01) (38, 7.14415669441223144531e-01) (39, -9.58875119686126708984e-01) (0, -7.60485185310244560242e-04) (1, -7.01632201671600341797e-01) (2, -1.04509130120277404785e-01) (3, 5.17742991447448730469e-01) (4, 4.19611424207687377930e-01) (5, -2.04703226685523986816e-01) (6, -7.52656236290931701660e-02) (7, 2.61886030435562133789e-01) (8, -1.09134376049041748047e+00) (9, -1.24818794429302215576e-01) (10, 4.30554449558258056641e-01) (11, 7.34229564666748046875e-01) (12, 1.50000000000000000000e+03) (13, 1.50000000000000000000e+03) (14, 2.88679676055908203125e+01) (15, -1.71929383277893066406e+00) (16, 4.27131712436676025391e-01) (17, 1.25554943084716796875e+00) (18, -7.68881440162658691406e-01) (19, -3.11882067471742630005e-02) (20, 9.02861416339874267578e-01) (21, 2.49747484922409057617e-01) (22, -2.39960765838623046875e+01) (23, 1.50000000000000000000e+03) (24, -3.73662292957305908203e-01) (25, 1.89978301525115966797e-01) (26, 1.68270003795623779297e+00) (27, 1.93565261363983154297e+00) (28, -4.75188106298446655273e-01) (29, 2.06287354230880737305e-01) (30, 6.76760911941528320312e-01) (31, 7.17656075954437255859e-01) (32, 7.76638090610504150391e-01) (33, -1.27158594131469726562e+00) (34, 6.35371659882366657257e-04) (35, 6.57818257808685302734e-01) (36, -1.98270463943481445312e+00) (37, 6.80694520473480224609e-01) (38, 3.39318186044692993164e-01) (39, -2.30691358447074890137e-01) (40, 1.79645824432373046875e+00) (0, -1.06688032150268554688e+01) (1, -1.16279208660125732422e+00) (2, -2.46456399559974670410e-01) (3, 1.21631395816802978516e+00) (4, 2.50390362739562988281e+00) (5, 5.92408990859985351562e+00) (6, 1.68044126033782958984e+00) (7, 3.15420240163803100586e-01) (8, 1.87828767299652099609e+00) (9, 1.47670006752014160156e+00) (10, 5.56047976016998291016e-01) (11, 6.52444660663604736328e-01) (12, 1.50000000000000000000e+03) (13, 1.50000000000000000000e+03) (14, -4.08304656982421875000e+02) (15, 1.25801503658294677734e+00) (16, 4.99537086486816406250e+01) (17, 9.83179867267608642578e-01) (18, -2.19953313469886779785e-01) (19, -3.84024292230606079102e-01) (20, 1.09048700332641601562e+00) (21, -4.82521171569824218750e+01) (22, 7.51769592285156250000e+02) (23, 1.50000000000000000000e+03) (24, 8.36320400238037109375e-01) (25, -3.68161424994468688965e-02) (26, -9.57537651062011718750e-01) (27, 2.15105199813842773438e+00) (28, 2.19348406791687011719e+00) (29, 2.19473052024841308594e+00) (30, 9.59777593612670898438e-01) (31, 5.59889972209930419922e-01) (32, 6.58129036426544189453e-01) (33, 4.00033831596374511719e-01) (34, 2.53357052803039550781e+00) (35, 2.47972774505615234375e+00) (36, 2.37994551658630371094e+00) (37, -3.98568660020828247070e-02) (38, 1.17726840972900390625e+01) (39, -9.95038070678710937500e+01) (40, -9.04512023925781250000e+00) (41, 1.23752937316894531250e+01) (0, 2.79089629650115966797e-01) (1, 1.72830983996391296387e-01) (2, 8.06427597999572753906e-01) (3, -8.47831308841705322266e-01) (4, -6.28755316138267517090e-02) (5, -5.20155310630798339844e-01) (6, -7.51889884471893310547e-01) (7, 7.46607959270477294922e-01) (8, 3.09120982885360717773e-01) (9, 5.71155309677124023438e-01) (10, -3.70761722326278686523e-01) (11, -3.64978522062301635742e-01) (12, 1.50000000000000000000e+03) (13, 1.50000000000000000000e+03) (14, -2.73435974121093750000e+01) (15, 3.34017848968505859375e+00) (16, 5.96794366836547851562e-01) (17, -2.36150670051574707031e+00) (18, -2.06400752067565917969e-02) (19, 2.30323743820190429688e+00) (20, -5.63146173954010009766e-01) (21, -5.41100072860717773438e+00) (22, 1.44922485351562500000e+02) (23, 1.50000000000000000000e+03) (24, -4.01232391595840454102e-01) (25, -5.40972828865051269531e-01) (26, 3.07815670967102050781e-01) (27, 1.55537164211273193359e+00) (28, 6.20859384536743164062e-01) (29, -3.75737190246582031250e-01) (30, -1.51643365621566772461e-01) (31, 8.84781777858734130859e-02) (32, -8.98111164569854736328e-01) (33, -1.90258696675300598145e-01) (34, 5.04723191261291503906e-01) (35, -1.11007958650588989258e-01) (36, 2.84346118569374084473e-02) (37, 9.13488045334815979004e-02) (38, -6.66334390640258789062e-01) (39, 1.69048175215721130371e-01) (40, 4.44029629230499267578e-01) (41, 6.29359558224678039551e-02) (42, -1.30075896158814430237e-02) (0, 2.37374234199523925781e+00) (1, 1.26775181293487548828e+00) (2, 1.12101817131042480469e+00) (3, -1.30133783817291259766e+00) (4, 1.55924642086029052734e+00) (5, -7.60343194007873535156e-01) (6, 6.98607861995697021484e-01) (7, 3.87151867151260375977e-01) (8, -3.77569317817687988281e+00) (9, -5.00004529953002929688e-01) (10, 2.04434961080551147461e-01) (11, -2.65142607688903808594e+00) (12, 1.50000000000000000000e+03) (13, 1.50000000000000000000e+03) (14, 6.88719482421875000000e+02) (15, -1.78918437957763671875e+01) (16, -1.61327991485595703125e+01) (17, 8.78944754600524902344e-01) (18, 8.87310445308685302734e-01) (19, 1.19737052917480468750e+00) (20, -4.64799118041992187500e+00) (21, 3.47597122192382812500e+01) (22, -1.50000000000000000000e+03) (23, 1.50000000000000000000e+03) (24, 3.61080384254455566406e+00) (25, 3.43070125579833984375e+00) (26, 4.60985183715820312500e+00) (27, 3.17358136177062988281e+00) (28, 2.66747689247131347656e+00) (29, 4.07674741744995117188e+00) (30, 3.81992173194885253906e+00) (31, 3.61115908622741699219e+00) (32, 2.18695378303527832031e+00) (33, 5.09871768951416015625e+00) (34, 4.35093069076538085938e+00) (35, 5.71754407882690429688e+00) (36, 2.65331119298934936523e-01) (37, -5.39652466773986816406e-01) (38, -2.43704051971435546875e+01) (39, 2.84958534240722656250e+01) (40, -4.87113151550292968750e+01) (41, -5.30972671508789062500e+01) (42, 3.52707242965698242188e+00) (43, 9.49740171432495117188e-01) (0, 2.81367182731628417969e-01) (1, 1.65633430480957031250e+01) (2, 7.93330192565917968750e-01) (3, 2.64406466484069824219e+00) (4, -5.59978628158569335938e+00) (5, -4.88764572143554687500e+00) (6, 7.51173138618469238281e-01) (7, -2.27037858963012695312e+00) (8, 7.94457626342773437500e+00) (9, 6.12343645095825195312e+00) (10, 6.44169521331787109375e+00) (11, 7.55053329467773437500e+00) (12, 1.50000000000000000000e+03) (13, 1.50000000000000000000e+03) (14, -7.14507568359375000000e+02) (15, -4.14339790344238281250e+01) (16, 7.87587022781372070312e+00) (17, 2.61188060045242309570e-01) (18, -3.61913943290710449219e+00) (19, 3.76957631111145019531e+00) (20, 1.37389564514160156250e+01) (21, 8.82406539916992187500e+01) (22, 1.50000000000000000000e+03) (23, 1.50000000000000000000e+03) (24, 3.65158356726169586182e-02) (25, 1.20356416702270507812e+00) (26, 2.15774372220039367676e-01) (27, -5.17362213134765625000e+00) (28, -6.40959382057189941406e-01) (29, -6.04302048683166503906e-01) (30, -2.88804268836975097656e+00) (31, -2.54099082946777343750e+00) (32, 8.77382576465606689453e-01) (33, -9.13536787033081054688e-01) (34, 7.09226369857788085938e-01) (35, -3.23687601089477539062e+00) (36, -1.82982176542282104492e-01) (37, 1.22874772548675537109e+00) (38, 3.65956954956054687500e+01) (39, 5.78670768737792968750e+01) (40, 6.97532196044921875000e+01) (41, 3.18828601837158203125e+01) (42, 2.04703402519226074219e+00) (43, 2.88259582519531250000e+01) (44, 2.61737155914306640625e+00) (0, -5.04427032470703125000e+01) (1, 9.97084915637969970703e-01) (2, 4.33036136627197265625e+00) (3, 1.33898961544036865234e+00) (4, 4.56704854965209960938e-01) (5, 6.99118947982788085938e+00) (6, 1.54928646087646484375e+01) (7, 5.99690008163452148438e+00) (8, 3.35705852508544921875e+00) (9, 6.89027786254882812500e+00) (10, 2.32189917564392089844e+00) (11, 1.09116315841674804688e+00) (12, 1.50000000000000000000e+03) (13, 1.50000000000000000000e+03) (14, 6.64609008789062500000e+02) (15, 1.12154560089111328125e+01) (16, 1.20164947509765625000e+01) (17, 3.37179255485534667969e+00) (18, 4.11818552017211914062e+00) (19, -8.47698450088500976562e-01) (20, 5.31850194931030273438e+00) (21, 3.97247619628906250000e+01) (22, 1.50000000000000000000e+03) (23, 1.50000000000000000000e+03) (24, 8.45153033733367919922e-01) (25, 1.00469076633453369141e+00) (26, 1.55850422382354736328e+00) (27, 7.44247019290924072266e-01) (28, 2.24016237258911132812e+00) (29, 2.42765808105468750000e+00) (30, 1.56269299983978271484e+00) (31, 2.42877507209777832031e+00) (32, 1.61696732044219970703e+00) (33, 7.76316642761230468750e-01) (34, 1.40850007534027099609e+00) (35, 5.20477342605590820312e+00) (36, -7.50083923339843750000e-01) (37, 1.10503253936767578125e+01) (38, 3.87723946571350097656e+00) (39, 2.59868545532226562500e+01) (40, -1.08920679092407226562e+01) (41, -9.99993667602539062500e+01) (42, 1.31309151649475097656e+00) (43, -2.62702250480651855469e+00) (44, 3.48051095008850097656e+00) (45, 8.73922252655029296875e+00) (0, -7.33543753623962402344e-01) (1, 3.29630523920059204102e-01) (2, 6.47303104400634765625e-01) (3, 2.54282116889953613281e-01) (4, -4.08419191837310791016e-01) (5, 3.55551466345787048340e-02) (6, 1.03904616832733154297e+00) (7, 8.55853378772735595703e-01) (8, 1.03020083904266357422e+00) (9, -5.56179189682006835938e+00) (10, -1.85340076684951782227e-01) (11, 1.11438512802124023438e+00) (12, 1.50000000000000000000e+03) (13, 1.50000000000000000000e+03) (14, 8.08493774414062500000e+02) (15, 4.21544504165649414062e+00) (16, -9.07001733779907226562e-01) (17, 6.87328875064849853516e-01) (18, -1.15173826217651367188e+01) (19, 1.24201142787933349609e+00) (20, 4.71656990051269531250e+01) (21, -1.59587310791015625000e+02) (22, 1.49773950195312500000e+03) (23, 1.50000000000000000000e+03) (24, 2.63816237449645996094e+00) (25, 3.74291777610778808594e+00) (26, 3.80700969696044921875e+00) (27, 8.67463290691375732422e-01) (28, 2.89927792549133300781e+00) (29, 4.25002956390380859375e+00) (30, 2.60848522186279296875e+00) (31, 3.53428792953491210938e+00) (32, 2.86890530586242675781e+00) (33, 2.77463006973266601562e+00) (34, 7.75185441970825195312e+00) (35, 2.87959718704223632812e+00) (36, 1.86390292644500732422e+00) (37, 4.39638853073120117188e+00) (38, -1.62551994323730468750e+01) (39, 2.04105129241943359375e+01) (40, -2.13529796600341796875e+01) (41, -6.86789169311523437500e+01) (42, 2.16710472106933593750e+00) (43, 6.35464591979980468750e+01) (44, 4.15825009346008300781e-01) (45, -1.88474619388580322266e+00) (46, 7.02034235000610351562e+00) (0, -5.27912564575672149658e-02) (1, 2.47123867273330688477e-01) (2, -3.61082732677459716797e-01) (3, 5.59701919555664062500e-01) (4, 4.45917358398437500000e+01) (5, -7.49143540859222412109e-01) (6, -1.96849763393402099609e-01) (7, 7.37515389919281005859e-01) (8, -8.11058044433593750000e-01) (9, -2.62058758735656738281e+00) (10, -6.33553147315979003906e-01) (11, -1.91236674785614013672e+00) (12, 1.50000000000000000000e+03) (13, 1.50000000000000000000e+03) (14, 1.50000000000000000000e+03) (15, -1.45391113281250000000e+02) (16, 7.62949228286743164062e+00) (17, -8.17038440704345703125e+00) (18, -1.51385354995727539062e+01) (19, -1.64641532897949218750e+01) (20, -3.17069625854492187500e+01) (21, 8.44169158935546875000e+01) (22, 8.46133361816406250000e+02) (23, 1.50000000000000000000e+03) (24, -1.61723956465721130371e-01) (25, -6.90933346748352050781e-01) (26, -7.60569858551025390625e+00) (27, -6.05899810791015625000e-01) (28, -4.01015371084213256836e-01) (29, -5.55050611495971679688e-01) (30, -3.16450536251068115234e-01) (31, -1.43427145481109619141e+00) (32, 3.29874992370605468750e-01) (33, 2.26875519752502441406e+00) (34, 1.35668241977691650391e+00) (35, 5.30155710875988006592e-02) (36, -4.14708471298217773438e+00) (37, -9.57806205749511718750e+00) (38, 3.68694648742675781250e+01) (39, -1.98284702301025390625e+01) (40, 8.61469192504882812500e+01) (41, -7.63950500488281250000e+01) (42, -2.35688805580139160156e+00) (43, -5.72353477478027343750e+01) (44, 5.47503709793090820312e+00) (45, 1.28009355068206787109e+00) (46, 3.00985288619995117188e+00) (47, 1.02331418991088867188e+01) (0, -9.53484117984771728516e-01) (1, -2.57238507270812988281e+00) (2, -5.44442701339721679688e+00) (3, -1.13072891235351562500e+01) (4, -1.38888692855834960938e+01) (5, -1.55936276912689208984e+00) (6, -5.42516887187957763672e-01) (7, -6.11215448379516601562e+00) (8, -7.71953880786895751953e-01) (9, -7.77254462242126464844e-01) (10, 2.38472446799278259277e-01) (11, 1.83471565246582031250e+01) (12, 1.50000000000000000000e+03) (13, 1.50000000000000000000e+03) (14, -1.50000000000000000000e+03) (15, 5.57048225402832031250e+00) (16, 2.13253993988037109375e+01) (17, -6.99005651473999023438e+00) (18, 1.09602994918823242188e+01) (19, 3.79860305786132812500e+00) (20, 3.43010854721069335938e+00) (21, 5.61247940063476562500e+01) (22, 1.32638989257812500000e+03) (23, 1.50000000000000000000e+03) (24, 2.39890646934509277344e+00) (25, 2.16610932350158691406e+00) (26, 3.79747867584228515625e+00) (27, 1.80244207382202148438e+00) (28, 1.43973839282989501953e+00) (29, 1.14452970027923583984e+00) (30, 2.53413534164428710938e+00) (31, 2.34045243263244628906e+00) (32, -5.23313656449317932129e-02) (33, -5.08564829826354980469e-01) (34, 9.06820774078369140625e-01) (35, 1.01823210716247558594e+00) (36, -2.05821357667446136475e-02) (37, -6.69116258621215820312e-01) (38, 1.27976142883300781250e+02) (39, 2.84246883392333984375e+01) (40, -2.30259201049804687500e+02) (41, -1.39337387084960937500e+01) (42, 3.18385934829711914062e+00) (43, 8.43015518188476562500e+01) (44, -6.54089021682739257812e+00) (45, 4.01444959640502929688e+00) (46, 4.95690584182739257812e+00) (47, 6.45179796218872070312e+00) (48, 7.40682983398437500000e+00) (0, 3.35431885719299316406e+00) (1, 4.43175125122070312500e+00) (2, -4.78066062927246093750e+00) (3, -1.32513771057128906250e+01) (4, -1.08928794860839843750e+01) (5, -6.10031270980834960938e+00) (6, -4.05114936828613281250e+00) (7, -4.27912861108779907227e-01) (8, 6.39740586280822753906e-01) (9, 9.46885645389556884766e-01) (10, 1.93537533283233642578e+00) (11, 1.07644021511077880859e+00) (12, 1.50000000000000000000e+03) (13, 1.50000000000000000000e+03) (14, 1.08012329101562500000e+03) (15, 5.28887863159179687500e+01) (16, 2.98794126510620117188e+00) (17, -1.14929877221584320068e-01) (18, 1.54982581734657287598e-01) (19, 2.67451500892639160156e+00) (20, 2.80669331550598144531e-01) (21, -5.12066459655761718750e+01) (22, -1.50000000000000000000e+03) (23, 1.50000000000000000000e+03) (24, 3.09584617614746093750e+00) (25, 4.34523868560791015625e+00) (26, 3.81712031364440917969e+00) (27, 3.09936499595642089844e+00) (28, 4.08559274673461914062e+00) (29, 3.74404668807983398438e+00) (30, 2.52888727188110351562e+00) (31, 2.98642492294311523438e+00) (32, 2.98319959640502929688e+00) (33, 5.69268226623535156250e+00) (34, 2.44737362861633300781e+00) (35, 4.70491075515747070312e+00) (36, 3.09844970703125000000e+00) (37, 4.79363536834716796875e+00) (38, 2.89520797729492187500e+01) (39, 1.48974962234497070312e+01) (40, 1.00533744812011718750e+02) (41, -5.07294960021972656250e+01) (42, -4.58070135116577148438e+00) (43, -5.16609477996826171875e+00) (44, -4.61928129196166992188e+00) (45, 2.30354428291320800781e+00) (46, 3.16200280189514160156e+00) (47, -3.53083968162536621094e+00) (48, 9.09411144256591796875e+00) (49, 1.04907655715942382812e+00) (0, 3.52279758453369140625e+00) (1, 1.31586635112762451172e+00) (2, -1.59079357981681823730e-01) (3, -1.89812541007995605469e-01) (4, 1.64133679866790771484e+00) (5, 8.75551998615264892578e-02) (6, -4.94313764572143554688e+00) (7, -2.76968121528625488281e+00) (8, 4.82572269439697265625e+00) (9, 2.53042483329772949219e+00) (10, 1.59249627590179443359e+00) (11, 1.93268239498138427734e+00) (12, 1.50000000000000000000e+03) (13, 1.50000000000000000000e+03) (14, 4.11165802001953125000e+02) (15, 3.18820571899414062500e+01) (16, 2.81885242462158203125e+00) (17, 3.67396861314773559570e-01) (18, -6.88413286209106445312e+00) (19, -7.15809345245361328125e+00) (20, -1.58792152404785156250e+01) (21, 1.10019966125488281250e+02) (22, -1.22499572753906250000e+02) (23, 1.50000000000000000000e+03) (24, 2.28909206390380859375e+00) (25, 2.72604584693908691406e+00) (26, 2.27103844285011291504e-01) (27, 3.36355662345886230469e+00) (28, 6.95526456832885742188e+00) (29, 9.42315757274627685547e-01) (30, 4.44356775283813476562e+00) (31, 1.74241948127746582031e+00) (32, 1.87039136886596679688e+00) (33, 2.11644768714904785156e+00) (34, 1.83367133140563964844e+00) (35, 4.30025100708007812500e+00) (36, 6.24368131160736083984e-01) (37, -4.02429676055908203125e+00) (38, -5.67060737609863281250e+01) (39, 5.42684440612792968750e+01) (40, -5.66817712783813476562e+00) (41, -6.40952682495117187500e+01) (42, 8.50150012969970703125e+00) (43, 2.64029731750488281250e+01) (44, 2.79197597503662109375e+00) (45, -4.81185293197631835938e+00) (46, 3.28715109825134277344e+00) (47, -2.51453816890716552734e-01) (48, -7.94986009597778320312e-01) (49, 5.99475908279418945312e+00) (50, -1.66216015815734863281e+00) (0, 8.49340915679931640625e+00) (1, 3.95433068275451660156e+00) (2, 7.88102090358734130859e-01) (3, 1.04271936416625976562e+00) (4, 2.52554607391357421875e+00) (5, 1.40430760383605957031e+00) (6, -5.48240089416503906250e+00) (7, 3.91375327110290527344e+00) (8, 1.43879473209381103516e+00) (9, 1.62838947772979736328e+00) (10, 6.36785447597503662109e-01) (11, -2.71500468254089355469e-01) (12, 1.50000000000000000000e+03) (13, 1.50000000000000000000e+03) (14, -8.07443481445312500000e+02) (15, -4.29138832092285156250e+01) (16, -9.24095630645751953125e+00) (17, 3.76790314912796020508e-01) (18, 1.15507686138153076172e+00) (19, 9.09492969512939453125e-01) (20, 1.57846651077270507812e+01) (21, 3.18825168609619140625e+01) (22, -1.50000000000000000000e+03) (23, 1.50000000000000000000e+03) (24, 2.04011273384094238281e+00) (25, 2.61709499359130859375e+00) (26, 2.00772309303283691406e+00) (27, 9.18366372585296630859e-01) (28, 2.77584457397460937500e+00) (29, 3.00340676307678222656e+00) (30, 2.27665925025939941406e+00) (31, 1.91992461681365966797e+00) (32, 1.64124143123626708984e+00) (33, 3.08897304534912109375e+00) (34, 4.07749462127685546875e+00) (35, 4.94874858856201171875e+00) (36, 8.00201952457427978516e-01) (37, -6.05010843276977539062e+00) (38, -2.36713027954101562500e+01) (39, 1.47076320648193359375e+01) (40, 7.05820465087890625000e+01) (41, 1.43808717727661132812e+01) (42, 1.11001873016357421875e+00) (43, -4.47680892944335937500e+01) (44, -4.28052127361297607422e-01) (45, 1.75203657150268554688e+00) (46, -1.06534385681152343750e+00) (47, -3.67954659461975097656e+00) (48, 1.40092098712921142578e+00) (49, -2.83431708812713623047e-01) (50, -4.67020893096923828125e+00) (51, -5.95589637756347656250e+00) (0, -2.26693010330200195312e+00) (1, -1.71553298830986022949e-01) (2, 1.50520214810967445374e-02) (3, 1.91317749023437500000e+00) (4, 1.61084342002868652344e+00) (5, 3.36355662345886230469e+00) (6, 2.43686318397521972656e+00) (7, 6.86523008346557617188e+00) (8, 4.23123645782470703125e+00) (9, 1.21424496173858642578e+00) (10, 1.04953181743621826172e+00) (11, 4.59829092025756835938e+00) (12, 1.50000000000000000000e+03) (13, 1.50000000000000000000e+03) (14, -8.98245178222656250000e+02) (15, 5.39022254943847656250e+01) (16, 1.83777844905853271484e+00) (17, -2.03293967247009277344e+00) (18, 5.79758882522583007812e-01) (19, 1.38327375054359436035e-01) (20, 1.97926387786865234375e+01) (21, -6.03961715698242187500e+01) (22, 1.50000000000000000000e+03) (23, 1.50000000000000000000e+03) (24, 1.39984348788857460022e-02) (25, -2.33973577618598937988e-01) (26, 1.42606183886528015137e-01) (27, 8.86272862553596496582e-02) (28, -5.28556823730468750000e-01) (29, 3.64433437585830688477e-01) (30, 6.43796205520629882812e-01) (31, 6.33004128932952880859e-01) (32, 1.25553977489471435547e+00) (33, 3.47558349370956420898e-01) (34, -1.83007583022117614746e-01) (35, 8.30516278743743896484e-01) (36, 7.32720315456390380859e-01) (37, 4.76296806335449218750e+00) (38, 7.28346586227416992188e-01) (39, 4.11394615173339843750e+01) (40, -3.72266273498535156250e+01) (41, 1.84991119384765625000e+02) (42, 6.87592744827270507812e+00) (43, -4.21301727294921875000e+01) (44, -4.07569265365600585938e+00) (45, 4.30575513839721679688e+00) (46, 4.35073804855346679688e+00) (47, 9.43867111206054687500e+00) (48, 6.48639321327209472656e-01) (49, -3.31058531999588012695e-01) (50, 5.12501478195190429688e+00) (51, -7.60591804981231689453e-01) (52, 7.95819711685180664062e+00) (0, 1.18256533145904541016e+00) (1, 1.13029517233371734619e-01) (2, 1.22512280941009521484e+00) (3, -8.11011493206024169922e-01) (4, -6.02799844741821289062e+00) (5, -8.76741468906402587891e-01) (6, 3.94605875015258789062e-01) (7, -1.63649225234985351562e+00) (8, 3.55917930603027343750e-01) (9, 5.60923814773559570312e-01) (10, 2.07258129119873046875e+00) (11, 7.06047964096069335938e+00) (12, 1.50000000000000000000e+03) (13, 1.50000000000000000000e+03) (14, -2.70583248138427734375e+00) (15, 1.59462318420410156250e+01) (16, 4.32785421609878540039e-01) (17, 3.45236396789550781250e+00) (18, -5.47944927215576171875e+00) (19, 1.60785675048828125000e+00) (20, 1.29937839508056640625e+01) (21, -5.67079658508300781250e+01) (22, 1.50000000000000000000e+03) (23, 1.50000000000000000000e+03) (24, 1.46977841854095458984e+00) (25, 1.87987136840820312500e+00) (26, 2.00970172882080078125e+00) (27, 4.24356031417846679688e+00) (28, 2.32968664169311523438e+00) (29, 2.73194670677185058594e+00) (30, 2.06586861610412597656e+00) (31, 1.89217567443847656250e+00) (32, 1.56300580501556396484e+00) (33, 2.52449059486389160156e+00) (34, 2.37699437141418457031e+00) (35, 1.26156461238861083984e+00) (36, 2.64268606901168823242e-01) (37, 2.13380455970764160156e+00) (38, -1.67426586151123046875e+01) (39, 2.67560749053955078125e+01) (40, -3.91261672973632812500e+01) (41, -5.73321456909179687500e+01) (42, -2.67854958772659301758e-01) (43, -8.68076133728027343750e+00) (44, 2.59745359420776367188e+00) (45, 1.02839756011962890625e+00) (46, 6.97197318077087402344e-01) (47, -1.26478409767150878906e+00) (48, 3.58767700195312500000e+00) (49, -1.95616602897644042969e+00) (50, 2.86144924163818359375e+00) (51, 4.04488039016723632812e+00) (52, -2.42357730865478515625e+00) (53, -1.93662631511688232422e+00) (0, -9.57203865051269531250e+00) (1, -5.26967191696166992188e+00) (2, -9.75302505493164062500e+00) (3, -1.20493054389953613281e+00) (4, -9.19566917419433593750e+00) (5, -6.35889828205108642578e-01) (6, -8.95251154899597167969e-01) (7, 4.68501329421997070312e+00) (8, 9.36226367950439453125e-01) (9, 9.16069984436035156250e+00) (10, 4.19652134180068969727e-01) (11, 1.43292343616485595703e+00) (12, 1.50000000000000000000e+03) (13, 1.50000000000000000000e+03) (14, 9.18781250000000000000e+02) (15, -5.77830810546875000000e+01) (16, 2.60141429901123046875e+01) (17, 1.67058670520782470703e+00) (18, 1.16468298435211181641e+00) (19, 9.63201236724853515625e+00) (20, -3.00387978553771972656e+00) (21, -5.03828582763671875000e+01) (22, 1.50000000000000000000e+03) (23, 1.50000000000000000000e+03) (24, -1.20409095287322998047e+00) (25, 5.49424648284912109375e-01) (26, -1.96860432624816894531e-01) (27, 7.93782711029052734375e-01) (28, 7.92477607727050781250e-01) (29, 2.01630520820617675781e+00) (30, -9.86959859728813171387e-02) (31, 8.89195919036865234375e-01) (32, 9.04714822769165039062e-01) (33, -1.18212467059493064880e-02) (34, 2.58547943085432052612e-02) (35, 1.85393071174621582031e+00) (36, -5.44922500848770141602e-02) (37, -1.76303565502166748047e+00) (38, 1.44853649139404296875e+01) (39, 2.98463273048400878906e+00) (40, 5.70468215942382812500e+01) (41, -4.13738822937011718750e+01) (42, 4.78094482421875000000e+00) (43, -2.63816528320312500000e+01) (44, 1.95660936832427978516e+00) (45, 2.41975498199462890625e+00) (46, -6.98840439319610595703e-01) (47, -8.36471676826477050781e-01) (48, -1.62518727779388427734e+00) (49, -2.68866968154907226562e+00) (50, 1.76281011104583740234e+00) (51, -6.39874935150146484375e-01) (52, 2.94048666954040527344e+00) (53, -7.55094671249389648438e+00) (54, -2.32965350151062011719e+00) (0, 2.21356225013732910156e+00) (1, 2.98868894577026367188e+00) (2, 4.81178313493728637695e-01) (3, -1.42656826972961425781e+00) (4, -1.12205576896667480469e+00) (5, -8.85775279998779296875e+00) (6, -8.79873156547546386719e-01) (7, 8.19894611835479736328e-01) (8, 1.24512147903442382812e+00) (9, 1.65920734405517578125e+00) (10, 7.90886640548706054688e-01) (11, 7.79890835285186767578e-01) (12, 1.50000000000000000000e+03) (13, 1.50000000000000000000e+03) (14, -2.64390502929687500000e+02) (15, -3.44501953125000000000e+01) (16, 2.34658646583557128906e+00) (17, 5.09113597869873046875e+00) (18, 7.37776947021484375000e+00) (19, 3.53368544578552246094e+00) (20, 7.50563144683837890625e+00) (21, 1.19087209701538085938e+01) (22, 1.99185180664062500000e+01) (23, 1.50000000000000000000e+03) (24, 7.65852868556976318359e-01) (25, -3.93647313117980957031e-01) (26, 4.71781015396118164062e-01) (27, 2.69778299331665039062e+00) (28, 8.02953422069549560547e-01) (29, 1.07259893417358398438e+00) (30, 1.75939500331878662109e+00) (31, 3.90055835247039794922e-01) (32, 6.19194805622100830078e-01) (33, 2.32087445259094238281e+00) (34, -9.19255673885345458984e-01) (35, -5.54228007793426513672e-01) (36, -1.00425183773040771484e+00) (37, 1.86146068572998046875e+01) (38, -5.81607627868652343750e+00) (39, -1.40571022033691406250e+01) (40, -1.11982192993164062500e+02) (41, -1.95059707641601562500e+02) (42, 2.91333937644958496094e+00) (43, -8.79136371612548828125e+00) (44, 2.68722200393676757812e+00) (45, 6.30940008163452148438e+00) (46, 4.02363014221191406250e+00) (47, 2.05078077316284179688e+00) (48, 1.42990291118621826172e-01) (49, -6.59295856952667236328e-01) (50, 8.63742160797119140625e+00) (51, -7.12194383144378662109e-01) (52, -2.66493821144104003906e+00) (53, 1.51149004697799682617e-01) (54, -6.92413449287414550781e-01) (55, 5.75932025909423828125e-01) (0, 4.96777892112731933594e-01) (1, 7.32379734516143798828e-01) (2, 1.52506321668624877930e-01) (3, -9.91357326507568359375e+00) (4, -3.04600620269775390625e+00) (5, -3.36235308647155761719e+00) (6, -3.66592907905578613281e+00) (7, 5.99172472953796386719e-01) (8, 1.88496625423431396484e+00) (9, 1.29267168045043945312e+00) (10, 1.24096345901489257812e+00) (11, 1.10353202819824218750e+01) (12, 1.50000000000000000000e+03) (13, 1.50000000000000000000e+03) (14, -8.26988281250000000000e+02) (15, -2.29487552642822265625e+01) (16, 2.86046886444091796875e+00) (17, 1.85175876617431640625e+01) (18, -1.88768851757049560547e+00) (19, 2.00563931465148925781e+00) (20, 2.98558115959167480469e+00) (21, 5.57020759582519531250e+01) (22, 1.50000000000000000000e+03) (23, 1.50000000000000000000e+03) (24, 1.58618712425231933594e+00) (25, 2.08728480339050292969e+00) (26, 1.98542344570159912109e+00) (27, 1.04499578475952148438e+00) (28, 9.14470106363296508789e-02) (29, 2.09490156173706054688e+00) (30, 1.70088577270507812500e+00) (31, 1.81195914745330810547e+00) (32, 1.72740328311920166016e+00) (33, 9.01467382907867431641e-01) (34, 1.86768090724945068359e+00) (35, 9.37487006187438964844e-01) (36, 1.06251692771911621094e+00) (37, 8.18276882171630859375e+00) (38, 1.34520597457885742188e+01) (39, 9.18554210662841796875e+00) (40, -7.92556533813476562500e+01) (41, -8.96486129760742187500e+01) (42, -8.77711653709411621094e-01) (43, -8.22138428688049316406e-01) (44, 7.96904921531677246094e-01) (45, 8.47435072064399719238e-02) (46, 4.23436546325683593750e+00) (47, -1.90614354610443115234e+00) (48, 1.24474792480468750000e+01) (49, -1.12349307537078857422e+00) (50, 3.74231457710266113281e-01) (51, -6.19837462902069091797e-01) (52, -3.89513850212097167969e+00) (53, -3.19340944290161132812e+00) (54, 7.48630106449127197266e-01) (55, 1.15578460693359375000e+01) (56, -4.76826238632202148438e+00) (0, -2.45563104748725891113e-01) (1, -1.50147283077239990234e+00) (2, -1.92148774862289428711e-01) (3, 7.57770776748657226562e+00) (4, 3.68012619018554687500e+01) (5, 1.44093627929687500000e+01) (6, 1.17734754085540771484e+00) (7, -6.39835074543952941895e-02) (8, -1.24617934226989746094e+00) (9, -4.02005910873413085938e-01) (10, -6.40643775463104248047e-01) (11, 9.21195685863494873047e-01) (12, 1.50000000000000000000e+03) (13, 1.50000000000000000000e+03) (14, 7.13201965332031250000e+02) (15, -5.06622695922851562500e+01) (16, 1.11958146095275878906e+00) (17, -2.75934290885925292969e+00) (18, -1.31857943534851074219e+00) (19, 4.09787535667419433594e-01) (20, 1.00165691375732421875e+01) (21, 4.44277648925781250000e+01) (22, -5.51232566833496093750e+01) (23, 1.50000000000000000000e+03) (24, 1.74221731722354888916e-02) (25, 1.02083277702331542969e+00) (26, 4.54028040170669555664e-01) (27, -3.29626619815826416016e-01) (28, -5.94831109046936035156e-01) (29, -1.48242306709289550781e+00) (30, -7.66877606511116027832e-02) (31, -1.85473009943962097168e-01) (32, -1.50710046291351318359e+00) (33, -4.80232763290405273438e+00) (34, -7.29047203063964843750e+00) (35, -1.05322313308715820312e+00) (36, -1.09655547142028808594e+00) (37, 2.58650243282318115234e-01) (38, 1.01318225860595703125e+01) (39, 2.58865165710449218750e+01) (40, -1.66472702026367187500e+01) (41, 1.06090286254882812500e+02) (42, -3.04133391380310058594e+00) (43, -1.97645759582519531250e+01) (44, 3.94245028495788574219e+00) (45, 6.39348149299621582031e-01) (46, 2.80146431922912597656e+00) (47, 1.40903258323669433594e+00) (48, 1.81929516792297363281e+00) (49, 5.70319652557373046875e+00) (50, -5.27102231979370117188e+00) (51, -8.48901939392089843750e+00) (52, 4.14986467361450195312e+00) (53, 1.05292406082153320312e+01) (54, -1.00908889770507812500e+01) (55, -8.08690929412841796875e+00) (56, -2.15945601463317871094e+00) (57, -6.93033885955810546875e+00) (0, 1.09696656465530395508e-01) (1, 5.07529020309448242188e-01) (2, -1.03464889526367187500e+00) (3, -1.94848269224166870117e-01) (4, -5.20783483982086181641e-01) (5, -6.57473385334014892578e-01) (6, 9.91749614477157592773e-02) (7, 4.39299911260604858398e-01) (8, 5.64432501792907714844e-01) (9, 5.27871608734130859375e-01) (10, 9.75935935974121093750e-01) (11, -1.31501185894012451172e+00) (12, 1.50000000000000000000e+03) (13, 1.50000000000000000000e+03) (14, -1.00561431884765625000e+02) (15, 1.11941890716552734375e+01) (16, -3.93550634384155273438e+00) (17, -2.97312270849943161011e-02) (18, 2.28366684913635253906e+00) (19, 1.87005627155303955078e+00) (20, -4.66438722610473632812e+00) (21, 3.41897010803222656250e+00) (22, -5.58049812316894531250e+01) (23, 1.50000000000000000000e+03) (24, 1.18385481834411621094e+00) (25, 1.29678666591644287109e+00) (26, 9.15786743164062500000e-01) (27, 8.47763299942016601562e-01) (28, 1.21687456965446472168e-01) (29, -4.33867394924163818359e-01) (30, 3.69246333837509155273e-01) (31, -3.91642093658447265625e-01) (32, -5.29044628143310546875e-01) (33, 4.52550262212753295898e-01) (34, -1.02439403533935546875e-01) (35, -5.89681982994079589844e-01) (36, -1.29624593257904052734e+00) (37, 7.24901378154754638672e-01) (38, 1.21366441249847412109e+00) (39, -5.49819290637969970703e-01) (40, -3.45957541465759277344e+00) (41, 5.32471513748168945312e+00) (42, -1.16794612258672714233e-02) (43, -1.01486456394195556641e+00) (44, -5.41970208287239074707e-02) (45, -6.69799558818340301514e-03) (46, -1.06002483516931533813e-02) (47, -1.88895575702190399170e-02) (48, 6.62817656993865966797e-02) (49, -2.96984966844320297241e-02) (50, 1.28291854634881019592e-02) (51, 1.05019621551036834717e-02) (52, 2.55389418452978134155e-02) (53, -2.40939203649759292603e-02) (54, -2.68692448735237121582e-02) (55, 3.88837489299476146698e-03) (56, 9.87975951284170150757e-03) (57, 1.57267581671476364136e-02) (58, 3.48235890269279479980e-02) (0, 5.26248455047607421875e+00) (1, 3.73137630522251129150e-02) (2, 6.34826898574829101562e-01) (3, 1.23691439628601074219e+00) (4, 2.38169386982917785645e-01) (5, 1.09921181201934814453e+00) (6, 1.89275515079498291016e+00) (7, -9.41191482543945312500e+00) (8, 3.89797866344451904297e-01) (9, 2.06591796875000000000e+00) (10, 3.47603648900985717773e-01) (11, 2.38587236404418945312e+00) (12, 1.50000000000000000000e+03) (13, 1.50000000000000000000e+03) (14, -5.52994201660156250000e+02) (15, -1.10593023300170898438e+01) (16, 1.08570537567138671875e+01) (17, 3.77959132194519042969e+00) (18, 3.77144503593444824219e+00) (19, 4.49624347686767578125e+00) (20, 1.08194220066070556641e+00) (21, -1.64163112640380859375e+01) (22, 4.96409423828125000000e+02) (23, 1.50000000000000000000e+03) (24, 1.58763706684112548828e+00) (25, 3.05443429946899414062e+00) (26, 2.68984532356262207031e+00) (27, 2.81280493736267089844e+00) (28, 2.79161739349365234375e+00) (29, 1.82501626014709472656e+00) (30, 1.67244756221771240234e+00) (31, 2.92063140869140625000e+00) (32, 2.82396936416625976562e+00) (33, 2.51802444458007812500e+00) (34, 1.43586909770965576172e+00) (35, 2.68676805496215820312e+00) (36, -4.69654977321624755859e-01) (37, -3.46140098571777343750e+00) (38, -2.91017103195190429688e+00) (39, 9.78081321716308593750e+00) (40, 1.22832994461059570312e+01) (41, 5.56929435729980468750e+01) (42, 1.81439840793609619141e+00) (43, 2.83462409973144531250e+01) (44, 6.83466243743896484375e+00) (45, 1.81989121437072753906e+00) (46, -1.46129989624023437500e+00) (47, 3.10487896203994750977e-01) (48, 1.66437602043151855469e+00) (49, 7.93874263763427734375e-01) (50, 6.12446451187133789062e+00) (51, 5.19753837585449218750e+00) (52, -2.19794750213623046875e+00) (53, 1.75935554504394531250e+00) (54, 3.06397199630737304688e+00) (55, 7.84850406646728515625e+00) (56, 8.82506191730499267578e-01) (57, 5.17589521408081054688e+00) (58, 4.01322078704833984375e+00) (59, -2.57174129486083984375e+01) (0, -2.88374757766723632812e+00) (1, -9.14779853820800781250e+00) (2, -3.82688903808593750000e+00) (3, -9.86043155193328857422e-01) (4, 1.04147709906101226807e-01) (5, 1.26803874969482421875e+00) (6, 1.93670809268951416016e+00) (7, 1.12083375453948974609e+00) (8, 2.23357272148132324219e+00) (9, -1.03140920400619506836e-01) (10, 3.55582147836685180664e-01) (11, 6.19665670394897460938e+00) (12, 1.50000000000000000000e+03) (13, 1.50000000000000000000e+03) (14, -9.58442810058593750000e+02) (15, -4.82608842849731445312e+00) (16, 2.10785808563232421875e+01) (17, 1.68648827075958251953e+00) (18, 1.51231269836425781250e+01) (19, 9.93859648704528808594e-01) (20, -1.23688621520996093750e+01) (21, -1.31785860061645507812e+01) (22, -1.50000000000000000000e+03) (23, 1.50000000000000000000e+03) (24, 1.67818593978881835938e+00) (25, 4.85782712697982788086e-01) (26, 2.03731250762939453125e+00) (27, 2.79535353183746337891e-01) (28, 2.19518840312957763672e-02) (29, 1.66375607252120971680e-01) (30, 1.83368408679962158203e+00) (31, 2.18812298774719238281e+00) (32, 1.29795157909393310547e+00) (33, 1.06871104240417480469e+00) (34, 4.12705570459365844727e-01) (35, 1.79820263385772705078e+00) (36, -1.92368137836456298828e+00) (37, 1.01430904865264892578e+00) (38, -1.10946333408355712891e+00) (39, -1.26469306945800781250e+01) (40, -4.40493087768554687500e+01) (41, -1.00259246826171875000e+02) (42, -2.79814076423645019531e+00) (43, -3.93273468017578125000e+01) (44, 6.15010690689086914062e+00) (45, 2.51598572731018066406e+00) (46, 4.05909919738769531250e+00) (47, -2.01874423027038574219e+00) (48, 6.84674263000488281250e+00) (49, -2.03521060943603515625e+00) (50, -1.40719103813171386719e+00) (51, -2.50466513633728027344e+00) (52, 7.72686898708343505859e-01) (53, 1.10821235179901123047e+00) (54, -8.85978460311889648438e-01) (55, 3.16592645645141601562e+00) (56, 6.43787145614624023438e-01) (57, 5.13757419586181640625e+00) (58, 8.62916707992553710938e-01) (59, 1.19261941909790039062e+01) (60, 2.92836815118789672852e-01) (0, 2.92421042919158935547e-01) (1, 4.55467551946640014648e-01) (2, -1.35099664330482482910e-01) (3, 1.44719672203063964844e+00) (4, 7.22584187984466552734e-01) (5, -1.14925444126129150391e+00) (6, 3.29502284526824951172e-01) (7, 1.68032979965209960938e+00) (8, 2.34081649780273437500e+00) (9, 2.29275965690612792969e+00) (10, 1.10251057147979736328e+00) (11, 1.63412189483642578125e+00) (12, 1.50000000000000000000e+03) (13, 1.50000000000000000000e+03) (14, -5.77049369812011718750e+01) (15, 1.46027445793151855469e-01) (16, 1.24861793518066406250e+01) (17, 1.07160258293151855469e+00) (18, 1.00257360935211181641e+00) (19, -2.61942720413208007812e+00) (20, -4.37696695327758789062e+00) (21, 2.33021348714828491211e-01) (22, -1.47891979980468750000e+03) (23, 1.50000000000000000000e+03) (24, 6.23365044593811035156e-01) (25, -1.21106898784637451172e+00) (26, 1.10271084308624267578e+00) (27, 1.65005815029144287109e+00) (28, 2.17289900779724121094e+00) (29, 9.03018474578857421875e-01) (30, 1.04402410984039306641e+00) (31, 9.86556172370910644531e-01) (32, 1.78514814376831054688e+00) (33, 1.77437567710876464844e+00) (34, 1.02986919879913330078e+00) (35, 8.46853494644165039062e-01) (36, 1.18983864784240722656e+00) (37, -1.80739021301269531250e+00) (38, 1.76452541351318359375e+00) (39, 9.93956947326660156250e+00) (40, -1.12588966369628906250e+02) (41, -5.24491386413574218750e+01) (42, -4.52300930023193359375e+00) (43, 1.28966820240020751953e+00) (44, -7.69023835659027099609e-01) (45, -2.63719034194946289062e+00) (46, 5.66397571563720703125e+00) (47, -1.19964623451232910156e+00) (48, 5.00187349319458007812e+00) (49, -3.55378895998001098633e-01) (50, -4.50679683685302734375e+00) (51, 1.99129784107208251953e+00) (52, -3.83394539356231689453e-01) (53, 3.50278949737548828125e+00) (54, -1.13221299648284912109e+00) (55, 3.11759114265441894531e+00) (56, -4.56061315536499023438e+00) (57, 4.99720001220703125000e+00) (58, 1.77044498920440673828e+00) (59, -3.50889472961425781250e+01) (60, -2.06253933906555175781e+00) (61, -5.10199427604675292969e-01) (0, 1.08582048416137695312e+01) (1, 1.24689352512359619141e+00) (2, 1.55577778816223144531e+00) (3, 1.46627402305603027344e+00) (4, 1.41679739952087402344e+00) (5, 1.78594157099723815918e-01) (6, 5.05901753902435302734e-01) (7, 1.82346805930137634277e-01) (8, -2.06338858604431152344e+00) (9, -1.66066274046897888184e-01) (10, 7.72428870201110839844e-01) (11, -2.54582595825195312500e+00) (12, 1.50000000000000000000e+03) (13, 1.50000000000000000000e+03) (14, -1.50000000000000000000e+03) (15, 4.80888519287109375000e+01) (16, 3.54949188232421875000e+00) (17, 1.62000441551208496094e+00) (18, 3.84144455194473266602e-01) (19, 1.92289555072784423828e+00) (20, 3.42802143096923828125e+00) (21, -1.83204421997070312500e+01) (22, -1.50000000000000000000e+03) (23, 1.50000000000000000000e+03) (24, 2.17891001701354980469e+00) (25, 1.72354853153228759766e+00) (26, 4.27991437911987304688e+00) (27, 1.16602349281311035156e+00) (28, 2.43178987503051757812e+00) (29, 3.20748186111450195312e+00) (30, 8.82473468780517578125e-01) (31, 1.70293140411376953125e+00) (32, 7.29860246181488037109e-01) (33, 2.29721426963806152344e+00) (34, 8.49223136901855468750e-01) (35, 2.28051662445068359375e+00) (36, 1.37605667114257812500e+00) (37, -1.78062033653259277344e+00) (38, 8.22424888610839843750e+00) (39, 5.17533645629882812500e+01) (40, -2.56749248504638671875e+01) (41, -1.79198417663574218750e+01) (42, -2.05136561393737792969e+00) (43, -4.76378669738769531250e+01) (44, 6.13339233398437500000e+00) (45, -1.36007142066955566406e+00) (46, 1.12839996814727783203e+00) (47, 1.49615371227264404297e+00) (48, 2.42821240425109863281e+00) (49, 2.40422868728637695312e+00) (50, 2.68665647506713867188e+00) (51, 2.59739565849304199219e+00) (52, -2.80060625076293945312e+00) (53, -3.40648746490478515625e+00) (54, 1.37139463424682617188e+00) (55, 1.70621824264526367188e+00) (56, 1.33700740337371826172e+00) (57, 3.39199447631835937500e+00) (58, 9.83136296272277832031e-01) (59, -4.77901687622070312500e+01) (60, 4.21772623062133789062e+00) (61, -1.19228625297546386719e+00) (62, 1.68997907638549804688e+00) (0, -1.34715852737426757812e+01) (1, 6.06080293655395507812e-01) (2, 1.24191558361053466797e+00) (3, 6.28411471843719482422e-01) (4, 2.82495379447937011719e+00) (5, 1.52367365360260009766e+00) (6, 2.63456583023071289062e+00) (7, 1.78952121734619140625e+00) (8, 1.52871072292327880859e+00) (9, -2.64928460121154785156e-01) (10, -2.39292931556701660156e+00) (11, -6.03838443756103515625e-01) (12, 1.50000000000000000000e+03) (13, 1.50000000000000000000e+03) (14, -7.09264770507812500000e+02) (15, 1.51808300018310546875e+01) (16, -1.07762880325317382812e+01) (17, -2.56256628036499023438e+00) (18, 2.48140692710876464844e+00) (19, 4.18103981018066406250e+00) (20, -8.42949771881103515625e+00) (21, 1.12374191284179687500e+01) (22, -1.50000000000000000000e+03) (23, 1.50000000000000000000e+03) (24, 2.89987683296203613281e+00) (25, 1.04529023170471191406e+00) (26, 2.08607149124145507812e+00) (27, 4.98901307582855224609e-01) (28, 2.12817883491516113281e+00) (29, 2.80430841445922851562e+00) (30, 1.04138660430908203125e+00) (31, 2.01524662971496582031e+00) (32, 2.06981062889099121094e+00) (33, 2.19353795051574707031e+00) (34, 3.54910397529602050781e+00) (35, 1.94834291934967041016e+00) (36, -1.64988005161285400391e+00) (37, -5.29243803024291992188e+00) (38, 2.75738277435302734375e+01) (39, -7.07182455062866210938e+00) (40, 3.93907737731933593750e+01) (41, -1.46142101287841796875e+01) (42, 3.93072105944156646729e-02) (43, 5.73421707153320312500e+01) (44, 1.37146759033203125000e+00) (45, 5.34970092773437500000e+00) (46, 2.80726003646850585938e+00) (47, 2.97299337387084960938e+00) (48, -3.25191640853881835938e+00) (49, 1.86320579051971435547e+00) (50, 4.30317926406860351562e+00) (51, 3.12743139266967773438e+00) (52, 2.69294530153274536133e-01) (53, 4.06209945678710937500e+00) (54, 2.51404309272766113281e+00) (55, -2.77740502357482910156e+00) (56, 1.82744109630584716797e+00) (57, -1.53414440155029296875e+00) (58, 2.17851924896240234375e+00) (59, -6.52609539031982421875e+00) (60, -2.18190622329711914062e+00) (61, 4.63459253311157226562e+00) (62, -8.67105364799499511719e-01) (63, 2.22623085975646972656e+00) (0, 2.97914981842041015625e-01) (1, 2.31864309310913085938e+00) (2, 7.69551372528076171875e+00) (3, 6.23185539245605468750e+00) (4, 1.67363715171813964844e+00) (5, 2.67472577095031738281e+00) (6, 6.03224039077758789062e-01) (7, -9.49309095740318298340e-02) (8, 1.13079619407653808594e+00) (9, -5.50489306449890136719e-01) (10, -5.06642818450927734375e-01) (11, -1.98172712326049804688e+00) (12, 1.50000000000000000000e+03) (13, 1.50000000000000000000e+03) (14, -2.07779312133789062500e+01) (15, -1.26622905731201171875e+01) (16, 1.09507751464843750000e+01) (17, 1.81326603889465332031e+00) (18, 2.62003755569458007812e+00) (19, 1.93243849277496337891e+00) (20, 4.14896869659423828125e+00) (21, 8.26310348510742187500e+01) (22, -7.11260986328125000000e+02) (23, 1.50000000000000000000e+03) (24, 1.09164738655090332031e+00) (25, 1.28671097755432128906e+00) (26, 1.77539825439453125000e+00) (27, 6.69289588928222656250e-01) (28, 1.11504530906677246094e+00) (29, 1.67919945716857910156e+00) (30, 2.23744535446166992188e+00) (31, 1.85531568527221679688e+00) (32, 1.80696737766265869141e+00) (33, 1.65110766887664794922e+00) (34, 8.32547485828399658203e-01) (35, 1.27659559249877929688e+00) (36, 2.71053719520568847656e+00) (37, -1.25329363346099853516e+00) (38, 7.09598636627197265625e+00) (39, 8.45705127716064453125e+00) (40, 4.32483520507812500000e+01) (41, 1.44544738769531250000e+02) (42, 3.76325130462646484375e+00) (43, 3.19910240173339843750e+01) (44, 5.69977939128875732422e-01) (45, 4.79173469543457031250e+00) (46, -7.18914890289306640625e+00) (47, -2.88876271247863769531e+00) (48, 1.29781532287597656250e+00) (49, 3.79423093795776367188e+00) (50, -5.62874436378479003906e-01) (51, -5.81888318061828613281e-01) (52, 4.91800403594970703125e+00) (53, 2.47527170181274414062e+00) (54, -2.13818573951721191406e+00) (55, -2.00612187385559082031e+00) (56, 1.07542192935943603516e+00) (57, -1.95194447040557861328e+00) (58, -4.07783126831054687500e+00) (59, 3.12637748718261718750e+01) (60, 2.66541099548339843750e+00) (61, 1.62709224224090576172e+00) (62, -4.81943905353546142578e-01) (63, -3.65481376647949218750e+00) (64, 1.94535219669342041016e+00) (0, 7.20607876777648925781e-01) (1, 2.54200875759124755859e-01) (2, -1.39144170284271240234e+00) (3, -5.96010029315948486328e-01) (4, 8.97137463092803955078e-01) (5, 1.19215250015258789062e+00) (6, 2.21874937415122985840e-01) (7, -1.13515853881835937500e-01) (8, 1.01163601875305175781e+00) (9, 3.69636505842208862305e-01) (10, 6.12207233905792236328e-01) (11, 6.30752325057983398438e-01) (12, 1.50000000000000000000e+03) (13, 1.50000000000000000000e+03) (14, -7.57255371093750000000e+02) (15, -1.10771932601928710938e+01) (16, -2.13541107177734375000e+01) (17, 1.74763298034667968750e+00) (18, 1.29979362487792968750e+01) (19, 2.24082946777343750000e+00) (20, 5.55428848266601562500e+01) (21, 1.04628868103027343750e+01) (22, -1.50000000000000000000e+03) (23, 1.50000000000000000000e+03) (24, 2.44555592536926269531e+00) (25, 1.92179787158966064453e+00) (26, 2.68895196914672851562e+00) (27, 3.07958841323852539062e+00) (28, 3.91053032875061035156e+00) (29, 1.36982762813568115234e+00) (30, 4.18021297454833984375e+00) (31, 1.75063550472259521484e+00) (32, 3.06340217590332031250e+00) (33, 2.05296325683593750000e+00) (34, 2.51625680923461914062e+00) (35, 2.91869330406188964844e+00) (36, -7.58607268333435058594e-01) (37, 2.21705794334411621094e-01) (38, -2.10214786529541015625e+01) (39, -9.58099079132080078125e+00) (40, 9.26128082275390625000e+01) (41, 7.01923904418945312500e+01) (42, 7.91768431663513183594e-01) (43, -1.07786323547363281250e+02) (44, -1.77927005290985107422e+00) (45, 3.04369688034057617188e+00) (46, 9.31962490081787109375e-01) (47, 4.83064794540405273438e+00) (48, -3.77729922533035278320e-01) (49, -1.67625772953033447266e+00) (50, -6.00453424453735351562e+00) (51, 6.77262961864471435547e-01) (52, 2.77172255516052246094e+00) (53, 4.70281314849853515625e+00) (54, 3.31383228302001953125e+00) (55, -3.76959204673767089844e+00) (56, -3.09719014167785644531e+00) (57, -6.15068149566650390625e+00) (58, 2.74984627962112426758e-01) (59, -1.08216886520385742188e+01) (60, -2.57024383544921875000e+00) (61, 1.61226785182952880859e+00) (62, 2.92454910278320312500e+00) (63, 2.14368534088134765625e+00) (64, 4.32700008153915405273e-01) (65, 1.31116230040788650513e-02) (0, 1.28961026668548583984e+00) (1, 1.68639552593231201172e+00) (2, 4.76630955934524536133e-01) (3, -3.21700990200042724609e-01) (4, -8.31950664520263671875e+00) (5, -7.46878290176391601562e+00) (6, -2.45738196372985839844e+00) (7, 1.54219150543212890625e-01) (8, 7.77183055877685546875e-01) (9, 1.80059170722961425781e+00) (10, 3.07749247550964355469e+00) (11, 1.17810595035552978516e+00) (12, 1.50000000000000000000e+03) (13, 1.50000000000000000000e+03) (14, 1.80549942016601562500e+02) (15, 1.28667936325073242188e+01) (16, 1.73905217647552490234e+00) (17, -2.39808654785156250000e+00) (18, 9.25740003585815429688e-01) (19, -3.41403603553771972656e-01) (20, -2.11206893920898437500e+01) (21, 1.30626640319824218750e+01) (22, -1.90668243408203125000e+02) (23, 1.50000000000000000000e+03) (24, 5.50157964229583740234e-01) (25, 1.80258619785308837891e+00) (26, 1.10849511623382568359e+00) (27, 2.01748275756835937500e+00) (28, 1.70551443099975585938e+00) (29, 6.70841515064239501953e-01) (30, 2.11112236976623535156e+00) (31, 2.88666057586669921875e+00) (32, 3.88016676902770996094e+00) (33, 5.85253953933715820312e+00) (34, 3.72915530204772949219e+00) (35, 2.94398117065429687500e+00) (36, -1.13489866256713867188e+00) (37, 1.49119555950164794922e+00) (38, 1.70931472778320312500e+01) (39, 2.05072784423828125000e+00) (40, 1.32623519897460937500e+02) (41, -5.16882228851318359375e+00) (42, -2.06523254513740539551e-01) (43, 3.75545997619628906250e+01) (44, -1.45214796066284179688e+00) (45, 9.39368844032287597656e-01) (46, -1.18166208267211914062e+00) (47, 3.77205657958984375000e+00) (48, -2.05185508728027343750e+00) (49, 8.07343006134033203125e-01) (50, 1.42127573490142822266e+00) (51, 2.91456079483032226562e+00) (52, 3.86955046653747558594e+00) (53, 1.86149394512176513672e+00) (54, 1.66247904300689697266e+00) (55, 4.57290261983871459961e-01) (56, 3.95504975318908691406e+00) (57, -4.98572778701782226562e+00) (58, -1.10556757450103759766e+00) (59, 1.03400554656982421875e+01) (60, 5.33621644973754882812e+00) (61, 1.59189891815185546875e+00) (62, -2.08440637588500976562e+00) (63, 4.12848854064941406250e+00) (64, 1.69774830341339111328e+00) (65, -1.14070117473602294922e+00) (66, -4.91520452499389648438e+00) (0, -3.22681379318237304688e+00) (1, 1.47657072544097900391e+00) (2, 1.47046923637390136719e+00) (3, -4.37103319168090820312e+00) (4, -1.25680131912231445312e+01) (5, 6.77563369274139404297e-01) (6, 1.45857989788055419922e+00) (7, 1.80667054653167724609e+00) (8, 9.17863368988037109375e-01) (9, 2.62241101264953613281e+00) (10, 5.52807092666625976562e+00) (11, 2.77854180335998535156e+00) (12, 1.50000000000000000000e+03) (13, 1.50000000000000000000e+03) (14, -1.48226794433593750000e+03) (15, -1.69898784160614013672e+00) (16, -4.18402814865112304688e+00) (17, 3.52461600303649902344e+00) (18, 3.57416182756423950195e-01) (19, -1.64352059364318847656e-02) (20, 3.36061477661132812500e+00) (21, -8.05976409912109375000e+01) (22, 1.50000000000000000000e+03) (23, 1.50000000000000000000e+03) (24, 1.14971518516540527344e+00) (25, 1.52481627464294433594e+00) (26, 2.02722740173339843750e+00) (27, 2.14336490631103515625e+00) (28, 7.23494768142700195312e-01) (29, 9.12513554096221923828e-01) (30, 2.50230669975280761719e+00) (31, 1.69763243198394775391e+00) (32, 3.52604556083679199219e+00) (33, 2.61696600914001464844e+00) (34, 2.36099696159362792969e+00) (35, 7.68637776374816894531e-01) (36, 1.99316275119781494141e+00) (37, 3.84440809488296508789e-01) (38, 7.11104631423950195312e+00) (39, 2.27604885101318359375e+01) (40, -1.29475509643554687500e+02) (41, 3.89472427368164062500e+01) (42, 4.31393909454345703125e+00) (43, -2.30968475341796875000e+01) (44, 4.25793156027793884277e-02) (45, 4.69225978851318359375e+00) (46, 1.38796770572662353516e+00) (47, 1.18140482902526855469e+00) (48, 2.88564205169677734375e-01) (49, 2.65868711471557617188e+00) (50, 6.84131669998168945312e+00) (51, -2.16280698776245117188e+00) (52, -1.21802687644958496094e-01) (53, -6.04806089401245117188e+00) (54, -1.09653735160827636719e+00) (55, 7.69510626792907714844e-01) (56, 2.76228189468383789062e-01) (57, -5.25897741317749023438e+00) (58, 1.74337887763977050781e+00) (59, -1.29140257835388183594e+00) (60, 1.02071881294250488281e+00) (61, 7.84987986087799072266e-01) (62, 7.60323882102966308594e-01) (63, 1.25263714790344238281e+00) (64, 5.68053436279296875000e+00) (65, 2.22195386886596679688e+00) (66, -3.07301525026559829712e-04) (67, -2.33861160278320312500e+00) (0, -3.25977015495300292969e+00) (1, -4.74882030487060546875e+00) (2, 1.19924616813659667969e+00) (3, -1.59091368317604064941e-01) (4, 7.06235945224761962891e-01) (5, 4.66179698705673217773e-01) (6, 7.48346567153930664062e-01) (7, 1.41427230834960937500e+00) (8, 1.37797117233276367188e+00) (9, 1.72399258613586425781e+00) (10, -1.17614853382110595703e+00) (11, 1.91507432609796524048e-02) (12, 1.50000000000000000000e+03) (13, 1.50000000000000000000e+03) (14, 1.08496813964843750000e+03) (15, -2.80389175415039062500e+01) (16, 3.71836948394775390625e+00) (17, 4.19583988189697265625e+00) (18, 1.91064107418060302734e+00) (19, 4.25686645507812500000e+00) (20, 1.03705060482025146484e+00) (21, 9.44725894927978515625e+00) (22, -9.54607788085937500000e+02) (23, 1.50000000000000000000e+03) (24, 1.76719629764556884766e+00) (25, 2.45817303657531738281e+00) (26, 1.39038801193237304688e+00) (27, 2.44745349884033203125e+00) (28, 1.78437197208404541016e+00) (29, 2.26046490669250488281e+00) (30, 1.44244754314422607422e+00) (31, 1.00167918205261230469e+00) (32, 1.34262061119079589844e+00) (33, 1.28485894203186035156e+00) (34, 1.35260081291198730469e+00) (35, 1.67894506454467773438e+00) (36, -1.85621470212936401367e-01) (37, -1.37528669834136962891e+00) (38, 2.71322116851806640625e+01) (39, 5.30104160308837890625e+00) (40, 3.38456764221191406250e+01) (41, -5.34832687377929687500e+01) (42, 3.01892852783203125000e+00) (43, 4.25488662719726562500e+01) (44, -6.25916004180908203125e-01) (45, 6.90680122375488281250e+00) (46, 2.55777192115783691406e+00) (47, -2.88843011856079101562e+00) (48, 3.32589769363403320312e+00) (49, 4.43759250640869140625e+00) (50, 3.03183603286743164062e+00) (51, -1.85353147983551025391e+00) (52, 3.74478787183761596680e-01) (53, 2.27963757514953613281e+00) (54, 3.54113316535949707031e+00) (55, 3.50129246711730957031e+00) (56, 2.69331026077270507812e+00) (57, 1.28997027873992919922e+00) (58, 6.60985803604125976562e+00) (59, -7.36424303054809570312e+00) (60, 2.73192548751831054688e+00) (61, 5.29967021942138671875e+00) (62, 3.43440675735473632812e+00) (63, 6.34374380111694335938e-01) (64, 3.64460754394531250000e+00) (65, 1.01052212715148925781e+00) (66, 8.82005810737609863281e-01) (67, 2.65614748001098632812e+00) (68, 3.81159394979476928711e-01) (0, -8.13420534133911132812e-01) (1, -2.37674593925476074219e-01) (2, 3.84948402643203735352e-01) (3, 8.21429193019866943359e-01) (4, 1.57587456703186035156e+00) (5, -5.19690632820129394531e-01) (6, -3.86428737640380859375e+00) (7, 2.64898508787155151367e-01) (8, 2.35725745558738708496e-01) (9, 2.33833384513854980469e+00) (10, 3.10656726360321044922e-01) (11, 8.86522829532623291016e-02) (12, 1.50000000000000000000e+03) (13, 1.50000000000000000000e+03) (14, -5.87563610076904296875e+00) (15, 3.61220812797546386719e+00) (16, -3.79333049058914184570e-01) (17, 1.13339948654174804688e+00) (18, 8.45215439796447753906e-01) (19, 1.04597556591033935547e+00) (20, 1.07218432426452636719e+00) (21, 7.49797701835632324219e-01) (22, -8.10013809204101562500e+01) (23, 1.50000000000000000000e+03) (24, 5.40346264839172363281e-01) (25, 1.70984089374542236328e+00) (26, 1.22331976890563964844e+00) (27, 8.25075447559356689453e-01) (28, 1.64916813373565673828e+00) (29, 3.12293946743011474609e-01) (30, 1.46993255615234375000e+00) (31, 2.05502581596374511719e+00) (32, 1.07529377937316894531e+00) (33, 3.41900944709777832031e-01) (34, 1.61431276798248291016e+00) (35, 8.67827057838439941406e-01) (36, -9.86538290977478027344e-01) (37, 2.55293560028076171875e+00) (38, 8.81499946117401123047e-01) (39, 7.22708273679018020630e-03) (40, -1.88914728164672851562e+00) (41, -1.28237974643707275391e+00) (42, 2.71116010844707489014e-03) (43, -1.12435340881347656250e+00) (44, -1.68706406839191913605e-03) (45, -8.09764862060546875000e-03) (46, -3.60534805804491043091e-03) (47, 6.31340453401207923889e-03) (48, -2.83061694353818893433e-02) (49, 2.43102014064788818359e-02) (50, -5.77658042311668395996e-03) (51, 2.81282048672437667847e-02) (52, -1.17568848654627799988e-02) (53, -5.60381449759006500244e-04) (54, 6.44828705117106437683e-03) (55, 2.50056060031056404114e-03) (56, 3.79328988492488861084e-03) (57, 6.73564616590738296509e-03) (58, 8.86034313589334487915e-03) (59, -1.02031305432319641113e-02) (60, 9.09528881311416625977e-03) (61, 1.57485827803611755371e-02) (62, 1.88856851309537887573e-02) (63, -5.64067671075463294983e-03) (64, -8.71089193969964981079e-03) (65, -3.84713662788271903992e-03) (66, -2.50954675721004605293e-04) (67, 1.11940745264291763306e-02) (68, 4.94337501004338264465e-03) (69, 7.31606036424636840820e-03) (0, 2.69374442100524902344e+00) (1, 6.43056297302246093750e+00) (2, 4.79530382156372070312e+00) (3, 7.93090009689331054688e+00) (4, 2.35498929023742675781e+00) (5, 2.26444676518440246582e-02) (6, -5.67771792411804199219e-01) (7, 1.43164098262786865234e+00) (8, 1.28363204002380371094e+00) (9, -3.12238961458206176758e-01) (10, 2.17884945869445800781e+00) (11, 2.11292076110839843750e+00) (12, 1.50000000000000000000e+03) (13, 1.50000000000000000000e+03) (14, -1.27244274902343750000e+03) (15, 1.09445590972900390625e+01) (16, -1.55128896236419677734e+00) (17, 1.18376827239990234375e+00) (18, -3.69630932807922363281e+00) (19, 1.17878139019012451172e+00) (20, 2.50413370132446289062e+00) (21, 2.55807266235351562500e+01) (22, 1.50000000000000000000e+03) (23, 1.50000000000000000000e+03) (24, 2.23050999641418457031e+00) (25, 1.94361186027526855469e+00) (26, 1.31184458732604980469e+00) (27, 1.08086824417114257812e+00) (28, 1.52359592914581298828e+00) (29, 2.17828774452209472656e+00) (30, 6.91765844821929931641e-01) (31, 1.83272874355316162109e+00) (32, 1.85959374904632568359e+00) (33, 7.62589454650878906250e-01) (34, 1.17754971981048583984e+00) (35, 1.36493945121765136719e+00) (36, 2.03831148147583007812e+00) (37, 8.82955837249755859375e+00) (38, -2.05030393600463867188e+00) (39, -1.00772590637207031250e+01) (40, -5.23573532104492187500e+01) (41, 5.78791618347167968750e+01) (42, -1.06376111507415771484e-01) (43, 1.07787871360778808594e+00) (44, 1.35003042221069335938e+00) (45, 3.89906597137451171875e+00) (46, 1.95398855209350585938e+00) (47, 5.76517152786254882812e+00) (48, 2.13387179374694824219e+00) (49, 1.05336499214172363281e+00) (50, 4.26255035400390625000e+00) (51, 7.01469928026199340820e-02) (52, -1.62530529499053955078e+00) (53, 6.70926475524902343750e+00) (54, -4.12916088104248046875e+00) (55, 2.52542757987976074219e+00) (56, 2.00007438659667968750e+00) (57, 2.64904308319091796875e+00) (58, -5.37767171859741210938e-01) (59, 2.06556797027587890625e+01) (60, 6.33987855911254882812e+00) (61, 3.59367161989212036133e-01) (62, 5.62018775939941406250e+00) (63, -9.27735984325408935547e-01) (64, 5.97275781631469726562e+00) (65, 7.64091062545776367188e+00) (66, 3.29531526565551757812e+00) (67, 2.81639313697814941406e+00) (68, -2.28697666898369789124e-04) (69, 2.35501146316528320312e+00) (70, -7.72400283813476562500e+00) (0, 6.07087850570678710938e-01) (1, -8.80476176738739013672e-01) (2, -4.36277484893798828125e+00) (3, 1.08275008201599121094e+00) (4, -8.83255302906036376953e-02) (5, -1.51953801512718200684e-01) (6, 6.03668928146362304688e-01) (7, 3.12214881181716918945e-01) (8, 6.39971613883972167969e-01) (9, -2.47648656368255615234e-02) (10, -2.62882322072982788086e-01) (11, -4.97097194194793701172e-01) (12, 1.50000000000000000000e+03) (13, 1.50000000000000000000e+03) (14, 2.00867935180664062500e+02) (15, -2.02171173095703125000e+01) (16, -1.56441783905029296875e+01) (17, -1.59783482551574707031e+00) (18, -4.96250301599502563477e-01) (19, -1.33002293109893798828e+00) (20, 2.92836523056030273438e+00) (21, -8.16636657714843750000e+00) (22, -1.14944030761718750000e+02) (23, 1.50000000000000000000e+03) (24, -2.53006249666213989258e-01) (25, 9.44718658924102783203e-01) (26, 1.38117909431457519531e+00) (27, 1.49477708339691162109e+00) (28, 3.12922596931457519531e-01) (29, 6.77086234092712402344e-01) (30, 1.60495638847351074219e+00) (31, 1.48313090205192565918e-01) (32, 6.87955200672149658203e-01) (33, 1.44214853644371032715e-01) (34, 1.75419479608535766602e-01) (35, -4.19810205698013305664e-01) (36, 9.49418067932128906250e-01) (37, -5.18447256088256835938e+00) (38, -1.33571825027465820312e+01) (39, -5.18132858276367187500e+01) (40, 7.36147918701171875000e+01) (41, 1.95153579711914062500e+01) (42, -4.24789428710937500000e+00) (43, 9.48073196411132812500e+00) (44, -1.11606562137603759766e+00) (45, -2.57027649879455566406e+00) (46, -3.88444066047668457031e+00) (47, -2.38110303878784179688e+00) (48, -2.49450159072875976562e+00) (49, 1.44427692890167236328e+00) (50, 6.59387707710266113281e-01) (51, 4.64634448289871215820e-01) (52, -1.56585466861724853516e+00) (53, -4.33360040187835693359e-01) (54, 1.56823623180389404297e+00) (55, 4.05890494585037231445e-02) (56, 8.83513331413269042969e-01) (57, -3.22123736143112182617e-01) (58, -2.00898313522338867188e+00) (59, -3.08560752868652343750e+01) (60, 4.36241054534912109375e+00) (61, 3.05018997192382812500e+00) (62, 5.07406616210937500000e+00) (63, 2.06401944160461425781e+00) (64, -5.60428237915039062500e+00) (65, 1.61250257492065429688e+00) (66, -3.77675628662109375000e+00) (67, 1.36946225166320800781e+00) (68, 1.15481364727020263672e+00) (69, 1.24409854412078857422e+00) (70, 6.97449684143066406250e+00) (71, -4.51086521148681640625e+00) (0, 6.24368548393249511719e-01) (1, 4.17379826307296752930e-01) (2, -6.87778043746948242188e+00) (3, -2.10977435111999511719e+00) (4, -7.58592128753662109375e-01) (5, -1.06632909774780273438e+01) (6, 5.06919145584106445312e-01) (7, 8.73197972774505615234e-01) (8, 1.11303687095642089844e+00) (9, 2.64626812934875488281e+00) (10, 2.00768756866455078125e+01) (11, 7.69518232345581054688e+00) (12, 1.50000000000000000000e+03) (13, 1.50000000000000000000e+03) (14, 2.17485382080078125000e+02) (15, -2.08194923400878906250e+01) (16, 1.37263936996459960938e+01) (17, 1.79949724674224853516e+00) (18, 1.71757555007934570312e+00) (19, 1.81874597072601318359e+00) (20, 3.89523100852966308594e+00) (21, -3.90368385314941406250e+01) (22, 1.50000000000000000000e+03) (23, 1.50000000000000000000e+03) (24, 2.14423036575317382812e+00) (25, 1.48485720157623291016e+00) (26, 2.14862775802612304688e+00) (27, -3.04014474153518676758e-01) (28, 4.90124285221099853516e-01) (29, 1.87477290630340576172e+00) (30, 8.72798562049865722656e-01) (31, 1.14293241500854492188e+00) (32, 1.65619301795959472656e+00) (33, 2.24866122007369995117e-01) (34, -2.30905413627624511719e-01) (35, 1.72260329127311706543e-01) (36, 1.05733430385589599609e+00) (37, -3.01339924335479736328e-01) (38, -3.50633263587951660156e-01) (39, 2.72785663604736328125e+00) (40, 9.72797546386718750000e+01) (41, 6.90918827056884765625e+00) (42, -4.48957872390747070312e+00) (43, 1.44761104583740234375e+01) (44, -1.31872460246086120605e-01) (45, 2.70599889755249023438e+00) (46, 4.06465482711791992188e+00) (47, 3.18676471710205078125e+00) (48, 1.50030732154846191406e+00) (49, -2.00156092643737792969e+00) (50, 8.49954366683959960938e-01) (51, -9.18446183204650878906e-01) (52, 2.30390831828117370605e-01) (53, -2.94077324867248535156e+00) (54, 8.13249111175537109375e-01) (55, -4.35894823074340820312e+00) (56, 2.62787175178527832031e+00) (57, 1.67862117290496826172e+00) (58, -1.59868359565734863281e+00) (59, 1.48824596405029296875e+01) (60, -5.77187538146972656250e-01) (61, 3.47470736503601074219e+00) (62, 6.17960691452026367188e-01) (63, 2.92866659164428710938e+00) (64, 2.27649450302124023438e+00) (65, 3.66125106811523437500e-01) (66, -8.57227325439453125000e-01) (67, 2.14308571815490722656e+00) (68, 1.49412190914154052734e+00) (69, -2.98116493225097656250e+00) (70, 3.04232769012451171875e+01) (71, -1.48192369937896728516e+00) (72, 3.83856320381164550781e+00) (0, 6.79103314876556396484e-01) (1, -2.56210517883300781250e+00) (2, -2.83676683902740478516e-01) (3, 8.82469177246093750000e-01) (4, 1.59887790679931640625e+00) (5, 1.24281764030456542969e+00) (6, 2.32452034950256347656e+00) (7, 2.72991895675659179688e+00) (8, 3.69281840324401855469e+00) (9, 6.35924053192138671875e+00) (10, 3.69138002395629882812e+00) (11, 7.02259635925292968750e+00) (12, 1.50000000000000000000e+03) (13, 1.50000000000000000000e+03) (14, -4.62365646362304687500e+01) (15, 4.34350395202636718750e+00) (16, 1.40381395816802978516e+00) (17, -1.09735143184661865234e+00) (18, -8.11923921108245849609e-01) (19, -9.13882732391357421875e-01) (20, -6.94777441024780273438e+00) (21, -1.20594608783721923828e+00) (22, -1.31871923828125000000e+03) (23, 1.50000000000000000000e+03) (24, 2.33449864387512207031e+00) (25, 8.38285255432128906250e+00) (26, 5.40669107437133789062e+00) (27, 6.01414416451007127762e-04) (28, 1.96462500095367431641e+00) (29, 1.90092599391937255859e+00) (30, 2.84057664871215820312e+00) (31, 2.08842110633850097656e+00) (32, 2.19849276542663574219e+00) (33, 2.12237215042114257812e+00) (34, 1.49509048461914062500e+00) (35, 9.79643523693084716797e-01) (36, 1.42718243598937988281e+00) (37, 9.47231233119964599609e-01) (38, -4.54378557205200195312e+00) (39, -3.54688286781311035156e+00) (40, 5.12276878356933593750e+01) (41, 8.78120708465576171875e+00) (42, 5.83420848846435546875e+00) (43, -5.06776962280273437500e+01) (44, -3.10292571783065795898e-01) (45, 2.35121870040893554688e+00) (46, 6.09829008579254150391e-01) (47, 4.99945068359375000000e+00) (48, 7.73366975784301757812e+00) (49, 7.80867576599121093750e+00) (50, 2.33802390098571777344e+00) (51, 3.40174585580825805664e-02) (52, -3.00588309764862060547e-01) (53, 2.69646024703979492188e+00) (54, 3.01742577552795410156e+00) (55, 2.80907177925109863281e+00) (56, -1.94644466042518615723e-01) (57, -8.31562709808349609375e+00) (58, -8.91769766807556152344e-01) (59, 7.51440000534057617188e+00) (60, -1.62974059581756591797e+00) (61, 7.48514795303344726562e+00) (62, 8.94705414772033691406e-01) (63, -1.00067329406738281250e+00) (64, 5.62815284729003906250e+00) (65, 3.87124514579772949219e+00) (66, -5.93940114974975585938e+00) (67, 3.88440728187561035156e+00) (68, 5.43297481536865234375e+00) (69, 1.49724256992340087891e+00) (70, -2.36833119392395019531e+00) (71, 3.58964473009109497070e-01) (72, -5.70761203765869140625e-01) (73, 3.09700727462768554688e+00) (0, 1.02533161640167236328e+00) (1, 1.04784047603607177734e+00) (2, -1.49151587486267089844e+00) (3, 1.23719310760498046875e+00) (4, 1.67592597007751464844e+00) (5, 1.76330137252807617188e+00) (6, 1.04014289379119873047e+00) (7, 1.54444539546966552734e+00) (8, 5.15585601329803466797e-01) (9, 1.48566114902496337891e+00) (10, 6.20641469955444335938e+00) (11, 3.43274259567260742188e+00) (12, 1.50000000000000000000e+03) (13, 1.50000000000000000000e+03) (14, -1.26056066894531250000e+03) (15, -4.60122108459472656250e+01) (16, -8.76882839202880859375e+00) (17, 8.48284006118774414062e-01) (18, 4.15296220779418945312e+00) (19, 1.85643827915191650391e+00) (20, 9.61358547210693359375e+00) (21, 1.59679193496704101562e+01) (22, -2.31369354248046875000e+02) (23, 1.50000000000000000000e+03) (24, 1.71733498573303222656e-01) (25, 1.55082118511199951172e+00) (26, 8.02100062370300292969e-01) (27, -7.06991136074066162109e-01) (28, -8.26492607593536376953e-01) (29, 3.94869893789291381836e-01) (30, -1.36927932500839233398e-01) (31, 1.10022604465484619141e+00) (32, 1.18709123134613037109e+00) (33, 5.84373831748962402344e-01) (34, -2.93975174427032470703e-01) (35, 3.97830665111541748047e-01) (36, 1.61644625663757324219e+00) (37, 3.27101302146911621094e+00) (38, -2.41406297683715820312e+00) (39, 3.09179806709289550781e+00) (40, 1.21558904647827148438e+01) (41, 1.22555723190307617188e+01) (42, -1.46542000770568847656e+00) (43, -7.43632202148437500000e+01) (44, 2.60395002365112304688e+00) (45, 8.14086496829986572266e-01) (46, -2.81840729713439941406e+00) (47, -1.05298697948455810547e+00) (48, 2.36347985267639160156e+00) (49, 1.25483286380767822266e+00) (50, 5.13048315048217773438e+00) (51, 2.07423925399780273438e+00) (52, -2.10598611831665039062e+00) (53, 3.12075161933898925781e+00) (54, -1.80668914318084716797e+00) (55, 5.84363603591918945312e+00) (56, -2.34671175479888916016e-01) (57, -9.21738564968109130859e-01) (58, 1.07176268100738525391e+00) (59, 4.80148086547851562500e+01) (60, 4.21715259552001953125e+00) (61, 4.70815944671630859375e+00) (62, 6.35205125808715820312e+00) (63, 1.89579939842224121094e+00) (64, -2.95214033126831054688e+00) (65, 3.08511996269226074219e+00) (66, -1.17600548267364501953e+00) (67, -1.38294649124145507812e+00) (68, 2.12548804283142089844e+00) (69, 2.64996981620788574219e+00) (70, 3.36485633850097656250e+01) (71, 2.57848978042602539062e+00) (72, -1.61884701251983642578e+00) (73, -3.45241045951843261719e+00) (74, 1.22876799106597900391e+00) (0, 4.11934518814086914062e+00) (1, 1.75447952747344970703e+00) (2, 5.56924581527709960938e-01) (3, 5.88880598545074462891e-01) (4, 1.30983197689056396484e+00) (5, 1.58468008041381835938e-01) (6, 1.32098257541656494141e-01) (7, 9.86491978168487548828e-01) (8, 1.22973537445068359375e+00) (9, 2.07457637786865234375e+00) (10, 3.41382217407226562500e+00) (11, 7.55272579193115234375e+00) (12, 1.50000000000000000000e+03) (13, 1.50000000000000000000e+03) (14, -2.26533096313476562500e+02) (15, 1.92731571197509765625e+01) (16, 1.62004585266113281250e+01) (17, 6.87900722026824951172e-01) (18, 1.82437944412231445312e+00) (19, 9.65042173862457275391e-01) (20, 1.07165849208831787109e+00) (21, 1.43177902698516845703e+00) (22, -1.50000000000000000000e+03) (23, 1.50000000000000000000e+03) (24, -1.81607103347778320312e+00) (25, -2.55481362342834472656e+00) (26, -4.92909479141235351562e+00) (27, -1.55447497963905334473e-01) (28, 3.63080501556396484375e-01) (29, 7.99437880516052246094e-01) (30, -1.96090161800384521484e-01) (31, 6.56006574630737304688e-01) (32, -7.93662130832672119141e-01) (33, 2.55853980779647827148e-01) (34, 4.31906664744019508362e-03) (35, 4.99795340001583099365e-02) (36, -3.95450256764888763428e-02) (37, -6.27477407455444335938e+00) (38, -1.82293772697448730469e+00) (39, -4.67454528808593750000e+00) (40, 3.14533691406250000000e+01) (41, -1.88565807342529296875e+01) (42, 1.30060935020446777344e+00) (43, 2.80227069854736328125e+01) (44, 3.58530312776565551758e-01) (45, 1.94315207004547119141e+00) (46, -9.60493922233581542969e-01) (47, -1.32077836990356445312e+00) (48, 2.93202042579650878906e-01) (49, -3.86211901903152465820e-01) (50, 1.45667284727096557617e-01) (51, 1.36719822883605957031e+00) (52, 3.83193159103393554688e+00) (53, 1.81951177120208740234e+00) (54, 6.38640785217285156250e+00) (55, 2.59573721885681152344e+00) (56, 3.50801897048950195312e+00) (57, 6.96980237960815429688e+00) (58, -2.13973069190979003906e+00) (59, 2.43681545257568359375e+01) (60, 1.00082719326019287109e+00) (61, 5.47304153442382812500e+00) (62, -3.34880828857421875000e-01) (63, 2.35043859481811523438e+00) (64, 2.21012926101684570312e+00) (65, 1.34451270103454589844e-01) (66, 1.70127153396606445312e-02) (67, -9.87545773386955261230e-02) (68, 2.02139139175415039062e+00) (69, 2.24287700653076171875e+00) (70, -2.67139396667480468750e+01) (71, 3.36731243133544921875e+00) (72, 5.16487240791320800781e-01) (73, 8.51072728633880615234e-01) (74, 3.63700315356254577637e-02) (75, 1.05690824985504150391e+00) (0, 9.17090699076652526855e-02) (1, -2.51197004318237304688e+00) (2, -2.57762718200683593750e+00) (3, -3.23716849088668823242e-01) (4, 2.20058155059814453125e+00) (5, 2.38913989067077636719e+00) (6, 2.54847168922424316406e+00) (7, 2.62315583229064941406e+00) (8, 2.10533857345581054688e+00) (9, 1.77282726764678955078e+00) (10, 1.76783740520477294922e+00) (11, 1.96541225910186767578e+00) (12, 1.50000000000000000000e+03) (13, 1.50000000000000000000e+03) (14, 5.00521759033203125000e+02) (15, -1.40375375747680664062e+01) (16, 5.93067979812622070312e+00) (17, 1.81834545135498046875e+01) (18, 1.41227591037750244141e+00) (19, 1.89210319519042968750e+00) (20, -2.08937311172485351562e+00) (21, -4.84902420043945312500e+01) (22, 1.17435742187500000000e+03) (23, 1.50000000000000000000e+03) (24, 1.23099648952484130859e+00) (25, 1.65675580501556396484e+00) (26, 9.50110852718353271484e-01) (27, 1.72215044498443603516e+00) (28, 1.85325849056243896484e+00) (29, 2.06891131401062011719e+00) (30, 1.82359349727630615234e+00) (31, 1.47807776927947998047e+00) (32, 1.47055685520172119141e-01) (33, 1.08539795875549316406e+00) (34, 7.45229363441467285156e-01) (35, 3.91648793220520019531e+00) (36, -4.09736663103103637695e-01) (37, 2.91306567192077636719e+00) (38, 1.76826715469360351562e+00) (39, -2.13967418670654296875e+00) (40, -8.37769699096679687500e+00) (41, -3.11134452819824218750e+01) (42, -2.33163833618164062500e+00) (43, 2.91924037933349609375e+01) (44, 6.83551788330078125000e+00) (45, -2.61713624000549316406e+00) (46, 1.31941437721252441406e+00) (47, -2.87688374519348144531e+00) (48, 6.83557748794555664062e+00) (49, 1.72747385501861572266e+00) (50, -2.74068617820739746094e+00) (51, -1.05863928794860839844e+00) (52, 2.65653419494628906250e+00) (53, -2.41599822044372558594e+00) (54, 3.29845499992370605469e+00) (55, -1.20489597320556640625e+00) (56, 1.99944007396697998047e+00) (57, -3.11207437515258789062e+00) (58, 4.29048240184783935547e-01) (59, 7.12250614166259765625e+00) (60, -4.29315042495727539062e+00) (61, 1.02644033432006835938e+01) (62, -3.08682084083557128906e+00) (63, 3.54631948471069335938e+00) (64, 1.88063931465148925781e+00) (65, 1.56870794296264648438e+00) (66, 7.83627867698669433594e-01) (67, 2.49879908561706542969e+00) (68, 1.74762713909149169922e+00) (69, 1.51904129981994628906e+00) (70, 6.00218086242675781250e+01) (71, -2.69024443626403808594e+00) (72, 3.05174636840820312500e+00) (73, 5.81529974937438964844e-01) (74, -2.13943030685186386108e-02) (75, 3.22359514236450195312e+00) (76, 1.68414437770843505859e+00) (0, 2.50010192394256591797e-02) (1, 4.91467505693435668945e-01) (2, 5.21286487579345703125e-01) (3, -5.69793045520782470703e-01) (4, 1.15704154968261718750e+00) (5, 2.13148981332778930664e-01) (6, -2.71849870681762695312e+00) (7, -1.32124006748199462891e+00) (8, -1.13046467304229736328e+00) (9, -1.69331848621368408203e+00) (10, 1.08148813247680664062e+00) (11, 1.32927525043487548828e+00) (12, 1.50000000000000000000e+03) (13, 1.50000000000000000000e+03) (14, -1.02177075195312500000e+03) (15, -5.32155847549438476562e+00) (16, 4.11799043416976928711e-01) (17, 1.63988780975341796875e+00) (18, -5.80795824527740478516e-01) (19, 7.93679535388946533203e-01) (20, -1.09101557731628417969e+00) (21, 9.13052082061767578125e+00) (22, 8.29607116699218750000e+02) (23, 1.50000000000000000000e+03) (24, 2.10848999023437500000e+00) (25, 2.11657333374023437500e+00) (26, 4.46679264307022094727e-01) (27, 2.21189999580383300781e+00) (28, 6.43416881561279296875e-01) (29, 2.58042860031127929688e+00) (30, 5.88355064392089843750e-01) (31, 1.45378708839416503906e+00) (32, 1.22840774059295654297e+00) (33, 3.78282856941223144531e+00) (34, 1.62278735637664794922e+00) (35, 2.73447370529174804688e+00) (36, 1.62305283546447753906e+00) (37, 2.78573727607727050781e+00) (38, 5.53174066543579101562e+00) (39, -9.00862503051757812500e+00) (40, -6.01570587158203125000e+01) (41, -7.79959058761596679688e+00) (42, 1.02349340915679931641e+00) (43, -4.63899517059326171875e+00) (44, 2.85667467117309570312e+00) (45, 7.87184381484985351562e+00) (46, 4.46791458129882812500e+00) (47, 2.13275289535522460938e+00) (48, -2.56947827339172363281e+00) (49, 3.02323913574218750000e+00) (50, 4.20598840713500976562e+00) (51, -6.28630518913269042969e-01) (52, -9.52144026756286621094e-01) (53, -4.54446345567703247070e-01) (54, -2.71256417036056518555e-01) (55, -5.39596319198608398438e+00) (56, 6.81015491485595703125e-01) (57, -3.33923280239105224609e-01) (58, 4.14455366134643554688e+00) (59, -1.24453201293945312500e+01) (60, 5.02721607685089111328e-01) (61, 2.00979650020599365234e-01) (62, 3.10386490821838378906e+00) (63, 4.09572982788085937500e+00) (64, 5.14771842956542968750e+00) (65, -4.08995008468627929688e+00) (66, 4.44629573822021484375e+00) (67, 2.72198700904846191406e+00) (68, 1.13785707950592041016e+00) (69, -2.73406207561492919922e-01) (70, -1.84745140075683593750e+01) (71, 3.83522659540176391602e-01) (72, -2.37382936477661132812e+00) (73, 4.87977600097656250000e+00) (74, 4.28644371032714843750e+00) (75, 1.27029037475585937500e+00) (76, -4.79524314403533935547e-01) (77, 3.45148372650146484375e+00) (0, 6.74849557876586914062e+00) (1, 4.69911241531372070312e+00) (2, 1.82791781425476074219e+00) (3, 7.30370581150054931641e-01) (4, 5.66047839820384979248e-02) (5, 7.93990135192871093750e-01) (6, 2.24988445639610290527e-01) (7, -6.00311470031738281250e+00) (8, -3.20305153727531433105e-02) (9, 1.50587034225463867188e+00) (10, 1.07696318626403808594e+00) (11, 6.54264628887176513672e-01) (12, 1.50000000000000000000e+03) (13, 1.50000000000000000000e+03) (14, -8.79238647460937500000e+02) (15, -5.88788092136383056641e-01) (16, -6.09018373489379882812e+00) (17, 1.32069945335388183594e+00) (18, 1.77782356739044189453e+00) (19, 1.62785744667053222656e+00) (20, 2.21917819976806640625e+00) (21, 6.04169807434082031250e+01) (22, 6.95973205566406250000e+02) (23, 1.50000000000000000000e+03) (24, 1.04920256137847900391e+00) (25, 2.16683697700500488281e+00) (26, 1.75778102874755859375e+00) (27, 1.58956217765808105469e+00) (28, 2.12281847000122070312e+00) (29, 5.07310509681701660156e-01) (30, 7.20667958259582519531e-01) (31, 1.59836494922637939453e+00) (32, 2.09190678596496582031e+00) (33, 4.57994081079959869385e-02) (34, 1.84022620320320129395e-01) (35, 1.88613688945770263672e+00) (36, 7.08499431610107421875e-01) (37, -8.93685638904571533203e-01) (38, -1.44690151214599609375e+01) (39, 1.21484375000000000000e+01) (40, -4.62547874450683593750e+01) (41, 2.85503540039062500000e+01) (42, 6.65047466754913330078e-01) (43, 4.90103683471679687500e+01) (44, 9.79142427444458007812e-01) (45, 3.47838759422302246094e-01) (46, 3.63511657714843750000e+00) (47, -3.68914937973022460938e+00) (48, 1.14596140384674072266e+00) (49, -2.46107912063598632812e+00) (50, -1.70368742942810058594e+00) (51, -9.06141698360443115234e-02) (52, 2.24784970283508300781e+00) (53, 4.25903618335723876953e-01) (54, 3.69648027420043945312e+00) (55, -2.51160287857055664062e+00) (56, 5.36945247650146484375e+00) (57, -3.90998840332031250000e+00) (58, -1.41851294040679931641e+00) (59, 2.95541687011718750000e+01) (60, -2.01042503118515014648e-01) (61, 5.34800577163696289062e+00) (62, 2.76836729049682617188e+00) (63, 1.70250654220581054688e+00) (64, 4.76759767532348632812e+00) (65, -2.36502647399902343750e+00) (66, -1.89144992828369140625e+00) (67, 3.16028547286987304688e+00) (68, -8.75959932804107666016e-01) (69, 4.34367322921752929688e+00) (70, 4.43556060791015625000e+01) (71, -2.00229257345199584961e-01) (72, 4.06629705429077148438e+00) (73, 2.87480974197387695312e+00) (74, 2.93505811691284179688e+00) (75, 3.62500548362731933594e+00) (76, 3.26175642013549804688e+00) (77, 7.29358613491058349609e-01) (78, -6.49920761585235595703e-01) (0, 2.04757003784179687500e+01) (1, 2.93823719024658203125e+00) (2, 2.65642714500427246094e+00) (3, 8.87559711933135986328e-01) (4, 1.27981233596801757812e+00) (5, -1.22391068935394287109e+00) (6, -7.86245763301849365234e-01) (7, -2.80798345804214477539e-01) (8, -6.31254315376281738281e-01) (9, -1.16893902420997619629e-01) (10, -5.97748041152954101562e-01) (11, -3.26930969953536987305e-01) (12, 1.50000000000000000000e+03) (13, 1.50000000000000000000e+03) (14, -2.62560363769531250000e+02) (15, -4.23744487762451171875e+00) (16, -5.35663080215454101562e+00) (17, 1.15430390834808349609e+00) (18, 1.30940890312194824219e+00) (19, 1.16103029251098632812e+00) (20, 1.71374392509460449219e+00) (21, 8.18002033233642578125e+00) (22, -1.50000000000000000000e+03) (23, 1.50000000000000000000e+03) (24, 8.55405390262603759766e-01) (25, 3.94069463014602661133e-01) (26, 1.81881701946258544922e+00) (27, 1.86484801769256591797e+00) (28, 2.23703575134277343750e+00) (29, 9.84874904155731201172e-01) (30, 1.79791629314422607422e+00) (31, 1.52082324028015136719e+00) (32, 1.23974338173866271973e-01) (33, 1.01305031776428222656e+00) (34, 1.88958072662353515625e+00) (35, 1.31561052799224853516e+00) (36, 5.05313515663146972656e-01) (37, 3.49485516548156738281e+00) (38, 3.49338989257812500000e+01) (39, -9.60833740234375000000e+00) (40, -2.67031593322753906250e+01) (41, -8.48738861083984375000e+00) (42, -2.54485994577407836914e-01) (43, 7.29224166870117187500e+01) (44, 3.80389958620071411133e-01) (45, 3.33580327033996582031e+00) (46, -2.51290011405944824219e+00) (47, 5.28966903686523437500e-01) (48, 3.95931863784790039062e+00) (49, 1.25143086910247802734e+00) (50, -8.67176473140716552734e-01) (51, 1.35553348064422607422e+00) (52, 3.45532393455505371094e+00) (53, 2.98617792129516601562e+00) (54, 2.82660627365112304688e+00) (55, -4.29275226593017578125e+00) (56, 5.41017866134643554688e+00) (57, 5.78666687011718750000e-01) (58, -2.19265818595886230469e+00) (59, 9.77529048919677734375e+00) (60, 3.71321702003479003906e+00) (61, 3.71927571296691894531e+00) (62, 2.55021691322326660156e-01) (63, 5.74484634399414062500e+00) (64, 1.92810070514678955078e+00) (65, 1.85369813442230224609e+00) (66, 1.78158521652221679688e+00) (67, 3.62714457511901855469e+00) (68, 1.70066928863525390625e+00) (69, 5.63826322555541992188e+00) (70, -1.49101934432983398438e+01) (71, -3.33896851539611816406e+00) (72, 6.08561420440673828125e+00) (73, 2.16005682945251464844e+00) (74, -1.92857575416564941406e+00) (75, 4.10476350784301757812e+00) (76, -1.39092791080474853516e+00) (77, 4.27588701248168945312e+00) (78, 4.12816572189331054688e+00) (79, 2.88196706771850585938e+00) (0, 3.67134481668472290039e-01) (1, 1.39151132106781005859e+00) (2, 4.20938968658447265625e-01) (3, 6.52172207832336425781e-01) (4, -2.70850849151611328125e+00) (5, -2.80307769775390625000e+00) (6, -1.44190275669097900391e+00) (7, 1.82269728183746337891e+00) (8, 1.87759891152381896973e-01) (9, 1.75146818161010742188e+00) (10, 1.23844051361083984375e+00) (11, -8.53839278221130371094e-01) (12, 1.50000000000000000000e+03) (13, 1.50000000000000000000e+03) (14, -1.28388633728027343750e+01) (15, 1.24421787261962890625e+00) (16, 5.60187160968780517578e-01) (17, 6.66637539863586425781e-01) (18, 6.76647365093231201172e-01) (19, 1.17976605892181396484e+00) (20, 9.97390329837799072266e-01) (21, 3.49424362182617187500e+00) (22, -1.43382949829101562500e+02) (23, 1.50000000000000000000e+03) (24, 3.05771142244338989258e-01) (25, 1.34560275077819824219e+00) (26, 9.53844428062438964844e-01) (27, 2.02669119834899902344e+00) (28, 1.44104015827178955078e+00) (29, 7.51158744096755981445e-02) (30, 9.25884783267974853516e-01) (31, 8.97154986858367919922e-01) (32, 2.43269181251525878906e+00) (33, 4.25729334354400634766e-01) (34, 8.00188779830932617188e-01) (35, 2.48353624343872070312e+00) (36, -8.14083099365234375000e-01) (37, 2.54276108741760253906e+00) (38, -2.93369442224502563477e-02) (39, -2.96414077281951904297e-01) (40, -4.18686294555664062500e+00) (41, 3.87245506048202514648e-01) (42, 5.25150783360004425049e-02) (43, -1.05116093158721923828e+00) (44, -4.49407026171684265137e-02) (45, 1.91393168643116950989e-03) (46, -3.86712327599525451660e-02) (47, -4.03586998581886291504e-02) (48, 1.11352235078811645508e-01) (49, -8.84552001953125000000e-02) (50, 2.13419701904058456421e-02) (51, 1.02834336459636688232e-01) (52, -4.16864641010761260986e-02) (53, -7.07666203379631042480e-02) (54, 9.15830880403518676758e-02) (55, 7.00990408658981323242e-02) (56, 2.55335886031389236450e-02) (57, 3.81513163447380065918e-02) (58, 1.46738231182098388672e-01) (59, -6.49203658103942871094e-01) (60, 6.09455257654190063477e-03) (61, 2.76919770985841751099e-02) (62, 2.16096993535757064819e-02) (63, -9.15363896638154983521e-03) (64, -4.31135557591915130615e-02) (65, 1.33670764043927192688e-02) (66, -9.79598518460988998413e-03) (67, 1.29752689972519874573e-02) (68, -8.20811931043863296509e-03) (69, -8.25962796807289123535e-03) (70, 3.41108965873718261719e+00) (71, -3.26267816126346588135e-02) (72, -7.96963053289800882339e-04) (73, -4.32781554991379380226e-04) (74, -6.57550571486353874207e-03) (75, 2.46369075030088424683e-02) (76, -2.75011379271745681763e-02) (77, -7.22395349293947219849e-03) (78, -7.77795957401394844055e-03) (79, -1.52064685244113206863e-03) (80, -5.42510487139225006104e-02) (0, -6.51290035247802734375e+00) (1, -5.84297299385070800781e-01) (2, 7.99501955509185791016e-01) (3, 2.21608972549438476562e+00) (4, 1.78185236454010009766e+00) (5, 1.79290205240249633789e-01) (6, 5.91520977020263671875e+00) (7, 3.73297381401062011719e+00) (8, 1.98185992240905761719e+00) (9, 2.56722593307495117188e+00) (10, 2.95476436614990234375e+00) (11, 5.68681478500366210938e+00) (12, 1.50000000000000000000e+03) (13, 1.50000000000000000000e+03) (14, 2.60958251953125000000e+02) (15, -8.12298059463500976562e-01) (16, -9.93774771690368652344e-01) (17, -4.18529778718948364258e-01) (18, -2.14562606811523437500e+00) (19, -1.84084188938140869141e+00) (20, 7.97752678394317626953e-01) (21, 2.60084285736083984375e+01) (22, -1.31542163085937500000e+03) (23, 1.50000000000000000000e+03) (24, 2.02355027198791503906e+00) (25, 1.97639632225036621094e+00) (26, 1.14761757850646972656e+00) (27, 2.08691120147705078125e+00) (28, 1.62107658386230468750e+00) (29, 2.45303702354431152344e+00) (30, 1.46138191223144531250e+00) (31, 1.74101877212524414062e+00) (32, 1.03267598152160644531e+00) (33, 1.12152099609375000000e+00) (34, 1.72871673107147216797e+00) (35, 2.95679378509521484375e+00) (36, -2.75124937295913696289e-01) (37, -3.31948566436767578125e+00) (38, -1.71136367321014404297e+00) (39, 2.61178035736083984375e+01) (40, -6.53155803680419921875e+00) (41, -3.80559349060058593750e+01) (42, 8.59991967678070068359e-01) (43, -1.95734672546386718750e+01) (44, 7.29137718677520751953e-01) (45, 5.94573688507080078125e+00) (46, 4.62557268142700195312e+00) (47, 2.85532951354980468750e+00) (48, 2.08337426185607910156e-01) (49, 3.92165482044219970703e-01) (50, 2.07893013954162597656e+00) (51, -2.29459738731384277344e+00) (52, 5.89630603790283203125e+00) (53, 1.45111048221588134766e+00) (54, 1.16972851753234863281e+00) (55, 4.29426878690719604492e-01) (56, 4.90262889862060546875e+00) (57, 2.81684780120849609375e+00) (58, -1.27180799841880798340e-01) (59, 1.10043439865112304688e+01) (60, -9.64224874973297119141e-01) (61, -1.97355473041534423828e+00) (62, 6.28257703781127929688e+00) (63, 1.82346546649932861328e+00) (64, 8.70273947715759277344e-01) (65, 1.08156490325927734375e+00) (66, 2.79352951049804687500e+00) (67, 2.30730876326560974121e-01) (68, 3.11319017410278320312e+00) (69, 6.81917619705200195312e+00) (70, -5.74817514419555664062e+00) (71, -2.31307172775268554688e+00) (72, 1.46439468860626220703e+00) (73, 2.87287282943725585938e+00) (74, 1.14726066589355468750e+00) (75, -2.58507704734802246094e+00) (76, 5.29036140441894531250e+00) (77, 3.09060311317443847656e+00) (78, 3.81681108474731445312e+00) (79, 6.67585372924804687500e-01) (80, -2.02510094642639160156e+00) (81, -1.38225259780883789062e+01) (0, 9.27245438098907470703e-01) (1, 1.03060626983642578125e+00) (2, -4.79598402976989746094e-01) (3, -7.01262295246124267578e-01) (4, -6.39063417911529541016e-01) (5, 3.48610609769821166992e-01) (6, -1.37517726421356201172e+00) (7, -3.58950638771057128906e+00) (8, -3.27444002032279968262e-02) (9, 8.19911897182464599609e-01) (10, 1.37690412998199462891e+00) (11, 2.63303399085998535156e+00) (12, 1.50000000000000000000e+03) (13, 1.50000000000000000000e+03) (14, -2.87981262207031250000e+01) (15, 1.28273308277130126953e+00) (16, -3.22553396224975585938e-01) (17, 1.21156322956085205078e+00) (18, 6.77752435207366943359e-01) (19, -5.70162475109100341797e-01) (20, -4.65526014566421508789e-01) (21, 5.66785717010498046875e+00) (22, -1.18297462463378906250e+02) (23, 1.50000000000000000000e+03) (24, 7.00305998325347900391e-01) (25, -1.65089875459671020508e-01) (26, 6.91800832748413085938e-01) (27, -1.56765356659889221191e-01) (28, -2.33125299215316772461e-01) (29, 6.09180748462677001953e-01) (30, -9.20718550682067871094e-01) (31, 7.58521318435668945312e-01) (32, 4.68410104513168334961e-02) (33, 2.22337037324905395508e-01) (34, 1.57619625329971313477e-01) (35, 1.21686458587646484375e+00) (36, -1.56027460098266601562e+00) (37, 6.54450714588165283203e-01) (38, 2.98920345306396484375e+00) (39, -5.53705513477325439453e-01) (40, -5.41289329528808593750e+00) (41, -1.81088536977767944336e-01) (42, 8.86115208268165588379e-02) (43, 2.24962806701660156250e+00) (44, -1.10741883516311645508e-01) (45, 1.91196445375680923462e-02) (46, -3.68294678628444671631e-02) (47, -6.94643333554267883301e-02) (48, 2.33195483684539794922e-01) (49, -1.92573770880699157715e-01) (50, 4.29604724049568176270e-02) (51, 1.58020004630088806152e-01) (52, -7.41291493177413940430e-02) (53, -1.23772010207176208496e-01) (54, 1.57189682126045227051e-01) (55, 1.03125490248203277588e-01) (56, 6.14916682243347167969e-02) (57, 6.24322853982448577881e-02) (58, 2.27499723434448242188e-01) (59, 4.76750940084457397461e-01) (60, -2.31540594249963760376e-02) (61, 1.98733210563659667969e-02) (62, 3.46828103065490722656e-02) (63, 2.45037465356290340424e-03) (64, -5.82724623382091522217e-02) (65, 3.66420038044452667236e-02) (66, 9.74741484969854354858e-03) (67, 2.49504819512367248535e-02) (68, -4.16918247938156127930e-02) (69, -1.15678152069449424744e-02) (70, 3.01452708244323730469e+00) (71, -2.16812472790479660034e-02) (72, -1.96777004748582839966e-02) (73, 1.77621189504861831665e-02) (74, 1.89960969146341085434e-03) (75, 2.06693504005670547485e-02) (76, -1.03762075304985046387e-02) (77, -4.92471689358353614807e-03) (78, -4.63272212073206901550e-03) (79, -3.00044286996126174927e-02) (80, -5.33458292484283447266e-02) (81, 5.20823717117309570312e+00) (82, 5.49903810024261474609e-02) (0, 1.46943056583404541016e+00) (1, 7.57421374320983886719e-01) (2, 1.65140426158905029297e+00) (3, 3.58268022537231445312e-01) (4, 2.21486353874206542969e+00) (5, 8.89936923980712890625e-01) (6, 1.89046823978424072266e+00) (7, 1.57254528999328613281e+00) (8, 1.68674242496490478516e+00) (9, 1.61351609230041503906e+00) (10, 3.57923030853271484375e-01) (11, 1.92136573791503906250e+00) (12, 1.50000000000000000000e+03) (13, 1.50000000000000000000e+03) (14, -1.50000000000000000000e+03) (15, 6.99105787277221679688e+00) (16, -6.98116779327392578125e-01) (17, 6.56011343002319335938e-01) (18, 1.02771186828613281250e+00) (19, 2.12306469678878784180e-01) (20, 1.65851521492004394531e+00) (21, 7.65241012573242187500e+01) (22, 1.50000000000000000000e+03) (23, 1.50000000000000000000e+03) (24, 