FANN_FLO_2.1
num_layers=5
learning_rate=0.700000
connection_rate=1.000000
network_type=0
learning_momentum=0.000000
training_algorithm=2
train_error_function=0
train_stop_function=1
cascade_output_change_fraction=0.010000
quickprop_decay=-0.000100
quickprop_mu=1.750000
rprop_increase_factor=1.200000
rprop_decrease_factor=0.500000
rprop_delta_min=0.000000
rprop_delta_max=50.000000
rprop_delta_zero=0.100000
cascade_output_stagnation_epochs=12
cascade_candidate_change_fraction=0.010000
cascade_candidate_stagnation_epochs=12
cascade_max_out_epochs=150
cascade_min_out_epochs=50
cascade_max_cand_epochs=150
cascade_min_cand_epochs=50
cascade_num_candidate_groups=2
bit_fail_limit=9.99999977648258209229e-03
cascade_candidate_limit=1.00000000000000000000e+03
cascade_weight_multiplier=4.00000005960464477539e-01
cascade_activation_functions_count=1
cascade_activation_functions=5 
cascade_activation_steepnesses_count=1
cascade_activation_steepnesses=1.00000001490116119385e-01 
layer_sizes=37 101 51 26 2 
scale_included=0
neurons (num_inputs, activation_function, activation_steepness)=(0, 0, 0.00000000000000000000e+00) (0, 0, 0.00000000000000000000e+00) (0, 0, 0.00000000000000000000e+00) (0, 0, 0.00000000000000000000e+00) (0, 0, 0.00000000000000000000e+00) (0, 0, 0.00000000000000000000e+00) (0, 0, 0.00000000000000000000e+00) (0, 0, 0.00000000000000000000e+00) (0, 0, 0.00000000000000000000e+00) (0, 0, 0.00000000000000000000e+00) (0, 0, 0.00000000000000000000e+00) (0, 0, 0.00000000000000000000e+00) (0, 0, 0.00000000000000000000e+00) (0, 0, 0.00000000000000000000e+00) (0, 0, 0.00000000000000000000e+00) (0, 0, 0.00000000000000000000e+00) (0, 0, 0.00000000000000000000e+00) (0, 0, 0.00000000000000000000e+00) (0, 0, 0.00000000000000000000e+00) (0, 0, 0.00000000000000000000e+00) (0, 0, 0.00000000000000000000e+00) (0, 0, 0.00000000000000000000e+00) (0, 0, 0.00000000000000000000e+00) (0, 0, 0.00000000000000000000e+00) (0, 0, 0.00000000000000000000e+00) (0, 0, 0.00000000000000000000e+00) (0, 0, 0.00000000000000000000e+00) (0, 0, 0.00000000000000000000e+00) (0, 0, 0.00000000000000000000e+00) (0, 0, 0.00000000000000000000e+00) (0, 0, 0.00000000000000000000e+00) (0, 0, 0.00000000000000000000e+00) (0, 0, 0.00000000000000000000e+00) (0, 0, 0.00000000000000000000e+00) (0, 0, 0.00000000000000000000e+00) (0, 0, 0.00000000000000000000e+00) (0, 0, 0.00000000000000000000e+00) (37, 5, 5.00000000000000000000e-01) (37, 5, 5.00000000000000000000e-01) (37, 5, 5.00000000000000000000e-01) (37, 5, 5.00000000000000000000e-01) (37, 5, 5.00000000000000000000e-01) (37, 5, 5.00000000000000000000e-01) (37, 5, 5.00000000000000000000e-01) (37, 5, 5.00000000000000000000e-01) (37, 5, 5.00000000000000000000e-01) (37, 5, 5.00000000000000000000e-01) (37, 5, 5.00000000000000000000e-01) (37, 5, 5.00000000000000000000e-01) (37, 5, 5.00000000000000000000e-01) (37, 5, 5.00000000000000000000e-01) (37, 5, 5.00000000000000000000e-01) (37, 5, 5.00000000000000000000e-01) (37, 5, 5.00000000000000000000e-01) (37, 5, 5.00000000000000000000e-01) (37, 5, 5.00000000000000000000e-01) (37, 5, 5.00000000000000000000e-01) (37, 5, 5.00000000000000000000e-01) (37, 5, 5.00000000000000000000e-01) (37, 5, 5.00000000000000000000e-01) (37, 5, 5.00000000000000000000e-01) (37, 5, 5.00000000000000000000e-01) (37, 5, 5.00000000000000000000e-01) (37, 5, 5.00000000000000000000e-01) (37, 5, 5.00000000000000000000e-01) (37, 5, 5.00000000000000000000e-01) (37, 5, 5.00000000000000000000e-01) (37, 5, 5.00000000000000000000e-01) (37, 5, 5.00000000000000000000e-01) (37, 5, 5.00000000000000000000e-01) (37, 5, 5.00000000000000000000e-01) (37, 5, 5.00000000000000000000e-01) (37, 5, 5.00000000000000000000e-01) (37, 5, 5.00000000000000000000e-01) (37, 5, 5.00000000000000000000e-01) (37, 5, 5.00000000000000000000e-01) (37, 5, 5.00000000000000000000e-01) (37, 5, 5.00000000000000000000e-01) (37, 5, 5.00000000000000000000e-01) (37, 5, 5.00000000000000000000e-01) (37, 5, 5.00000000000000000000e-01) (37, 5, 5.00000000000000000000e-01) (37, 5, 5.00000000000000000000e-01) (37, 5, 5.00000000000000000000e-01) (37, 5, 5.00000000000000000000e-01) (37, 5, 5.00000000000000000000e-01) (37, 5, 5.00000000000000000000e-01) (37, 5, 5.00000000000000000000e-01) (37, 5, 5.00000000000000000000e-01) (37, 5, 5.00000000000000000000e-01) (37, 5, 5.00000000000000000000e-01) (37, 5, 5.00000000000000000000e-01) (37, 5, 5.00000000000000000000e-01) (37, 5, 5.00000000000000000000e-01) (37, 5, 5.00000000000000000000e-01) (37, 5, 5.00000000000000000000e-01) (37, 5, 5.00000000000000000000e-01) (37, 5, 5.00000000000000000000e-01) (37, 5, 5.00000000000000000000e-01) (37, 5, 5.00000000000000000000e-01) (37, 5, 5.00000000000000000000e-01) (37, 5, 5.00000000000000000000e-01) (37, 5, 5.00000000000000000000e-01) (37, 5, 5.00000000000000000000e-01) (37, 5, 5.00000000000000000000e-01) (37, 5, 5.00000000000000000000e-01) (37, 5, 5.00000000000000000000e-01) (37, 5, 5.00000000000000000000e-01) (37, 5, 5.00000000000000000000e-01) (37, 5, 5.00000000000000000000e-01) (37, 5, 5.00000000000000000000e-01) (37, 5, 5.00000000000000000000e-01) (37, 5, 5.00000000000000000000e-01) (37, 5, 5.00000000000000000000e-01) (37, 5, 5.00000000000000000000e-01) (37, 5, 5.00000000000000000000e-01) (37, 5, 5.00000000000000000000e-01) (37, 5, 5.00000000000000000000e-01) (37, 5, 5.00000000000000000000e-01) (37, 5, 5.00000000000000000000e-01) (37, 5, 5.00000000000000000000e-01) (37, 5, 5.00000000000000000000e-01) (37, 5, 5.00000000000000000000e-01) (37, 5, 5.00000000000000000000e-01) (37, 5, 5.00000000000000000000e-01) (37, 5, 5.00000000000000000000e-01) (37, 5, 5.00000000000000000000e-01) (37, 5, 5.00000000000000000000e-01) (37, 5, 5.00000000000000000000e-01) (37, 5, 5.00000000000000000000e-01) (37, 5, 5.00000000000000000000e-01) (37, 5, 5.00000000000000000000e-01) (37, 5, 5.00000000000000000000e-01) (37, 5, 5.00000000000000000000e-01) (37, 5, 5.00000000000000000000e-01) (37, 5, 5.00000000000000000000e-01) (37, 5, 5.00000000000000000000e-01) (0, 5, 0.00000000000000000000e+00) (101, 5, 5.00000000000000000000e-01) (101, 5, 5.00000000000000000000e-01) (101, 5, 5.00000000000000000000e-01) (101, 5, 5.00000000000000000000e-01) (101, 5, 5.00000000000000000000e-01) (101, 5, 5.00000000000000000000e-01) (101, 5, 5.00000000000000000000e-01) (101, 5, 5.00000000000000000000e-01) (101, 5, 5.00000000000000000000e-01) (101, 5, 5.00000000000000000000e-01) (101, 5, 5.00000000000000000000e-01) (101, 5, 5.00000000000000000000e-01) (101, 5, 5.00000000000000000000e-01) (101, 5, 5.00000000000000000000e-01) (101, 5, 5.00000000000000000000e-01) (101, 5, 5.00000000000000000000e-01) (101, 5, 5.00000000000000000000e-01) (101, 5, 5.00000000000000000000e-01) (101, 5, 5.00000000000000000000e-01) (101, 5, 5.00000000000000000000e-01) (101, 5, 5.00000000000000000000e-01) (101, 5, 5.00000000000000000000e-01) (101, 5, 5.00000000000000000000e-01) (101, 5, 5.00000000000000000000e-01) (101, 5, 5.00000000000000000000e-01) (101, 5, 5.00000000000000000000e-01) (101, 5, 5.00000000000000000000e-01) (101, 5, 5.00000000000000000000e-01) (101, 5, 5.00000000000000000000e-01) (101, 5, 5.00000000000000000000e-01) (101, 5, 5.00000000000000000000e-01) (101, 5, 5.00000000000000000000e-01) (101, 5, 5.00000000000000000000e-01) (101, 5, 5.00000000000000000000e-01) (101, 5, 5.00000000000000000000e-01) (101, 5, 5.00000000000000000000e-01) (101, 5, 5.00000000000000000000e-01) (101, 5, 5.00000000000000000000e-01) (101, 5, 5.00000000000000000000e-01) (101, 5, 5.00000000000000000000e-01) (101, 5, 5.00000000000000000000e-01) (101, 5, 5.00000000000000000000e-01) (101, 5, 5.00000000000000000000e-01) (101, 5, 5.00000000000000000000e-01) (101, 5, 5.00000000000000000000e-01) (101, 5, 5.00000000000000000000e-01) (101, 5, 5.00000000000000000000e-01) (101, 5, 5.00000000000000000000e-01) (101, 5, 5.00000000000000000000e-01) (101, 5, 5.00000000000000000000e-01) (0, 5, 0.00000000000000000000e+00) (51, 5, 5.00000000000000000000e-01) (51, 5, 5.00000000000000000000e-01) (51, 5, 5.00000000000000000000e-01) (51, 5, 5.00000000000000000000e-01) (51, 5, 5.00000000000000000000e-01) (51, 5, 5.00000000000000000000e-01) (51, 5, 5.00000000000000000000e-01) (51, 5, 5.00000000000000000000e-01) (51, 5, 5.00000000000000000000e-01) (51, 5, 5.00000000000000000000e-01) (51, 5, 5.00000000000000000000e-01) (51, 5, 5.00000000000000000000e-01) (51, 5, 5.00000000000000000000e-01) (51, 5, 5.00000000000000000000e-01) (51, 5, 5.00000000000000000000e-01) (51, 5, 5.00000000000000000000e-01) (51, 5, 5.00000000000000000000e-01) (51, 5, 5.00000000000000000000e-01) (51, 5, 5.00000000000000000000e-01) (51, 5, 5.00000000000000000000e-01) (51, 5, 5.00000000000000000000e-01) (51, 5, 5.00000000000000000000e-01) (51, 5, 5.00000000000000000000e-01) (51, 5, 5.00000000000000000000e-01) (51, 5, 5.00000000000000000000e-01) (0, 5, 0.00000000000000000000e+00) (26, 0, 5.00000000000000000000e-01) (0, 0, 0.00000000000000000000e+00) 
connections (connected_to_neuron, weight)=(0, 1.38914404296875000000e+03) (1, 1.22792028808593750000e+03) (2, 1.43816296386718750000e+03) (3, 1.49756567382812500000e+03) (4, 1.49523278808593750000e+03) (5, 1.49747717285156250000e+03) (6, 1.45570996093750000000e+03) (7, 1.45442272949218750000e+03) (8, 1.50000000000000000000e+03) (9, 1.50000000000000000000e+03) (10, 1.50000000000000000000e+03) (11, 1.50000000000000000000e+03) (12, 1.50000000000000000000e+03) (13, 1.50000000000000000000e+03) (14, -1.06043017578125000000e+03) (15, 1.48163330078125000000e+03) (16, 1.50000000000000000000e+03) (17, 1.50000000000000000000e+03) (18, 1.49996154785156250000e+03) (19, 1.49994909667968750000e+03) (20, 1.49988806152343750000e+03) (21, 1.50000000000000000000e+03) (22, -3.22303558349609375000e+02) (23, 1.50000000000000000000e+03) (24, 1.50000000000000000000e+03) (25, 1.50000000000000000000e+03) (26, 1.50000000000000000000e+03) (27, 1.50000000000000000000e+03) (28, 1.50000000000000000000e+03) (29, 1.50000000000000000000e+03) (30, 1.50000000000000000000e+03) (31, 1.50000000000000000000e+03) (32, 1.50000000000000000000e+03) (33, 1.50000000000000000000e+03) (34, 1.50000000000000000000e+03) (35, 1.50000000000000000000e+03) (36, 1.49928332519531250000e+03) (0, 1.61852791905403137207e-01) (1, 2.13750541210174560547e-01) (2, 1.84053674340248107910e-01) (3, 1.22624985873699188232e-01) (4, 1.15063883364200592041e-01) (5, 9.57686081528663635254e-02) (6, 4.56731803715229034424e-02) (7, 8.65669101476669311523e-02) (8, 2.56887435913085937500e-01) (9, 2.48918995261192321777e-01) (10, 1.67684108018875122070e-01) (11, 2.32991948723793029785e-01) (12, 1.50000000000000000000e+03) (13, 1.50000000000000000000e+03) (14, -3.45678131103515625000e+02) (15, 1.04153833389282226562e+01) (16, -1.74183890223503112793e-01) (17, -1.92456200718879699707e-01) (18, 2.30479817837476730347e-02) (19, 8.19200463593006134033e-03) (20, -2.60157942771911621094e-01) (21, -2.98190426826477050781e+00) (22, -1.46005310058593750000e+03) (23, 1.50000000000000000000e+03) (24, 3.82217437028884887695e-01) (25, 1.61339610815048217773e-01) (26, 2.39532604813575744629e-01) (27, 2.42254018783569335938e-01) (28, 2.68334835767745971680e-01) (29, 4.00468409061431884766e-01) (30, 3.82410943508148193359e-01) (31, 2.36422672867774963379e-01) (32, 3.99694859981536865234e-01) (33, 2.83919632434844970703e-01) (34, 2.80421882867813110352e-01) (35, 3.97059917449951171875e-01) (36, 1.68559625744819641113e-01) (0, 6.64415163919329643250e-03) (1, 4.22881916165351867676e-03) (2, 4.99831363558769226074e-02) (3, 1.19664810597896575928e-01) (4, -1.01331935729831457138e-03) (5, 1.14130355417728424072e-01) (6, 1.66804611682891845703e-01) (7, 4.03239428997039794922e-02) (8, 1.08440503478050231934e-01) (9, 6.42439303919672966003e-03) (10, 6.50733560323715209961e-02) (11, 2.40405157208442687988e-01) (12, 1.50000000000000000000e+03) (13, 1.50000000000000000000e+03) (14, -8.18850402832031250000e+02) (15, -1.33994073867797851562e+01) (16, 2.08272993564605712891e-01) (17, 1.34512245655059814453e-01) (18, 2.32321053743362426758e-01) (19, 1.72292560338973999023e-01) (20, 3.25498729944229125977e-01) (21, -4.67236608266830444336e-01) (22, 1.08901171875000000000e+03) (23, 1.50000000000000000000e+03) (24, 2.10537135601043701172e-01) (25, 2.08523377776145935059e-01) (26, 1.83475121855735778809e-01) (27, 9.76800397038459777832e-02) (28, 4.18384611606597900391e-01) (29, 2.60385900735855102539e-01) (30, 3.48578721284866333008e-01) (31, 1.70545145869255065918e-01) (32, 2.89937674999237060547e-01) (33, 2.65551120042800903320e-01) (34, 2.38969489932060241699e-01) (35, 3.70143204927444458008e-01) (36, 1.19508922100067138672e-01) (0, -1.71051546931266784668e-01) (1, -9.44542437791824340820e-02) (2, 5.57979121804237365723e-02) (3, -9.18780937790870666504e-02) (4, -3.68527024984359741211e-02) (5, 3.34658920764923095703e-02) (6, 6.92778229713439941406e-02) (7, -5.81313595175743103027e-02) (8, 7.41052627563476562500e-03) (9, 5.62737099826335906982e-02) (10, -2.18714848160743713379e-02) (11, 1.15145221352577209473e-01) (12, 1.50000000000000000000e+03) (13, 1.50000000000000000000e+03) (14, -6.69306259155273437500e+01) (15, -3.90809535980224609375e-01) (16, 1.00530013442039489746e-01) (17, -9.00893211364746093750e-02) (18, -9.81195196509361267090e-02) (19, 6.42737001180648803711e-02) (20, 2.13160961866378784180e-01) (21, -1.60335254669189453125e+00) (22, 6.35214294433593750000e+02) (23, 1.50000000000000000000e+03) (24, 2.04205483198165893555e-01) (25, 2.88406997919082641602e-01) (26, 1.22813984751701354980e-01) (27, 9.79067161679267883301e-02) (28, 6.35125860571861267090e-02) (29, 1.13249890506267547607e-01) (30, 1.08852706849575042725e-01) (31, 5.37820532917976379395e-02) (32, 1.41957864165306091309e-01) (33, 1.70919686555862426758e-01) (34, 2.01673507690429687500e-01) (35, 2.88654029369354248047e-01) (36, 9.90429744124412536621e-02) (0, 1.45253662109375000000e+03) (1, 1.44339477539062500000e+03) (2, 1.50000000000000000000e+03) (3, 1.50000000000000000000e+03) (4, 1.49349377441406250000e+03) (5, 1.50000000000000000000e+03) (6, 1.47114526367187500000e+03) (7, 1.34345129394531250000e+03) (8, 1.47582373046875000000e+03) (9, 1.50000000000000000000e+03) (10, 1.50000000000000000000e+03) (11, 1.50000000000000000000e+03) (12, 1.50000000000000000000e+03) (13, 1.50000000000000000000e+03) (14, 3.69340972900390625000e+02) (15, 1.44707824707031250000e+03) (16, 1.50000000000000000000e+03) (17, 1.50000000000000000000e+03) (18, 1.49991369628906250000e+03) (19, 1.49996118164062500000e+03) (20, 1.49929296875000000000e+03) (21, 1.50000000000000000000e+03) (22, -1.14146459960937500000e+03) (23, 1.50000000000000000000e+03) (24, 1.50000000000000000000e+03) (25, 1.50000000000000000000e+03) (26, 1.50000000000000000000e+03) (27, 1.50000000000000000000e+03) (28, 1.50000000000000000000e+03) (29, 1.50000000000000000000e+03) (30, 1.50000000000000000000e+03) (31, 1.50000000000000000000e+03) (32, 1.50000000000000000000e+03) (33, 1.50000000000000000000e+03) (34, 1.50000000000000000000e+03) (35, 1.50000000000000000000e+03) (36, 1.50000000000000000000e+03) (0, -5.79449653625488281250e+00) (1, 3.29336071014404296875e+00) (2, -1.60046279430389404297e+00) (3, -6.23139262199401855469e-01) (4, -6.94000601768493652344e-01) (5, 1.56933345794677734375e+01) (6, 2.37322854995727539062e+00) (7, 3.39264583587646484375e+00) (8, 2.29107975959777832031e+00) (9, 6.23571586608886718750e+00) (10, 1.69367086887359619141e+00) (11, 1.87437939643859863281e+00) (12, 1.50000000000000000000e+03) (13, 1.50000000000000000000e+03) (14, -1.20768298339843750000e+03) (15, -1.58333099365234375000e+02) (16, -4.11159896850585937500e+01) (17, -2.85841298103332519531e+00) (18, 9.63259792327880859375e+00) (19, -8.38165283203125000000e-01) (20, -4.44405364990234375000e+01) (21, 3.43975563049316406250e+01) (22, 1.50000000000000000000e+03) (23, 1.50000000000000000000e+03) (24, 7.23079860210418701172e-01) (25, 8.14936220645904541016e-01) (26, 9.16548132896423339844e-01) (27, 1.69523644447326660156e+00) (28, 1.71934235095977783203e+00) (29, 1.62361919879913330078e+00) (30, 1.58675360679626464844e+00) (31, 1.67233026027679443359e+00) (32, 1.71876609325408935547e+00) (33, 1.67412841320037841797e+00) (34, 1.70534706115722656250e+00) (35, 1.47441053390502929688e+00) (36, 1.75242710113525390625e+00) (0, -3.80853191018104553223e-02) (1, -7.59707540273666381836e-02) (2, -7.47764408588409423828e-02) (3, -3.21285903453826904297e-01) (4, -5.07912814617156982422e-01) (5, -4.12603020668029785156e-02) (6, 8.73531848192214965820e-02) (7, 2.28436347097158432007e-02) (8, -5.58823645114898681641e-02) (9, -2.34574139118194580078e-01) (10, -2.71764874458312988281e-01) (11, -9.63080376386642456055e-02) (12, 1.50000000000000000000e+03) (13, 1.50000000000000000000e+03) (14, -1.50000000000000000000e+03) (15, -4.27713127136230468750e+01) (16, -6.15784287452697753906e-01) (17, -5.74526071548461914062e-01) (18, -8.40071678161621093750e-01) (19, -4.61892992258071899414e-01) (20, -6.78999245166778564453e-01) (21, -7.01953048706054687500e+01) (22, -1.50000000000000000000e+03) (23, 1.50000000000000000000e+03) (24, 1.22675731778144836426e-01) (25, 1.50034517049789428711e-01) (26, 2.01103135943412780762e-01) (27, 1.65329098701477050781e-01) (28, 1.23673388734459877014e-02) (29, 7.52799436450004577637e-02) (30, 1.79287835955619812012e-01) (31, 1.68327569961547851562e-01) (32, 2.70220497623085975647e-03) (33, 7.58363157510757446289e-02) (34, 8.91791731119155883789e-02) (35, 4.83426451683044433594e-02) (36, 6.69442713260650634766e-02) (0, 1.47608056640625000000e+03) (1, 1.48839929199218750000e+03) (2, 1.47941308593750000000e+03) (3, 1.49788696289062500000e+03) (4, 1.50000000000000000000e+03) (5, 1.50000000000000000000e+03) (6, 1.40798669433593750000e+03) (7, 1.41443847656250000000e+03) (8, 1.49927893066406250000e+03) (9, 1.50000000000000000000e+03) (10, 1.50000000000000000000e+03) (11, 1.50000000000000000000e+03) (12, 1.50000000000000000000e+03) (13, 1.50000000000000000000e+03) (14, -5.20496459960937500000e+02) (15, 1.47498303222656250000e+03) (16, 1.50000000000000000000e+03) (17, 1.50000000000000000000e+03) (18, 1.49999877929687500000e+03) (19, 1.49998559570312500000e+03) (20, 1.49969958496093750000e+03) (21, 1.50000000000000000000e+03) (22, 3.84596801757812500000e+02) (23, 1.50000000000000000000e+03) (24, 1.50000000000000000000e+03) (25, 1.50000000000000000000e+03) (26, 1.50000000000000000000e+03) (27, 1.50000000000000000000e+03) (28, 1.50000000000000000000e+03) (29, 1.50000000000000000000e+03) (30, 1.50000000000000000000e+03) (31, 1.50000000000000000000e+03) (32, 1.50000000000000000000e+03) (33, 1.50000000000000000000e+03) (34, 1.50000000000000000000e+03) (35, 1.50000000000000000000e+03) (36, 1.50000000000000000000e+03) (0, 1.50000000000000000000e+03) (1, 1.50000000000000000000e+03) (2, 1.45372277832031250000e+03) (3, 1.50000000000000000000e+03) (4, 1.50000000000000000000e+03) (5, 1.50000000000000000000e+03) (6, 1.50000000000000000000e+03) (7, 1.50000000000000000000e+03) (8, 1.50000000000000000000e+03) (9, 1.50000000000000000000e+03) (10, 1.50000000000000000000e+03) (11, 1.49330664062500000000e+03) (12, 1.50000000000000000000e+03) (13, 1.50000000000000000000e+03) (14, -1.18221118164062500000e+03) (15, 1.50000000000000000000e+03) (16, 1.50000000000000000000e+03) (17, 1.50000000000000000000e+03) (18, 1.49998791503906250000e+03) (19, 1.50000000000000000000e+03) (20, 1.50000000000000000000e+03) (21, 1.50000000000000000000e+03) (22, -5.09419891357421875000e+02) (23, 1.50000000000000000000e+03) (24, 1.49258068847656250000e+03) (25, 1.50000000000000000000e+03) (26, 1.50000000000000000000e+03) (27, 1.50000000000000000000e+03) (28, 1.50000000000000000000e+03) (29, 1.50000000000000000000e+03) (30, 1.50000000000000000000e+03) (31, 1.50000000000000000000e+03) (32, 1.50000000000000000000e+03) (33, 1.50000000000000000000e+03) (34, 1.50000000000000000000e+03) (35, 1.50000000000000000000e+03) (36, 1.50000000000000000000e+03) (0, -2.36601218581199645996e-01) (1, 6.85862660408020019531e-01) (2, 6.43568992614746093750e-01) (3, 3.29546302556991577148e-01) (4, 6.87689661979675292969e-01) (5, 6.90920770168304443359e-01) (6, 5.10192275047302246094e-01) (7, 8.07775974273681640625e-01) (8, 1.81007041931152343750e+01) (9, 5.84063816070556640625e+00) (10, 3.71367955207824707031e+00) (11, 4.55255365371704101562e+00) (12, 1.50000000000000000000e+03) (13, 1.50000000000000000000e+03) (14, 1.49831018066406250000e+03) (15, 1.48995129394531250000e+03) (16, 1.49999987792968750000e+03) (17, 1.10683555603027343750e+01) (18, 2.64960050582885742188e+00) (19, -1.98589115142822265625e+01) (20, 1.50000000000000000000e+03) (21, -1.48247021484375000000e+03) (22, 1.45043542480468750000e+03) (23, 1.50000000000000000000e+03) (24, 3.71663689613342285156e-01) (25, 4.75427418947219848633e-01) (26, 4.63533222675323486328e-01) (27, 6.10636532306671142578e-01) (28, 5.49136936664581298828e-01) (29, 3.89897257089614868164e-01) (30, 5.91903746128082275391e-01) (31, 5.22579193115234375000e-01) (32, 6.50122284889221191406e-01) (33, 5.49968898296356201172e-01) (34, 4.44779276847839355469e-01) (35, 5.21975278854370117188e-01) (36, 5.81165313720703125000e-01) (0, -5.06481658935546875000e+02) (1, 1.18086889648437500000e+03) (2, 1.01533569335937500000e+03) (3, 1.50000000000000000000e+03) (4, 1.50000000000000000000e+03) (5, 1.50000000000000000000e+03) (6, 1.50000000000000000000e+03) (7, 1.50000000000000000000e+03) (8, 1.50000000000000000000e+03) (9, 1.50000000000000000000e+03) (10, 1.18078369140625000000e+03) (11, 1.28948388671875000000e+03) (12, 1.50000000000000000000e+03) (13, 1.50000000000000000000e+03) (14, 7.46908142089843750000e+02) (15, 1.50000000000000000000e+03) (16, 1.50000000000000000000e+03) (17, 1.50000000000000000000e+03) (18, 1.50000000000000000000e+03) (19, 1.50000000000000000000e+03) (20, 1.50000000000000000000e+03) (21, 1.50000000000000000000e+03) (22, -2.57294830322265625000e+02) (23, 1.50000000000000000000e+03) (24, 1.50000000000000000000e+03) (25, 1.50000000000000000000e+03) (26, 1.50000000000000000000e+03) (27, 1.50000000000000000000e+03) (28, 1.50000000000000000000e+03) (29, 1.50000000000000000000e+03) (30, 1.50000000000000000000e+03) (31, 1.50000000000000000000e+03) (32, 1.50000000000000000000e+03) (33, 1.50000000000000000000e+03) (34, 1.50000000000000000000e+03) (35, 1.50000000000000000000e+03) (36, 1.50000000000000000000e+03) (0, 1.49945715332031250000e+03) (1, 1.47817700195312500000e+03) (2, 1.49680273437500000000e+03) (3, 1.49734436035156250000e+03) (4, 1.49469238281250000000e+03) (5, 1.49167871093750000000e+03) (6, 1.47094458007812500000e+03) (7, 1.46228308105468750000e+03) (8, 1.49505627441406250000e+03) (9, 1.50000000000000000000e+03) (10, 1.50000000000000000000e+03) (11, 1.50000000000000000000e+03) (12, 1.50000000000000000000e+03) (13, 1.50000000000000000000e+03) (14, -1.37721301269531250000e+03) (15, 8.34912658691406250000e+02) (16, 1.50000000000000000000e+03) (17, 1.50000000000000000000e+03) (18, 1.49999609375000000000e+03) (19, 1.49997363281250000000e+03) (20, 1.50000000000000000000e+03) (21, -1.35352136230468750000e+03) (22, -1.07661474609375000000e+03) (23, 1.50000000000000000000e+03) (24, 1.50000000000000000000e+03) (25, 1.50000000000000000000e+03) (26, 1.50000000000000000000e+03) (27, 1.50000000000000000000e+03) (28, 1.50000000000000000000e+03) (29, 1.50000000000000000000e+03) (30, 1.50000000000000000000e+03) (31, 1.50000000000000000000e+03) (32, 1.50000000000000000000e+03) (33, 1.50000000000000000000e+03) (34, 1.50000000000000000000e+03) (35, 1.50000000000000000000e+03) (36, 1.49360668945312500000e+03) (0, -2.04495096206665039062e+00) (1, -2.39808177947998046875e+00) (2, -1.36002755165100097656e+00) (3, -9.28627789020538330078e-01) (4, -4.92293357849121093750e+00) (5, -4.53537225723266601562e+00) (6, -1.48569631576538085938e+00) (7, -2.36790180206298828125e-01) (8, 2.85665631294250488281e-01) (9, 2.11726045608520507812e+00) (10, 6.63584899902343750000e+00) (11, 1.57237565517425537109e+00) (12, 1.50000000000000000000e+03) (13, 1.50000000000000000000e+03) (14, 1.50000000000000000000e+03) (15, 5.45104293823242187500e+01) (16, -1.49604883193969726562e+01) (17, 1.22479228973388671875e+01) (18, 3.60243171453475952148e-01) (19, -8.41828727722167968750e+00) (20, -1.62776451110839843750e+01) (21, 5.01774024963378906250e+00) (22, 8.51263793945312500000e+02) (23, 1.50000000000000000000e+03) (24, 2.92223561555147171021e-02) (25, 4.10765320062637329102e-01) (26, 7.20765411853790283203e-01) (27, 3.10744667053222656250e+00) (28, 1.81715321540832519531e+00) (29, 1.43851482868194580078e+00) (30, 1.49876666069030761719e+00) (31, 1.68905329704284667969e+00) (32, 1.42160272598266601562e+00) (33, 1.09426558017730712891e+00) (34, 1.14924025535583496094e+00) (35, -4.63259309530258178711e-01) (36, -9.16670858860015869141e-01) (0, 7.83479809761047363281e-02) (1, 2.01747581362724304199e-01) (2, 1.67918816208839416504e-01) (3, -6.03511147201061248779e-02) (4, 8.47314223647117614746e-02) (5, -5.63988685607910156250e-02) (6, -1.52369868010282516479e-02) (7, 3.78773212432861328125e-02) (8, -3.86025086045265197754e-02) (9, 6.81765303015708923340e-02) (10, 8.24731141328811645508e-02) (11, 3.85899156332015991211e-01) (12, 1.50000000000000000000e+03) (13, 1.50000000000000000000e+03) (14, 1.58179351806640625000e+02) (15, -2.09862651824951171875e+01) (16, 6.86319991946220397949e-02) (17, 4.71083968877792358398e-01) (18, 6.76416456699371337891e-01) (19, 4.18407887220382690430e-01) (20, -3.15645575523376464844e-01) (21, -1.45570688247680664062e+01) (22, 4.27956420898437500000e+02) (23, 1.50000000000000000000e+03) (24, 5.04291772842407226562e-01) (25, 4.55092936754226684570e-01) (26, 5.11893987655639648438e-01) (27, 5.93120992183685302734e-01) (28, 5.91470956802368164062e-01) (29, 5.59566080570220947266e-01) (30, 5.23465335369110107422e-01) (31, 4.48203653097152709961e-01) (32, 4.92754518985748291016e-01) (33, 4.37874406576156616211e-01) (34, 4.88548159599304199219e-01) (35, 4.79969352483749389648e-01) (36, 3.23202520608901977539e-01) (0, 1.49263933300971984863e-01) (1, 2.90958136320114135742e-01) (2, 3.31647604703903198242e-01) (3, 3.08524399995803833008e-01) (4, 2.72431790828704833984e-01) (5, 3.23572158813476562500e-01) (6, 5.30701816082000732422e-01) (7, 5.22956490516662597656e-01) (8, 5.98923981189727783203e-01) (9, 9.18989241123199462891e-01) (10, 9.37223613262176513672e-01) (11, 2.03193736076354980469e+00) (12, 1.50000000000000000000e+03) (13, 1.50000000000000000000e+03) (14, -1.50000000000000000000e+03) (15, -5.10093495249748229980e-02) (16, 2.22315907478332519531e+00) (17, 6.19047045707702636719e-01) (18, 7.48929679393768310547e-01) (19, 1.29448783397674560547e+00) (20, 4.49809169769287109375e+00) (21, -1.91967468261718750000e+01) (22, -1.43851379394531250000e+03) (23, 1.50000000000000000000e+03) (24, 8.67619931697845458984e-01) (25, 9.00607883930206298828e-01) (26, 8.21195244789123535156e-01) (27, 9.59860980510711669922e-01) (28, 8.06694149971008300781e-01) (29, 8.81274938583374023438e-01) (30, 7.66774177551269531250e-01) (31, 8.39049875736236572266e-01) (32, 7.95000672340393066406e-01) (33, 9.02667701244354248047e-01) (34, 7.92719900608062744141e-01) (35, 9.33769643306732177734e-01) (36, 9.80634093284606933594e-01) (0, 1.49980041503906250000e+03) (1, 1.50000000000000000000e+03) (2, 1.50000000000000000000e+03) (3, 1.50000000000000000000e+03) (4, 1.50000000000000000000e+03) (5, 1.50000000000000000000e+03) (6, 1.50000000000000000000e+03) (7, 1.48794165039062500000e+03) (8, 1.50000000000000000000e+03) (9, 1.50000000000000000000e+03) (10, 1.50000000000000000000e+03) (11, 1.50000000000000000000e+03) (12, 1.50000000000000000000e+03) (13, 1.50000000000000000000e+03) (14, -1.21719470214843750000e+03) (15, 1.47940051269531250000e+03) (16, 1.50000000000000000000e+03) (17, 1.50000000000000000000e+03) (18, 1.49996643066406250000e+03) (19, 1.48229589843750000000e+03) (20, 1.49996154785156250000e+03) (21, 1.46665734863281250000e+03) (22, 8.79020568847656250000e+02) (23, 1.50000000000000000000e+03) (24, 1.50000000000000000000e+03) (25, 1.50000000000000000000e+03) (26, 1.50000000000000000000e+03) (27, 1.50000000000000000000e+03) (28, 1.50000000000000000000e+03) (29, 1.50000000000000000000e+03) (30, 1.50000000000000000000e+03) (31, 1.50000000000000000000e+03) (32, 1.50000000000000000000e+03) (33, 1.50000000000000000000e+03) (34, 1.50000000000000000000e+03) (35, 1.50000000000000000000e+03) (36, 1.50000000000000000000e+03) (0, 5.42902708053588867188e-01) (1, 4.71864908933639526367e-01) (2, 5.39510846138000488281e-01) (3, 6.50902688503265380859e-01) (4, -1.44154107570648193359e+00) (5, -1.35778808593750000000e+00) (6, 6.46988809108734130859e-01) (7, 7.09946095943450927734e-01) (8, -1.23475384712219238281e+00) (9, 7.94014215469360351562e-01) (10, 5.82560360431671142578e-01) (11, 6.64567768573760986328e-01) (12, 1.50000000000000000000e+03) (13, 1.50000000000000000000e+03) (14, -1.30541906356811523438e+01) (15, -1.08953943252563476562e+01) (16, -9.85152781009674072266e-01) (17, 1.01395875215530395508e-01) (18, 3.51736187934875488281e-01) (19, 2.07196131348609924316e-01) (20, -8.27261269092559814453e-01) (21, -3.06172943115234375000e+01) (22, 8.08504882812500000000e+02) (23, 1.50000000000000000000e+03) (24, 8.09099137783050537109e-01) (25, 9.07633602619171142578e-01) (26, 8.35285604000091552734e-01) (27, 9.02952432632446289062e-01) (28, 9.31007564067840576172e-01) (29, 8.12894999980926513672e-01) (30, 8.57891678810119628906e-01) (31, 6.95934712886810302734e-01) (32, 1.58396974205970764160e-01) (33, 7.07549571990966796875e-01) (34, 6.80911421775817871094e-01) (35, 7.19249367713928222656e-01) (36, 2.15972483158111572266e-01) (0, 4.39099937677383422852e-01) (1, 4.55411374568939208984e-01) (2, 5.11286318302154541016e-01) (3, 1.33633077144622802734e+00) (4, 7.12454855442047119141e-01) (5, 1.12022793292999267578e+00) (6, 4.12803530693054199219e-01) (7, 3.10219943523406982422e-01) (8, 4.10189509391784667969e-01) (9, 2.39367157220840454102e-01) (10, 2.13922023773193359375e-01) (11, -1.17216231301426887512e-02) (12, 1.50000000000000000000e+03) (13, 1.50000000000000000000e+03) (14, 1.50000000000000000000e+03) (15, -2.87987804412841796875e+01) (16, -1.91425514221191406250e+00) (17, -9.17672932147979736328e-01) (18, -3.92349250614643096924e-02) (19, 3.63031513988971710205e-02) (20, -2.53924822807312011719e+00) (21, 1.10456538200378417969e+00) (22, 1.50000000000000000000e+03) (23, 1.50000000000000000000e+03) (24, 1.81831777095794677734e-01) (25, 1.52102872729301452637e-01) (26, 1.55246630311012268066e-01) (27, 2.59924858808517456055e-01) (28, 2.08149939775466918945e-01) (29, 1.54187753796577453613e-01) (30, 2.53215640783309936523e-01) (31, 1.44381448626518249512e-01) (32, 3.19373399019241333008e-01) (33, 2.63262748718261718750e-01) (34, 2.84541487693786621094e-01) (35, 3.05025130510330200195e-01) (36, 3.08696419000625610352e-01) (0, 1.50000000000000000000e+03) (1, 1.50000000000000000000e+03) (2, 1.50000000000000000000e+03) (3, 1.50000000000000000000e+03) (4, 1.50000000000000000000e+03) (5, 1.50000000000000000000e+03) (6, 1.50000000000000000000e+03) (7, 1.50000000000000000000e+03) (8, 1.50000000000000000000e+03) (9, 1.50000000000000000000e+03) (10, 1.50000000000000000000e+03) (11, 1.50000000000000000000e+03) (12, 1.50000000000000000000e+03) (13, 1.50000000000000000000e+03) (14, -7.31814392089843750000e+02) (15, 1.50000000000000000000e+03) (16, 1.50000000000000000000e+03) (17, 1.50000000000000000000e+03) (18, 1.50000000000000000000e+03) (19, 1.50000000000000000000e+03) (20, 1.50000000000000000000e+03) (21, 1.50000000000000000000e+03) (22, 6.88351318359375000000e+02) (23, 1.50000000000000000000e+03) (24, 1.50000000000000000000e+03) (25, 1.50000000000000000000e+03) (26, 1.50000000000000000000e+03) (27, 1.50000000000000000000e+03) (28, 1.50000000000000000000e+03) (29, 1.50000000000000000000e+03) (30, 1.50000000000000000000e+03) (31, 1.50000000000000000000e+03) (32, 1.50000000000000000000e+03) (33, 1.50000000000000000000e+03) (34, 1.50000000000000000000e+03) (35, 1.50000000000000000000e+03) (36, 1.50000000000000000000e+03) (0, -4.53928768634796142578e-01) (1, -4.67882156372070312500e-01) (2, -3.47179651260375976562e-01) (3, -3.16373437643051147461e-01) (4, -1.12797224521636962891e+00) (5, -9.50784921646118164062e-01) (6, -9.79629635810852050781e-01) (7, -1.04634559154510498047e+00) (8, -1.12125265598297119141e+00) (9, -4.60801631212234497070e-01) (10, -3.95590364933013916016e-01) (11, -8.45829322934150695801e-02) (12, 1.50000000000000000000e+03) (13, 1.50000000000000000000e+03) (14, 1.88897994995117187500e+02) (15, -1.12259540557861328125e+01) (16, 4.46810150146484375000e+00) (17, 1.52727949619293212891e+00) (18, 3.63778501749038696289e-01) (19, 3.07071655988693237305e-01) (20, -2.18180179595947265625e+00) (21, -5.22728204727172851562e+00) (22, -1.32606811523437500000e+02) (23, 1.50000000000000000000e+03) (24, 3.53979766368865966797e-01) (25, 3.03968191146850585938e-01) (26, 2.13569849729537963867e-01) (27, 8.61489713191986083984e-01) (28, 7.96179890632629394531e-01) (29, 8.32516252994537353516e-01) (30, 7.50394463539123535156e-01) (31, 9.22359585762023925781e-01) (32, 4.35328274965286254883e-01) (33, 2.76734381914138793945e-01) (34, 4.30427074432373046875e-01) (35, 4.35072124004364013672e-01) (36, 2.63938754796981811523e-01) (0, 3.11110112816095352173e-02) (1, 1.31379038095474243164e-01) (2, 1.24785993248224258423e-02) (3, 8.81282538175582885742e-02) (4, 1.40453323721885681152e-01) (5, 1.65132731199264526367e-01) (6, 2.76319384574890136719e-02) (7, 1.90022841095924377441e-01) (8, 1.32760688662528991699e-01) (9, 4.91968542337417602539e-02) (10, 2.24430769681930541992e-01) (11, 2.14714050292968750000e-01) (12, 1.50000000000000000000e+03) (13, 1.50000000000000000000e+03) (14, -4.06655311584472656250e+01) (15, -3.65575957298278808594e+00) (16, 2.38735750317573547363e-01) (17, 1.48066103458404541016e-01) (18, 3.21765244007110595703e-02) (19, 1.53002589941024780273e-01) (20, 2.59181946516036987305e-01) (21, -7.35444605350494384766e-01) (22, 6.29411437988281250000e+02) (23, 1.50000000000000000000e+03) (24, 2.80525028705596923828e-01) (25, 1.49411052465438842773e-01) (26, 1.76863119006156921387e-01) (27, 1.17320701479911804199e-01) (28, 1.63405731320381164551e-01) (29, 1.69868871569633483887e-01) (30, 1.61579906940460205078e-01) (31, 1.49467885494232177734e-01) (32, 2.73051798343658447266e-01) (33, 1.71110570430755615234e-01) (34, 3.17477107048034667969e-01) (35, 2.61477947235107421875e-01) (36, 1.21682278811931610107e-01) (0, -1.20368681848049163818e-01) (1, 3.38764451444149017334e-02) (2, -6.88936933875083923340e-02) (3, -8.15214216709136962891e-03) (4, -6.54394179582595825195e-02) (5, 5.01584038138389587402e-02) (6, -9.35596302151679992676e-02) (7, -7.20866918563842773438e-02) (8, -7.64525309205055236816e-02) (9, -5.12353628873825073242e-02) (10, 5.71288019418716430664e-02) (11, 8.27111378312110900879e-02) (12, 1.50000000000000000000e+03) (13, 1.50000000000000000000e+03) (14, 1.06361701965332031250e+02) (15, 2.18329849243164062500e+01) (16, 1.81611716747283935547e-01) (17, -4.81895729899406433105e-02) (18, 4.86949412152171134949e-03) (19, 1.67034789919853210449e-02) (20, 4.24994111061096191406e-01) (21, -3.43802261352539062500e+01) (22, -6.01269104003906250000e+02) (23, 1.50000000000000000000e+03) (24, 1.32007494568824768066e-01) (25, 1.20693802833557128906e-01) (26, 8.44739973545074462891e-02) (27, -2.83726993948221206665e-02) (28, 3.50646376609802246094e-02) (29, 6.84463558718562126160e-03) (30, 1.51007762178778648376e-02) (31, 1.25726655125617980957e-01) (32, 1.51335135102272033691e-01) (33, 5.90262887999415397644e-03) (34, -3.80806922912597656250e-02) (35, -1.28980949521064758301e-02) (36, 2.87694819271564483643e-02) (0, 6.25406384468078613281e-01) (1, 7.01922953128814697266e-01) (2, 6.69119358062744140625e-01) (3, 5.73673129081726074219e-01) (4, 6.00075304508209228516e-01) (5, 5.35083651542663574219e-01) (6, 3.80058199167251586914e-01) (7, 4.96385186910629272461e-01) (8, -2.48811936378479003906e+00) (9, 4.08964395523071289062e-01) (10, 2.04669833183288574219e-01) (11, 5.31864345073699951172e-01) (12, 1.50000000000000000000e+03) (13, 1.50000000000000000000e+03) (14, 2.54686012268066406250e+01) (15, -4.39462089538574218750e+00) (16, -2.48180747032165527344e+00) (17, 2.23103180527687072754e-01) (18, -9.11750674247741699219e-01) (19, 4.80731606483459472656e-01) (20, -1.98446124792098999023e-01) (21, -1.85862998962402343750e+01) (22, 3.81872497558593750000e+02) (23, 1.50000000000000000000e+03) (24, 7.64928996562957763672e-01) (25, 7.92329609394073486328e-01) (26, 8.91089141368865966797e-01) (27, 8.21956574916839599609e-01) (28, 7.99541354179382324219e-01) (29, 6.30793154239654541016e-01) (30, 6.39585614204406738281e-01) (31, 3.27668905258178710938e-01) (32, 3.72303724288940429688e-01) (33, 3.22545796632766723633e-01) (34, 3.63036841154098510742e-01) (35, 5.87343335151672363281e-01) (36, 3.31573933362960815430e-01) (0, 1.57446190714836120605e-01) (1, 1.10232554376125335693e-01) (2, 1.66649580001831054688e-01) (3, 2.86286056041717529297e-01) (4, 2.24660009145736694336e-01) (5, 3.65953564643859863281e-01) (6, 2.74141520261764526367e-01) (7, 3.59584182500839233398e-01) (8, 4.19629454612731933594e-01) (9, 6.11370921134948730469e-01) (10, 6.39199256896972656250e-01) (11, 7.76462495326995849609e-01) (12, 1.50000000000000000000e+03) (13, 1.50000000000000000000e+03) (14, -5.25121276855468750000e+02) (15, -1.06333267688751220703e+00) (16, 1.72461166977882385254e-01) (17, 6.73942208290100097656e-01) (18, 3.39418339729309082031e+00) (19, 1.19556283950805664062e+00) (20, 3.13998550176620483398e-01) (21, -3.94272804260253906250e+01) (22, 2.11585311889648437500e+02) (23, 1.50000000000000000000e+03) (24, 7.37364172935485839844e-01) (25, 8.66893768310546875000e-01) (26, 8.89726400375366210938e-01) (27, 8.18239331245422363281e-01) (28, 7.69913256168365478516e-01) (29, 7.11140871047973632812e-01) (30, 8.32064568996429443359e-01) (31, 7.25005149841308593750e-01) (32, 7.37689495086669921875e-01) (33, 7.61563897132873535156e-01) (34, 9.03548598289489746094e-01) (35, 8.32843899726867675781e-01) (36, 9.10558104515075683594e-01) (0, -2.03882176429033279419e-02) (1, 1.08266063034534454346e-01) (2, 9.98290628194808959961e-02) (3, 1.02390632033348083496e-01) (4, -3.95934991538524627686e-02) (5, 2.06853970885276794434e-02) (6, 8.85712802410125732422e-02) (7, 8.21325033903121948242e-02) (8, 2.87460908293724060059e-02) (9, 1.34725302457809448242e-01) (10, 1.15445502102375030518e-01) (11, 9.82075184583663940430e-02) (12, 1.50000000000000000000e+03) (13, 1.50000000000000000000e+03) (14, -2.91910064697265625000e+02) (15, 1.27578554674983024597e-02) (16, 2.97902256250381469727e-01) (17, 9.55185964703559875488e-02) (18, 8.02030339837074279785e-02) (19, 8.88395681977272033691e-02) (20, 1.82614654302597045898e-01) (21, -1.93852460384368896484e+00) (22, 6.80736755371093750000e+02) (23, 1.50000000000000000000e+03) (24, 1.32212042808532714844e-01) (25, 2.51240849494934082031e-01) (26, 1.58556431531906127930e-01) (27, 2.32854485511779785156e-01) (28, 3.05556535720825195312e-01) (29, 4.18987184762954711914e-01) (30, 2.62036412954330444336e-01) (31, 3.51823031902313232422e-01) (32, 3.71677488088607788086e-01) (33, 2.52692222595214843750e-01) (34, 3.66221785545349121094e-01) (35, 2.33940854668617248535e-01) (36, 2.34420403838157653809e-01) (0, 1.88438236713409423828e-01) (1, -8.16754624247550964355e-03) (2, -7.54568874835968017578e-02) (3, -7.63917982578277587891e-01) (4, -9.15737226605415344238e-02) (5, -2.14630663394927978516e-01) (6, 1.19871005415916442871e-01) (7, 2.37006291747093200684e-01) (8, 2.66145199537277221680e-01) (9, 1.20012149214744567871e-01) (10, 8.91743227839469909668e-02) (11, -2.56300657987594604492e-01) (12, 1.50000000000000000000e+03) (13, 1.50000000000000000000e+03) (14, 1.40180358886718750000e+01) (15, -4.75941562652587890625e+00) (16, -6.75561308860778808594e-01) (17, 2.25075617432594299316e-01) (18, 8.32567587494850158691e-02) (19, 4.47355397045612335205e-02) (20, -2.07090950012207031250e+00) (21, 2.15149950981140136719e+00) (22, -9.87175827026367187500e+01) (23, 1.50000000000000000000e+03) (24, 8.82830470800399780273e-02) (25, -3.59176099300384521484e-03) (26, 3.85535955429077148438e-02) (27, -7.92160071432590484619e-03) (28, 1.63550421595573425293e-01) (29, 1.11291550099849700928e-01) (30, 2.52917766571044921875e-01) (31, 1.72893524169921875000e-01) (32, -1.54251605272293090820e-02) (33, 3.56551378965377807617e-01) (34, 1.75541609525680541992e-01) (35, 1.82109937071800231934e-01) (36, 7.90339559316635131836e-02) (0, 5.60439050197601318359e-01) (1, 1.04783344268798828125e+00) (2, 4.92531269788742065430e-01) (3, 8.64742159843444824219e-01) (4, -1.99266850948333740234e-01) (5, -2.64052730053663253784e-02) (6, 3.33980470895767211914e-01) (7, 2.71432638168334960938e-01) (8, 2.29604065418243408203e-01) (9, 3.15603470802307128906e+00) (10, 4.43852216005325317383e-01) (11, -2.81051378697156906128e-02) (12, 1.50000000000000000000e+03) (13, 1.50000000000000000000e+03) (14, 8.78656127929687500000e+02) (15, 1.49585192871093750000e+03) (16, 1.13423852920532226562e+01) (17, -5.32219946384429931641e-01) (18, 5.15693388879299163818e-02) (19, -2.36347365379333496094e+00) (20, 1.71389522552490234375e+01) (21, -4.81243377685546875000e+02) (22, 1.44817248535156250000e+03) (23, 1.50000000000000000000e+03) (24, 3.50603729486465454102e-01) (25, 3.14095675945281982422e-01) (26, 4.87325757741928100586e-01) (27, 3.82422566413879394531e-01) (28, 4.68361824750900268555e-01) (29, 3.12022805213928222656e-01) (30, 2.40144550800323486328e-01) (31, 2.41312980651855468750e-01) (32, 9.65640023350715637207e-02) (33, 7.00664520263671875000e-02) (34, 2.68669147044420242310e-02) (35, 3.06928515434265136719e-01) (36, -3.17114591598510742188e-01) (0, 9.14389892578125000000e+02) (1, 1.50000000000000000000e+03) (2, 1.50000000000000000000e+03) (3, 1.50000000000000000000e+03) (4, 1.50000000000000000000e+03) (5, 1.50000000000000000000e+03) (6, 1.50000000000000000000e+03) (7, 1.50000000000000000000e+03) (8, 1.50000000000000000000e+03) (9, 1.50000000000000000000e+03) (10, 1.17588842773437500000e+03) (11, 1.18216357421875000000e+03) (12, 1.50000000000000000000e+03) (13, 1.50000000000000000000e+03) (14, -1.48830627441406250000e+03) (15, 1.50000000000000000000e+03) (16, 1.50000000000000000000e+03) (17, 1.49953552246093750000e+03) (18, 1.50000000000000000000e+03) (19, 1.50000000000000000000e+03) (20, 1.50000000000000000000e+03) (21, 1.50000000000000000000e+03) (22, 8.04625549316406250000e+02) (23, 1.50000000000000000000e+03) (24, 1.50000000000000000000e+03) (25, 1.50000000000000000000e+03) (26, 1.50000000000000000000e+03) (27, 1.50000000000000000000e+03) (28, 1.50000000000000000000e+03) (29, 1.50000000000000000000e+03) (30, 1.50000000000000000000e+03) (31, 1.50000000000000000000e+03) (32, 1.50000000000000000000e+03) (33, 1.50000000000000000000e+03) (34, 1.50000000000000000000e+03) (35, 1.50000000000000000000e+03) (36, 1.50000000000000000000e+03) (0, 1.03036567568778991699e-01) (1, 9.30572003126144409180e-02) (2, 1.64727523922920227051e-01) (3, 2.16653019189834594727e-01) (4, 2.33076557517051696777e-01) (5, 1.11551500856876373291e-01) (6, 2.38934949040412902832e-01) (7, 1.10492862761020660400e-01) (8, -6.94387778639793395996e-02) (9, 1.62354335188865661621e-01) (10, 2.82241076231002807617e-01) (11, 3.72387409210205078125e-01) (12, 1.50000000000000000000e+03) (13, 1.50000000000000000000e+03) (14, 8.44337692260742187500e+01) (15, -2.80046348571777343750e+01) (16, -7.58316934108734130859e-01) (17, 5.91750919818878173828e-01) (18, 6.37561857700347900391e-01) (19, 4.33116614818572998047e-01) (20, -7.66474187374114990234e-01) (21, -1.73060023784637451172e+00) (22, 6.33494018554687500000e+02) (23, 1.50000000000000000000e+03) (24, 5.75281620025634765625e-01) (25, 6.18997693061828613281e-01) (26, 5.62516629695892333984e-01) (27, 5.11698603630065917969e-01) (28, 6.18546724319458007812e-01) (29, 4.87543433904647827148e-01) (30, 5.00147998332977294922e-01) (31, 5.94773292541503906250e-01) (32, 4.82767701148986816406e-01) (33, 6.06661319732666015625e-01) (34, 5.77086627483367919922e-01) (35, 6.36104345321655273438e-01) (36, 4.02002215385437011719e-01) (0, -2.38179996609687805176e-01) (1, -1.70632526278495788574e-01) (2, -2.01210245490074157715e-01) (3, -2.81947463750839233398e-01) (4, -4.90867048501968383789e-01) (5, -3.22234481573104858398e-01) (6, -3.03761303424835205078e-01) (7, -2.55650430917739868164e-01) (8, -4.22285139560699462891e-01) (9, -3.31864953041076660156e-01) (10, -3.64901453256607055664e-01) (11, -1.28389507532119750977e-01) (12, 1.50000000000000000000e+03) (13, 1.50000000000000000000e+03) (14, 1.00380678176879882812e+01) (15, -3.16302448511123657227e-01) (16, 1.96331039071083068848e-01) (17, -4.08662520349025726318e-02) (18, -9.23272743821144104004e-02) (19, -2.24635273218154907227e-01) (20, 9.63676571846008300781e-02) (21, -1.01394748687744140625e+00) (22, -1.72439285278320312500e+02) (23, 1.50000000000000000000e+03) (24, 6.48203119635581970215e-02) (25, 6.77534639835357666016e-02) (26, -6.20890818536281585693e-02) (27, -6.20915414765477180481e-03) (28, 1.72504544258117675781e-01) (29, 1.46539330482482910156e-01) (30, 5.63470311462879180908e-02) (31, 1.03681176900863647461e-01) (32, 1.29124343395233154297e-01) (33, 5.71457203477621078491e-04) (34, -1.72105189412832260132e-02) (35, -1.71949584037065505981e-02) (36, -7.93812721967697143555e-02) (0, 7.45288014411926269531e-01) (1, 7.70790457725524902344e-01) (2, 9.51837420463562011719e-01) (3, 8.57530057430267333984e-01) (4, 7.94521749019622802734e-01) (5, 8.70104968547821044922e-01) (6, 8.39142858982086181641e-01) (7, 9.26201522350311279297e-01) (8, 4.63123232126235961914e-01) (9, 5.75339257717132568359e-01) (10, 5.90769529342651367188e-01) (11, 7.91567564010620117188e-01) (12, 1.50000000000000000000e+03) (13, 1.50000000000000000000e+03) (14, 2.70330200195312500000e+02) (15, -1.74680590629577636719e-01) (16, 7.61261761188507080078e-01) (17, 7.50517547130584716797e-01) (18, 5.49799561500549316406e-01) (19, 8.22911620140075683594e-01) (20, 8.19763243198394775391e-01) (21, 4.29485291242599487305e-01) (22, 5.66531105041503906250e+01) (23, 1.50000000000000000000e+03) (24, 7.90292143821716308594e-01) (25, 7.81362771987915039062e-01) (26, 6.93636178970336914062e-01) (27, 6.38654112815856933594e-01) (28, 7.98577547073364257812e-01) (29, 6.99611902236938476562e-01) (30, 6.54065787792205810547e-01) (31, 6.38430655002593994141e-01) (32, 7.40041553974151611328e-01) (33, 6.95483326911926269531e-01) (34, 8.05264711380004882812e-01) (35, 7.91122853755950927734e-01) (36, 5.48564553260803222656e-01) (0, -1.58918648958206176758e-01) (1, -2.64450069516897201538e-02) (2, 1.93111859261989593506e-02) (3, -5.07216267287731170654e-02) (4, -1.07291534543037414551e-01) (5, -4.26098890602588653564e-02) (6, 1.30661293864250183105e-01) (7, -1.22699816711246967316e-03) (8, -1.78021509200334548950e-02) (9, -6.67253583669662475586e-02) (10, -1.14372093230485916138e-02) (11, -6.19748160243034362793e-02) (12, 1.50000000000000000000e+03) (13, 1.50000000000000000000e+03) (14, 9.29581069946289062500e+00) (15, 3.32291781902313232422e-01) (16, 4.31798219680786132812e-01) (17, 3.05375754833221435547e-01) (18, -2.04924680292606353760e-02) (19, 2.39867761731147766113e-01) (20, 4.94304418563842773438e-01) (21, -5.99929085001349449158e-03) (22, 5.01793594360351562500e+01) (23, 1.50000000000000000000e+03) (24, 1.44226893782615661621e-01) (25, 1.30000516772270202637e-01) (26, 1.09960772097110748291e-02) (27, -3.05492971092462539673e-02) (28, 7.10545480251312255859e-02) (29, 1.76990136504173278809e-01) (30, 1.26657653599977493286e-02) (31, 1.28879740834236145020e-01) (32, 7.71768689155578613281e-02) (33, 1.45983010530471801758e-01) (34, 1.29771018400788307190e-02) (35, 1.21603474020957946777e-01) (36, 1.53747633099555969238e-01) (0, 4.09813672304153442383e-01) (1, 6.21102273464202880859e-01) (2, 5.57662248611450195312e-01) (3, 4.90877330303192138672e-01) (4, 4.31940168142318725586e-01) (5, 5.06755053997039794922e-01) (6, 5.02793967723846435547e-01) (7, 5.26579499244689941406e-01) (8, 1.82865083217620849609e-01) (9, 2.23969429731369018555e-01) (10, 3.49009543657302856445e-01) (11, 2.42616176605224609375e-01) (12, 1.50000000000000000000e+03) (13, 1.50000000000000000000e+03) (14, 1.49999987792968750000e+03) (15, -3.44000511169433593750e+01) (16, 1.88551580905914306641e+00) (17, 6.73633754253387451172e-01) (18, 4.12877291440963745117e-01) (19, 5.47989964485168457031e-01) (20, 8.75036358833312988281e-01) (21, 2.71995239257812500000e+02) (22, 1.21852502441406250000e+03) (23, 1.50000000000000000000e+03) (24, 2.18919515609741210938e-01) (25, 1.76080390810966491699e-01) (26, 2.17449337244033813477e-01) (27, -1.56652301549911499023e-01) (28, 1.12777510657906532288e-02) (29, -4.40541297197341918945e-01) (30, -6.21963918209075927734e-01) (31, -5.94944238662719726562e-01) (32, -8.65499019622802734375e-01) (33, 1.58985853195190429688e-01) (34, -2.92040351778268814087e-02) (35, -3.70878502726554870605e-02) (36, -5.86825013160705566406e-01) (0, 9.12093639373779296875e-01) (1, 8.67673754692077636719e-01) (2, 8.43451499938964843750e-01) (3, 7.93357014656066894531e-01) (4, 6.27571582794189453125e-01) (5, 8.72863471508026123047e-01) (6, 7.59609758853912353516e-01) (7, 7.38817512989044189453e-01) (8, 5.97492575645446777344e-01) (9, 6.04943394660949707031e-01) (10, 6.28632307052612304688e-01) (11, 6.88527584075927734375e-01) (12, 1.50000000000000000000e+03) (13, 1.50000000000000000000e+03) (14, 2.74497497558593750000e+02) (15, -1.01828122138977050781e+00) (16, 5.80990493297576904297e-01) (17, 6.17747128009796142578e-01) (18, 4.72274661064147949219e-01) (19, 6.00131392478942871094e-01) (20, 7.87823498249053955078e-01) (21, 1.01267978549003601074e-01) (22, 9.13110637664794921875e+00) (23, 1.50000000000000000000e+03) (24, 7.07946002483367919922e-01) (25, 7.52000749111175537109e-01) (26, 7.28902816772460937500e-01) (27, 6.48511290550231933594e-01) (28, 6.67718648910522460938e-01) (29, 7.77841329574584960938e-01) (30, 7.32102692127227783203e-01) (31, 6.36755704879760742188e-01) (32, 6.76944971084594726562e-01) (33, 6.24579071998596191406e-01) (34, 6.34315729141235351562e-01) (35, 6.86110019683837890625e-01) (36, 6.23683631420135498047e-01) (0, 8.78079473972320556641e-01) (1, 9.16273653507232666016e-01) (2, 7.32821464538574218750e-01) (3, 7.71494507789611816406e-01) (4, 7.18658387660980224609e-01) (5, 8.39292705059051513672e-01) (6, 9.21814858913421630859e-01) (7, 8.08101177215576171875e-01) (8, 5.79991459846496582031e-01) (9, 5.96855819225311279297e-01) (10, 6.55018448829650878906e-01) (11, 7.08602249622344970703e-01) (12, 1.50000000000000000000e+03) (13, 1.50000000000000000000e+03) (14, 2.98633880615234375000e+02) (15, 4.42045107483863830566e-02) (16, 9.57882106304168701172e-01) (17, 7.31424152851104736328e-01) (18, 5.94470620155334472656e-01) (19, 7.76239097118377685547e-01) (20, 9.25621449947357177734e-01) (21, 2.41811603307723999023e-01) (22, 2.14315376281738281250e+01) (23, 1.50000000000000000000e+03) (24, 7.41468250751495361328e-01) (25, 9.15100395679473876953e-01) (26, 7.63415753841400146484e-01) (27, 7.26595282554626464844e-01) (28, 7.20579922199249267578e-01) (29, 8.65640819072723388672e-01) (30, 8.73386740684509277344e-01) (31, 8.53768169879913330078e-01) (32, 8.21139752864837646484e-01) (33, 9.22673404216766357422e-01) (34, 8.91618072986602783203e-01) (35, 8.60267162322998046875e-01) (36, 8.03716659545898437500e-01) (0, 1.47318847656250000000e+03) (1, 1.46984582519531250000e+03) (2, 1.49401550292968750000e+03) (3, 1.49588134765625000000e+03) (4, 1.49398596191406250000e+03) (5, 1.49588293457031250000e+03) (6, 1.48818188476562500000e+03) (7, 1.48405444335937500000e+03) (8, 1.48993676757812500000e+03) (9, 1.50000000000000000000e+03) (10, 1.50000000000000000000e+03) (11, 1.50000000000000000000e+03) (12, 1.50000000000000000000e+03) (13, 1.50000000000000000000e+03) (14, -1.33980114746093750000e+03) (15, 1.46603332519531250000e+03) (16, 1.50000000000000000000e+03) (17, 1.50000000000000000000e+03) (18, 1.49999731445312500000e+03) (19, 1.49999414062500000000e+03) (20, 1.49998828125000000000e+03) (21, 1.49820654296875000000e+03) (22, 3.76661254882812500000e+02) (23, 1.50000000000000000000e+03) (24, 1.50000000000000000000e+03) (25, 1.50000000000000000000e+03) (26, 1.50000000000000000000e+03) (27, 1.50000000000000000000e+03) (28, 1.50000000000000000000e+03) (29, 1.50000000000000000000e+03) (30, 1.50000000000000000000e+03) (31, 1.50000000000000000000e+03) (32, 1.50000000000000000000e+03) (33, 1.50000000000000000000e+03) (34, 1.50000000000000000000e+03) (35, 1.50000000000000000000e+03) (36, 1.50000000000000000000e+03) (0, 1.50000000000000000000e+03) (1, 1.50000000000000000000e+03) (2, 1.50000000000000000000e+03) (3, 1.50000000000000000000e+03) (4, 1.44014880371093750000e+03) (5, 1.50000000000000000000e+03) (6, 1.49855993652343750000e+03) (7, 1.30171386718750000000e+03) (8, 1.50000000000000000000e+03) (9, 1.50000000000000000000e+03) (10, 1.50000000000000000000e+03) (11, 1.50000000000000000000e+03) (12, 1.50000000000000000000e+03) (13, 1.50000000000000000000e+03) (14, -1.36216174316406250000e+03) (15, 1.49998815917968750000e+03) (16, 1.50000000000000000000e+03) (17, 1.50000000000000000000e+03) (18, 1.49996496582031250000e+03) (19, 1.49995776367187500000e+03) (20, 1.49697192382812500000e+03) (21, 1.50000000000000000000e+03) (22, -1.22267138671875000000e+03) (23, 1.50000000000000000000e+03) (24, 1.50000000000000000000e+03) (25, 1.50000000000000000000e+03) (26, 1.50000000000000000000e+03) (27, 1.50000000000000000000e+03) (28, 1.50000000000000000000e+03) (29, 1.50000000000000000000e+03) (30, 1.50000000000000000000e+03) (31, 1.50000000000000000000e+03) (32, 1.50000000000000000000e+03) (33, 1.50000000000000000000e+03) (34, 1.50000000000000000000e+03) (35, 1.50000000000000000000e+03) (36, 1.50000000000000000000e+03) (0, 1.06609031558036804199e-01) (1, 8.54659005999565124512e-02) (2, -2.61952523142099380493e-02) (3, -2.45373416692018508911e-02) (4, 1.21042877435684204102e-02) (5, 1.23999245464801788330e-01) (6, 2.58269794285297393799e-02) (7, 1.14643976092338562012e-01) (8, -1.12740352749824523926e-01) (9, -1.05046220123767852783e-01) (10, -2.94267777353525161743e-02) (11, -5.48477582633495330811e-02) (12, 1.50000000000000000000e+03) (13, 1.50000000000000000000e+03) (14, 9.63874664306640625000e+01) (15, -1.16428422927856445312e+00) (16, -8.74662637710571289062e-01) (17, -3.36452007293701171875e-01) (18, -1.04715123772621154785e-01) (19, -1.67420312762260437012e-01) (20, 7.12867379188537597656e-01) (21, -9.15170371532440185547e-01) (22, 6.09355224609375000000e+02) (23, 1.50000000000000000000e+03) (24, 5.96392601728439331055e-02) (25, 1.01988799870014190674e-01) (26, 8.40233489871025085449e-02) (27, 1.07361666858196258545e-01) (28, 1.85664683580398559570e-01) (29, 9.00800526142120361328e-02) (30, 2.32615292072296142578e-01) (31, 1.48948937654495239258e-01) (32, 2.17798620462417602539e-01) (33, 1.28389552235603332520e-01) (34, 2.86069214344024658203e-01) (35, 1.64670467376708984375e-01) (36, -1.00316386669874191284e-02) (0, 1.50000000000000000000e+03) (1, 1.47040405273437500000e+03) (2, 1.50000000000000000000e+03) (3, 1.50000000000000000000e+03) (4, 1.34309472656250000000e+03) (5, 1.50000000000000000000e+03) (6, 1.50000000000000000000e+03) (7, 1.50000000000000000000e+03) (8, 1.50000000000000000000e+03) (9, 1.50000000000000000000e+03) (10, 1.47977380371093750000e+03) (11, 1.27602709960937500000e+03) (12, 1.50000000000000000000e+03) (13, 1.50000000000000000000e+03) (14, 1.22998742675781250000e+03) (15, 1.50000000000000000000e+03) (16, 1.50000000000000000000e+03) (17, 1.50000000000000000000e+03) (18, 1.49999194335937500000e+03) (19, 1.50000000000000000000e+03) (20, 1.49435998535156250000e+03) (21, 1.50000000000000000000e+03) (22, -5.34371826171875000000e+02) (23, 1.50000000000000000000e+03) (24, 1.48983862304687500000e+03) (25, 1.50000000000000000000e+03) (26, 1.46176342773437500000e+03) (27, 1.43385510253906250000e+03) (28, 1.49965856933593750000e+03) (29, 1.42523156738281250000e+03) (30, 1.40853344726562500000e+03) (31, 1.38497473144531250000e+03) (32, 1.42593298339843750000e+03) (33, 1.45353393554687500000e+03) (34, 1.37574316406250000000e+03) (35, 1.50000000000000000000e+03) (36, 1.43157006835937500000e+03) (0, 8.50620940327644348145e-02) (1, 2.22346056252717971802e-02) (2, 4.89993877708911895752e-02) (3, -8.40831398963928222656e-02) (4, -1.56596794724464416504e-01) (5, 1.61338392645120620728e-02) (6, -2.68743955530226230621e-03) (7, -7.28453397750854492188e-02) (8, -1.84796657413244247437e-02) (9, 5.99523112177848815918e-02) (10, 8.68717115372419357300e-03) (11, 8.87853726744651794434e-02) (12, 1.50000000000000000000e+03) (13, 1.50000000000000000000e+03) (14, 1.44341526031494140625e+01) (15, -1.66356220841407775879e-01) (16, 4.90458905696868896484e-01) (17, 5.49824535846710205078e-02) (18, 4.56973761320114135742e-02) (19, 1.84162035584449768066e-01) (20, 5.37728548049926757812e-01) (21, -1.59250989556312561035e-01) (22, 3.52209655761718750000e+02) (23, 1.50000000000000000000e+03) (24, 2.12699949741363525391e-01) (25, 1.72274887561798095703e-01) (26, 1.06551453471183776855e-01) (27, 7.92687460780143737793e-02) (28, 1.56169548630714416504e-01) (29, 1.07612140476703643799e-01) (30, 1.99201926589012145996e-01) (31, 2.49992176890373229980e-01) (32, 1.40237480401992797852e-01) (33, 2.05028995871543884277e-01) (34, 1.34623527526855468750e-01) (35, 1.68680369853973388672e-01) (36, 1.42793416976928710938e-01) (0, 5.49364929199218750000e+02) (1, 6.73823893070220947266e-01) (2, 8.12993469238281250000e+02) (3, 1.50000000000000000000e+03) (4, 1.50000000000000000000e+03) (5, 1.50000000000000000000e+03) (6, 1.50000000000000000000e+03) (7, 1.50000000000000000000e+03) (8, 1.50000000000000000000e+03) (9, 1.50000000000000000000e+03) (10, 1.15518371582031250000e+03) (11, 1.15188208007812500000e+03) (12, 1.50000000000000000000e+03) (13, 1.50000000000000000000e+03) (14, -1.39610009765625000000e+03) (15, 1.50000000000000000000e+03) (16, 1.50000000000000000000e+03) (17, 1.50000000000000000000e+03) (18, 1.50000000000000000000e+03) (19, 1.50000000000000000000e+03) (20, 1.50000000000000000000e+03) (21, 1.50000000000000000000e+03) (22, -1.10568823242187500000e+03) (23, 1.50000000000000000000e+03) (24, 1.49294653320312500000e+03) (25, 1.48867724609375000000e+03) (26, 1.50000000000000000000e+03) (27, 1.50000000000000000000e+03) (28, 1.50000000000000000000e+03) (29, 1.50000000000000000000e+03) (30, 1.50000000000000000000e+03) (31, 1.50000000000000000000e+03) (32, 1.50000000000000000000e+03) (33, 1.50000000000000000000e+03) (34, 1.50000000000000000000e+03) (35, 1.50000000000000000000e+03) (36, 1.50000000000000000000e+03) (0, 1.50000000000000000000e+03) (1, 1.50000000000000000000e+03) (2, 1.50000000000000000000e+03) (3, 1.50000000000000000000e+03) (4, 1.50000000000000000000e+03) (5, 1.50000000000000000000e+03) (6, 1.50000000000000000000e+03) (7, 1.50000000000000000000e+03) (8, 1.50000000000000000000e+03) (9, 1.50000000000000000000e+03) (10, 1.44840844726562500000e+03) (11, 1.34484545898437500000e+03) (12, 1.50000000000000000000e+03) (13, 1.50000000000000000000e+03) (14, -1.31861401367187500000e+03) (15, 1.37844299316406250000e+03) (16, 1.50000000000000000000e+03) (17, 1.50000000000000000000e+03) (18, 1.49996936035156250000e+03) (19, 1.49998645019531250000e+03) (20, 1.31768713378906250000e+03) (21, 1.49565490722656250000e+03) (22, 1.11423291015625000000e+03) (23, 1.50000000000000000000e+03) (24, 1.49976074218750000000e+03) (25, 1.49978137207031250000e+03) (26, 1.49989941406250000000e+03) (27, 1.50000000000000000000e+03) (28, 1.50000000000000000000e+03) (29, 1.50000000000000000000e+03) (30, 1.49992272949218750000e+03) (31, 1.50000000000000000000e+03) (32, 1.50000000000000000000e+03) (33, 1.49987194824218750000e+03) (34, 1.49983508300781250000e+03) (35, 1.49984094238281250000e+03) (36, 1.50000000000000000000e+03) (0, 1.71832516789436340332e-01) (1, 8.01422894001007080078e-02) (2, 3.83367449045181274414e-01) (3, 2.45590269565582275391e-01) (4, 1.47864353656768798828e+00) (5, 1.36956125497817993164e-01) (6, -1.57883211970329284668e-01) (7, -6.35703057050704956055e-02) (8, -3.90693575143814086914e-01) (9, -3.14710170030593872070e-01) (10, 3.25871914625167846680e-01) (11, 2.23616778850555419922e-01) (12, 1.50000000000000000000e+03) (13, 1.50000000000000000000e+03) (14, -1.45929650878906250000e+03) (15, 9.51821899414062500000e+02) (16, -1.61595611572265625000e+01) (17, -9.70558822154998779297e-01) (18, 2.19196155667304992676e-01) (19, -1.49014139175415039062e+00) (20, -7.93442344665527343750e+00) (21, 1.19238574218750000000e+03) (22, -1.50000000000000000000e+03) (23, 1.50000000000000000000e+03) (24, 3.57423365116119384766e-01) (25, 3.70772510766983032227e-01) (26, 4.06651854515075683594e-01) (27, 2.43598997592926025391e-01) (28, 3.10962826013565063477e-01) (29, 3.53654623031616210938e-01) (30, 2.55620032548904418945e-01) (31, 3.71285468339920043945e-01) (32, 3.31221312284469604492e-01) (33, 4.73762929439544677734e-01) (34, 4.67809021472930908203e-01) (35, 4.29500818252563476562e-01) (36, 3.63810062408447265625e-01) (0, 5.01097217202186584473e-02) (1, 1.18295669555664062500e-01) (2, 1.53400197625160217285e-01) (3, -9.78504214435815811157e-03) (4, -7.26621747016906738281e-02) (5, 1.31145641207695007324e-01) (6, 1.52298197150230407715e-01) (7, 3.38139990344643592834e-03) (8, -4.75221201777458190918e-02) (9, 5.55311553180217742920e-02) (10, 1.53756082057952880859e-01) (11, 2.58293878287076950073e-02) (12, 1.50000000000000000000e+03) (13, 1.50000000000000000000e+03) (14, 3.89033050537109375000e+01) (15, 2.22695279121398925781e+00) (16, 6.32919445633888244629e-02) (17, -1.68787091970443725586e-01) (18, 3.68697531521320343018e-02) (19, -4.90288669243454933167e-03) (20, 1.86428934335708618164e-01) (21, 4.95476007461547851562e+00) (22, -4.56530876159667968750e+01) (23, 1.50000000000000000000e+03) (24, 2.06720039248466491699e-01) (25, 6.15412704646587371826e-02) (26, 1.05567574501037597656e-01) (27, 1.08427833765745162964e-02) (28, 1.20405800640583038330e-01) (29, 1.20693922042846679688e-01) (30, 1.20931200683116912842e-01) (31, 1.35876715183258056641e-01) (32, 1.72144696116447448730e-02) (33, 1.03156767785549163818e-01) (34, 1.57115384936332702637e-01) (35, 6.38798177242279052734e-02) (36, 2.75425538420677185059e-02) (0, 1.50000000000000000000e+03) (1, 1.41195776367187500000e+03) (2, 1.50000000000000000000e+03) (3, 1.50000000000000000000e+03) (4, 1.50000000000000000000e+03) (5, 1.50000000000000000000e+03) (6, 1.50000000000000000000e+03) (7, 1.33038378906250000000e+03) (8, 1.50000000000000000000e+03) (9, 1.50000000000000000000e+03) (10, 1.50000000000000000000e+03) (11, 1.50000000000000000000e+03) (12, 1.50000000000000000000e+03) (13, 1.50000000000000000000e+03) (14, -1.18526892089843750000e+03) (15, 1.49903283691406250000e+03) (16, 1.50000000000000000000e+03) (17, 1.50000000000000000000e+03) (18, 1.49998852539062500000e+03) (19, 1.50000000000000000000e+03) (20, 1.49933203125000000000e+03) (21, 1.50000000000000000000e+03) (22, 1.42779418945312500000e+02) (23, 1.50000000000000000000e+03) (24, 1.50000000000000000000e+03) (25, 1.50000000000000000000e+03) (26, 1.50000000000000000000e+03) (27, 1.50000000000000000000e+03) (28, 1.50000000000000000000e+03) (29, 1.50000000000000000000e+03) (30, 1.50000000000000000000e+03) (31, 1.50000000000000000000e+03) (32, 1.50000000000000000000e+03) (33, 1.50000000000000000000e+03) (34, 1.50000000000000000000e+03) (35, 1.50000000000000000000e+03) (36, 1.50000000000000000000e+03) (0, -3.53685095906257629395e-02) (1, 2.96700671315193176270e-02) (2, 2.89187803864479064941e-02) (3, 3.57543975114822387695e-02) (4, 3.59008647501468658447e-02) (5, 3.33227403461933135986e-03) (6, -9.14831832051277160645e-02) (7, 6.36396333575248718262e-02) (8, -9.88839268684387207031e-02) (9, -4.78999540209770202637e-02) (10, 5.69231621921062469482e-02) (11, -3.24175246059894561768e-02) (12, 1.50000000000000000000e+03) (13, 1.50000000000000000000e+03) (14, -3.78089294433593750000e+02) (15, -1.01337504386901855469e+00) (16, 3.12805511057376861572e-02) (17, 8.73669162392616271973e-02) (18, -1.19096171110868453979e-02) (19, 7.44228288531303405762e-02) (20, 1.41973003745079040527e-01) (21, -3.44227373600006103516e-01) (22, 1.39730499267578125000e+02) (23, 1.50000000000000000000e+03) (24, 1.13926492631435394287e-01) (25, 2.43633911013603210449e-01) (26, 2.18213722109794616699e-01) (27, 1.59783586859703063965e-01) (28, 1.95889487862586975098e-01) (29, 2.73541837930679321289e-01) (30, 2.25406840443611145020e-01) (31, 3.99161130189895629883e-02) (32, 2.34933346509933471680e-01) (33, 2.37680673599243164062e-01) (34, 3.41189324855804443359e-01) (35, 2.52635478973388671875e-01) (36, 9.30068865418434143066e-02) (0, 3.97134274244308471680e-01) (1, 6.07181191444396972656e-01) (2, 7.22989678382873535156e-01) (3, 6.45268976688385009766e-01) (4, 7.50168323516845703125e-01) (5, 7.10627794265747070312e-01) (6, 6.55674159526824951172e-01) (7, 7.11250603199005126953e-01) (8, 5.60844838619232177734e-01) (9, 5.10065555572509765625e-01) (10, 6.58539235591888427734e-01) (11, 6.71892225742340087891e-01) (12, 1.50000000000000000000e+03) (13, 1.50000000000000000000e+03) (14, 2.45988616943359375000e+02) (15, -1.54241542816162109375e+01) (16, -1.81502902507781982422e+00) (17, 7.57739692926406860352e-02) (18, -1.69068980216979980469e+00) (19, 4.13536876440048217773e-01) (20, -2.44716072082519531250e+00) (21, -1.33409442901611328125e+01) (22, 1.49999987792968750000e+03) (23, 1.50000000000000000000e+03) (24, 7.54466712474822998047e-01) (25, 8.02697479724884033203e-01) (26, 9.71591830253601074219e-01) (27, 8.70533227920532226562e-01) (28, 7.42860794067382812500e-01) (29, 8.12385022640228271484e-01) (30, 8.73570322990417480469e-01) (31, 6.25840246677398681641e-01) (32, 5.10470390319824218750e-01) (33, 6.49391591548919677734e-01) (34, 3.78227621316909790039e-01) (35, 7.75909841060638427734e-01) (36, 5.27105450630187988281e-01) (0, -1.10422588884830474854e-01) (1, 3.11469230800867080688e-02) (2, -9.44109708070755004883e-02) (3, -5.04045709967613220215e-02) (4, -8.44207853078842163086e-02) (5, -7.59558826684951782227e-02) (6, 4.85789962112903594971e-03) (7, 1.20829947292804718018e-01) (8, -4.46216948330402374268e-02) (9, -1.25365689396858215332e-01) (10, -1.20550452265888452530e-04) (11, -6.57984986901283264160e-02) (12, 1.50000000000000000000e+03) (13, 1.50000000000000000000e+03) (14, 5.11340665817260742188e+00) (15, 4.20303076505661010742e-01) (16, 4.15713161230087280273e-01) (17, -3.05073987692594528198e-02) (18, 5.41249327361583709717e-02) (19, 8.72028991580009460449e-03) (20, 6.26937508583068847656e-01) (21, 7.40308985114097595215e-02) (22, 4.44851036071777343750e+01) (23, 1.50000000000000000000e+03) (24, -2.74166874587535858154e-02) (25, 5.47496788203716278076e-02) (26, 1.47617459297180175781e-01) (27, -6.80255936458706855774e-03) (28, 1.19368083775043487549e-01) (29, 8.81460532546043395996e-02) (30, 8.47574919462203979492e-02) (31, -4.69636805355548858643e-02) (32, 5.82545138895511627197e-02) (33, 1.39390051364898681641e-01) (34, 6.86418041586875915527e-02) (35, 1.34349852800369262695e-01) (36, 1.38505116105079650879e-01) (0, -1.05043843388557434082e-01) (1, -7.65985399484634399414e-02) (2, -1.18585918098688125610e-02) (3, 1.61100998520851135254e-01) (4, -5.81887178122997283936e-02) (5, 3.01401056349277496338e-02) (6, 7.07948356866836547852e-02) (7, -3.90323102474212646484e-02) (8, -1.73957973718643188477e-01) (9, -1.15221560001373291016e-01) (10, 1.39967491850256919861e-02) (11, 1.59394353628158569336e-01) (12, 1.50000000000000000000e+03) (13, 1.50000000000000000000e+03) (14, -2.48086051940917968750e+01) (15, -7.17734873294830322266e-01) (16, -1.96511581540107727051e-01) (17, -2.52567172050476074219e-01) (18, -1.67822971940040588379e-01) (19, -2.86790698766708374023e-01) (20, -6.18687331676483154297e-01) (21, -3.78017687797546386719e+00) (22, 2.73522796630859375000e+02) (23, 1.50000000000000000000e+03) (24, -4.48047518730163574219e-02) (25, 1.50906998896971344948e-04) (26, 1.42820328474044799805e-01) (27, 1.58855244517326354980e-01) (28, 1.65371984243392944336e-01) (29, 1.22282512485980987549e-01) (30, 1.18068471550941467285e-01) (31, 6.39194920659065246582e-02) (32, 4.50951345264911651611e-02) (33, 7.24414587020874023438e-02) (34, 1.05587884783744812012e-01) (35, 1.30247741937637329102e-01) (36, 1.73135548830032348633e-01) (0, 1.41053442382812500000e+03) (1, 1.44982238769531250000e+03) (2, 1.50000000000000000000e+03) (3, 1.50000000000000000000e+03) (4, 1.50000000000000000000e+03) (5, 1.50000000000000000000e+03) (6, 1.50000000000000000000e+03) (7, 1.50000000000000000000e+03) (8, 1.50000000000000000000e+03) (9, 1.49998242187500000000e+03) (10, 1.44910583496093750000e+03) (11, 1.30194470214843750000e+03) (12, 1.50000000000000000000e+03) (13, 1.50000000000000000000e+03) (14, -3.96959106445312500000e+02) (15, 1.45252258300781250000e+03) (16, 1.50000000000000000000e+03) (17, 1.50000000000000000000e+03) (18, 1.50000000000000000000e+03) (19, 1.49998620605468750000e+03) (20, 1.50000000000000000000e+03) (21, 1.50000000000000000000e+03) (22, 4.27596527099609375000e+02) (23, 1.50000000000000000000e+03) (24, 1.50000000000000000000e+03) (25, 1.50000000000000000000e+03) (26, 1.50000000000000000000e+03) (27, 1.50000000000000000000e+03) (28, 1.50000000000000000000e+03) (29, 1.50000000000000000000e+03) (30, 1.50000000000000000000e+03) (31, 1.50000000000000000000e+03) (32, 1.50000000000000000000e+03) (33, 1.50000000000000000000e+03) (34, 1.50000000000000000000e+03) (35, 1.50000000000000000000e+03) (36, 1.50000000000000000000e+03) (0, -1.45915538072586059570e-01) (1, -1.99772521853446960449e-01) (2, -1.03433981537818908691e-01) (3, -1.03283599019050598145e-01) (4, 7.41933882236480712891e-02) (5, -1.00884065032005310059e-02) (6, -4.75356122478842735291e-03) (7, -2.04097911715507507324e-01) (8, -5.28620667755603790283e-02) (9, 1.55863994732499122620e-02) (10, 1.23965784907341003418e-01) (11, 3.49494963884353637695e-01) (12, 1.50000000000000000000e+03) (13, 1.50000000000000000000e+03) (14, 1.38954248428344726562e+01) (15, -6.44764397293329238892e-03) (16, -7.34705775976181030273e-02) (17, -4.23002272844314575195e-01) (18, -3.98086071014404296875e-01) (19, -6.03381805121898651123e-02) (20, -3.36733913421630859375e+00) (21, 5.87630844116210937500e+00) (22, -4.49246139526367187500e+01) (23, 1.50000000000000000000e+03) (24, -1.87225770205259323120e-02) (25, 6.60526230931282043457e-02) (26, 9.26604419946670532227e-02) (27, 6.09089806675910949707e-02) (28, 1.53980210423469543457e-01) (29, 1.34885743260383605957e-01) (30, 3.33299934864044189453e-02) (31, -7.70045351237058639526e-03) (32, 1.56254395842552185059e-01) (33, 1.58052012324333190918e-01) (34, 1.11391067504882812500e-01) (35, 1.68248400092124938965e-01) (36, -3.48075181245803833008e-02) (0, -1.01975421905517578125e+01) (1, 1.11581814289093017578e+00) (2, 3.48839855194091796875e+00) (3, -6.01091480255126953125e+00) (4, 6.94298565387725830078e-01) (5, 1.89894556999206542969e+00) (6, 3.01251721382141113281e+00) (7, 1.09464108943939208984e+00) (8, 1.33579838275909423828e+00) (9, 2.07126617431640625000e+00) (10, -8.81042385101318359375e+00) (11, -2.43089929223060607910e-01) (12, 1.50000000000000000000e+03) (13, 1.50000000000000000000e+03) (14, -1.53609298706054687500e+02) (15, -7.03512817382812500000e+02) (16, -1.45439501953125000000e+03) (17, 3.76449418067932128906e+00) (18, 4.50940936803817749023e-01) (19, 4.09570808410644531250e+01) (20, -1.47241174316406250000e+03) (21, 1.14730810546875000000e+03) (22, 6.14125669002532958984e-01) (23, 1.50000000000000000000e+03) (24, -3.07255119085311889648e-01) (25, 6.02170266211032867432e-02) (26, -2.10647076368331909180e-01) (27, -2.23783314228057861328e-01) (28, -2.08301350474357604980e-01) (29, -2.55592405796051025391e-01) (30, -1.27435345202684402466e-02) (31, -9.48683843016624450684e-02) (32, -3.27783405780792236328e-01) (33, -3.05288553237915039062e-01) (34, -1.66450291872024536133e-01) (35, -2.30569779872894287109e-01) (36, -1.86240896582603454590e-01) (0, 1.50000000000000000000e+03) (1, 1.50000000000000000000e+03) (2, 1.50000000000000000000e+03) (3, 1.50000000000000000000e+03) (4, 1.50000000000000000000e+03) (5, 1.50000000000000000000e+03) (6, 1.50000000000000000000e+03) (7, 1.50000000000000000000e+03) (8, 1.50000000000000000000e+03) (9, 1.50000000000000000000e+03) (10, 1.27848754882812500000e+03) (11, 1.31130761718750000000e+03) (12, 1.50000000000000000000e+03) (13, 1.50000000000000000000e+03) (14, -1.47423559570312500000e+03) (15, 1.50000000000000000000e+03) (16, 1.50000000000000000000e+03) (17, 1.50000000000000000000e+03) (18, 1.50000000000000000000e+03) (19, 1.50000000000000000000e+03) (20, 1.50000000000000000000e+03) (21, 1.50000000000000000000e+03) (22, -3.39114898681640625000e+02) (23, 1.50000000000000000000e+03) (24, 1.49790051269531250000e+03) (25, 1.50000000000000000000e+03) (26, 1.50000000000000000000e+03) (27, 1.50000000000000000000e+03) (28, 1.50000000000000000000e+03) (29, 1.50000000000000000000e+03) (30, 1.50000000000000000000e+03) (31, 1.50000000000000000000e+03) (32, 1.50000000000000000000e+03) (33, 1.50000000000000000000e+03) (34, 1.50000000000000000000e+03) (35, 1.49963305664062500000e+03) (36, 1.50000000000000000000e+03) (0, 1.28214806318283081055e-01) (1, 2.27089345455169677734e-01) (2, 6.18650764226913452148e-02) (3, 6.46406458690762519836e-03) (4, 9.07424464821815490723e-02) (5, 1.22374959290027618408e-01) (6, 3.22400219738483428955e-02) (7, 5.69934174418449401855e-02) (8, -2.11370233446359634399e-02) (9, -1.12442495301365852356e-02) (10, 1.63729429244995117188e-01) (11, 1.12116627395153045654e-01) (12, 1.50000000000000000000e+03) (13, 1.50000000000000000000e+03) (14, 1.25810583496093750000e+03) (15, -2.89287853240966796875e+01) (16, -2.47044954448938369751e-02) (17, 4.11587446928024291992e-01) (18, 6.08683705329895019531e-01) (19, 5.46650707721710205078e-01) (20, 5.74795722961425781250e-01) (21, -5.58259665966033935547e-01) (22, 4.48470855712890625000e+02) (23, 1.50000000000000000000e+03) (24, 1.68137237429618835449e-01) (25, 3.73698204755783081055e-01) (26, 3.45138043165206909180e-01) (27, 3.05582374334335327148e-01) (28, 3.15565317869186401367e-01) (29, 4.04686361551284790039e-01) (30, 3.20004403591156005859e-01) (31, 3.00339996814727783203e-01) (32, 2.76516646146774291992e-01) (33, 4.66600447893142700195e-01) (34, 4.28881853818893432617e-01) (35, 4.45565342903137207031e-01) (36, 3.09156388044357299805e-01) (0, 1.37648535156250000000e+03) (1, 1.38302905273437500000e+03) (2, 1.50000000000000000000e+03) (3, 1.50000000000000000000e+03) (4, 1.50000000000000000000e+03) (5, 1.50000000000000000000e+03) (6, 1.47126989746093750000e+03) (7, 1.47024572753906250000e+03) (8, 1.49328015136718750000e+03) (9, 1.50000000000000000000e+03) (10, 1.50000000000000000000e+03) (11, 1.50000000000000000000e+03) (12, 1.50000000000000000000e+03) (13, 1.50000000000000000000e+03) (14, -1.35434497070312500000e+03) (15, 1.37920654296875000000e+03) (16, 1.50000000000000000000e+03) (17, 1.50000000000000000000e+03) (18, 1.49999841308593750000e+03) (19, 1.50000000000000000000e+03) (20, 1.49974353027343750000e+03) (21, 1.49898168945312500000e+03) (22, 3.63622360229492187500e+01) (23, 1.50000000000000000000e+03) (24, 1.50000000000000000000e+03) (25, 1.50000000000000000000e+03) (26, 1.50000000000000000000e+03) (27, 1.50000000000000000000e+03) (28, 1.50000000000000000000e+03) (29, 1.50000000000000000000e+03) (30, 1.50000000000000000000e+03) (31, 1.50000000000000000000e+03) (32, 1.50000000000000000000e+03) (33, 1.50000000000000000000e+03) (34, 1.50000000000000000000e+03) (35, 1.50000000000000000000e+03) (36, 1.50000000000000000000e+03) (0, 1.40452623367309570312e-01) (1, 3.15420836210250854492e-01) (2, 2.72802174091339111328e-01) (3, 2.59958982467651367188e-01) (4, 2.41886377334594726562e-01) (5, 1.02201901376247406006e-01) (6, 2.38460585474967956543e-01) (7, 3.87742519378662109375e-01) (8, 7.98871368169784545898e-02) (9, 2.66593962907791137695e-01) (10, -6.01880908012390136719e-01) (11, 3.28233271837234497070e-01) (12, 1.50000000000000000000e+03) (13, 1.50000000000000000000e+03) (14, 8.61981868743896484375e+00) (15, 2.03621029853820800781e+00) (16, 2.18411520123481750488e-01) (17, 4.21550810337066650391e-01) (18, 3.39715898036956787109e-01) (19, 2.48873725533485412598e-01) (20, 7.66013860702514648438e-01) (21, -4.72335487604141235352e-01) (22, -3.61293273925781250000e+02) (23, 1.50000000000000000000e+03) (24, -7.80816674232482910156e-02) (25, -4.28959466516971588135e-02) (26, -1.18920214474201202393e-01) (27, 1.88954070210456848145e-01) (28, -1.58121753484010696411e-02) (29, -5.90573251247406005859e-03) (30, 1.41471490263938903809e-01) (31, 2.87154987454414367676e-02) (32, -6.06984272599220275879e-02) (33, 1.08318395912647247314e-01) (34, -1.25870294868946075439e-02) (35, 8.05063266307115554810e-03) (36, -3.27250331640243530273e-01) (0, 1.50000000000000000000e+03) (1, 7.60949340820312500000e+02) (2, 1.50000000000000000000e+03) (3, 1.50000000000000000000e+03) (4, 1.50000000000000000000e+03) (5, 1.50000000000000000000e+03) (6, 1.50000000000000000000e+03) (7, 1.50000000000000000000e+03) (8, 1.50000000000000000000e+03) (9, 1.50000000000000000000e+03) (10, 1.49513720703125000000e+03) (11, 1.39861389160156250000e+03) (12, 1.50000000000000000000e+03) (13, 1.50000000000000000000e+03) (14, -1.49021289062500000000e+03) (15, 1.50000000000000000000e+03) (16, 1.50000000000000000000e+03) (17, 1.49966784667968750000e+03) (18, 1.50000000000000000000e+03) (19, 1.49890417480468750000e+03) (20, 1.50000000000000000000e+03) (21, 1.50000000000000000000e+03) (22, 9.33403778076171875000e+00) (23, 1.50000000000000000000e+03) (24, 1.50000000000000000000e+03) (25, 1.50000000000000000000e+03) (26, 1.50000000000000000000e+03) (27, 1.50000000000000000000e+03) (28, 1.50000000000000000000e+03) (29, 1.50000000000000000000e+03) (30, 1.50000000000000000000e+03) (31, 1.50000000000000000000e+03) (32, 1.50000000000000000000e+03) (33, 1.50000000000000000000e+03) (34, 1.50000000000000000000e+03) (35, 1.50000000000000000000e+03) (36, 1.50000000000000000000e+03) (0, 1.48009875488281250000e+03) (1, 1.47550842285156250000e+03) (2, 1.49866345214843750000e+03) (3, 1.50000000000000000000e+03) (4, 1.50000000000000000000e+03) (5, 1.50000000000000000000e+03) (6, 1.50000000000000000000e+03) (7, 1.42633972167968750000e+03) (8, 1.49964367675781250000e+03) (9, 1.50000000000000000000e+03) (10, 1.50000000000000000000e+03) (11, 1.50000000000000000000e+03) (12, 1.50000000000000000000e+03) (13, 1.50000000000000000000e+03) (14, 4.38601470947265625000e+02) (15, 1.50000000000000000000e+03) (16, 1.50000000000000000000e+03) (17, 1.50000000000000000000e+03) (18, 1.50000000000000000000e+03) (19, 1.50000000000000000000e+03) (20, 1.49945886230468750000e+03) (21, 1.50000000000000000000e+03) (22, -9.51998352050781250000e+02) (23, 1.50000000000000000000e+03) (24, 1.50000000000000000000e+03) (25, 1.50000000000000000000e+03) (26, 1.50000000000000000000e+03) (27, 1.50000000000000000000e+03) (28, 1.50000000000000000000e+03) (29, 1.50000000000000000000e+03) (30, 1.50000000000000000000e+03) (31, 1.50000000000000000000e+03) (32, 1.50000000000000000000e+03) (33, 1.50000000000000000000e+03) (34, 1.50000000000000000000e+03) (35, 1.50000000000000000000e+03) (36, 1.50000000000000000000e+03) (0, 5.00783622264862060547e-01) (1, 7.42525398731231689453e-01) (2, 6.41205251216888427734e-01) (3, 6.75891101360321044922e-01) (4, 6.39419853687286376953e-01) (5, 7.93616473674774169922e-01) (6, 6.61766767501831054688e-01) (7, 6.40465676784515380859e-01) (8, 5.89274764060974121094e-01) (9, 5.63293278217315673828e-01) (10, 4.34678733348846435547e-01) (11, 6.95300638675689697266e-01) (12, 1.50000000000000000000e+03) (13, 1.50000000000000000000e+03) (14, -5.73504676818847656250e+01) (15, -8.43395805358886718750e+00) (16, -9.47252452373504638672e-01) (17, 2.00149506330490112305e-01) (18, -2.98798274993896484375e+00) (19, -3.66471335291862487793e-02) (20, -1.97165477275848388672e+00) (21, -1.34491996765136718750e+01) (22, 1.50000000000000000000e+03) (23, 1.50000000000000000000e+03) (24, 8.17277789115905761719e-01) (25, 9.25694465637207031250e-01) (26, 8.47742855548858642578e-01) (27, 8.46472620964050292969e-01) (28, 8.82086753845214843750e-01) (29, 8.22795987129211425781e-01) (30, 7.65279054641723632812e-01) (31, 7.67702043056488037109e-01) (32, 5.11918365955352783203e-01) (33, 7.02346980571746826172e-01) (34, 6.13103926181793212891e-01) (35, 7.89729654788970947266e-01) (36, 4.75714296102523803711e-01) (0, 1.50000000000000000000e+03) (1, 1.50000000000000000000e+03) (2, 1.47565625000000000000e+03) (3, 1.50000000000000000000e+03) (4, 1.48772595214843750000e+03) (5, 1.50000000000000000000e+03) (6, 1.50000000000000000000e+03) (7, 1.50000000000000000000e+03) (8, 1.50000000000000000000e+03) (9, 1.50000000000000000000e+03) (10, 1.42087268066406250000e+03) (11, 1.27511669921875000000e+03) (12, 1.50000000000000000000e+03) (13, 1.50000000000000000000e+03) (14, -8.66661743164062500000e+02) (15, 1.50000000000000000000e+03) (16, 1.50000000000000000000e+03) (17, 1.50000000000000000000e+03) (18, 1.49999145507812500000e+03) (19, 1.50000000000000000000e+03) (20, 1.49996765136718750000e+03) (21, 1.50000000000000000000e+03) (22, 2.82407035827636718750e+01) (23, 1.50000000000000000000e+03) (24, 1.50000000000000000000e+03) (25, 1.50000000000000000000e+03) (26, 1.50000000000000000000e+03) (27, 1.50000000000000000000e+03) (28, 1.50000000000000000000e+03) (29, 1.50000000000000000000e+03) (30, 1.50000000000000000000e+03) (31, 1.50000000000000000000e+03) (32, 1.50000000000000000000e+03) (33, 1.50000000000000000000e+03) (34, 1.50000000000000000000e+03) (35, 1.50000000000000000000e+03) (36, 1.50000000000000000000e+03) (0, 7.99087047576904296875e-01) (1, 9.60724949836730957031e-01) (2, 7.70764648914337158203e-01) (3, 9.52175259590148925781e-01) (4, 1.16830563545227050781e+00) (5, 1.34496819972991943359e+00) (6, 2.65245723724365234375e+00) (7, 4.42380523681640625000e+00) (8, -2.05029273033142089844e+00) (9, 2.75399684906005859375e-01) (10, 2.79767036437988281250e+00) (11, 4.23926687240600585938e+00) (12, 1.50000000000000000000e+03) (13, 1.50000000000000000000e+03) (14, -1.30388220214843750000e+03) (15, -1.02649402618408203125e+01) (16, -7.67689406871795654297e-01) (17, 4.23094421625137329102e-01) (18, 2.31935992836952209473e-01) (19, 5.07434725761413574219e-01) (20, 8.84787750244140625000e+00) (21, 1.86707935333251953125e+01) (22, -1.31531250000000000000e+03) (23, 1.50000000000000000000e+03) (24, 6.57589018344879150391e-01) (25, 6.79570853710174560547e-01) (26, 7.06786096096038818359e-01) (27, 7.87035942077636718750e-01) (28, 7.94924974441528320312e-01) (29, 7.53600895404815673828e-01) (30, 7.62110412120819091797e-01) (31, 6.72117650508880615234e-01) (32, 1.12153716385364532471e-01) (33, 7.92312562465667724609e-01) (34, 6.18931233882904052734e-01) (35, 6.99560463428497314453e-01) (36, 1.33806765079498291016e-01) (0, 7.53686487674713134766e-01) (1, 5.53995251655578613281e-01) (2, 7.32186794281005859375e-01) (3, 4.92270082235336303711e-01) (4, 5.13639271259307861328e-01) (5, 4.43655461072921752930e-01) (6, 5.17533421516418457031e-01) (7, 4.90996867418289184570e-01) (8, 3.96836966276168823242e-01) (9, 4.98284429311752319336e-01) (10, 4.03472125530242919922e-01) (11, 8.13640534877777099609e-01) (12, 1.50000000000000000000e+03) (13, 1.50000000000000000000e+03) (14, 1.83956665039062500000e+02) (15, -3.90346527099609375000e+00) (16, 1.22164234519004821777e-01) (17, 5.51987946033477783203e-01) (18, -7.53945052623748779297e-01) (19, 4.97278332710266113281e-01) (20, 5.45749247074127197266e-01) (21, -4.16788482666015625000e+01) (22, 1.43077929687500000000e+03) (23, 1.50000000000000000000e+03) (24, 4.19648408889770507812e-01) (25, 4.09207552671432495117e-01) (26, 5.75003862380981445312e-01) (27, 5.13976931571960449219e-01) (28, 3.58829498291015625000e-01) (29, 3.78128826618194580078e-01) (30, 4.13860112428665161133e-01) (31, 5.15800952911376953125e-01) (32, 3.61177951097488403320e-01) (33, 5.82720935344696044922e-01) (34, 4.10059690475463867188e-01) (35, 5.23546755313873291016e-01) (36, 3.35083991289138793945e-01) (0, -9.61152091622352600098e-03) (1, 1.65104016661643981934e-01) (2, 5.82827702164649963379e-02) (3, 1.51792675256729125977e-01) (4, 1.13803572952747344971e-01) (5, 1.13959247246384620667e-02) (6, 1.85388118028640747070e-01) (7, 6.63676261901855468750e-02) (8, 1.07611075043678283691e-01) (9, 5.85250742733478546143e-02) (10, 2.20439378172159194946e-02) (11, 1.90749853849411010742e-01) (12, 1.50000000000000000000e+03) (13, 1.50000000000000000000e+03) (14, -3.04402995109558105469e+00) (15, -1.88202524185180664062e+00) (16, 1.18462078273296356201e-01) (17, 2.74061143398284912109e-01) (18, 4.01863977313041687012e-02) (19, 2.23651945590972900391e-01) (20, 3.40245991945266723633e-01) (21, -7.37797677516937255859e-01) (22, 5.63720031738281250000e+02) (23, 1.50000000000000000000e+03) (24, 1.37704491615295410156e-01) (25, 1.26954197883605957031e-01) (26, 1.22257068753242492676e-01) (27, 1.52198120951652526855e-01) (28, 1.30985304713249206543e-01) (29, 2.34356701374053955078e-01) (30, 1.67265191674232482910e-01) (31, 1.73358410596847534180e-01) (32, 1.85831353068351745605e-01) (33, 3.17468196153640747070e-01) (34, 2.44803041219711303711e-01) (35, 1.47129982709884643555e-01) (36, 1.25751540064811706543e-01) (0, 1.24581491947174072266e+00) (1, 1.31836688518524169922e+00) (2, 1.14981818199157714844e+00) (3, 1.14939653873443603516e+00) (4, 1.25469648838043212891e+00) (5, 9.89043772220611572266e-01) (6, 9.35191392898559570312e-01) (7, 7.83809065818786621094e-01) (8, 7.78014302253723144531e-01) (9, 1.00926804542541503906e+00) (10, 9.39299285411834716797e-01) (11, 1.09119606018066406250e+00) (12, 1.50000000000000000000e+03) (13, 1.50000000000000000000e+03) (14, 9.32962951660156250000e+02) (15, -3.16793060302734375000e+01) (16, 1.17765531539916992188e+01) (17, 2.70221352577209472656e+00) (18, 1.82694315910339355469e+00) (19, 1.12193453311920166016e+00) (20, 6.64936685562133789062e+00) (21, -3.33463439941406250000e+01) (22, 2.38889907836914062500e+02) (23, 1.50000000000000000000e+03) (24, 3.66669237613677978516e-01) (25, 4.69763696193695068359e-01) (26, 4.08640891313552856445e-01) (27, 5.69886684417724609375e-01) (28, 4.08498287200927734375e-01) (29, 5.40095925331115722656e-01) (30, 5.04364192485809326172e-01) (31, 4.20247972011566162109e-01) (32, 3.88210922479629516602e-01) (33, 3.56180876493453979492e-01) (34, 4.00528162717819213867e-01) (35, 3.68578284978866577148e-01) (36, 5.06321370601654052734e-01) (0, -1.04963123798370361328e-01) (1, -2.71438844501972198486e-02) (2, -8.25567170977592468262e-02) (3, -7.52992480993270874023e-02) (4, -9.48986969888210296631e-04) (5, -1.04224503040313720703e-01) (6, -2.11966712959110736847e-03) (7, -3.57675179839134216309e-02) (8, -7.76534453034400939941e-02) (9, 1.56091585755348205566e-01) (10, 1.59690272994339466095e-03) (11, 1.63383394479751586914e-01) (12, 1.50000000000000000000e+03) (13, 1.50000000000000000000e+03) (14, -1.08454742431640625000e+02) (15, -5.13020753860473632812e-01) (16, 7.41402879357337951660e-02) (17, 3.39334130287170410156e-01) (18, 3.10308873653411865234e-01) (19, 3.24536770582199096680e-01) (20, 2.23835304379463195801e-01) (21, -1.46433222293853759766e+00) (22, 8.79896423339843750000e+02) (23, 1.50000000000000000000e+03) (24, 1.91449299454689025879e-01) (25, 1.34867802262306213379e-01) (26, 2.94227570295333862305e-01) (27, 1.42632842063903808594e-01) (28, 3.99260073900222778320e-01) (29, 2.91234314441680908203e-01) (30, 3.21418374776840209961e-01) (31, 4.47275966405868530273e-01) (32, 3.71620893478393554688e-01) (33, 3.82837414741516113281e-01) (34, 2.90477454662322998047e-01) (35, 1.83160498738288879395e-01) (36, 3.73849481344223022461e-01) (0, 2.78850746154785156250e+01) (1, 9.54830245971679687500e+01) (2, 1.27829429626464843750e+02) (3, 7.72648286819458007812e+00) (4, 3.02533674240112304688e+00) (5, -3.16678562164306640625e+01) (6, -1.13542883300781250000e+03) (7, -1.66926284790039062500e+02) (8, 4.40570907592773437500e+01) (9, -2.18382511138916015625e+01) (10, 1.06008007812500000000e+03) (11, 2.48189758300781250000e+02) (12, 1.50000000000000000000e+03) (13, 1.50000000000000000000e+03) (14, 1.47967614746093750000e+03) (15, 1.48996228027343750000e+03) (16, 1.49999987792968750000e+03) (17, 1.49999987792968750000e+03) (18, 1.49999987792968750000e+03) (19, 6.22698783874511718750e+00) (20, 1.50000000000000000000e+03) (21, -9.75485778808593750000e+02) (22, 1.47320654296875000000e+03) (23, 1.50000000000000000000e+03) (24, 5.59099495410919189453e-01) (25, 5.95881700515747070312e-01) (26, 5.22791504859924316406e-01) (27, 7.07724392414093017578e-01) (28, 1.86835348606109619141e+00) (29, 6.03190481662750244141e-01) (30, 1.11691784858703613281e+00) (31, 8.15575301647186279297e-01) (32, 8.85447978973388671875e-01) (33, 3.99096935987472534180e-01) (34, 7.64271676540374755859e-01) (35, 5.64227521419525146484e-01) (36, 6.73087358474731445312e-01) (0, 8.88840667903423309326e-03) (1, 8.48842263221740722656e-02) (2, -1.79761368781328201294e-02) (3, 7.27758929133415222168e-03) (4, -1.85532048344612121582e-02) (5, -1.40569172799587249756e-02) (6, 1.35925143957138061523e-01) (7, 1.67836487293243408203e-01) (8, 9.02337804436683654785e-02) (9, 1.35016307234764099121e-01) (10, 4.49282079935073852539e-02) (11, 1.64154127240180969238e-01) (12, 1.50000000000000000000e+03) (13, 1.50000000000000000000e+03) (14, 1.68881797790527343750e+01) (15, -9.40074503421783447266e-01) (16, 1.34591788053512573242e-01) (17, 5.45531883835792541504e-02) (18, 3.76849435269832611084e-02) (19, 1.53139904141426086426e-01) (20, 1.66614294052124023438e-01) (21, -4.83098506927490234375e-01) (22, 2.55682891845703125000e+02) (23, 1.50000000000000000000e+03) (24, 1.57207131385803222656e-01) (25, 1.20599925518035888672e-01) (26, 6.51577040553092956543e-02) (27, 1.89242154359817504883e-01) (28, 1.21952682733535766602e-01) (29, 1.56570374965667724609e-01) (30, 1.17561683058738708496e-01) (31, 8.71973782777786254883e-02) (32, 1.13307528197765350342e-01) (33, 1.68657109141349792480e-01) (34, 2.00901940464973449707e-01) (35, 2.38958671689033508301e-01) (36, 1.99148692190647125244e-02) (0, 9.01312589645385742188e-01) (1, 6.32815778255462646484e-01) (2, 9.34818446636199951172e-01) (3, 8.81589889526367187500e-01) (4, 7.33806967735290527344e-01) (5, 7.01837956905364990234e-01) (6, 2.81903743743896484375e-01) (7, -1.39603661373257637024e-02) (8, 8.08603405952453613281e-01) (9, 2.11369729042053222656e+00) (10, 3.60459756851196289062e+00) (11, 6.12309336662292480469e-01) (12, 1.50000000000000000000e+03) (13, 1.50000000000000000000e+03) (14, -6.68557983398437500000e+02) (15, 1.68255119323730468750e+01) (16, -3.18023228645324707031e+00) (17, 4.82065737247467041016e-01) (18, -1.01404390335083007812e+01) (19, -7.58407041430473327637e-02) (20, -8.71306514739990234375e+00) (21, 3.49083328247070312500e+01) (22, -1.16731201171875000000e+03) (23, 1.50000000000000000000e+03) (24, 1.45626997947692871094e+00) (25, 1.27862262725830078125e+00) (26, 1.01308321952819824219e+00) (27, -2.69302994012832641602e-01) (28, 1.33136463165283203125e+00) (29, 1.14945244789123535156e+00) (30, 1.11504042148590087891e+00) (31, 1.16150987148284912109e+00) (32, 1.24181866645812988281e+00) (33, 1.16349494457244873047e+00) (34, 1.05993902683258056641e+00) (35, 9.65326726436614990234e-01) (36, 5.61290800571441650391e-01) (0, 8.95028710365295410156e-02) (1, 3.00503671169281005859e-01) (2, 3.05141925811767578125e-01) (3, 3.16485553979873657227e-01) (4, 1.43775284290313720703e-01) (5, 1.96416139602661132812e-01) (6, 3.47183078527450561523e-01) (7, 2.60663568973541259766e-01) (8, 1.89655750989913940430e-01) (9, 4.51681643724441528320e-01) (10, 5.41867136955261230469e-01) (11, 6.33647143840789794922e-01) (12, 1.50000000000000000000e+03) (13, 1.50000000000000000000e+03) (14, 1.22710609436035156250e+01) (15, 1.03141174316406250000e+03) (16, 5.94698727130889892578e-01) (17, 8.02693665027618408203e-01) (18, 7.89346754550933837891e-01) (19, 8.21996808052062988281e-01) (20, 6.01815998554229736328e-01) (21, 2.77364420890808105469e+00) (22, 5.16445190429687500000e+02) (23, 1.50000000000000000000e+03) (24, 5.37682116031646728516e-01) (25, 7.38711476325988769531e-01) (26, 6.44542753696441650391e-01) (27, 6.25648200511932373047e-01) (28, 7.03836679458618164062e-01) (29, 6.78332567214965820312e-01) (30, 7.54356086254119873047e-01) (31, 7.16551601886749267578e-01) (32, 6.27158045768737792969e-01) (33, 7.28514969348907470703e-01) (34, 7.10424363613128662109e-01) (35, 6.64025247097015380859e-01) (36, 7.87726819515228271484e-01) (0, 1.60763815045356750488e-01) (1, 6.92188799381256103516e-01) (2, 1.97483509778976440430e-01) (3, -2.68964797258377075195e-01) (4, -2.21517488360404968262e-01) (5, -7.73175358772277832031e-02) (6, 3.00651848316192626953e-01) (7, -4.11275446414947509766e-01) (8, -2.39675939083099365234e-01) (9, -1.42533433437347412109e+00) (10, -9.33801755309104919434e-02) (11, -3.20733606815338134766e-01) (12, 1.50000000000000000000e+03) (13, 1.50000000000000000000e+03) (14, 6.76084045410156250000e+02) (15, -3.39406661987304687500e+01) (16, 5.17672014236450195312e+00) (17, -1.63407659530639648438e+00) (18, 7.97706305980682373047e-01) (19, 8.92487168312072753906e-01) (20, 3.27783727645874023438e+00) (21, -9.24177932739257812500e+00) (22, 1.39777160644531250000e+02) (23, 1.50000000000000000000e+03) (24, 2.63922303915023803711e-01) (25, 3.81429880857467651367e-01) (26, 1.97306573390960693359e-01) (27, 2.63151705265045166016e-01) (28, 6.42197608947753906250e-01) (29, 3.76742064952850341797e-01) (30, 3.40451538562774658203e-01) (31, 3.35984796285629272461e-01) (32, 2.84544438123703002930e-01) (33, 2.76658505201339721680e-01) (34, 3.81390929222106933594e-01) (35, -3.79040122032165527344e-01) (36, -1.43338471651077270508e-01) (0, 6.10571503639221191406e-01) (1, 5.91858506202697753906e-01) (2, 5.60145139694213867188e-01) (3, 3.67799758911132812500e-01) (4, 4.69749957323074340820e-01) (5, 5.35945117473602294922e-01) (6, 6.36785984039306640625e-01) (7, 4.84629809856414794922e-01) (8, 4.29177433252334594727e-01) (9, 3.19936513900756835938e-01) (10, 4.24401640892028808594e-01) (11, 3.97859096527099609375e-01) (12, 1.50000000000000000000e+03) (13, 1.50000000000000000000e+03) (14, 2.13387847900390625000e+02) (15, -1.16321372985839843750e+00) (16, 5.38912057876586914062e-01) (17, 7.13836550712585449219e-01) (18, 6.32797956466674804688e-01) (19, 6.15655422210693359375e-01) (20, 4.02072578668594360352e-01) (21, -1.82440066337585449219e+00) (22, 7.12126037597656250000e+02) (23, 1.50000000000000000000e+03) (24, 5.19091784954071044922e-01) (25, 6.87285304069519042969e-01) (26, 6.00616574287414550781e-01) (27, 6.46401703357696533203e-01) (28, 6.96362793445587158203e-01) (29, 7.28123724460601806641e-01) (30, 6.09293222427368164062e-01) (31, 6.54383003711700439453e-01) (32, 6.39637708663940429688e-01) (33, 7.48785197734832763672e-01) (34, 7.32709348201751708984e-01) (35, 7.15776383876800537109e-01) (36, 4.97364431619644165039e-01) (0, -6.27145245671272277832e-02) (1, -1.33961439132690429688e-01) (2, 1.61047860980033874512e-01) (3, -6.90314620733261108398e-02) (4, 4.10092156380414962769e-03) (5, 1.13309882581233978271e-01) (6, 1.55141755938529968262e-01) (7, 1.86329316347837448120e-02) (8, 1.89822047948837280273e-01) (9, 2.80569139868021011353e-02) (10, -3.25267836451530456543e-02) (11, 3.54330688714981079102e-02) (12, 1.50000000000000000000e+03) (13, 1.50000000000000000000e+03) (14, 5.51731224060058593750e+01) (15, -8.65032434463500976562e-01) (16, 1.35984525084495544434e-01) (17, -1.36186378076672554016e-02) (18, 1.21617121621966362000e-02) (19, 3.32476869225502014160e-02) (20, 3.54533672332763671875e-01) (21, 7.94778704643249511719e-01) (22, 1.59863159179687500000e+02) (23, 1.50000000000000000000e+03) (24, 1.91213846206665039062e-01) (25, 2.65482664108276367188e-01) (26, 1.68544217944145202637e-01) (27, 4.32778261601924896240e-02) (28, 2.14940309524536132812e-01) (29, 1.82456120848655700684e-01) (30, 1.11085511744022369385e-01) (31, 2.22655355930328369141e-01) (32, 9.50275063514709472656e-02) (33, 1.37149259448051452637e-01) (34, 2.77233481407165527344e-01) (35, 2.38337278366088867188e-01) (36, 5.09543381631374359131e-02) (0, 5.30257821083068847656e-01) (1, 5.17745375633239746094e-01) (2, 4.50660467147827148438e-01) (3, 6.55580461025238037109e-01) (4, 5.57178258895874023438e-01) (5, 8.47226142883300781250e-01) (6, 9.54606115818023681641e-01) (7, 5.54935216903686523438e-01) (8, 1.06320989131927490234e+00) (9, 5.77980339527130126953e-01) (10, 2.45404624938964843750e+00) (11, 5.34481287002563476562e+00) (12, 1.50000000000000000000e+03) (13, 1.50000000000000000000e+03) (14, 8.64612487792968750000e+02) (15, 1.49795532226562500000e+03) (16, -1.22128343582153320312e+01) (17, 1.26124829053878784180e-01) (18, 2.31383875012397766113e-01) (19, -2.32192211151123046875e+01) (20, -1.16382341384887695312e+01) (21, -6.19626647949218750000e+02) (22, 1.15808093261718750000e+03) (23, 1.50000000000000000000e+03) (24, 2.12294310331344604492e-01) (25, 1.61626502871513366699e-01) (26, 1.60941615700721740723e-01) (27, 3.38810473680496215820e-01) (28, 1.58561602234840393066e-01) (29, 3.48813325166702270508e-01) (30, 1.84599369764328002930e-01) (31, 2.90528774261474609375e-01) (32, 2.34657377004623413086e-01) (33, 1.83318018913269042969e-01) (34, 2.65406578779220581055e-01) (35, 1.39565467834472656250e-01) (36, 9.11455303430557250977e-02) (0, 1.70339047908782958984e-01) (1, 1.44905224442481994629e-01) (2, 3.23039233684539794922e-01) (3, 2.68381506204605102539e-01) (4, 2.01632410287857055664e-01) (5, 2.25439742207527160645e-01) (6, 2.90760964155197143555e-01) (7, 3.69828701019287109375e-01) (8, 2.13799327611923217773e-01) (9, 3.99692147970199584961e-01) (10, 3.82413417100906372070e-01) (11, 5.98759472370147705078e-01) (12, 1.50000000000000000000e+03) (13, 1.50000000000000000000e+03) (14, 1.29836938476562500000e+03) (15, 1.40884863281250000000e+03) (16, 1.02008187770843505859e+00) (17, 6.53071165084838867188e-01) (18, 6.70919597148895263672e-01) (19, 7.27991878986358642578e-01) (20, 9.46286797523498535156e-01) (21, 2.34476256370544433594e+00) (22, 5.57713928222656250000e+02) (23, 1.50000000000000000000e+03) (24, 6.06521368026733398438e-01) (25, 6.38678550720214843750e-01) (26, 7.18988955020904541016e-01) (27, 7.34478473663330078125e-01) (28, 6.33195161819458007812e-01) (29, 7.78953254222869873047e-01) (30, 7.49135792255401611328e-01) (31, 7.30852484703063964844e-01) (32, 7.82953977584838867188e-01) (33, 7.11149394512176513672e-01) (34, 6.32870852947235107422e-01) (35, 6.83355152606964111328e-01) (36, 7.18930542469024658203e-01) (0, 1.50000000000000000000e+03) (1, 1.50000000000000000000e+03) (2, 1.50000000000000000000e+03) (3, 3.96820770263671875000e+02) (4, 7.39643005371093750000e+02) (5, 1.50000000000000000000e+03) (6, 1.50000000000000000000e+03) (7, 1.11700988769531250000e+03) (8, 1.50000000000000000000e+03) (9, 1.50000000000000000000e+03) (10, 1.50000000000000000000e+03) (11, 1.46475402832031250000e+03) (12, 1.50000000000000000000e+03) (13, 1.50000000000000000000e+03) (14, -1.50000000000000000000e+03) (15, 1.49628002929687500000e+03) (16, 1.50000000000000000000e+03) (17, 1.50000000000000000000e+03) (18, 1.49998901367187500000e+03) (19, 1.50000000000000000000e+03) (20, 1.50000000000000000000e+03) (21, 1.50000000000000000000e+03) (22, -1.50000000000000000000e+03) (23, 1.50000000000000000000e+03) (24, 1.49890295410156250000e+03) (25, 1.50000000000000000000e+03) (26, 1.50000000000000000000e+03) (27, 1.50000000000000000000e+03) (28, 1.50000000000000000000e+03) (29, 1.50000000000000000000e+03) (30, 